#ifndef WEIGHTS_H
#define WEIGHTS_H

#include <cstdint>
typedef float float32_t;

// conv1d weights and biases
float32_t conv1d_kernel[3][1][16] = {-0.06881228, 0.137907, -0.06463432, -0.005873114, 0.38708448, 0.3248436, 0.07800791, -0.21178281, 0.39726192, -0.29528278, 0.19973077, 0.03908426, -0.386146, 0.33534676, -0.3023572, -0.23554415, -0.26421642, -0.15701708, 0.2335324, 0.14660072, 0.17311834, 0.32291886, -0.23346718, -0.3711454, -0.112384066, 0.007833416, 0.17183492, -0.0056384187, -0.15482639, -0.06712303, 0.19817537, -0.02018136, -0.13735186, -0.24185774, 0.19070862, -0.25650096, 0.21329771, -0.0030146285, 0.25596613, 0.1265192, 0.20768836, 0.076241896, -0.31471977, 0.26683313, -0.2693179, -0.1548066, -0.087483115, 0.1976065};

float32_t conv1d_bias[16] = {-0.017938698, 0.0013148107, 0.05078528, 0.02457688, -0.027203163, 0.022717042, 0.017294224, 0.036517672, -0.033429924, 0.008614779, 0.017623674, -0.060666986, 0.030871915, -0.05227227, 0.01691767, -0.015886603};

// batch_normalization batch normalization parameters
float32_t batch_normalization_gamma[16] = {0.9836825, 0.9595067, 1.0194726, 0.9326806, 0.9897917, 1.0373484, 1.0094523, 0.9650359, 0.97384804, 0.96760696, 0.9668084, 1.1987842, 0.9899209, 1.0888578, 0.9527993, 0.91707814};

float32_t batch_normalization_beta[16] = {-0.033497456, 0.07020343, 0.07460399, 0.14144523, 0.025677795, 0.22889999, 0.052175604, 0.10384121, 0.07469345, 0.0021436007, 0.02015582, 0.1812281, 0.06564348, 0.16012031, 0.21145128, 0.08150397};

float32_t batch_normalization_mean[16] = {0.023782477, 0.025511352, 0.044846706, 0.03208747, 0.0148170795, 0.027075738, 0.021322938, 0.064675815, 0.007394193, 0.028596412, 0.021891303, 0.0018063943, 0.07833779, 0.003925471, 0.028466443, 0.008505705};

float32_t batch_normalization_variance[16] = {0.001707659, 0.0011701934, 0.0017319616, 0.00054154365, 0.0018769534, 0.0030749051, 0.0004915688, 0.0030758095, 0.00060172897, 0.0009652669, 0.0012153353, 9.088329e-05, 0.0057718367, 0.0003214852, 0.0007364192, 0.00058145233};

// conv1d_1 weights and biases
float32_t conv1d_1_kernel[3][16][32] = {0.115549654, 0.020229386, 0.039018564, 0.14283928, 0.05900237, 0.021046912, 0.21176234, 0.15357319, -0.2206295, -0.09330745, -0.1651948, -0.16289175, -0.1821581, -0.07610744, 0.2788335, -0.117126994, 0.029630087, 0.19456796, -0.072691366, -0.04665845, 0.1092421, 0.1141582, 0.114016354, 0.08680042, 0.0015445364, 0.18985751, -0.050375115, 0.1415483, -0.1415715, -0.10956721, 0.2456765, -0.2856201, 0.03434264, -0.09266591, 0.009977271, -0.10226415, 0.08236208, -0.095196545, -0.10231413, -0.113883324, -0.2168278, 0.040374197, -0.28427768, 0.06612107, 0.007444087, -0.06537502, 0.097368434, 0.054317743, 0.010241371, -0.0068958667, -0.01918631, -0.16219684, -0.07687993, 0.082962796, 0.06735663, -0.02998641, -0.08139901, -0.14759862, 0.027768979, 0.063259505, -0.1989593, -0.099009305, -0.006064262, -0.085809186, -0.39933684, -0.16524053, 0.21652953, 0.0445053, -0.056721512, -0.2713719, -0.040345203, -0.17730804, -0.16088766, -0.12918334, 0.15123135, 0.21761183, -0.09809254, 0.2547579, 0.07590628, 0.0060194544, 0.09333639, 0.07903479, 0.13573836, 0.06270813, -0.17468701, 0.12578359, -0.1487491, 0.04721016, -0.32286692, 0.16031095, 0.055037856, 0.1044609, 0.088701986, 0.16220695, 0.21470197, 0.10502211, 0.048786502, 0.12766385, 0.26190442, -0.17568476, 0.0022750697, -0.19460788, -0.11250614, -0.27183208, -0.029149318, -0.22807932, -0.12946235, -0.10291742, 0.15027203, -0.0353201, -0.09174604, 0.009299635, 0.23766695, -0.020400282, 0.054978155, -0.105545454, -0.009732213, 0.2372076, 0.18554977, 0.003194061, 0.22366787, -0.15591156, -0.030331384, -0.13351023, 0.0012872065, -0.010084695, -0.04495065, 0.2553715, 0.047021557, 0.061197, 0.012849321, 0.044913743, 0.07773822, -0.054694086, 0.14430718, -0.14280948, -0.059525464, -0.009864043, -0.16528009, -0.11556176, 0.08236581, -0.072060645, 0.061220095, 0.10486402, 0.036670566, -0.058298964, 0.13044067, 0.06674371, -0.032490436, -0.25452802, -0.23227762, -0.11702225, 0.07208657, 0.07177458, -0.1683549, 0.020275384, -0.08126925, -0.12289458, 0.08727879, -0.20820487, -0.10616601, -0.08057322, 0.15539849, -0.042180866, -0.13084142, -0.27499777, 0.014681451, -0.06726716, -0.18117715, 0.185391, 0.02727841, -0.13700627, 0.09956914, -0.12179136, 0.03203189, -0.22888702, -0.21442607, 0.030294025, 0.0013639047, 0.07718983, -0.1665157, 0.008857965, -0.37356037, -0.34211558, -0.037938055, -0.013673147, 0.048481144, -0.073153384, 0.1734734, -0.15885504, 0.087869406, -0.1547293, -0.07001514, 0.14845626, -0.057398673, 0.029891452, 0.26353526, 0.030732725, -0.24577644, -0.16919433, 0.20701534, -0.068683654, -0.023670785, 0.018678294, -0.06158613, 0.07884376, -0.07656773, 0.2046871, 0.24062304, -0.23276259, 0.19750787, 0.08158562, -0.11057679, -0.009169615, -0.10830714, -0.13087843, 0.18781069, -0.17857444, -0.25546867, -0.15177967, 0.022845466, -0.11167632, -0.13253397, 0.18838653, -0.17194471, 0.18310991, -0.0826647, -0.2587424, -0.09824042, -0.18226443, -0.027364997, -0.12524273, 0.08720627, -0.08481972, 0.021926802, 0.117694564, 0.051777124, -0.0969215, 0.18125798, -0.23319906, -0.22519739, -0.11693694, -0.14043881, 0.12521654, -0.099167794, -0.17631246, 0.0052047926, 0.028317722, -0.11145841, 0.15367006, -0.2565737, -0.1302015, 0.089431025, 0.19686158, -0.10695738, -0.02690052, -0.15577495, 0.021916052, 0.14488617, -0.09344194, -0.18429983, 0.13448994, -0.17563751, 0.031286936, 0.19023255, 0.053996038, -0.10067948, -0.16170983, -0.113559395, -0.16085626, 0.045159515, 0.06874906, -0.0751856, 0.010681328, 0.04880996, -0.15673803, -0.040868096, -0.15558626, -0.12463081, 0.078097835, 0.10226823, 0.12334194, -0.006431784, -0.139134, -0.14684153, 0.053351387, -0.1943596, -0.076012634, 0.1559041, 0.13248774, -0.040418155, -0.23344932, -0.15680286, 0.22854072, -0.18987128, 0.051823385, 0.18802662, 0.023674034, -0.13541564, 0.09398967, 0.081487045, -0.10109711, -0.08091316, -0.12247943, -0.1633144, 0.08820813, -0.0034938576, 0.0794821, -0.04299709, 0.14418629, -0.27907625, -0.04503928, -0.030135095, -0.018998753, 0.09862358, 0.10402701, -0.16938174, 0.046626322, 0.027590303, -0.05680372, 0.2088574, 0.0093910815, 0.021279916, -0.057268184, -0.108675554, -0.052570175, -0.15559086, -0.27096957, 0.1281242, 0.2242076, 0.10805075, -0.04560328, -0.040402357, -0.0011296333, 0.10885745, -0.22144343, 0.05366599, -0.24261187, 0.030407583, 0.1285545, -0.052726656, -0.16876505, 0.15167984, -0.07616464, -0.23435773, -0.013771659, -0.089596085, -0.31145653, 0.035986215, -0.15643112, 0.0052684587, -0.20341712, 0.011852844, -0.17499189, -0.025453905, -0.16568613, -0.17175806, 0.05509805, 0.020319426, 0.19827142, 0.051029906, 0.0073634796, -0.108948976, -0.2201538, 0.11249993, -0.2760395, 0.031480774, -0.15189181, -0.107967034, 0.14405923, -0.38664934, 0.26728585, -0.04832772, -0.22490709, 0.3098725, 0.16722287, -0.15584482, 0.10288313, -0.15240748, -0.07606536, -0.19562183, -0.24089488, -0.2684838, 0.18984358, -0.017200869, -0.019535378, -0.05606289, 0.07318356, -0.18755563, 0.16905183, 0.120588675, -0.09064098, -0.14982764, 0.14546199, 0.07376845, 0.05688672, -0.09596747, -0.027119564, 0.10504897, -0.17820033, -0.22550264, -0.14211568, 0.031968888, 0.08497767, -0.047792662, 0.201358, -0.04185291, -0.075369135, 0.17844267, 0.088398434, -0.0069831037, 0.159837, 0.18598348, 0.10887509, -0.07362983, 0.060966562, -0.1661713, 0.05035449, 0.09587361, -0.039425667, -0.19570982, -0.07633003, -0.2574847, 0.00782723, 0.037703738, -0.11358869, 0.12642789, -0.10531047, 0.039938983, -0.09949314, -0.058814522, -0.07559726, -0.12062612, 0.08424879, -0.19147822, 0.22132847, 0.08005899, 0.16126475, -0.31832147, -0.22815296, -0.20838712, -0.013101323, 0.062060077, -0.25925183, -0.17753877, 0.03288535, -0.026480576, -0.11408809, 0.089495316, -0.014874882, 0.022464612, -0.22897884, -0.06405879, 0.14079407, 0.056671143, -0.19212556, 0.032085553, -0.13033761, 0.058961567, -0.007072247, -0.19992639, 0.059055258, 0.046549316, -0.21421741, -0.18694694, 0.19070424, 0.060275543, 0.042165477, -0.16042186, -0.10082449, -0.05170374, -0.19622658, -0.17114593, -0.08295278, 0.053306967, -0.11699468, -0.058446635, 0.12739213, 0.00082357053, -0.074823305, 0.017058449, 0.028751198, 0.16450547, -0.0044021998, 0.21148963, -0.08258905, -0.26735112, -0.2560516, -0.041625507, -0.18922015, 0.13034834, -0.105150595, -0.091149755, -0.0818953, 0.042508677, -0.18496302, -0.15879771, 0.13830556, -0.03907573, -0.08582403, -0.031674184, 0.036188167, 0.028853798, -0.26371154, -0.10353764, 0.14250186, -0.056013808, 0.013954007, 0.0037944391, 0.19192193, 0.04060388, 0.13556561, -0.09274898, 0.046788324, 0.20006372, -0.12348621, -0.17303999, -0.18131548, -0.06812824, -0.086913995, -0.0436096, 0.039774027, 0.122183084, 0.036382914, 0.003687461, -0.05475713, 0.058447905, -0.2604171, -0.093581654, 0.0332436, -0.14502773, -0.14338085, -0.035936907, -0.17894563, -0.12594736, 0.016585846, 0.041900013, 0.14269818, -0.07085111, -0.16377781, 0.17337145, -0.09188977, -0.10052097, -0.09081272, 0.017220234, 0.09960461, -0.05807906, -0.07148021, -0.12118484, -0.15799637, -0.09289148, -0.12752584, 0.10806077, -0.097845696, 0.15027316, 0.037301254, 0.11242307, 0.1810825, 0.061804544, -0.047522325, -0.100853294, 4.9556053e-05, -0.24395809, 0.122587465, -0.09901728, -0.03006305, -0.07993467, 0.08353406, 0.18975388, 0.17740275, 0.1618904, 0.1892352, -0.04638516, -0.021307383, 0.15705559, 0.110955335, -0.10011094, -0.16644897, -0.02137672, -0.101095125, 0.004775754, -0.06272087, 0.20922312, 0.17222804, -0.04307637, -0.07639994, 0.055852503, -0.047891192, -0.09802627, -0.09195182, -0.029059887, -0.12278291, 0.16406848, -0.086269654, -0.07606684, 0.11493425, -0.21866906, 0.2129408, 0.18643337, -0.27273393, -0.12911071, -0.10810459, 0.04111227, -0.08162885, 0.13209309, -0.049668055, 0.05243915, 0.06916216, -0.08554415, 0.19778058, -0.13312155, 0.026179373, -0.052883215, -0.017110564, -0.051960055, -0.02635694, 0.008413182, -0.2957623, -0.03294057, -0.11518741, 0.025083272, -0.087205596, -0.028315729, -0.082100414, 0.04516634, -0.0613214, -0.16006817, 0.022165477, 0.0881858, -0.14682582, -0.061258573, 0.08820246, -0.09682019, 0.010506219, 0.04975537, 0.04187339, -0.2832473, -0.2020853, 0.054424416, -0.1370922, 0.0577479, -0.19421516, 0.21635406, 0.09345239, 0.19776393, -0.20605437, 0.12565403, -0.13863093, 0.032696195, 0.099852145, -0.17713675, 0.23913811, 0.15863901, -0.20429285, -0.092924595, 0.016526023, -0.10651991, 0.0022211592, -0.13165545, -0.17471172, 0.0769161, -0.2843064, -0.103168905, -0.17200829, 0.20704554, -0.14325221, 0.146051, 0.07471997, 0.008952381, -0.111680835, -0.03703974, -0.22752303, -0.07623782, -0.2953902, -0.077027164, -0.24117382, 0.09653187, -0.19706121, -0.18040614, 0.11939969, 0.01925572, -0.07787322, 0.006352468, 0.019741556, -0.06665629, 0.031103848, -0.08993169, -0.075835735, 0.13077527, 0.15663993, 0.06765903, 0.063911214, -0.2547669, 0.0150509495, 0.014772919, -0.13512981, -0.010038575, 0.0017983782, 0.18236187, 0.023478564, 0.18562634, 0.23160103, 0.1799487, -0.08075002, 0.20216575, -0.06189382, -0.2143989, -0.089642614, -0.15554869, 0.027092433, -0.15497343, 0.04877488, 0.008563566, -0.112107545, -0.14722203, -0.20946372, -0.046894018, 0.10235457, -0.30274343, -0.0662609, 0.20426081, -0.16573969, 0.054420114, 0.18235588, -0.026404101, 0.13698234, -0.23253274, 0.08796638, -0.109874465, -0.086087674, 0.0077503864, 0.17296177, -0.28422502, -0.13882118, -0.02278437, -0.08415925, 0.054705575, 0.06119515, 0.13838802, -0.15878579, 0.15269504, -0.1936677, 0.09364058, -0.18845148, -0.112511784, -0.08687331, -0.34376737, -0.1815628, 0.031036636, 0.062355116, 0.12602073, -0.06396979, -0.025515303, 0.16975124, 0.11594345, 0.072611, 0.09300074, -0.05019385, 0.020369103, 0.16009836, 0.12132359, -0.043513454, -0.056863733, -0.19286424, -0.043005936, 0.060881834, 0.11661238, 0.006653133, 0.11444195, -0.1456108, 0.10718498, -0.055524487, 0.08369776, -0.18184763, 0.15287778, 0.18150555, -0.09002732, 0.09431844, -0.08110858, 0.1925724, 0.094358444, 0.05311236, 0.14233887, 0.13454267, -0.025360616, 0.14466059, -0.13284288, 0.26201117, -0.2551994, -0.32230827, -0.049110234, -0.12149512, -0.21278545, -0.044202454, -0.035433207, -0.08788469, -0.15944263, -0.027510399, -0.24392201, 0.06996073, -0.20290814, -0.031001689, -0.10445964, 0.04025671, 0.14268227, 0.17380239, -0.05899433, -0.113466434, 0.09642473, -0.28911823, -0.23232536, 0.038189344, 0.10400822, 0.061280183, -0.076183386, -0.10534973, 0.094378255, 0.16515501, -0.15533864, -0.1690419, -0.09675412, 0.013648388, -0.010807397, 0.13522568, 0.2432156, 0.13023682, 0.062545635, 0.21148667, -0.18255612, 0.24236077, 0.1614807, 0.13672659, -0.07118217, 0.18207493, 0.069389895, -0.19716811, -0.10865174, -0.16429764, -0.048781227, -0.054648783, 0.17263426, 0.08216811, -0.012851106, 0.1288275, 0.04388216, 0.17323682, -0.24683785, 0.018792775, 0.1628556, 0.19570264, 0.12720193, -0.11503383, -0.1357248, 0.083724394, -0.19910319, -0.101992846, -0.030622527, 0.21470025, 0.03616851, 0.17073897, -0.094051965, -0.021288702, 0.024928477, 0.1567733, -0.011141937, -0.13330908, 0.11404971, -0.0667924, -0.07147498, 0.078435116, -0.20719622, -0.038004853, 0.116125174, -0.004774326, -0.2340297, -0.045362838, 0.066977754, 0.10315499, 0.055408232, -0.2234448, -0.0031802126, 0.008520484, -0.10596233, -0.037816767, 0.003842549, -0.12724684, 0.108378954, -0.109481834, -0.010778445, -0.15826353, -0.14983974, -0.23323528, -0.0597974, -0.1396126, -0.149129, 0.22415157, -0.25848588, -0.19582687, 0.16635576, 0.14301006, -0.06310737, -0.067058586, 0.18717946, 0.14904876, -0.10062715, 0.029031657, 0.19291754, 0.14054546, 0.08576794, -0.20708847, 0.021988302, -0.096106656, 0.16378331, 0.15426086, -0.08663233, 0.1785957, 0.00541531, -0.17280193, -0.14552349, 0.02295919, -0.14799465, 0.033347104, 0.080675006, -0.10193593, -0.021485496, -0.14667197, 0.10112839, -0.15249087, -0.22920509, -0.104855746, -0.062251978, 0.0761528, 0.002715997, -0.18475826, 0.14507279, 0.27697274, -0.27131122, -0.22230549, -0.23702632, -0.041980043, 0.13552648, 0.12539221, -0.20352875, -0.11988836, 0.06572521, -0.12563695, -0.20371176, 0.15953125, 0.002970087, -0.1695847, 0.097707234, -0.13540831, -0.21906783, -0.17998336, -0.051348086, -0.0067111626, 0.1978111, 0.06888685, -0.13683693, 0.124573715, 0.27161336, -0.1305257, -0.08639021, -0.21768297, -0.10422367, -0.084787056, -0.12503937, -0.026013514, 0.11677361, -0.09759845, -0.21099138, -0.0022924563, -0.01089185, -0.16559881, -0.12987319, 0.081437536, 0.02219671, -0.18070377, -0.06670535, 0.1275064, -0.29186565, -0.04583186, 0.037337065, -0.11287401, 0.03426575, -0.22272833, -0.16871268, -0.1920935, -0.07318446, -0.13779956, -0.008451269, 0.10923808, -0.06936907, -0.11941728, -0.14604896, 0.14422502, -0.115849786, -0.1997813, 0.19867942, 0.055540856, 0.10983188, -0.34665698, -0.2569358, 0.16380456, 0.210634, 0.16040574, -0.17921573, -0.048402455, -0.0651169, -0.148319, -0.072157584, -0.24657948, 0.00864104, 0.043182436, 0.1547755, -0.17488009, 0.0050213966, 0.2457542, 0.004083643, 0.21234843, 0.12135474, 0.034453373, 0.0846441, 0.07603797, 0.130876, -0.06383692, 0.1596448, 0.16854843, -0.115702726, 0.003237194, 0.053153105, 0.025491642, 0.13494356, 0.004934965, 0.17048159, 0.08529043, -0.069375955, 0.11149359, 0.12216241, -0.09800806, -0.052092142, 0.12442386, -0.16390824, -0.08225282, 0.1925947, -0.098711506, 0.12830693, -0.05221103, -0.07432653, -0.09651265, 0.15381998, 0.05773949, 0.21456303, -0.21428867, -0.17695636, -0.11942379, -0.017288681, 0.17804474, -0.13558806, -0.202184, -0.13704623, -0.2113468, -0.0560221, -0.010341839, 0.07226513, 0.12592208, 0.16949937, -0.08300488, 0.032141723, -0.14815457, -0.08036552, 0.20922303, -0.0056003626, -0.19796513, 0.15004754, -0.01682301, 0.14695343, 0.048978787, -0.19470158, 0.17763813, 0.054448366, -0.0047855815, 0.061280288, 0.07053202, -0.074193805, 0.05188514, -0.06356411, 0.07221938, -0.0026410418, 0.09985154, -0.20683911, 0.12802108, 0.11249528, 0.18415861, 0.00067991734, -0.038422316, 0.13128506, -0.015523136, 0.17925744, -0.090005234, 0.16672952, -0.15081422, 0.05499503, -0.044400364, -0.05883384, -0.15657021, -0.21268037, 0.046118673, -0.18235366, -0.1155977, 0.06533145, 0.15070376, -0.15409617, -0.0498531, 0.0075728497, 0.09881415, -0.22855614, 0.110516734, 0.12357426, -0.04976662, 0.088131905, 0.11139597, 0.014969989, -0.074599765, 0.12402885, -0.055576734, -0.026895298, 0.088362806, 0.042557374, -0.056420162, -0.117347434, -0.1647621, 0.17414796, -0.0035480282, -0.10942901, -0.17200868, 0.07447915, -0.15838371, -0.07266831, -0.0611459, 0.03604583, 0.18863541, -0.1375125, -0.08447545, -0.015938975, -0.11337168, -0.1571302, -0.0030625002, -0.15932363, -0.19062148, -0.13992904, 0.061216835, -0.04510007, -0.06962656, 0.06596211, -0.039281618, -0.20627367, 0.021642342, 0.14598069, 0.11186315, -0.107890174, 0.0023325782, -0.16548817, -0.05246088, -0.24171019, 0.040041912, 0.07684491, 0.063937604, 0.15507616, 0.11926876, -0.050511483, -0.11987359, -0.117114514, -0.3406251, 0.1791283, -0.023838285, -0.05073077, -0.083390474, -0.060871385, -0.17468815, -0.09089983, -0.056118213, 0.011720138, -0.05518734, -0.21918158, -0.10849847, 0.1495057, 0.20339958, -0.11016802, -0.12745138, -0.152615, 0.09540996, 0.0624859, 0.12724411, -0.08391485, 0.0896106, -0.17672192, -0.21261422, 0.06332675, -0.0053409315, -0.15030481, 0.07919205, -0.18849225, -0.21640112, 0.113396145, -0.09528546, -0.082478, 0.06561463, -0.20370427, 0.22472122, 0.22214738, 0.045923766, -0.05369947, 0.083475836, -0.10317083, 0.17566013, -0.051342774, -0.11978313, -0.13534339, 0.12971982, 0.13449945, -0.09814604, 0.10518785, -0.109855294, 0.07203091, -0.28085902, -0.03842849, -0.1787405, -0.03845732, 0.0036222017, -0.16486509, 0.19269407, 0.033557758, 0.095604286, 0.11157265, -0.05461814, 0.14503407, 0.110706836, -0.07176044, -0.046828706, -0.017833384, 0.030797519, -0.10273941, -0.039998993, -0.1338716, 0.060609676, 0.0045983144, -0.04887519, -0.06677764, -0.048175663, -0.00344498, -0.06843034, 0.063086264, 0.14055763, 0.16777456, 0.08725921, -0.14938375, -0.11344951, -0.013862766, -0.03126734, -0.009686495, 0.15261711, -0.22316717, -0.12909877, -0.2642936, 0.10050327, -0.23727994, 0.05422211, 0.020759542, 0.13596922, 0.1427118, -0.040446326, -0.11787691, -0.13698137, -0.1682627, 0.13384421, 0.005722285, -0.07977464, 0.02117052, -0.061615877, 0.16332276, 0.16187117, 0.13159665, -0.069778204, -0.22363167, -0.13665786, -0.07664577, -0.14282984, -0.25935614, 0.11506905, 0.030694595, 0.07417342, -0.17605117, 0.026054082, 0.077650234, 0.17949854, -0.12878156, 0.14449938, 0.18460526, 0.011198704, 0.05890721, -0.3185251, -0.040135656, -0.112402774, -0.059334017, -0.19084165, 0.11903202, 0.13215604, 0.0214355, -0.012120421, 0.11509128, 0.26293415, 0.16734505, -0.018387053, -0.005191167, -0.016616251, 0.22968255, 0.123683006, -0.03601079, 0.21990277, 0.13385609, 0.014127375, 0.005882276, -0.07886024, -0.012025859, 0.0487593, 0.03307097, 0.12421525, -0.10151763, -0.06577896, -0.27619824, 0.021922635, -0.18736173, 0.06515882, 0.014170725, 0.005269692, -0.20892242, 0.019672172, 0.13542877, -0.22834481, 0.03273798, -0.052466042, -0.11333899, -0.040895425, 0.012653896, 0.0690576, 0.21088885, -0.03908045, 0.04440591, 0.18028325, 0.06332287, 0.07291569, -0.047268372, -0.10633888, 0.09868378, -0.11528572, 0.20904431, 0.1186435, -0.17374295, 0.04388151, -0.05051944, 0.2028963, 0.06468044, -0.24724366, 0.08096241, 0.03538385, 0.12050615, 0.073336504, -0.10098131, 0.12022095, -0.033741206, -0.058879465, 0.073757894, -0.14301303, 0.24084833, 0.020322587, 0.047019124, -0.07052856, -0.070080645, -0.2643192, -0.16193554, 0.030746752, 0.095833465, 0.08357193, -0.07500302, 0.15846391, 0.0001259396, -0.12697665, 0.10013234, 0.013356381, -0.134106, 0.061111458, -0.15080538, -0.13659084, -0.16044617, 0.05712262, 0.09019868, -0.023404561, -0.04203332, -0.27375412, 0.24216285, -0.06682188, -0.17722307, 0.0912482, 0.022526024, -0.17630099, -0.31820992, -0.07095006, -0.16908063, -0.10438217, -0.022509111, -0.028061047, -0.19657038, -0.24725175, 0.22615136, -0.08809652, -0.1054575, 0.1804808, -0.109313495, 0.14823954, -0.0023901311, -0.22836947, 0.084001906, 0.22757342, -0.05247212, -0.11417072, 0.010266166, -0.20123804, -0.19456255, -0.11191502, -0.095958464, 0.054794412, 0.047998793, 0.050263062, 0.24780844, 0.045662045, 0.09350584, -0.1740625, -0.2734342, 0.11688189, -0.013848253, 0.06768617, -0.035611644, 0.015510462, -0.09733458, -0.022831962, -0.027997997, 0.10271087, -0.026153052, -0.15989003, 0.06604664, 0.05719147, 0.23752196, -0.087743886, -0.22119997, 0.23279719, -0.067530826, -0.15731432, -0.19701734, -0.06766613, -0.254841, -0.17717811, 0.056740776, -0.038235217, -0.2371793, 0.1892742, -0.064187445, -0.046547014, 0.15010214, 0.09956636, -0.06048238, -0.059283063, 0.24810769, -0.006319511, 0.09166914, 0.061628267, 0.064911306, 0.013936961, -0.018251067, -0.026798341, 0.053296298, -0.17804751, -0.04316051, -0.10572868, 0.06158014, 0.14785874, -0.14144212, -0.010623331, -0.1205441, -0.041232392, 0.25394228, -0.1061004, -0.16413994, -0.21809599, 0.15615238, 0.04185945, -0.046553154, -0.21415775, -0.24031623, -0.10005118, -0.023748266, -0.18055484, 0.091373615, 0.06677375, -0.09541087, 0.075001866, 0.02588083, 0.02274127, 0.054525055, 0.0032854748, -0.08885403, 0.11245339, 0.04237511, -0.23359065, -0.10273698, -0.07860431, -0.14025141, 0.072478876, -0.016950345, -0.09580612, -0.065354586, -0.16638167, -0.13505659, 0.01595642, -0.12074212, -0.09172139, 0.024108933, 0.21533203, -0.111147225, -0.15825823, -0.02018724, -0.010284039, -0.038875747, 0.018704705, 0.20291637, -0.054945223};

float32_t conv1d_1_bias[32] = {-0.22055906, -0.14307341, -0.106758446, -0.14215565, -0.13487482, -0.11459868, -0.16601734, -0.14799318, 0.037920073, 0.024255194, 0.002654605, -0.091256954, -0.40941814, -0.13641798, -0.17191663, -0.15524857, -0.14355072, -0.19523516, -0.16102853, -0.15749347, -0.120281495, 0.07802734, -0.05550156, -0.16697289, -0.17072773, -0.13236229, -0.13043076, -0.16511093, -0.15065973, -0.13036999, -0.2126832, 0.0016179852};

// batch_normalization_1 batch normalization parameters
float32_t batch_normalization_1_gamma[32] = {0.9230707, 0.98771954, 0.67221314, 1.1777531, 0.8991259, 1.2396934, 0.8676341, 0.958644, 1.1495734, 0.8666424, 1.1580769, 0.8636549, 0.9551548, 1.0556897, 1.049397, 1.0009975, 1.1398332, 0.7105583, 1.3059537, 0.9151398, 0.9377966, 1.213119, 1.0490462, 0.9329145, 1.153746, 0.8363592, 0.749126, 0.85029775, 1.0028929, 0.9765939, 0.8608678, 0.87118256};

float32_t batch_normalization_1_beta[32] = {0.035430357, 0.0024024532, 0.16293253, 0.05918906, -0.03922273, -0.14382003, 0.1288093, 0.12507999, -0.007052667, 0.13088192, -0.10911969, 0.1300711, 0.13010864, 0.03230099, 0.18742698, -0.021719228, 0.017861465, 0.1541852, -0.035399906, 0.09640737, 0.015976412, -0.16692407, -0.11294067, 0.06632702, 0.03528808, 0.13319106, 0.16239205, 0.09948429, 0.14825588, -0.010318451, 0.10424622, -0.0058409153};

float32_t batch_normalization_1_mean[32] = {0.054600134, 0.07592411, 0.3313064, 0.012729328, 0.050133225, 0.09354586, 0.058537897, 0.068327166, 0.16311832, 0.048184525, 0.09644086, 0.055096436, 0.12626836, 0.077278346, 0.07278699, 0.049073517, 0.100725494, 0.076585665, 0.087052606, 0.15621717, 0.020441102, 0.23507892, 0.14831547, 0.0791866, 0.05208875, 0.05396847, 0.05630504, 0.03472998, 0.041746825, 0.15621297, 0.103011765, 0.30234545};

float32_t batch_normalization_1_variance[32] = {0.021290302, 0.037329752, 0.45699748, 0.0035240334, 0.013653639, 0.021844912, 0.037300166, 0.04976282, 0.06664619, 0.02880509, 0.030340383, 0.050441485, 0.12554637, 0.067640685, 0.055364385, 0.019662801, 0.033648953, 0.0579047, 0.025083408, 0.12811297, 0.008316183, 0.06384032, 0.05728507, 0.05038303, 0.014178197, 0.03114752, 0.030160857, 0.019190302, 0.029206857, 0.13309936, 0.0793317, 0.16006738};

// dense weights and biases
float32_t dense_kernel[896][64] = {0.018722715, 0.04329115, 0.0012397543, 0.0056284787, -0.03524425, 0.003241836, -0.013749229, 1.1680934e-05, -0.057432514, -0.043828044, -0.037100706, -0.0013300644, -3.523583e-06, 0.06241485, -0.0035036884, -0.0029578374, -0.014186249, -0.030547513, 0.0085289115, 0.010594536, 0.02391514, -0.052103847, -0.057858948, -0.007979713, 0.013703375, -0.03512494, 0.013109487, -0.016461309, -0.05208036, -0.0068445588, -1.5032394e-07, 0.006674144, 0.0069217538, -0.024402669, -0.00010330748, 0.0025166802, -0.045008775, -0.042142894, 0.031235391, -0.029348116, 0.051177785, -0.007829161, 0.008001237, 0.0020777613, 0.002213968, -0.039404247, 0.012609438, -0.067904495, 0.00178783, 0.031082531, -0.0024250206, 0.029350422, -0.009278073, 0.0050316136, 0.014031692, 0.0046051997, -0.0025771507, -0.02286099, -0.02962045, -0.00033850624, -0.02557991, 0.0067968913, -0.061743632, -0.008751054, 0.042359788, 0.099767834, -0.015357039, 0.037962332, 0.053967275, -0.017657634, 0.016018936, -1.3010093e-05, -0.012832123, -0.009969087, -0.058678772, -0.005168272, 0.00024225429, -0.04438709, -0.0058658263, -0.0052244915, 0.027364464, -0.022899255, 0.01767354, 0.011499933, 0.025715778, 0.024847904, -0.04981195, 0.014844884, 0.024666801, 0.0153784, 0.014840716, 0.023439806, -0.02123113, -0.017655274, -2.7277777e-06, -0.052742604, 0.004742862, -0.07173941, 0.00040674084, 0.0073603992, -0.007036725, 0.018906431, 0.02418527, -0.028290229, 0.043025967, 0.024475435, 0.017854534, 0.00301689, -0.00033646653, -0.0052924887, -0.0059654075, -0.06144958, -0.0070243804, 0.005598831, -0.04875096, 0.008688204, -0.0155860605, -0.01130204, 0.035472397, 0.009852441, 0.015167532, 0.03933412, -0.04172187, -4.7756125e-06, 0.009409448, 0.096944556, -0.002884857, 0.0071828254, -0.01916764, -0.018667465, 0.022295905, -0.0127071515, -0.013961969, 0.008467961, 0.029424464, 5.90237e-09, 0.033936806, 0.013919374, -0.016065206, -0.012238192, 0.00039664522, -0.035544854, 0.028606419, 0.024261717, -0.010313911, 0.007158247, 0.009072728, -0.030097596, -0.058437902, 0.027673343, 0.00906213, 0.03846269, 0.0023051284, 0.044271052, -0.017140891, -0.017706776, 0.051431037, 0.013191554, -3.836835e-05, 0.031055596, -0.004506451, -0.018579813, -0.023887131, -0.0053604324, 0.02099927, 0.026054213, -0.0029157484, 0.017620808, -0.031310234, 0.036260948, -0.01951024, -0.02293208, -0.0043669795, 0.019245567, -0.006624375, 0.0317111, -0.019933391, -0.0033814982, -0.025851928, -0.021410882, -0.0009536262, -0.012932876, 0.028739596, -0.013652899, -0.04312755, 0.03983247, -0.024197595, -4.7211117e-05, 0.02707809, -0.02091944, 0.021531917, -0.005176012, 0.013915369, -0.028045079, -0.002121689, -0.0037781599, -0.028483788, -0.011617441, -0.0038979074, -0.00030008497, 0.038397092, -0.023015281, -0.01777803, 0.0155727025, 0.00010966128, -0.036686677, 0.0004428632, -0.011151744, 0.018574696, -0.04543122, -0.023997027, -0.020804092, -0.01013047, -0.024484206, 0.02378065, 0.015493004, -0.0055235643, 0.0065076626, -0.0021022835, -0.027228236, 0.0212848, 0.025480354, -0.00014572276, 0.014831773, -0.0015107329, -0.043722454, 0.055620607, -0.0061554257, 0.0068937773, 0.011632959, -0.019433042, 0.0036845603, -0.015764467, -0.0051111, 0.005991082, -0.008913224, 0.0078068557, 0.006657932, -0.028295282, -0.017611815, 0.01224619, -0.019472253, 0.003253852, -0.008538646, -0.0125108445, -0.025059635, -0.03465259, 0.04008892, 0.005993192, 0.019667717, 0.050354153, -0.0005758821, 0.016486729, 0.012123862, 0.020928299, -0.026186882, -0.02756984, -0.0017116904, 0.013364119, -0.0074731284, 0.0009683126, 0.04369251, -0.002941346, -8.532065e-07, 0.01152238, 0.015130452, -0.001807242, -0.00044024893, 2.9067583e-06, 0.02083988, 0.0027906017, 0.035335068, -0.0010799483, 0.018504528, -0.017035503, 0.009889977, 0.009666821, -0.055683646, 0.0021463486, -0.043033, 0.019031646, 0.008317933, 0.025178216, -0.026848149, -0.009260199, 0.028193643, -7.5180746e-05, 0.016404042, 0.004015692, 0.052124195, -0.0005575298, -0.016727984, -0.0021453977, 0.0032043387, -0.0029612521, -0.033558205, -0.0061323037, 0.023861222, -0.005539378, -0.008036517, 0.002570275, 0.012646715, -0.026555713, -0.034256294, -0.007978275, -0.0076797665, 0.010731646, -0.013868847, -0.01646339, 0.0020403077, -0.008604167, -0.01987224, -0.006651804, 0.018579487, -0.02352047, 1.1600332e-06, 0.005487677, -0.0030794851, 0.009361533, -0.0077476567, 0.025058318, -0.053842124, 0.012890342, -0.0035118337, -0.03387047, -0.011112192, 0.0025411888, -0.00010571646, -0.026390461, -0.0077004232, 0.039305463, -0.012180848, -3.8011517e-06, 0.03622625, 0.009509375, -0.025587564, -0.030075183, 0.002601444, -0.042549256, 0.028422482, 0.009201786, -0.009359187, -0.004388447, 0.007707582, -0.016787205, 0.016487021, -0.008993377, 0.025055025, -0.022860585, -0.010513401, 3.6886593e-06, 0.037108563, 0.0108541725, 0.00045152992, 0.011080794, -0.0035566096, 0.04902747, -0.033621456, 0.004723032, 0.015338457, 0.003121742, -0.045190386, -0.019228332, -0.006208305, -0.0085421, 0.011155111, 0.012728611, 0.035795495, -0.0049553206, 0.018665034, 0.04382136, 0.015699144, 0.00123616, 0.02159514, -0.026275951, -0.031105254, 0.014931949, -0.002252359, 0.03405568, 4.669708e-06, 0.018319773, -0.026154721, -0.01679468, 0.05426404, -0.045318063, -0.03729167, -0.006120837, -0.024073849, -0.021592325, -0.008871982, -0.020346062, -0.00033808933, -0.010048087, -0.054921392, 0.02490993, 0.0032909855, -5.8722042e-05, 0.043578546, -0.019654714, -0.011466865, -0.012838686, -0.0013808322, -0.035407733, -0.008801047, 0.073567085, 0.0027229087, 0.012637592, -0.0013699742, -0.03104206, -0.014183498, -0.018801836, -0.015106735, -0.030462746, -0.02278558, 2.5580398e-06, 0.02473126, -0.0036973192, 0.075173296, 0.0014066966, -0.010264815, -0.024460511, -0.032423776, 0.006845548, -0.029538611, 0.0003179423, -0.016549252, -0.029412368, 0.011165513, 0.012424502, -0.007702808, 0.008482719, -0.014631242, 0.0041857497, -0.029600676, 0.024377031, 0.031752665, 0.018510668, 0.05872249, -0.019623762, 0.0005178992, -0.015855914, -0.01863819, -0.014117927, -0.0018156484, -0.056185693, -0.028023457, -0.08844281, 0.0018583331, -0.014903204, -0.02841822, -0.003915701, -0.01120816, -0.02076895, -0.009303636, 0.032786507, -2.5456663e-06, 0.04814057, 0.012058829, -0.007120496, -0.0035529002, -0.0010944587, -0.023952384, -0.012756777, -0.004925096, 0.008060457, -0.022069266, -0.0012891424, -0.060362384, -0.04708725, 0.034425493, 0.042228837, -0.0004334006, -0.002542243, 0.0055010323, -0.00012485322, 0.035423815, 0.095919445, 0.043299176, -0.00044671012, -0.008092711, -0.0050293286, -0.07122583, -0.01426404, 0.030721344, -0.014355781, 0.032716412, -0.01146499, 0.020613892, -0.05756913, 0.021594571, 0.002430162, -0.0061979615, 0.015448755, 0.042327665, -0.020438692, 0.039771594, -0.004030871, -0.005534195, -0.01675555, -0.023917938, -0.0011604074, -0.011053161, 0.013927394, -0.008770164, -0.030788135, 0.047575668, -0.030163938, -6.948076e-05, -0.024562614, -0.009684528, 0.0009722207, -0.0453017, 0.0083077885, 0.03641076, 0.05537405, 0.005642253, 0.015125312, -0.036649156, -0.025829576, 2.1787655e-06, -0.0036140145, 0.0008861464, -0.026917575, 0.037911072, -0.00013542648, -0.018515877, 0.016817575, 0.020206444, -0.023215141, -0.032263447, 0.04500206, 0.025872186, 0.00026546806, -0.03438787, -0.026367273, 0.02714833, -0.022595407, -0.0075020604, 0.021587852, 0.006544933, -0.013943161, 0.009880537, 1.9750922e-05, 0.005747867, 0.0041503035, -0.046027564, -0.076890156, 0.027109677, -0.015884452, 0.0026359125, 0.029207066, -0.046907015, -0.002061268, 0.010710021, -0.020475691, -0.019068636, 0.011146465, -0.026611155, -0.015557005, -0.007926275, -0.0057799937, 0.072218195, -0.019715957, -0.0072908206, -0.02987427, -0.021643724, 0.04405578, -0.00474883, -0.0034444174, 0.046882678, -0.049710996, 3.2505854e-05, 0.0532616, 0.015442832, 0.019520262, 0.019436968, 0.026388587, -0.008568318, -0.017628212, -0.0415339, 0.010203907, 0.045410056, 0.031927023, -3.4437755e-05, 0.016024996, -0.011008981, -0.034087993, 0.014836431, -5.464969e-05, -0.04004482, 0.012951937, -0.051690992, -0.013042415, -0.022061108, 0.009175276, -0.024676446, -0.009946894, 0.003260422, 0.04847766, 0.0404529, 0.010298234, 0.004438127, 0.014528184, -0.020667832, 0.0036021385, 0.010501433, -2.9314265e-06, 0.022751996, 6.441657e-05, -0.033086725, 0.045461122, -0.044982426, -0.02070934, 0.05406409, -0.003831331, 0.03561066, -0.029852018, 0.000244272, -0.045203794, -0.012702035, -0.0110455025, 0.043748915, -0.008864299, -0.0055164085, 0.0061470233, -0.007730136, -0.018315366, 0.029391948, 0.012894319, -0.021005264, -0.0010760541, 0.010919637, -0.015823405, 0.005987694, 0.03908931, -1.050722e-05, -0.020598622, -0.030403886, -0.03879651, -0.04194169, -0.0018424295, -0.02570334, 0.04565876, 0.015044301, -0.010231812, -0.037758097, 0.0006341092, 1.15994844e-07, -0.009132538, -0.023221657, -0.03197741, 0.06071832, 1.1855842e-06, -0.024985665, 0.029954618, 0.031537715, -0.0021651392, -0.01457267, 0.013301101, 0.0035140873, -0.011330112, -0.069174886, -0.008299676, 0.004244835, -0.052793548, -0.016942333, 0.027997935, -0.031795345, -0.024013681, -0.012412402, 6.167967e-05, 0.042953, -0.0013603272, -0.0002920292, 0.015293993, 0.023288788, -0.020529158, -0.040312335, -0.033961598, -0.016482443, -0.030720124, 0.022476407, -0.007896813, 0.0045977184, 0.013018548, -0.039015085, -0.0011363982, -0.037658233, 0.00079074595, 0.039967943, -0.03843592, -0.0012295936, -0.0019746583, -0.03211472, 0.033989403, -0.0012370081, -0.019817596, 0.03865004, 0.034425054, 4.4768847e-05, 0.037665166, -0.0489533, -0.01953332, 0.013303595, -0.04626911, -0.022935105, 0.007704767, 0.0065630833, 0.030428663, 0.031476103, -0.062687345, 1.8791397e-06, -0.026186364, -0.009316262, 0.025979059, -0.018908916, -2.4663184e-06, 0.048127063, 0.02804628, 0.0015755856, 0.011301035, 0.02240579, -0.036090866, -0.007300379, -0.018466119, -0.0046794694, -0.06753727, -0.0139273945, 0.01571037, -0.022757586, 0.007510795, 0.01643748, 0.021337004, -0.03459811, -0.0006749184, 0.020237597, -0.025291912, 0.045823287, -0.06309363, -0.04356598, -0.028282907, -0.07707354, -0.015603958, 0.015037591, -0.029702483, 0.019618226, 0.05080001, 0.0025694137, -0.030088611, -0.050729617, -0.0001793585, 0.004712348, 0.011545928, -0.028612008, -0.0052363225, -0.0171041, -0.023658017, 0.020943105, 0.010594874, -0.012476716, -0.036641285, -0.002138081, -0.05144628, -0.00088165817, 0.010077806, 0.014980462, -0.021416575, 0.0007354692, -0.028325258, -0.0302326, 0.018470082, 0.0029327995, 0.0030013984, -0.0067929346, 0.057766207, 3.1421235e-09, 0.04897839, 0.011240233, -0.043279253, -0.03738536, -0.00036776843, -0.012918883, -0.0061747506, 0.009067707, -0.02292672, 0.009887346, 0.018177368, -0.0037197086, -0.06724772, 0.012185806, 0.010179606, 0.015455753, -0.02249454, 0.049472194, -0.0035801365, 0.023916358, 0.050256483, 0.013474827, -0.00049198966, -0.00035242134, -0.0017693709, -0.06527695, -0.023349928, 0.053103127, -0.00066461513, 0.022369504, 0.009478932, -0.0007140356, -0.030521959, 0.035984624, -0.0038726926, -0.010500364, 0.025146917, 0.025993519, 0.001976273, 0.032233696, -0.017980855, 0.01671598, -0.025827268, -0.030311726, -0.0029908475, -0.026722578, 0.013896535, -0.024158288, -0.019568516, 0.06805682, -0.035695933, 5.24216e-05, 0.027429963, -0.040838834, 0.015067632, -0.00082430174, 0.0047649904, -0.019490555, 0.043010786, -0.006651555, -0.008888945, 0.017852994, 0.009759618, 4.0714133e-07, 0.028097691, 0.011535289, -0.048650008, 0.016943948, -2.9282251e-05, -0.057668533, 0.0060274857, -0.06495502, -0.028323857, 0.012336119, 0.035507634, 0.013801223, -0.041509613, -0.023771597, 0.033914514, 0.034936767, 0.0026279092, -0.018323429, -0.022730123, 0.049715158, 0.037761465, -0.0037326328, -0.00054975157, 0.019566627, -0.0012467705, -0.044641707, -0.039330665, -0.001262665, -0.026594503, -0.018269233, 0.008300223, -0.029536378, -0.025728522, 0.0234041, -0.014188591, -0.014072899, 0.03797319, 0.0528429, -0.021521766, 0.035718508, -0.0042758137, 0.003625439, -0.024259603, -0.030065052, 0.004102721, -0.037818298, 0.03937037, 0.004325548, -0.020325983, 0.093487486, 0.003493324, -0.00012966279, 0.054256406, -0.047835242, 0.011946462, 0.006077964, -0.03761528, -0.018672325, 0.0032235917, -0.0031940693, -0.003766677, -0.0058816574, -0.008299152, -0.00013875063, -0.015605211, -0.043103874, 0.036177758, -0.01986008, -0.00011710802, 0.02356211, -0.030336242, 0.014545354, -0.040969234, 0.044524815, -0.006040227, -0.012079397, 0.05834532, -0.006977206, 0.028933594, -0.024134587, -0.027910575, 0.0008256016, -0.004116921, -0.011182915, -0.0144164255, -0.009886932, -1.580981e-05, 0.013118254, -0.015375615, 0.12515888, -0.0069311117, -0.013109678, -0.012277842, -0.017837206, 0.020202067, -0.041805603, 0.029687112, -0.028848793, -0.030909618, 0.00064100133, 0.00436253, -0.0005887542, 0.03171494, -0.007563637, 0.00078100694, -0.0074255085, 0.013646313, 0.007997382, 0.031740006, 0.05218196, -0.020128513, -0.0038012608, -0.010199919, 0.006642587, 0.006648443, -0.00467412, -0.060920388, -0.059098236, -0.029296221, -0.018344857, -0.016830752, -0.035663936, -0.011221585, -0.015020799, -0.061213367, -0.019213168, 0.044552207, -6.299623e-05, 0.041059908, -0.035980735, -0.0833133, 0.02853288, -3.9593164e-05, -0.036959045, -0.033926785, 0.0027297384, 0.0005913457, -0.046983294, -0.023111166, -0.047477547, -0.0109592965, 0.03664977, 0.0370841, 0.035745434, 0.013821914, 0.010667121, -0.0020218247, -0.03572929, 0.06254444, 0.06482181, 0.00072294794, 0.0049700607, -0.0013418854, -0.08333604, 0.07489355, 0.03399398, 0.020429926, 0.0938242, -0.0023740053, -0.007531419, -0.037250068, 0.016238092, -0.08223278, -0.026738094, 0.010341105, 0.03895437, -0.036476783, -0.008655719, 0.0065720263, -0.005628629, -0.022127599, 0.00057144416, 0.02361435, 0.0032147004, -0.010222618, 0.060136754, -0.023313817, 0.0007513411, 0.055295534, -7.1678614e-06, -0.046879325, -0.074222066, -0.014041271, -0.09568265, 0.020250624, -0.00992737, -0.0405205, -0.004107539, 0.00012700024, -0.047920134, 0.05910721, -4.934484e-06, 0.04280757, -0.03969087, -0.06690162, 0.041828927, 6.0358754e-05, -0.03422377, -0.052928176, 0.035868403, -0.0032223158, -0.043741964, -0.008489863, -0.032716244, -0.010004171, 0.009511682, 0.01722238, 0.009783862, 0.0047930502, 0.035087243, 0.022210987, -0.038833994, 0.00814797, 0.044292707, 0.0006444152, 0.03539194, 0.00018402474, -0.044277065, 0.06754757, 0.038908433, 0.028981708, 0.047626343, -0.011002775, -0.006164538, -0.030111099, 0.007851712, -0.047654003, -0.020228442, 0.022610525, 0.0060382555, 6.39636e-05, -0.048221935, 0.0026186747, 0.007463528, -0.015685761, 0.018188171, 0.00455119, -0.041490402, -0.02072116, 0.058542993, -0.017953677, -0.02303629, 0.021487933, 2.3275219e-05, -0.055170022, -0.041961465, 0.061471812, -0.029068528, -0.02323905, 0.0065759146, 0.0026946347, -0.021909686, 0.011185723, 0.017128462, -0.029030908, -1.3047629e-05, -0.028562365, -0.00084624393, 0.025603056, -0.030774353, -1.29202235e-05, 0.038501598, 0.016166622, 0.050855868, -0.008535903, 0.04667957, -0.03303729, -0.039463576, -0.017873202, -0.0011694068, -0.04089438, 0.0023075982, 0.013265511, 0.013035869, -0.0011494482, -0.0012734648, 0.005881119, 0.0098894965, -0.00087499915, 0.020849032, -0.010851501, 0.06821468, -0.020506125, -0.024280109, 0.030401576, 0.0018964595, -0.007795947, 0.023656202, -0.008146786, 0.00139601, 0.032776654, -0.008258529, -0.014953797, 0.009171567, -0.0048789023, 0.0034572468, -0.0012097898, -0.019578252, 0.010694301, -0.0003599789, -0.004252013, 0.022780428, -0.0012947484, -0.02443154, -0.035436686, -0.016621485, -0.041054547, -1.6160426e-05, -0.0052183587, 0.028955879, -0.042229008, -0.00918773, 0.018813498, -0.015643813, 0.017017864, -0.0054273847, -0.0006002368, -0.01426948, 0.02704346, 2.4106023e-07, 0.026246246, -0.018529285, -0.004388403, 0.022878718, 1.6117373e-06, -0.022979667, -0.005781631, -0.0060868394, -0.009860384, -0.007377705, -0.019610118, 0.022732977, -0.003347582, 0.0028352723, 0.019467145, 0.016048068, -0.011895227, 0.047783215, 0.0021716962, -0.006314856, -0.042421263, 0.013620996, 0.0018505096, 0.024360733, 0.0004154839, 0.0018159577, 0.043256328, -0.015788114, 0.024365412, 0.018578425, 0.008219382, -0.019559743, -0.03003163, 0.000571772, -0.02794207, 0.0066014957, -0.0014292422, -0.007879587, 0.005927365, -0.031417068, 0.002208766, -0.018009117, -0.0070534707, 0.020202097, 0.01089686, -0.01810115, -0.015734356, 0.004372266, -0.0030387747, -0.014179767, 0.052148327, 6.8588593e-06, -0.012680511, -0.02132957, -0.014468703, -0.013813516, -0.050650768, 0.0036959292, 0.03425219, -0.009610664, -0.0018996389, 0.017862568, 0.0012695119, 7.338514e-07, 0.026020495, 0.04386372, -0.032702938, -0.031758714, -0.0004355758, 0.030112451, 0.019447738, 0.03905652, -0.03522428, 0.028004885, -0.006161212, 0.010840784, -0.019091774, 0.016638285, -0.018088918, -0.013822099, 0.01217904, 0.041276187, -0.009091455, 0.016227892, 0.048961032, 0.015250441, -0.00043843762, 0.020173533, 0.0025141707, 0.023906633, -0.029065827, 0.0052304273, 0.006384736, -0.011987562, 0.0044577653, -0.024402646, -0.010755224, 0.033915166, -0.003783255, -0.029563488, -0.0068854056, -0.002836876, -0.0008263873, 0.042981893, -0.024781927, -0.020493811, -0.02101714, -0.02761179, -0.013552814, 0.05196424, 0.007411298, -0.039619584, -0.014577565, 0.04894527, -0.07631977, 3.2511572e-05, 0.008322621, -0.025038807, 0.012863182, -0.005437818, 0.0010447927, 0.0065253093, -0.0097095305, -0.0071663493, -0.0130869625, -0.0037339756, 0.00067445287, -2.7442038e-06, 0.010073042, -0.014856012, -0.011672689, -0.03223393, 3.3235128e-06, 0.008887089, 0.0041203527, 0.0060118665, 0.016632931, -0.023899058, -0.031484358, 0.0046317903, 0.0010284127, -0.01556105, -0.008055318, 0.0043894183, 0.0021041755, 0.015958557, 0.002882867, 0.02731878, -0.002431729, 0.002675903, -7.840579e-06, -0.0009774613, -0.000931763, -0.016222334, 0.0024045536, 0.030302335, -0.0149207525, -0.006281909, -0.015118011, -0.010700742, -0.0041822754, 0.003969141, 0.04882783, 0.004884115, 0.0046357405, 0.017202092, -0.014803102, -0.02623434, -0.0029980855, -0.007967131, -0.019760188, -0.010401843, 0.0002728927, -0.03754924, -0.0016236586, 0.022423508, 0.02028039, -0.022995716, -0.0032590306, 1.3279036e-06, 0.020322291, 0.022423366, -0.0026184323, -0.027044749, -0.033741906, -0.0023392988, 0.045096043, 0.0023136605, -0.0107980585, 9.557817e-05, -0.029629685, 4.738801e-06, -0.015742315, 0.04046561, -0.008344181, -0.031518936, 6.616418e-08, -0.024797348, 0.033951458, 0.0066913245, -0.023048561, -0.009137636, -0.013236781, 0.027204528, 0.05085221, -0.051815342, 0.0024350225, 0.01480557, -0.020524664, 0.04877738, 0.0028289717, 0.006077785, -0.02086986, -0.0076776776, 2.0003445e-07, 0.009346668, 0.011682565, 0.06285972, 0.0124730095, 0.0067053987, -0.008735366, -0.00880977, 0.035275385, -0.016051691, -0.0050566285, -0.02005706, 0.033371963, 0.011368251, -0.008993594, -0.028361823, -0.036774945, -0.005166305, 0.0024110442, -0.005872217, 0.007706365, 0.0013345423, -0.00983464, 0.027851755, -0.014428496, -0.0067795007, 0.006782488, 0.024567412, 0.007670681, 8.736248e-06, -0.012696351, -0.0518759, -0.0023720353, 0.011582136, -0.03163388, -0.035329387, 0.01772754, -0.030033901, 0.042273063, 0.0017560478, -0.058741778, 4.523714e-05, -0.03861941, -0.0119388485, -0.0024686167, 0.009073702, -7.432408e-07, 0.09186331, -0.0032462664, 0.005203224, 0.0131449085, -0.0063447454, -0.017910112, 0.024216106, -0.003992034, -0.08854661, -0.0569429, -0.039973024, -0.032093182, -0.024694975, 0.061061226, 0.022744369, -0.012931959, -0.04633323, -3.8101516e-05, 0.017532349, -0.00088795467, 0.02101105, 0.003265785, -0.012218033, -0.06257593, -0.061567493, -0.0172905, -0.015976379, -0.046523422, 0.00028170558, 0.013084754, 0.016826175, -0.01740175, -0.021402784, -0.04063357, -0.027351197, 0.028355937, 0.0093291, -0.016618202, -0.0050888956, -0.015863713, -0.032708596, -0.01781703, 0.016459998, -0.012308859, -0.011681394, 0.011455069, 4.2198495e-05, -0.024717385, 0.022862442, -0.07524109, -0.013698335, -0.025165489, 0.009463144, -0.018475952, -0.014918574, 0.03153261, -0.012265339, -0.00045822264, -8.5221385e-05, -0.01508583, -0.02430626, 0.00070828584, -0.011645116, -1.6418022e-05, 0.017920062, -0.03192838, 0.005249294, -0.012944941, -0.027356531, -0.041268684, 0.007703509, 0.053793628, -0.008473572, -0.036652427, -0.011081895, 0.0056969076, 0.026564403, 0.02973132, 0.01500448, -0.025150895, -0.011827876, 9.9235805e-08, 0.0020581896, -0.0067149843, 0.037425667, -0.009226825, 0.011022308, -0.030814262, -0.016392564, -0.0006786821, -0.033275586, -0.014874485, 0.002013239, 0.010299781, 0.014383582, 0.00021888355, -0.007381786, -0.018998668, -0.041144162, 0.0027872254, -0.012316036, 0.022399189, 0.008033209, -0.0066111935, -0.008296298, -0.013666564, 0.0150750205, 0.0020361573, 0.014541611, -0.037171528, -0.0020267887, -0.035276826, 0.015655018, -0.04448074, 0.0005717591, 0.015419858, -0.02470803, -0.046005923, 0.016090117, -0.02610357, -0.0006331283, 0.049623016, 0.00033315047, -0.013000733, -0.020877516, -0.0050020386, -0.026231395, -2.1534022e-06, 0.11444359, -0.030817986, -0.0060599614, 0.018557174, -0.023457816, 0.010739452, 0.0086392695, 0.0037097458, 0.009938804, -0.014660974, -0.010539784, 0.014801824, -0.00023609174, -0.021413112, -0.0060597174, -0.05008253, -0.0030175457, 3.8503129e-07, -0.00124165, 0.018294916, 0.019957652, -0.00020370245, -0.0032627867, 0.009788983, -0.013234301, 0.019081488, -0.030756101, 0.036222853, -0.038352486, -0.011468113, -0.002134506, 0.00064732495, -0.0022120024, 0.054906525, -0.029942008, 0.0013795012, 0.003230124, 0.05353407, 0.049362246, 0.012396731, 0.04247361, -0.012915644, -0.015458832, 0.012909833, -0.0123965675, -0.03513785, -0.000284851, -0.07060035, -0.033764657, -7.6740245e-05, 0.05680525, -0.0551649, 0.011976602, -0.0020104288, 0.0050951983, -0.008872456, 0.011572154, -0.05255199, 5.2304035e-06, -0.01802615, 0.011827644, 0.017653901, -0.017758364, -9.147638e-06, -0.044371367, -0.020681204, 0.008633857, -0.04452087, 0.028364236, 0.0036253175, -0.0065956567, 0.0514501, 0.026104836, 0.0075066504, -0.004644235, -0.019904645, -0.023227043, -0.012964026, -0.015243944, 0.01037024, 0.005191515, -4.434503e-05, 0.015153307, -0.002622518, 0.08687201, -0.0060934727, -0.008249544, 0.000536969, 0.019698638, -0.005282213, -0.020469973, 0.01294224, -0.017463187, -0.009377011, -0.008543145, 0.009837721, 0.007187562, -0.01681229, 0.023287084, -0.021461887, -0.04297639, -0.009648011, -0.0021280234, -0.004748954, 0.04036759, -0.0065779635, -0.003311915, -0.021473449, -0.020429244, -0.01663878, -1.0939179e-07, -0.04478189, -0.041023012, 0.013471992, 0.013528066, -0.0077648475, -0.047250763, 0.013458897, -0.007813891, 0.023420047, 0.041408915, -0.007440637, -9.978189e-07, 0.026533034, -0.016189676, -0.03823078, -0.015647124, -0.00010641984, -0.048536133, 0.0097987065, -0.039944988, 0.009862773, -0.022675125, -0.011889014, -0.027138172, -0.061768457, -0.01702304, 0.0012526999, 0.044325605, -0.00048505096, 0.031250153, -0.009713088, -0.013594715, 0.033249702, 0.0010016924, -0.0010410575, 0.023932565, -0.0023239802, -0.04918658, -0.019712739, 0.012548334, -0.020864958, -0.0058635105, -0.0023446504, 0.05007731, -0.03772426, 0.025132025, -0.030561931, -0.018270833, 0.0015909073, 0.008541244, -0.028790463, 0.016056482, -0.0033567662, -0.00781803, -0.048423827, -0.022342801, 0.010713505, -0.020459771, 0.012947026, 0.030070357, -0.04460061, 0.022899387, 0.0147099, -0.00086807384, 0.035369355, -0.019419687, 0.013817813, -0.0306365, 0.0019054814, 0.022744324, -0.008932362, 0.01774056, 0.05567098, 0.021919698, -0.052495893, -3.8023804e-06, -0.03749726, 0.028144907, 0.032558303, -0.013451435, 0.00035021166, -0.037216526, 0.01901538, -0.039502773, 2.7061018e-05, 0.021324487, -0.019439058, -0.0021544695, -0.0022524314, -0.03246207, -0.014383784, 0.0125598125, -0.0024453306, -0.027945213, -0.010528779, 0.052035294, -0.01808369, -0.043584354, -0.0009900209, -0.026059516, -0.002109962, -0.016091183, -0.03942354, -0.012860986, 0.00422542, -0.054933943, 0.00624217, 0.002832915, 0.0034231984, 0.0027583665, 0.034927085, -0.005216932, -0.0029648074, -0.004863347, -0.014151297, 0.007062433, 0.00021537479, -0.042629078, 0.005266426, 0.023722703, -0.010066584, 0.02219585, 0.007921779, -0.021023203, -0.015838832, -1.2759556e-05, -0.0034553618, -0.00010008037, 0.019836703, 0.035947014, -0.02766756, 0.03233611, 0.008371847, -0.04789659, 0.015914531, 0.014063543, 0.022771679, 0.058425445, 0.014998786, -1.284482e-05, 0.022308458, 0.003671776, -0.014276659, 0.0021316202, 0.0003598347, -0.08952396, 0.021224065, -0.06369379, -0.0474896, 0.013161672, 0.019008003, -0.0061416393, -0.048086643, -0.012343293, 0.019620754, 0.029153729, -0.036255173, -0.02325042, -0.011305615, 0.030069364, 0.051145136, -0.031814516, -0.0020097215, 0.008215207, -0.0025566197, -0.040366545, 0.023018844, 0.0012630487, -0.03879018, -0.041277234, -0.016855221, 0.039390612, -0.050473835, 0.04279912, -0.003991735, -0.019434324, 0.023294153, 0.016562797, 0.0024784845, 0.010334009, -0.008723116, -0.02611668, -0.03090851, -0.021589726, 0.0062943916, -0.03736091, 0.0162115, 0.0060512107, -0.034860972, 0.039890386, 0.03372646, 0.00015844195, 0.02405941, -0.04867891, 0.025790604, 0.034227457, -0.034786195, -0.0393616, 0.039746515, -0.0056142993, 0.0071936185, -0.029879937, -0.056675255, 9.302703e-06, -0.070821695, 0.010637538, 0.019437877, -0.02546109, -2.9608407e-07, 0.0770327, 0.0043976153, 0.00439813, -0.05273428, 0.024562363, -0.033404157, 0.0070359358, 0.02390835, -0.056900747, 0.03586401, 0.013527715, -0.048775375, 0.010757504, 0.0103052445, 0.026989529, -0.062664725, -0.039082352, -1.4728122e-05, 0.015071408, -0.000235976, 0.06591841, -0.023433294, -0.046155564, 0.0015105912, -0.06782986, 0.012791089, 0.008178486, -0.0251362, -0.04310718, 0.024622763, 0.017845366, -0.021455934, -0.008476554, 0.012331324, 0.013343425, 0.013015909, -0.002465586, 0.024296386, 0.015080303, -0.0065180026, 0.040038455, 0.007258843, -0.024375362, -0.03227823, -0.010290447, 0.003720752, 2.543951e-07, 0.016806234, -0.035726838, -0.05848873, 0.02715558, -0.036681127, 0.0045948313, 0.014534449, 0.008667026, 0.040237688, -0.024326256, -0.030027052, -9.692297e-05, 0.017576547, -0.014972163, 0.0009361967, -0.00025935477, -3.919383e-06, -0.004206226, 0.0014372715, 0.026223436, -0.04281855, 0.023671199, -0.0033009944, 0.003916283, 0.03374875, -0.090700306, 0.024104897, 0.005425498, -0.036410112, -0.0102172475, 0.018251613, -0.0022770697, 0.00944963, -0.0034318774, -2.7370805e-05, -0.013951527, -0.0042183287, 0.06394212, -0.026122592, 0.017459255, 0.0060363114, -0.025502943, 0.00852895, -0.04848197, -0.005697859, -0.024006527, 0.0075691263, 0.0071358415, -0.012044346, -0.028365847, 0.014032434, -0.022912877, 0.0011805445, -0.011611464, 0.0013678429, -0.007900017, -0.013031724, 0.018036474, 0.011461613, 0.023976699, -0.014306206, 0.014835138, 0.0115158865, 1.9820786e-06, -0.024039505, -0.028589666, -0.033654295, 0.014300087, -0.009847107, -0.024228858, 0.046782985, 0.010336692, 0.0032459195, -0.0065738694, -0.05503519, 2.6352478e-07, -0.025242198, 0.042980406, 0.013137167, 0.0105099855, 2.4803576e-05, 0.05313243, 0.09008481, 0.0033289324, -0.02381856, -0.016037898, 0.0068444083, -0.022673398, -0.03530509, -0.015886215, -0.042536605, 0.02138875, -0.026939651, 0.0124196075, -0.008888946, 7.145875e-05, 0.017715573, -0.022599205, -0.00048125026, 0.030130606, -0.01250098, 0.0013220969, -0.056534234, -0.025650563, -0.024847804, -0.04022754, -0.025345959, 0.010736982, -0.024784528, 0.02100028, 0.060524236, -0.01653915, -0.016195536, -0.041224156, 0.010032231, 0.049662065, -0.02302172, 0.005507647, -0.012332035, -0.020045334, -0.034211535, 0.017272018, 0.03130435, -0.03514887, -0.02374834, -0.0043787695, -0.055326074, 8.682872e-05, 0.055339243, -0.0068453527, -0.017771378, 0.014027656, 0.03871039, 0.0068267663, -0.009951246, -0.013584424, -0.0066648438, -0.019679926, 0.015174497, -8.2409615e-06, -0.016182402, 0.0085910885, -0.016169984, -0.0056742006, -0.00051877304, -0.019605827, -0.004430456, -0.017285844, -0.029179307, -0.014573732, 0.005196819, 0.009195564, -0.04495352, 0.006423822, -0.03177782, -0.0055328785, -0.00042922643, -0.0043429183, -0.001753696, -0.010860866, 0.009814423, -0.006918844, -0.00033363132, 0.0011973731, -0.0032064412, -0.037307557, -0.0025327315, 0.03083105, -0.011919765, 0.02146842, 0.0037985824, 0.0006707053, 0.031227052, 0.02017637, 0.029270807, 0.003276021, 0.0333139, 0.0011651058, 0.029055549, 0.015021998, -0.013216736, 0.036099136, -0.0212335, 0.008287549, 0.00180937, -0.05219285, 0.021500865, 0.0121357, 0.012916355, 0.016094377, -0.01951744, -1.9241725e-06, 0.00050505355, -0.024796406, -0.023746181, -0.0072119446, 0.019583901, -0.0055834656, -0.036321003, -0.001428914, -0.0041702064, -0.028887741, 0.045741525, 7.579384e-07, 0.02851095, -0.028597336, -0.022060554, 0.0063658864, -2.4785622e-05, 0.032511722, -0.02531838, -0.022189267, -0.0035851921, 0.017035702, 0.0018890611, 0.00156876, -0.025583122, 0.029280886, -0.0052200765, -3.7829508e-05, 0.013928843, -0.0032361594, 0.021770557, 0.00058277015, 0.0470192, 0.028369198, -2.9783263e-05, 0.0011557193, -0.0013776836, -0.06634278, -0.023880435, -0.00013825845, -0.010125172, 0.006383876, -0.014908833, -0.013283876, 0.044592872, 0.00019067051, 0.04719978, -0.010134892, 0.028949032, 0.00816476, 0.044529624, 0.037528846, 0.0035174175, 0.038851436, -0.011843201, 0.0012188201, -0.0032683983, -0.019224603, 0.026831776, 0.016609993, -0.0015555944, 0.019814014, -0.06426372, 6.250448e-05, -0.0076146284, -0.028806914, -0.041581698, -0.02198265, -0.0018954788, -0.010805439, -0.011787689, -0.04868828, -0.011168506, 0.020770023, -0.054257233, -2.0569027e-05, -0.01810137, 0.00345901, 0.01019468, -0.003572933, -5.450533e-06, 0.015477609, -0.0014110093, 0.005823499, -0.0014548481, -0.01839242, -0.0075968476, -0.03435344, 0.0028560003, -0.008240356, -0.034508426, -0.0010621763, 0.0063961293, -0.023609517, 0.015730133, 0.0035003538, 0.00083324156, -0.011897379, -0.00029912998, -0.011954589, -0.0036829696, -0.015448073, -0.0006819899, 0.0024664053, -0.010026722, 0.0077267126, -0.01405614, 0.012499156, -0.023200152, -0.005331592, 0.016478132, -0.004365668, -0.0044616004, -0.005935068, -0.04047625, -0.01053799, -0.0067786546, -0.009630455, -0.0057005547, 0.013535821, -0.0041626473, -0.009700591, -0.005978195, 0.018121177, -0.022285385, -0.04244177, 0.008425826, -8.7986635e-05, -0.008269671, 0.01947937, -0.005892708, 0.0020482433, -0.0058422443, -0.03346287, 0.003934318, 0.017083019, -0.022286896, -0.0071154013, -0.026398828, -3.695345e-05, 0.021783885, 0.010521637, 0.02191311, 0.024625486, -2.8485056e-06, -0.01763819, 0.0061764484, 0.018953566, -0.03286403, -0.032996744, 0.010185581, 0.003296448, 0.027558044, 0.013041987, 0.022159126, -0.008356697, -0.0049984907, -0.015797924, -0.003705407, -0.012308156, -0.017761616, 0.0060669277, 0.0004072941, 0.015991151, 0.012264262, -0.013404715, 0.000108478365, -0.015709106, -0.005567643, -0.0083844485, -0.00087544543, -0.0066386447, 0.004753884, -0.020928971, -0.0109071, 0.0008218497, -0.0068540834, -0.005286458, 0.014286274, 0.013131864, -0.001185724, 0.01563973, 0.01060447, 0.014858191, -0.0031977184, 0.030020948, -0.018398413, -0.015284334, -0.012331553, -0.00766374, 0.018108858, -7.3308234e-05, -0.008644892, -0.030917972, 0.036775317, -0.017351637, 0.006841077, -0.0026092718, 0.056896403, 0.018490955, -0.014725837, 0.0036965013, 0.0021430645, -4.457748e-07, -0.0391793, 0.013536145, -0.027880497, -0.036420524, 1.3284888e-07, -0.003767767, -0.006917387, -0.0037966599, 0.00561847, -0.007352468, -0.01825193, 0.007270522, -0.03400633, -0.024613166, 0.018350057, -0.010603371, -0.0030859802, 0.053617224, 0.001877386, -0.0057879607, -0.006478994, -0.000693599, 1.2829262e-05, 0.00049126096, 0.004725918, -0.0038441992, -0.0058333525, -0.01785661, 0.0039999965, 0.0043670773, 0.052300185, -0.00914006, 0.018040966, 0.0051668007, 0.01763951, -0.0026856908, 0.0055347206, -0.024688285, 0.03216695, 0.01418207, 0.009736218, 0.027349576, -0.0034526102, -0.022883063, -0.007858582, 0.022748005, -0.0256281, 0.0022585876, 0.011385593, -0.0036278265, -0.020196937, -1.7803533e-05, 0.022009162, -0.063163176, 0.022474388, -0.0014499343, -0.03834686, -0.0034546845, 0.03054625, 0.0436688, 0.023343995, 0.003946366, -0.02397177, 1.6562688e-06, -0.0058242017, 0.009754189, 0.01580043, -0.021569436, 6.6165676e-06, -0.013188057, 0.002547348, -0.031266093, -0.018643733, 0.016479013, 0.014876176, 0.018938046, -0.028023746, 0.0033606172, -0.0017013876, -0.01486203, -0.01716238, 0.03654042, 0.001565788, -0.03437205, -0.012320622, -0.02867656, 1.8122848e-06, 0.015040349, -0.011882654, 0.027583819, -0.0013728733, 0.009221959, 0.003992426, -0.028084658, 0.04662432, -0.009845794, -0.0074012843, 0.010404039, 0.021824675, -0.0024069885, -0.003643111, -0.0071577034, 0.010423865, 0.013150763, 0.0039735246, -0.009760918, 0.033160858, -0.0057841605, 0.017897228, 0.022401154, -0.026173726, -0.020176733, -0.011617893, 0.034077078, -0.018055813, -9.1118614e-05, -0.0037245972, -0.052893594, 0.013625309, 0.03035946, 0.02909782, -0.02643272, -0.007041139, -0.024881704, 0.0017341475, 0.0006205155, 0.03174533, -3.9534894e-05, 0.0021608411, 0.026487172, -0.019077545, 0.016980989, 3.4464863e-06, -0.019444501, 0.0004004555, 0.015537333, 0.024485685, -0.040135458, -0.014675197, -0.0037318757, -0.00086032524, 0.016322255, -0.037025142, 0.012048956, 0.018465307, 0.026963918, -0.011506982, -0.013018342, -0.006222088, -0.030105975, 0.00054678635, 0.020364584, -0.0010893025, -0.011552288, 0.035198748, -0.013126057, 0.0051383134, -0.00826795, -0.007880901, 0.025414564, 0.012587211, 0.022421734, 0.016300451, -0.007352593, -0.009345988, -0.020792069, 0.0067113056, -0.009066715, -0.018965937, 0.012553539, -0.023890648, 0.011179301, 0.009921888, -0.044328414, -0.022659099, -0.0048440034, -0.025111502, 0.026482334, 0.011815846, -0.0026019702, -0.006853797, 0.029625908, 0.010072433, -0.014732473, -0.017324602, -0.029967388, -0.026966127, 0.012584748, 0.022174135, -0.04198308, 0.0008443046, -1.19087135e-05, -0.014946374, -0.018929942, 0.001037244, 0.018473124, -3.2496785e-06, 0.022098523, 0.009948928, -0.0348174, 0.0046790377, -0.033497583, -0.017942382, -0.0135403145, -0.020908948, 0.028052106, 0.023568036, -0.008760422, 0.034382198, -0.005311366, 0.027167728, -0.03151497, -0.008883018, -0.0063354596, 5.644623e-05, -0.0027317118, -0.0148013355, -0.058141056, 0.0088447975, -0.023961859, -0.004591789, 0.01913571, -0.009042036, -0.0029316314, -0.00682512, -0.0019527444, 0.01710242, 0.003195318, -0.017038703, 0.010849298, 0.013564087, 0.002016959, -0.0055591147, 0.011685354, -0.02647466, 0.002528226, -0.018978303, 0.00096607266, -0.016991828, -0.010306108, -0.03062904, -0.0014184557, 0.007602799, -1.9369052e-06, 0.004524774, -0.019786246, -0.0049194335, -0.017504554, 0.00071428454, 0.011573673, 0.010818328, 0.0025052612, 0.004718396, -0.03242748, -0.014488123, -5.6637446e-06, 0.051126078, 0.029370721, -0.0072057475, 0.003016727, 2.001957e-06, 0.03658644, 0.033648416, 0.03041955, -0.021080103, 0.009978202, 0.004977849, -0.0241668, -0.0013802464, -0.052864, 0.02188252, -0.0020837856, -0.009623753, 0.016879758, -0.00219837, -0.01331244, 0.02806945, 0.021308886, -1.5337233e-05, -0.015924089, 0.00475873, -0.0006991892, -0.021596286, -0.0128592625, 0.0024585638, -0.0063130585, 0.007137868, -0.046198964, 0.052111123, 0.0054980456, 0.05324481, 0.0055107684, 0.008198712, -0.014477418, -0.016586993, 0.017539259, 0.0027650201, -0.0116063645, -0.0042185877, -0.010670317, -0.011688652, 0.012864167, 0.0077182706, -0.01486961, -0.002455502, -0.0031655745, -0.03238786, 2.6769033e-06, -0.0027520056, -0.03277314, -0.011890415, -0.012147774, 0.012924071, -0.00046029597, -0.037984822, -0.037449356, 0.017742017, 0.0042587756, -0.025120158, -0.00020616475, -0.04256593, -0.04473344, 0.018751878, -0.010716024, -7.209247e-05, 0.035279747, -0.0033276398, -0.018077968, 0.008200806, 0.018317414, -0.048446663, -0.028788615, -0.003156859, 0.028021073, -0.012022049, 0.021263428, 0.012000512, 0.030878857, 0.027370628, 0.01690925, -0.0069275415, -0.015597312, 0.00046768136, -0.012674618, -0.00051145256, -0.013548892, 0.02952195, -0.014718081, 0.031620167, 0.0085314615, -0.037778784, 0.033555347, -0.030498346, -0.026250929, -0.00013922882, -0.011770046, -0.023329588, -0.021235967, 0.0069310227, -0.034152098, -0.003101147, 0.029664021, 0.017260732, 0.028352216, -0.012472176, -0.039342728, -0.037206985, 0.019996684, -0.01364534, -0.036563423, 0.033279985, -5.225723e-05, 0.023161855, 0.031120285, -0.026182866, 0.017899223, -0.009686223, -0.010513285, 0.040159814, 0.01418179, 0.04218453, -0.0019665319, -0.019862127, -3.4551444e-08, 0.047327437, 0.0065618395, -0.0069790487, 0.01495259, 4.2692605e-08, -0.037236188, 0.016186815, 0.03803398, -0.017745387, -0.019217057, 0.026852041, 0.0019150788, 0.010694912, -0.044288, 0.015692096, 0.002674974, -0.012133411, 0.022027284, 0.00716351, -0.010454337, 0.03264408, 0.015951697, 0.0002808644, 0.012650694, 0.001082375, 0.024363192, -0.009275042, -0.007335658, -0.004148744, 0.00083414203, -0.015443738, -0.004843377, -0.018936394, -0.0056602033, -0.022745833, -0.0016871523, -0.022158187, -0.016248727, -0.01583605, -0.022164177, 0.00976136, -0.0021014751, -0.015041747, 0.00904808, -0.029483164, -0.0036621068, -0.0060828244, 0.009203914, -0.0010742209, 0.0048135547, -0.009345495, 2.9423913e-06, 0.01117094, -0.012750981, 0.0012054889, -0.015947646, -0.015459109, 0.013702406, -0.0073099467, 0.03361172, 0.013914189, -0.036909036, -0.007093694, 2.9631683e-06, -0.023221385, 0.0113965, -0.0017241328, 0.012171895, -0.0002825941, 0.017012607, 0.047908247, -0.009823158, 0.015407723, -0.009818814, 0.03912683, 0.012161417, -0.01727976, -0.0015558281, 0.04756954, 0.004036403, 0.0048737135, -0.026451228, -0.004602008, 0.052387483, 0.0020512363, 0.0049456637, -1.3707895e-05, -0.050563507, 0.008260217, -0.045261923, -0.048730236, -0.01321945, 0.0056058266, -0.03617682, -0.050287515, -0.022461973, -0.04303255, 0.00072630204, -0.012356171, -0.0010979841, -0.0182634, -0.010470148, 0.03414233, 0.005247528, -0.0033876523, -0.0034349358, -0.016599834, -0.0028398708, -0.015720468, -0.0053039305, 0.034692824, 0.019110693, -0.034115445, 0.04835777, 0.0041097957, -0.00056703645, 0.014058276, 0.04098915, 0.02967676, 0.029449476, 0.01755601, 0.0107392585, -0.012542881, -0.03177061, 0.024831746, 0.014991868, -0.017859742, 1.1237594e-08, 0.0029947283, 0.016684173, 0.02422349, -0.01629726, -4.56463e-05, -0.005946736, 0.020797627, -0.023885885, -0.007930858, 0.0023824293, 0.0015708853, -0.045852292, -0.021532271, -0.011826985, 0.0032644658, 0.0072346292, 0.0073990617, -0.0034047726, 0.023089036, 0.014637895, 0.040473383, -0.014588128, -0.00021777724, -0.006004183, -0.001470437, -7.525739e-05, 0.003078596, -0.013021247, -0.03241859, -0.009214958, -0.0020973117, -0.0005444508, -0.0403611, -0.005358171, 0.012790783, 0.0026955788, 0.00013892177, 0.033175405, -0.058084697, 0.014795218, 0.0031765467, -0.019236665, -0.03198475, -0.0030369153, 0.008440742, 0.00082376285, 0.0084556015, 0.0055278125, -0.026600394, -0.031380687, 7.8664976e-05, 2.1815626e-05, -0.004845926, 0.0008730107, -0.035630174, 0.012614569, 0.054482996, 0.0052837534, 0.022248086, 0.002404214, 0.019267935, 0.0147127, -0.01405481, 9.3273954e-08, 0.024649795, -0.008693021, 0.008583492, 0.022855852, 8.9881475e-08, -0.025069995, -0.018122045, 0.007821481, -0.051353652, 0.0061999406, 0.029801855, -0.007079752, -0.03157019, -0.05480371, 0.02634348, -0.01619682, -0.0173442, -0.0010281618, 0.01765547, -0.04104416, -0.028335322, 0.012457749, -6.817424e-05, -0.013945495, 0.00026292034, 0.0036338412, -0.03356925, 0.03383871, -0.011095239, 0.015013415, -0.029166449, 0.008903085, 0.0039628, 4.7084366e-05, 0.011185621, -0.012739891, -0.00027941694, -0.005801884, -0.011297066, 0.024218552, -0.0077217226, 0.012933937, -0.004826684, -0.026052777, -0.00066984806, -0.044795405, 0.021402212, -0.01815744, 0.009255782, -0.0008149692, -0.0049239714, 5.618163e-06, 0.034802325, -0.01816984, 0.015617764, -0.011784146, -0.044199597, -0.011229274, 0.026214337, -0.0065960907, -0.0062530506, 0.02899928, 0.018032014, -2.6498845e-05, -0.016771883, 0.0012132325, -0.019524524, 0.0046153967, -7.975199e-05, -0.021124713, 0.0069374763, -0.0010551751, -0.004380051, 0.0067990404, 0.007805415, -0.0042424845, -0.010847874, -0.018541105, -0.03737321, -0.0005307774, -0.029107956, 0.015672503, -0.0060435217, 0.0033766935, -0.021320589, -0.031163076, -0.0007836801, 0.019568127, -0.023881009, 0.028293964, 0.027304847, -0.004953408, -0.01971814, 0.015936939, 0.026232952, 0.0076164133, -0.034350414, 0.039099798, -0.0380455, -0.011317426, -0.0013353827, -0.018992454, -0.011894858, -0.051830992, -0.029227115, -0.0060376665, -0.029139984, 0.0060369535, 0.016154502, -0.02197372, -0.012129289, -0.038089428, -0.035130113, 0.060489666, 0.027647205, -0.0035017629, -0.016348122, -0.007442899, -0.013773123, -0.010648976, 0.019779408, -0.013839419, 0.017207017, -0.0050249104, 0.00012859589, -0.006120268, -0.008623377, -7.814845e-06, 0.009703253, -0.0031904944, 0.02127063, 0.00938427, -5.235663e-07, -0.033150136, -0.00888326, -0.031808373, -0.0009555812, -0.012899688, -0.012138309, -0.013365311, -0.007903107, 0.02825094, -0.0030918368, 0.012477398, 0.027145706, 0.013957281, -0.01010833, 0.00024987845, -0.021002095, -0.013875655, 0.00015249185, -0.0013304146, -0.011950716, -0.013266335, -0.01279758, -0.056710843, 0.026315214, -0.0060647726, 0.01026165, 0.025751673, -0.009468538, -0.020287551, -0.021436825, -0.017877843, -0.0075332676, 0.02457384, -0.030235393, 0.030135345, 0.0062562204, 0.01900001, 0.00036737998, 0.0076085855, -0.01381358, 0.0057296953, -0.034757476, -0.012515371, -0.0048148697, -0.004653895, 0.03092903, -1.1758152e-05, 0.032777343, 0.012371589, 0.0033999996, -0.02991891, 0.0022350436, -0.002859962, 0.01587647, 0.029261062, 0.0071507636, -0.019172298, 0.035200052, -2.337346e-05, 0.020037502, 0.0075204656, -0.005860171, 0.010834531, 5.985217e-07, 0.009708685, -0.026077, 0.028160326, 0.0022902694, -0.026683256, -0.051866557, -0.023400012, 0.05592897, -0.03604168, 0.04917432, -0.0007969496, 0.033193573, 0.01846863, -0.027505223, -0.0017157237, -0.026894169, 0.029006183, 3.6391993e-05, -0.006118068, 0.011971854, 0.01683814, -0.03369317, -0.01562994, 0.04479887, -0.007319545, 0.04734701, -0.025710419, 0.010844677, -0.020508084, -0.016361644, -0.012408771, -0.0028660228, -0.04629513, 0.01600634, -0.022221072, 0.005582733, -0.03152904, 0.014487293, 0.010568326, -0.019668495, 0.0378056, -0.034367025, -0.000555752, -0.00895559, 0.0143905645, 0.003619732, 3.1166685e-06, -0.011214454, -0.02726315, 0.034720376, -0.0049222577, -0.00010975433, 0.02402626, 0.003378599, -0.010834332, 0.013787975, -0.05246454, -0.016262835, -0.0007701172, -0.03768865, -0.057329576, -0.028674431, 0.024514794, -3.6729463e-05, 0.0046005347, -0.019117782, 0.00018873213, 0.005531284, -0.011799326, -0.028272215, -0.021549575, 0.0055727544, 0.013781144, -0.021336233, 0.026492113, -0.008105841, -0.036376994, 0.0040696636, 0.03912258, -0.014960617, -0.015903307, -0.00010297039, -0.03433335, -0.011076638, -0.017353706, -0.019165078, -0.030449044, 0.0074244253, -0.010884567, 0.018104939, -0.02668738, -0.013909918, 0.0037133293, 0.016194433, -0.0023781846, -0.007657378, -0.007048007, -0.00094001053, -0.04207671, -0.0035072567, 0.024405042, 0.015271994, 0.008306898, -0.017942214, -0.022703074, 0.017170466, 0.034964412, 0.0045634527, 0.0041562608, -0.009759208, -0.00073837844, 0.023183154, 0.022893658, -0.016024016, 0.040608373, 0.03470649, 0.02980186, -0.017454932, 0.031305198, 0.05585815, -0.013632383, -0.019512152, 3.7581205e-07, -0.0036881291, -0.034053925, -0.016265256, -0.007934765, 5.191814e-07, -0.019596504, -0.01083695, -0.0039715692, -0.0037693107, 0.006212322, 0.006107004, -0.019211382, 0.058602847, -0.030545706, 0.01108139, -0.017942386, -0.004096278, 0.012843466, 0.010713699, -0.004931167, -0.016997125, 0.010864152, 0.0001959707, -0.04259983, 0.0009889173, -0.041997172, 0.009337946, 0.02686902, 0.010284839, -0.01878688, -0.013784953, -0.044481132, 0.02327939, -0.016505187, 0.0067009046, 0.0005631831, -0.008816131, -0.06874192, 0.058427077, -0.040931687, 0.013013552, -0.0031332218, -0.00042466552, -0.005120148, -0.008595807, -0.00516384, -0.038501482, 0.05610381, -0.0032295869, -0.043368857, 0.030466724, 4.066619e-06, -0.018055504, -0.010501356, 0.05860182, -0.0015812702, -0.013310508, 0.0007651043, -0.0033447398, 0.012550939, 0.039811004, -0.03374883, -0.019514812, -2.369089e-05, -0.051008303, 0.021751745, 0.0061121723, -0.0070714597, -0.0003896927, 0.018646168, 0.013404404, -0.024521027, 0.011455748, -0.044847086, -0.020984758, -0.05875746, 0.013323511, 0.025577731, 0.02413414, 0.024842426, 0.035453215, 0.04140439, -0.0060841655, 0.014325368, 0.020915505, -0.00977353, -0.00036386313, 0.008999408, -0.005920563, -0.029131824, -0.01200288, -0.0277038, 0.017191682, -0.018245032, -0.004459395, 0.016027987, -0.0523734, 0.004230766, 0.031584114, -0.009852766, -0.022334252, -0.045287166, -0.01501901, 0.039296255, -0.012076808, -0.011225141, -0.027428588, 0.008745859, -0.01037576, -0.006529251, -0.0007312983, -0.015997794, -0.017338978, -0.018033676, -0.033974376, -0.00014276242, -0.022625526, -0.020032076, -0.025532087, 0.002860499, 0.024791729, 0.018762797, -0.010658812, -0.0068261814, 0.005327772, -0.0026627153, 0.009952194, 1.1505478e-08, -0.0022294847, 0.0072524236, -0.01702066, -0.010473827, 9.1460046e-05, 0.0034339495, -0.010520345, 0.0072498587, 0.010768369, -0.0020823688, -0.0033601231, -0.0027112418, 0.009367291, 0.016407039, -0.018502377, -0.0127985645, 0.0027965375, -0.00092901645, 0.009023437, -0.012568626, -0.00010391526, 0.004904269, 8.11808e-06, -0.0076262774, -7.5779695e-05, -0.009135934, 0.028289203, -0.01917933, 0.010824767, 0.0028551496, -0.011340862, -0.0062017534, 0.036379464, -0.016947012, 0.026009655, -0.003910901, -0.0022296691, 0.009420967, 0.0028804261, -0.004335754, 0.00019960765, 0.01766953, -0.005926306, 0.012432914, 0.0041458374, -0.0021776687, -0.014519842, 0.015355766, -0.009312384, -0.018921858, -0.0025908363, 1.1472985e-05, -0.026038347, -0.0012992218, 0.0070696613, -0.014560596, -0.024678675, -0.026758049, 0.01910854, 0.0007216147, -0.0050234096, 0.013471128, -0.033780366, 4.028121e-07, 0.038589932, -0.015267361, 0.00065147295, 0.024863176, -0.00068827294, -0.018441528, 0.016173722, -0.043164834, -0.023510901, 0.025370495, -0.020508474, 0.023461014, -0.017324744, -0.049447086, 0.021774648, 0.03769247, -0.029546892, -0.0054059085, -0.019456564, 0.003036968, 0.027149208, 0.0021665385, 6.3629506e-07, 0.0352, -0.0013609853, 0.03730676, 0.0008460276, -0.014900631, -0.011139346, -0.01100866, -0.003369213, -0.018323561, -0.009622338, -0.015818631, -0.024768643, 0.004614886, -0.011248885, 0.022712834, -0.022579541, 0.054642107, 0.002241112, 0.018735997, 0.028302882, -0.011799683, 0.00354909, 0.021258181, -0.0016654568, 0.02649329, -0.00064895855, 0.011417273, 0.0136453565, -6.4632346e-05, 0.007907585, -0.057108346, -0.042172723, -0.007366524, 0.02325328, 0.0221342, -0.027821071, 0.007198306, 0.025998438, -0.018531704, 0.017009951, -0.00085030595, -0.015885672, -0.0198797, -0.02781852, -0.003895586, -4.3067852e-05, 0.0275868, -0.0072355513, 0.03748012, 0.04124868, -0.021595074, -0.007802146, 0.02663521, -0.021603595, 0.0008493401, -0.013559055, -0.0093148, -0.01039703, -0.03095124, 0.0062973658, -0.0077336538, -0.030704018, -0.015477138, 7.366861e-06, -0.017015276, 0.0025763342, -0.020712009, 0.028197829, -0.0025426957, -0.024279123, 0.014664397, -0.0011535191, -0.006339078, 0.03547838, 0.005503486, 0.037268177, 0.005869725, 0.004123919, -0.007611923, 0.01696462, -0.0382884, 0.0028996733, 0.032811392, -0.035845596, 0.008938183, -0.003827295, -0.001740231, 0.017811418, 0.0027435482, 0.02698268, -0.006508915, -0.010717953, -0.000329921, -0.017517172, 0.038956806, 0.010780191, -0.017612837, 0.055699203, 0.011557411, -0.027731808, 0.009299485, 0.02781881, -0.020614238, 0.02550143, -0.00012262509, -0.0094837975, -0.01222802, -0.023504969, 0.012457924, 7.532216e-06, -0.035626188, -0.0026797692, 0.010143068, 0.045535084, -0.023004126, 0.00817991, -0.001897397, 0.02001132, 0.027225265, -0.012513086, 0.007374847, 0.0045414995, -0.005396489, 0.0039329506, 0.0028541163, -0.0027729215, -0.00804611, -0.00020363824, 0.0027652616, 0.0019124807, -0.034188665, 0.026808282, -0.020904113, 0.005324798, -0.0066330447, -0.0070152273, 0.02572234, 0.05543172, 0.014461854, 0.017812528, -0.0064753, 0.01195272, -0.0052013984, 0.014640086, -0.028175374, -0.008180306, 0.0001296888, -0.037228577, 0.01679834, 0.010284142, -0.035521302, 0.019098893, 0.005666026, 0.014334434, -0.0018107585, 0.015428985, -0.0008123664, -0.0008379107, 0.049505547, 0.017370913, -0.012191958, -0.008345114, -0.008229489, -0.019226609, -0.014057827, -0.013138529, -0.0045688604, 0.03079447, 1.3613912e-06, -0.0122095365, 0.01113059, -0.032387484, -0.00981876, 1.1832855e-05, 0.008838873, -0.028377524, -0.021994026, -0.016014129, -0.006569514, 0.011085431, 0.006185203, 0.014301839, 0.024193628, 0.0065839803, -0.004758904, 0.012642131, 0.015914995, 0.021387957, -0.012076841, -0.030073041, -0.007464529, 0.000107328815, 0.019095756, 0.00020492089, 0.015356387, 0.020018686, 0.025760818, -0.0022712024, -0.006424469, 0.008624919, 0.0061932537, 0.023944048, -0.007989938, -0.0059750373, 0.005397539, -0.0009903357, -0.0025091895, 0.008832401, -0.014244138, -0.0016806754, 0.0042353165, -0.011340735, 0.003910632, 0.024532631, -0.010712037, -0.014044088, 0.011940003, -0.018331215, 0.026358215, 0.0018886856, -0.001057725, -0.028527645, -0.008562416, 0.0072005372, 0.005442098, -0.049618043, -0.028313804, 0.015461069, -0.010626219, 0.034557506, -0.02234005, 0.02828363, -9.7822536e-08, -0.007379928, -0.031336315, -0.0068294653, 0.015529627, -0.00077449885, -0.024182064, 0.017161494, 0.0051102033, -0.006331821, -0.031624053, -0.03605533, -0.02550586, -0.013749189, -0.014050525, 0.024810148, 0.050986093, -0.019475846, 0.029205335, 0.007486815, -0.00602584, 0.008109482, 0.0025740964, -0.00042104596, 0.03513235, -0.0054956, -0.038702894, -0.03616237, 0.011859476, 0.0009935916, 0.0019532123, 2.8390976e-05, 0.0068684057, -0.045193058, 0.0070430906, 0.0037915881, -0.0078816665, -0.019021545, 0.006641953, -0.01633003, 0.0045462055, 0.0026056818, -0.018051654, -0.010554234, -0.01740602, -0.003250246, -0.035389166, 0.018841967, -0.010631455, -0.03280597, 0.053883735, -0.03393846, -0.0019763703, 0.022647487, -0.017495217, 0.006558166, 0.012349381, 0.016078312, -0.030935569, 0.012975878, -0.011325462, 0.02693623, -0.010075517, -0.019241711, -3.7437253e-06, 0.036560353, 0.0018848018, -0.005674338, 0.029872218, -3.9110357e-05, -0.04007894, 0.035502944, 0.025121648, 0.027072102, -0.022107977, -0.009173526, -0.009202799, 0.0037556156, 0.012705865, 0.0008434743, 0.032397665, -0.008524111, -0.022272129, -0.00577884, -0.008563292, 0.03774928, -0.009472783, -0.00019597376, -0.013784595, -0.011645574, -0.048936076, -0.060951773, -0.00034240534, 0.0026103894, -0.012346174, -0.013591639, 0.0342039, -0.016253311, -0.0054191304, -0.013640307, -0.011255816, -0.016921325, -0.021337556, -0.011786559, 0.016757123, -0.00092399085, -0.0124592325, 0.00700692, 0.0137125505, -0.02357498, -0.0143043175, 0.008955594, 0.013295624, -0.010961718, 0.012578304, 0.042029727, -9.888162e-06, 0.033872087, 0.03689891, 0.01667589, -0.0017443302, 0.0075595994, 0.03156689, 0.013432815, 0.03154098, 0.0054011457, -0.023577912, -0.0006988494, -7.670747e-06, 0.0029663572, -0.0071606957, -0.020371465, 0.005209252, -1.7279901e-05, -0.0219746, 0.014301902, 0.0015362075, -0.033602223, 0.024568897, 0.016424896, -0.006236985, -0.0355121, -0.044424787, 0.057790052, -0.016420277, -0.0045104357, -0.0125256665, -0.015256796, -0.0037852468, 0.012442762, -0.010639782, -9.451885e-06, -0.019332612, -0.002971069, -0.026998272, -0.04272995, 0.0030108406, -0.024142457, -0.008629413, -0.007150602, -0.00019957736, 0.03649024, 0.0031368032, 0.033392753, 0.0015524061, -0.018525979, -0.0075093354, -0.006060016, 0.001608694, -0.001940258, 0.025780994, -0.030337831, -0.040284924, -0.025580408, 0.007000052, -0.0037649039, -0.029975649, -0.031529155, -0.0036238355, -0.020147765, -0.00013504116, 0.02760452, 0.029911615, 0.037842978, 0.04342082, 0.022845315, -0.010645297, 0.016345324, -0.0057466114, 0.016404051, 0.04483089, -0.04939799, -3.1049953e-07, 0.008132243, 0.0011263563, -0.0071001095, 0.041146025, -3.1045568e-06, -0.035387926, 0.041535888, -0.02535694, -0.004511203, -0.020667512, -0.02729823, -0.01071571, -0.030486638, -0.017964799, 0.0128157, -0.0049741264, 0.0013015378, -0.014154989, 0.014908882, -0.015864683, 0.0029727966, -0.019689655, 0.00032439144, 0.0129869385, -0.0009024319, -0.03919975, -0.043396845, -0.0054948768, -0.02151432, -0.03522549, -0.0040899976, 0.048002683, -0.027473986, -0.009940956, -0.008050957, -0.013164161, -0.023183983, -0.019679563, -0.028077725, -0.0077652796, -0.0017851779, -0.023805058, -0.021442095, 0.0065383855, -0.004756363, 0.0027608073, -0.023599707, -0.014834152, -0.028867975, 0.028019011, 0.011390743, 4.1320624e-07, 0.027723802, 0.024849815, 0.021774692, 0.0029729975, -0.018561082, 0.03559386, 0.052444495, 0.02303722, 0.024117196, -0.03199945, 0.0035324842, 0.00013199911, -0.035411827, -0.0548562, 0.008543361, 0.036554966, -0.00051603175, -0.043054406, 0.037990402, -0.042113177, -0.030035939, 0.01773511, -0.005838224, 0.019130854, -0.009281614, -0.029446393, 0.058509473, 0.04874148, -0.040400688, -0.00015203662, -0.013972361, 0.038112618, -0.0033682918, -0.028144043, -3.0021229e-06, 0.00018347896, -0.0064477576, 0.01671092, -0.017511694, -0.03127097, -0.008876278, -0.030849144, 0.0006408179, -0.055677816, -0.030715115, 0.014507065, -0.046478942, 0.0006849432, -0.010057059, -0.00685003, 0.0022920056, -0.002825675, -0.00017840999, 0.018634548, -0.008260649, -0.0061502457, -0.004283935, 0.006698143, 0.031914163, -0.01909031, -0.0035666854, 0.061338764, 0.014812558, -0.00028533084, 0.03130229, -0.007474167, -0.00803558, 0.020499472, 0.015501093, 0.026887696, 0.021744654, 0.014809338, -0.0045026145, -0.015024802, -1.3647248e-05, -0.00030210105, -0.0036834162, -0.015364009, -0.033423852, 0.05664357, -0.000103761435, -0.011905022, 0.048807062, 0.021619946, 0.012230337, -0.016372465, 0.0369764, 0.0023314527, -0.035219096, -0.08195046, 0.04584792, 0.0054321936, -0.01030246, -0.016942477, -0.026532989, -0.0053689396, 0.002029861, 0.00153149, -9.3319584e-05, -0.019925568, 0.00020396274, -0.008697178, -0.038842663, -0.03656849, -0.013785662, -0.024737235, -0.010009452, -0.022693696, 0.022142548, 0.019951982, 0.02090651, -0.002395585, -0.0026069607, -0.022115203, 0.0089200465, 0.0065852785, 0.00054951524, 0.035630092, -0.014449853, -0.029717056, -0.01617342, -0.017473979, 0.038152184, -0.0069047064, 0.0069260993, -0.021953994, -0.026571717, -0.0010919841, 0.056653976, 0.014875511, 0.0546143, 0.035327625, -0.007773283, 0.010133294, 0.00088951556, 0.021733753, 0.015699279, -0.013292758, 0.000767676, -6.913847e-05, -0.038898624, 0.009684992, -0.010466589, 0.011401974, -1.3753689e-05, 0.024524432, 0.043589056, -0.0057563176, -0.024296397, -0.010271801, -0.0003169811, 0.020636354, -0.004539308, -0.02541772, 0.02752691, -0.01032486, -0.026475811, 0.003189721, 0.0014419124, 0.00025131393, -0.008826465, -0.008724017, -3.195477e-05, -0.018263578, 0.0037194306, -0.008228073, 0.022194728, -0.031127343, 0.010480294, -0.005026794, 0.015379978, -0.036186807, -0.0037903301, -0.0011927391, 0.021844272, 0.010890582, -0.015508273, -0.032961022, -0.008618249, -0.012367585, 0.0034812903, -0.0030878233, 0.01041583, -0.0064570564, -0.0045694914, 0.031734917, -0.0044749184, -0.0036523791, 0.0016793832, -0.028269624, 0.0042897374, -3.1151336e-05, -0.008166383, -0.024254689, 0.007065995, 0.060928732, -0.003365696, -0.013043333, -0.023375915, -0.02005096, -0.016723586, -0.0025191435, 0.010686457, 6.210217e-08, 0.01146114, -0.012279024, 0.008704732, -0.021891141, 3.788458e-07, 0.0018777269, -0.045108184, -0.0061677303, -0.047163952, -0.009439046, -0.0050038593, 0.0033821422, -0.028622244, 0.063212566, -0.038053825, 0.024149554, -0.0011638168, 0.005840815, 0.008631258, 0.003704528, -0.007560239, 0.014628484, 3.4776977e-07, 0.011497883, -0.00018834748, 0.0139002865, 0.0010467875, 0.038225234, 0.0020216994, 0.029682722, -0.0122069, 0.016293483, -0.03364008, -0.010320302, -0.0056057237, -0.016276902, -0.0075954744, 0.04825161, -0.048623182, 0.0049686013, 0.004776827, -0.031586315, -0.005068929, 0.0072760493, 0.016928613, -0.02973291, 0.001453507, 0.012805431, -0.013178107, -0.0035746347, -0.019015534, 8.094264e-06, 0.0054933997, 0.010337576, -0.027190873, -0.032497212, 0.01976379, -0.0049291328, 0.0021451754, -0.03489207, 0.01918435, -0.010889888, 0.019409023, 5.2300166e-08, 0.029981647, -0.030552115, -0.025117401, -0.024222674, 1.166435e-07, -0.026544027, -0.009700815, -0.005766401, -0.011377004, -0.011577359, -0.027747476, -0.006193042, -0.022343155, -0.0096461745, -0.008992956, 0.027405193, -0.0048474576, 0.0034976136, 0.016724713, -0.016892105, 0.023323184, 0.014324597, -0.00037118033, 0.013892861, -0.00028238542, -0.00018348021, -0.026174497, 0.03984863, -0.024660347, 0.015081145, -0.0011263132, -0.005792648, -0.0041228672, 0.0026127417, 0.018085914, -0.014334446, 0.007881349, 0.022870304, -0.03375395, 0.03489877, -0.0042200563, -0.0023204342, -0.024482058, -0.007018201, 0.012664802, 0.015540252, 0.037485454, 0.040802613, -0.014867897, 0.015426097, -0.002061959, -4.066385e-06, 0.013278367, -0.039186597, -0.05937964, -0.038956974, 0.010513915, -0.0009912798, 0.013328753, 0.012614189, 0.002171404, -0.019174576, -0.018880535, -4.1070874e-05, -0.00478144, -0.0010821321, -0.019459898, -0.00072221557, -7.2613857e-06, 0.028283462, 0.018747931, 0.014488292, 0.008466339, -0.0094203, -0.0033676082, -0.009784248, -0.04366946, -0.03149883, -0.021171397, -0.0047800927, 0.0014065035, 0.00054760335, -0.015014075, 0.002807974, -0.0015637927, -0.008744634, -1.4099235e-05, -0.030383212, -0.0048932247, 0.0030307588, -0.027942367, -0.008536011, -0.0070261513, -0.01088548, 0.008517863, 0.0075603467, 0.00345758, 0.006357847, 0.012632549, -0.005090036, -0.0019542244, -0.020835266, -0.01943857, -0.006216572, -0.0068685985, 0.043491237, 0.010769906, 0.0013616463, -0.009548831, 0.015401152, -0.0020230443, 0.010967999, 0.0057304655, -0.025286842, -0.01764052, -2.484883e-05, 0.021492079, 0.016250508, 0.0017555939, 0.03253824, -0.013231448, 0.0037159438, -0.0022277224, 0.025631955, 0.006485998, 0.007734029, -0.0069567882, -0.0008233193, 0.0076298066, -6.934402e-05, 0.037091754, -0.0031399697, -1.4254185e-06, -0.029098945, -0.005477459, 0.008823698, 0.009716482, 0.00064990256, 0.006130836, 0.007131693, -0.03597801, 0.00022207922, 0.012578646, -0.008894365, 0.005168338, -0.01876671, -0.002363012, -0.01797154, 0.020320324, 0.008439307, -1.03016596e-07, 0.0021831312, -0.0007203566, 0.034231775, -0.01639533, 0.00019286486, 0.020019295, -0.015484095, -0.010712209, -0.01628468, 0.001626962, 0.006406745, -0.00438169, 0.00011294034, 0.004103834, -0.0040354133, 0.023287537, 0.017697908, 0.00025953088, 0.0031957647, -0.020789048, 0.0008512547, -0.0034932464, 0.003243818, 0.01102875, -0.0064243567, 0.0045634056, -0.002205618, 0.0019245239, 5.324803e-07, -0.0014727733, 0.023670945, 0.018321557, 0.004180372, -0.01554401, -0.0044111046, 0.006420264, 0.008139645, -0.015569269, -0.012715073, -0.017680636, -8.553093e-06, -0.0022833087, 0.0018666233, 0.0022152713, 0.0045985403, -2.964078e-07, -0.010457169, 0.009267583, -0.00031794977, -0.023989743, -0.00795905, -0.0048049814, -0.021083375, 0.022306105, 0.019119138, 0.00031595794, -0.025795026, -0.012302249, 0.007678507, -0.010726865, -0.010677216, -0.008818194, 0.0046573593, 2.4154292e-06, 0.006050473, -0.0035218103, 0.014762221, 0.006788449, -0.010364243, -0.0021708366, -0.021132883, 0.015006458, 0.0044261706, -0.023539336, 0.0015969591, -0.04489799, 0.0007371584, -0.00970258, -0.031286556, 0.052887157, -0.005614267, 0.0014138494, 0.012740504, -6.995331e-05, -0.018700184, -0.003149756, 0.010895429, 0.00020300454, -0.016126307, -0.02428593, 0.007898231, -0.011318715, -7.8238416e-05, 0.0014090871, -0.013611848, 0.005829181, 0.0004315313, -0.0012190717, -0.019584682, -0.0003919915, -0.023372363, 0.05173967, 0.09311717, -0.05613675, 1.3407323e-06, 0.006133102, 0.022859914, 0.00881167, -0.031134235, 7.1754903e-06, -0.009884072, -0.0020074022, -0.060124695, 0.0005894813, -2.0199688e-05, -0.022194687, 0.01566696, 0.014844493, 0.0060968366, 0.009994332, -0.0058095064, -0.001132969, 0.008212877, 0.03475963, -0.020991392, -0.016170245, -0.044054557, -2.7325272e-05, 0.045478318, -0.00020214543, 0.020917548, 0.0644561, -0.030684074, -0.0016396723, -0.03318822, -0.017292457, 0.005501096, 0.0042359815, -0.0051564216, 0.014754037, 0.012262244, 0.0069547873, -0.0075862543, -0.029590795, -0.024578564, 0.009096914, -0.02082464, -0.0069964067, 0.0038345456, 0.0107533755, -0.0014748552, -0.041157078, 0.033524346, 0.008966183, 0.004107794, 0.10165236, -0.0061593703, -0.035739586, -0.0478557, 0.030729072, -0.011169718, 0.040618923, -0.013736521, 0.013625799, 0.0027584154, -0.027372673, 0.040975917, -0.0043174876, 4.0345213e-08, -0.007134573, 0.010617397, -0.0029072685, -0.00830429, 1.09469816e-07, -0.025711568, 0.019853793, 0.01271397, 0.015675621, -0.0410491, 0.003852558, -0.002176527, -0.0083976425, 0.021274852, -0.007975504, -0.01340909, -0.008403399, -0.007859407, -0.0069253393, -0.023581998, -0.0024701704, 0.008481733, 0.0015766516, 0.013495395, 0.00023173336, -0.028858162, 0.008675125, 0.026555639, -0.0027316096, -0.03308415, -0.0052959053, 0.021767406, 0.004169594, 0.011591293, 6.756617e-05, -0.017683744, 0.016227663, -0.031191414, 0.012450191, -0.015472609, -0.014148989, -0.014375151, -0.02206762, 0.022723, 0.015929453, 0.00086617406, -0.029974507, -0.037414916, 0.008552754, -0.030488148, 0.008210957, 7.643326e-07, 0.015649566, 0.057614435, 0.035101745, -0.022433655, 0.0077768485, -0.028117394, -0.027219856, 0.03522731, 0.024649069, 0.003527473, 0.007131412, -3.54675e-07, 0.015105608, 0.011357817, -0.023547653, -0.039506003, -2.7551022e-07, 0.0068140333, -0.023297131, 0.0064491173, 0.008113015, -0.004231741, -0.029996403, -0.018749755, 0.0006895815, -0.020921178, -0.037933886, -0.008528918, 0.0020251977, 0.024385372, -0.0038580587, 0.005785798, -0.0029224942, -0.0021613026, -2.2243175e-06, 0.0015941795, -0.007338437, -0.0071457024, -0.0032993595, 0.0023044446, 0.008411272, -0.023416074, 0.027921716, 0.01579039, 0.020871282, -0.0010309248, 0.0077356463, -0.001437508, -0.0042808005, -0.0093471175, -0.018604992, -0.013869957, 0.0030251497, 0.015609014, -0.0101005295, 0.017012946, -0.0060707335, 0.030318921, -0.03030824, -0.005784414, -0.015096771, -0.008491722, -0.007276636, -2.586956e-10, -0.027089195, -0.028997546, 0.024807733, 0.01737561, 0.019789306, 0.042020082, 0.0012292705, 0.02333581, 0.048966292, -0.025407257, -0.023718407, -4.9012773e-08, -0.0063973633, -0.027324406, -0.03825709, 0.03672968, 3.2994766e-08, -0.01910451, 0.0069158846, -0.010873414, 0.003364114, 0.013676742, -0.0017563375, -0.021029137, -0.014970759, -0.05844875, -0.023725582, 0.00020941722, -0.01898077, 0.011147056, 0.025815548, -0.031705897, 0.03238244, -0.0068754535, -2.863879e-06, -0.010754384, -0.00067456695, -0.025268167, -0.014209182, -0.010476358, -0.018075446, -0.03686741, 0.037958145, -0.05284122, 0.02890377, 0.014400774, 0.013601255, 0.000113755974, 0.0017239829, -0.03803867, -0.029620174, -0.016374603, 0.006297314, 0.0022746688, -0.014040736, -0.01190039, -0.004213693, 0.004607781, 0.024707686, 0.028667085, -0.009274419, -0.037715834, -0.022550978, -1.9516852e-07, -0.0122027425, -0.0007208644, -0.027351037, 0.01119719, 0.008174537, 0.005665124, -0.0060642273, -0.01258393, -0.013432696, -0.011922882, -0.028825885, -0.0012068395, -0.039030783, -0.015636938, -0.022271188, -0.021718862, -2.3173458e-05, 0.037906617, -0.04341625, -0.031863216, 0.028727178, 0.012425159, -0.025850799, -0.0032635857, -0.028872225, -0.012330279, -0.03720515, -0.0047922363, 0.025832586, -0.048681203, -0.0017736945, -0.0082354965, -0.014021228, -0.028516464, -5.553223e-06, -0.029985096, 0.008526947, 0.010874169, -0.029187828, -0.00012689497, -0.018663831, -0.028670145, 0.038190447, 0.0019320693, 0.011793151, -0.011832038, 0.01675079, -0.006500053, 0.0012458658, -0.037814926, 0.02133317, -0.028618015, -0.0020958302, 0.034965694, 0.005538499, 0.008522476, -0.010032908, -0.0020673152, 0.0013069282, 0.041502014, 0.014111385, -0.01271927, 0.019351086, -7.384854e-05, 0.0027490293, 0.023790188, 0.003382929, 0.01357193, -0.011934507, 0.00016687042, 0.0073272735, 0.023644136, -0.0041309875, -0.01501057, -0.03629551, -5.033969e-08, 0.02435108, -0.028036978, -0.0014927154, 0.011833505, 1.0523489e-09, -0.0058957767, -0.0020380858, 0.021234881, 0.023161676, -0.03620124, -0.012935912, -0.023493206, 0.02051701, -0.023437819, -0.023059063, 0.0016707942, -0.0009844551, 0.0010770211, -0.013101872, -0.014071716, 0.01220339, 0.005625147, -0.008337497, -0.003706874, 0.0003252594, 0.019054295, -0.01282853, 0.02806914, 0.025976414, -0.027362274, -0.008032139, -0.0028678263, -0.023561073, -0.008194793, 0.023044033, 0.0056562885, 0.0019655246, -0.020572158, -0.012226321, -0.012326373, 0.009341405, -0.01236535, 0.013562746, 0.009210131, -0.014370891, -0.0019666746, -0.0067949677, 0.02713521, 0.005054253, -0.017273875, 0.00595206, -1.9082565e-06, 0.003577028, 0.019124422, -0.0056871045, -0.043053363, 0.00568649, 0.019448895, 0.0066195326, -0.01919454, -0.021832703, -0.030476425, 0.022407806, -2.917582e-06, -0.018418923, -0.025578188, -0.010313491, 0.049312085, 1.9914624e-07, 0.0013647873, 0.009866097, 0.0030759221, 0.00037389688, -0.0041659847, 0.009622657, -0.025998559, -0.00059663574, -0.020995095, 0.02623604, -0.008515769, -0.017116582, 0.0015797386, -0.031986464, -0.010947414, 0.0022884887, 0.032169, 2.3861813e-07, -0.009946035, -0.008475596, -0.0037653458, -0.030581713, -0.018765485, -0.028386852, -0.020632537, 0.021316594, -0.01218155, -0.0056243683, 0.022684336, -0.048099812, -0.0031507614, 0.016023755, -0.014026807, 0.042985786, 0.0067438125, -0.00024844575, 0.016913919, -0.033855267, -0.02157439, -0.011376535, -0.027042286, -0.000374236, -0.0033572407, -0.024076669, 0.0036023094, -0.033441983, 2.117634e-08, 0.005596342, 0.00018266635, 0.039170753, 0.03720014, 0.007862206, -0.0039557256, 0.008943731, 0.0018836763, 0.017548, -0.027386168, 0.0013067543, 4.2147104e-09, 0.01407871, -0.0036894549, 0.016522704, 0.009576509, 4.9212808e-08, 0.009268328, 0.028845917, 0.01988095, 0.007699506, -0.0014772121, 0.0070443354, 0.005617281, -0.010706083, -0.0087072365, 0.00908094, 0.004136279, -0.011381324, 0.024534212, 0.009882299, -0.015815664, 0.028392004, -0.020821571, -2.6965738e-05, -0.012169909, -0.00810653, -0.035668887, -0.0057783867, -0.017430322, -0.023461388, -0.0012193196, -0.021238767, -0.015148627, -0.015599698, 0.019607415, 0.035834897, 0.0031041976, -0.015674358, -0.0014105892, -0.029426353, 0.004574124, -0.003783543, 0.024269134, -0.012197075, -0.012577355, -0.014314514, 0.0009319796, 0.006672036, 0.013141802, -0.014828872, -0.010436795, -0.00084408605, 2.3757289e-07, 0.029259063, 0.0055896263, -0.028262373, 0.008813589, 0.0507469, 0.02261049, 0.0168657, 0.033134725, 0.037767667, 0.009758025, 0.008886354, -2.2864977e-09, 0.034354113, -0.0006932107, -0.02991791, 0.017391125, 2.8596494e-08, -0.0051957215, 0.006426936, -0.027303401, 0.021190627, 0.030921618, -0.0220757, -0.0172141, -0.026171593, -0.051287126, 0.013520714, -0.03356118, 0.010573558, 0.006157827, -0.019518128, -0.019865822, 0.052390236, -0.015887806, -6.6538625e-05, -0.020814938, -0.0008870895, -0.035519227, 0.0039170925, -0.045591176, -0.03241816, -0.015778495, 0.021480355, -0.020286724, 0.042945243, 0.015697148, -0.021982705, 0.0018981225, 0.0015421533, -0.0053783753, 0.008367172, 0.02510107, 0.0047015836, 0.027593624, 0.002630675, -0.016777547, -0.008179508, 0.05456952, -0.02292849, 0.020547774, -0.027176898, -0.0031801688, 0.00317218, -1.141151e-08, -0.0076369327, 0.0009668014, -0.025906881, -0.022716561, 0.044057902, -0.016368862, 0.035739828, -0.010901807, -0.05819772, 0.048787154, -0.016650323, 1.0446741e-07, 0.005160666, 0.028047329, 0.010107328, 0.014191203, -2.1462113e-06, -0.041970607, 0.03900781, 0.023295475, 0.00894558, -0.020352071, 0.006484448, -0.0018282387, -0.00059031014, 0.019679, -0.018409835, -4.9216975e-05, 0.006520167, 0.0007048423, -0.0041259415, -0.010995735, -0.016885756, -0.026737295, 0.0005409389, 0.008167235, -0.0018592912, -0.02166369, 0.011136235, 0.0046075657, -0.0042885384, 0.0042978358, -0.017461859, 0.03354204, 0.0041634496, 0.013943985, -0.004107037, -0.00021373297, 0.008303922, -0.021042727, -0.0056764167, -0.02114224, -0.013210629, 0.0053896527, -0.011169566, 0.032568544, 0.016641587, 0.021945575, -0.017474286, -0.023258723, -0.015175159, -0.0025650177, 0.035043642, -1.1941224e-05, 0.02179448, 0.05126206, 0.03608067, 0.0071491064, 0.005649268, -0.025433766, -0.008866616, 0.03461967, 0.020161316, 0.008961362, -0.000799623, 5.652899e-05, 0.01565757, -0.0066585736, 0.0009939692, -0.01369111, -4.5418865e-06, -0.008062452, -0.028562073, -0.028973058, 0.017440138, 0.04807102, -0.029722204, -0.008443219, -0.017899496, -0.033980984, -0.03669922, 0.008385911, -0.011706386, -0.026393102, -0.007133803, -0.011801149, -0.0017067586, -0.013376115, 1.2310449e-05, 0.0078601185, 0.0019037676, 0.030517291, -0.0010696122, -0.013682855, 0.014663653, -0.023746325, 0.019668084, 0.010028935, 0.03197955, 0.0033653425, -0.032431968, -0.008098283, -0.006798741, -0.016073074, 0.014987757, 0.030655552, 0.0006138333, 0.023515416, 0.038850833, 0.029345317, -0.006028899, 0.040284526, -0.01723231, -0.0060428786, -0.0034710981, 0.017162919, 0.005074579, 2.774527e-08, -0.0148320105, -0.004290085, 0.005063162, 0.043400962, 0.021322474, 0.031798046, 0.008146196, 0.022599827, 0.057807088, -0.030181386, -0.0012370002, -5.264555e-06, 0.010481455, -0.021381317, -0.0024424775, 0.017194776, -8.837316e-07, -0.060815252, 0.010949287, 0.019238966, -0.024959102, 0.0012327716, -0.034762483, -0.02923093, 0.08344297, -0.01566095, -0.0019057335, -0.00057311845, -0.01693436, -0.019089052, -0.012740431, -0.019680308, -0.0031754, -0.012444045, 8.406955e-07, -0.013269971, 0.0011032578, 0.031804707, 0.0035955976, -0.052197512, 0.02034916, -0.046582226, 0.03393194, -0.04072621, 0.054744177, -0.012290938, -0.03251578, -0.0068558482, -0.0014341358, -0.058026277, -0.01443498, -0.022778925, 0.0043552998, -0.025149034, -0.019702682, 0.023837838, -0.008901004, 0.039164346, 0.004128467, -0.021523021, -0.009000542, -0.0246921, 0.029125499, -0.00036710638, -0.026272781, -0.0076401983, 0.018507604, 0.024604546, 0.0275808, -0.0008054002, 0.019705461, 0.01266884, -0.048408624, -0.014276204, 0.002473465, -0.00021409694, -0.04682896, -0.020196866, -0.042801775, 0.02028853, -2.6046804e-05, 0.036982536, -0.0074947756, 0.00791119, 0.024004037, -0.028784072, 0.02683167, -0.0016577807, 0.007560836, -0.019853486, -0.003503856, 0.006411265, -0.008207388, -0.012090867, -0.010725775, 0.005182018, -0.027202219, -0.015890501, -2.599456e-06, -0.009396288, 0.005829144, -0.010897572, -0.017872471, -0.026218668, -0.031255152, -0.021654, 0.027840855, 0.0018091871, 0.031085823, 0.014104315, -0.011431895, -0.004979142, 0.0131636, -0.028324692, 0.008820979, -0.035724346, -0.0028178715, 0.051627956, -0.017323285, 0.013789883, -0.0062464923, -0.009769072, 0.009984909, -0.0031197262, -0.022202298, -0.010534691, -0.007258889, -0.00010118089, -0.0028706358, -0.0017320798, 0.018268133, 0.020502925, 0.015423134, 0.036524754, 0.023154402, 0.009211613, 0.04136061, -0.06267813, 0.012344606, -0.0007334068, -0.03232849, -0.023537891, -0.015586684, 0.029769814, -6.185232e-08, -0.015166256, 0.010226177, -0.0028656388, -0.0004095428, -0.026403237, -0.065263465, -0.03252804, 0.017283248, 0.0018308519, 0.0043004006, -0.021513253, -0.0173482, -0.025484685, -0.020295851, -0.035754845, 0.013620553, -0.0013285459, 2.8768183e-05, -0.032213952, 0.008775841, -0.015245384, -0.018077837, -0.017214423, 0.04191197, -0.039232112, 0.04067259, -0.037279535, 0.012521325, 0.017769061, -0.0054715034, 0.009849708, -0.00069271005, -0.059371356, 0.07701556, -0.015642744, 0.0015765408, 0.009098765, -0.030574603, -0.011514685, -0.028053189, 0.00030329044, -0.012415578, -0.0066962014, -0.02292972, 0.04188038, 0.017064815, -0.000435849, 0.00505977, 0.009065661, -0.018687284, -0.020702155, 0.009030636, 0.0062541, -0.01947676, 0.022916751, 0.050375152, -0.020251911, 0.025890244, -2.938349e-05, -0.041378237, -0.014900602, -0.02842515, 0.057404175, -2.5944694e-06, -0.0034584394, 0.025224933, -0.0019216621, -0.030572833, -0.0027426647, 0.025301099, 0.012541729, -0.0028624176, -0.016455855, 0.022005912, 0.013603526, -0.011584383, 0.021054065, 0.0039332337, -0.037891105, -0.0005620053, -0.028838765, -2.8198938e-06, 0.0020467993, -0.0033236064, -0.0027532636, 0.0019675328, -0.019895272, -0.0120782815, -0.030914934, 0.018645199, -0.043473013, -0.012466456, 0.0139055485, 0.054859936, -0.00053812534, -0.0026922978, -0.05279763, -0.0053949617, -0.034277402, -0.0013931481, 0.026880926, -0.011067243, -0.029061379, -0.008218642, -0.039299622, 0.0109155215, 0.0075118514, -0.023792583, -0.039130416, -0.023858428, -1.9732031e-05, 0.010848832, -0.038866553, 0.015469721, 0.08085827, 0.013194437, 0.0064283926, -0.010471622, -0.0042803916, 0.0050136014, 0.00921174, 0.01687574, 3.207457e-08, -0.037162486, -0.03329635, 0.023995658, -0.0026707433, -4.021263e-08, 0.016544601, -0.015646955, -0.0091418885, -0.022051325, -0.034672208, 0.005711312, 0.0030035225, -0.0017275813, 0.018923188, 0.02025925, -0.019506413, -0.024719875, -0.010212357, 0.009709415, -0.004397872, -0.02439818, 0.003417511, -0.00018014357, 0.031523142, 0.00036081678, -0.018604849, 0.055890784, -0.025733573, -0.003638442, -0.03265765, -0.017038045, -0.008047943, -0.0296016, 0.008563427, -0.0071241655, -0.005007631, -0.007997759, 0.011398179, -0.0054065846, 0.004597436, 0.0004587431, -0.027902976, -0.0117906835, 0.0021653844, 0.0020961221, -0.017014163, 0.011598963, 0.008143009, -0.0013668581, 0.012569141, 0.015728524, 1.9937025e-07, 0.00022647303, 0.0005279367, -0.01095684, -0.014426723, 0.020582462, -0.028509403, 0.0027450842, -0.003256224, 0.0007349093, 0.017374378, -0.034546774, -1.3709402e-07, 0.036345225, 0.019855192, 0.0064169965, -0.007947902, 8.935206e-08, -0.0295897, 0.017303215, 0.035988953, -0.0041375645, -0.0096493205, 0.018935269, -0.004763544, 0.017651776, -0.038314275, 0.0050917664, 0.034946125, -0.009139391, -0.018673321, 0.011120355, -0.035570998, 0.021980068, -0.01031806, -0.00023298444, 0.053040624, 2.3138477e-05, -0.014825678, 0.001503438, -0.0066965693, -0.025005808, 0.0091595445, -0.013827743, 0.0021317168, 0.025546553, -0.005992626, 0.056598235, 0.0036414417, 0.01770409, 0.020460287, -0.04377221, 0.03725057, 0.0047010533, 0.006519549, 0.002500912, 0.007686513, 0.020440327, -0.011566479, 0.034088504, 0.033884592, 0.04312408, -0.023043817, 0.058344383, -0.0006248778, 0.015549333, -0.04244127, -0.021327047, -0.02117956, 0.009953655, 0.007486406, 0.010273404, -0.014498329, 0.0011459456, 0.014627615, -0.020134475, -7.206557e-07, -0.023960648, -0.033474993, -0.0079807965, 0.00592088, 3.1498523e-06, 0.04343958, -0.004341389, -0.012546806, 0.021964492, 0.005134786, 0.016946966, 0.0029160029, 0.028778918, 0.00081942324, 0.032591626, -0.014440331, -0.005765329, -0.009661957, 0.020063177, -0.0014496037, 0.018828249, -0.0040159207, -8.973523e-05, -0.0010177451, -0.0004559249, -0.040009394, -0.009414151, -0.02215051, -0.035678074, 