#include "core.h"
// Conv1D Layer 0 Weights
const fixed_p leg_conv1d_0_weights[3][1][16] = {
    {-0.104032256, -0.46435285, -0.34835127, -0.22335166, -0.37048927, -0.043771405, -0.24362136, 0.20446844, 0.19122139, 0.35336488, 0.3539623, 0.23120092, 0.17127287, 0.25430036, 0.46949628, -0.103020154},
    {-0.36703447, 0.07413248, -0.19014983, -0.22009954, -0.39818746, 0.33967608, -0.27479097, 0.43133742, 0.39816383, 0.36018002, 0.25787327, 0.31965488, -0.3005731, 0.3965837, 0.12635618, -0.36373588},
    {-0.05769224, -0.4470182, -0.20061874, -0.14339375, -0.11147235, 0.33411962, -0.26766324, 0.32706338, 0.2850133, 0.41294408, 0.28188765, 0.30356094, -0.16765782, -0.035716068, -0.030404182, -0.27349132},
};
const fixed_p leg_conv1d_0_biases[16] = {
    0.012120109, 0.021266656, 0.017593015, 0.017641507, 0.008739006, 0.027551392, 0.011459614, 0.03774627, 0.075146236, 0.0383404, 0.08059365, 0.034505367, 0.030297777, 0.0491615, 0.043963555, 0.014743641
};

// Dense Layer 0 Weights
const fixed_p leg_dense_0_weights[3808][8] = {
    {0.030610865, -0.029492958, -0.032843333, 0.015125364, 0.018577488, -0.041811578, -0.028127281, 0.015791005},
    {0.008447065, -0.031800967, 0.027396291, 0.010525048, 0.0046760365, 0.005802205, 0.012710055, 0.022255603},
    {-0.005895047, 0.03337053, 0.01267308, 0.044911765, 0.028638171, 0.026531037, 0.022536546, -0.023812119},
    {-0.005821783, 0.03466045, -0.028987186, 0.033414565, -0.03075207, 0.019209184, 0.008663103, 0.021753669},
    {-0.012121541, 0.023000486, -0.022975992, 0.031235479, 0.002371978, 0.010096371, -0.0012571253, 0.0024852902},
    {-0.010360409, 0.07370059, -0.040544547, 0.04884046, -0.004562547, 0.03789955, 0.069385774, -0.015293455},
    {-0.0028372146, 0.03547874, -0.030511137, -0.031992204, 0.030483665, 0.03373806, 0.028870102, 0.014462825},
    {-0.039571628, 0.02080501, -0.0115920985, 0.03363795, 0.0024281342, 0.04091196, -0.031700376, -0.0037177398},
    {-0.042789936, 0.037237506, -0.03409657, 0.042929847, 0.07288936, 0.0748739, 0.03333821, 0.009815798},
    {-0.0086910175, 0.0050014304, -0.01363628, -0.007667904, 0.06236782, 0.024299271, 0.021169253, 0.015362604},
    {-0.034101613, 0.040900342, 0.0004952561, -0.0054793498, 0.083878905, 0.096433036, -0.025229946, -0.044176966},
    {-0.014088879, 0.049654182, 0.019341948, 0.038465552, 0.015672816, 0.06098018, -0.038953193, -0.022735624},
    {-0.015453321, -0.008915106, -0.0015238933, -0.016526947, -0.012247993, 0.10137961, -0.013337875, -0.033385955},
    {0.023894755, -0.024446197, -0.010390545, -0.0009582678, 0.011826956, 0.10232831, -0.011012686, -0.015875058},
    {-0.0035811458, -0.03503995, 0.018584248, -0.065880194, 0.053622387, 0.099192806, -0.0380129, -0.02775388},
    {-0.022909077, -0.0019563176, -0.002856575, -0.039184608, -0.03456797, -0.008513372, 0.050681617, -0.005877926},
    {-0.019344341, 0.019526394, 0.017029803, -0.057692703, -0.03960175, 0.072838455, 0.043958146, 0.0574397},
    {-0.0025520474, 0.025697956, -0.03443948, 0.017592374, 0.03580752, -0.061435394, 0.017400246, -0.0041703284},
    {0.0020886436, 0.043061264, -0.025127664, 0.0082028005, 0.006142424, -0.005161724, 0.039529715, -0.01761756},
    {0.01519523, 0.061584245, 0.0030429773, 0.0008185896, -0.0046514836, 0.0036549687, 0.027897619, 0.0075222915},
    {-0.044815835, 0.016418664, -0.028004367, -0.05474338, -0.02798877, 0.024148948, 0.031094465, 0.0066036587},
    {0.003847751, 0.02292128, 0.012319374, 0.05223523, 0.044623997, 0.0015226387, 0.016446536, 0.009433503},
    {-0.0031553283, 0.05416606, 0.031815156, -0.0031646213, -0.038573172, 0.0048940605, 0.026239404, 0.033935234},
    {-0.008168025, -0.0011413861, -0.009286955, 0.04410918, 0.053951915, 0.020936038, -0.036494065, -0.012688581},
    {-0.0107208425, 0.03118446, -0.006565565, 0.007521772, 0.019472608, 0.03827232, -0.0017630614, 0.0065036044},
    {-0.026678313, 0.05657601, -0.011639124, -0.005945493, 0.033260524, 0.028808255, -0.010439129, 0.019004744},
    {-0.029780744, -0.017928595, -0.028146096, 0.018139184, 0.055341024, 0.041521918, -0.015023409, -0.009918457},
    {0.0057456726, 0.024309335, 0.005854144, 0.03411007, 0.074620605, 0.012254888, -0.010701666, -0.0055697015},
    {-0.02597233, -0.005501281, 0.028313933, -0.048661523, 0.013274161, 0.03438349, 0.026954615, -0.0016176819},
    {0.028305486, 0.079773344, -0.042431265, 0.054698203, 0.040511593, 0.037560325, 0.03774983, -0.04186585},
    {-0.009175799, 0.046482336, 0.005429681, 0.044992525, 0.06446967, 0.10584202, 0.024290819, -0.01874683},
    {-0.023467261, 0.008407476, -0.006338991, -0.062682234, 0.0069492096, 0.004639671, 0.0113363, 0.04745361},
    {-0.028728185, 0.05909851, -0.010122041, 0.002889648, 0.04495962, -0.028207429, 0.056425463, -0.04671391},
    {-0.04387052, -0.0015903274, 0.007265635, -0.051215753, -0.020756349, 0.024452878, 0.021821931, 0.021896036},
    {0.0071277115, 0.06400369, 0.031872623, 0.00050868996, -0.0053558117, 0.07559451, 0.0040039876, 0.017716264},
    {-0.03467863, 0.045729026, -0.031653285, 0.008945141, -0.042127818, 0.066812664, 0.054717313, 0.0014965858},
    {-0.037585832, 0.0026243073, 0.026027292, -0.0036501314, -0.020888643, 0.032294337, 0.06961067, 0.02538478},
    {0.031258196, 0.020423716, -0.015102289, 0.014917525, 0.009486628, 0.087712795, 0.033982377, -0.006940787},
    {0.018486029, -0.013561455, -0.0013720281, -0.054337908, -0.040803544, 0.03481527, -0.01212694, 0.00010771203},
    {-0.014924143, 0.0065815523, -0.014429079, 0.01656057, 0.026799578, 0.032207195, -0.034187503, -0.02343529},
    {-0.041084744, 0.035960015, -0.026353471, -0.022899529, 0.010161953, 0.062362835, 0.0062707923, -0.019085063},
    {-0.020517003, -0.011197523, -0.027526401, 0.031309746, 0.01711419, 0.0205638, -0.034975067, 0.03017702},
    {-0.03692031, 0.0061037573, -0.025525708, -0.0072348365, 0.012843626, 0.060079947, -0.034561064, 0.01620693},
    {-0.046505615, -0.024091471, -0.015414347, -0.025846101, 0.063155554, 0.03273196, -0.030344272, 0.0013446679},
    {0.0029851003, 0.07428803, 0.006246635, 0.07294373, 0.07205732, -0.042782206, 0.0139492145, 0.029698534},
    {0.0028356507, 0.002390775, -0.034083236, 0.0408113, 0.06856118, 0.020232787, -0.020760065, 0.013656215},
    {-0.013514161, 0.018499406, -0.042563517, 0.059589356, 0.0018737226, -0.008610132, 0.00640122, 0.014951822},
    {-0.035980567, 0.021981915, 0.017009988, 0.013110467, 0.035193313, -0.050365783, -0.012734641, -0.12463452},
    {-0.041801542, -0.0037044822, 0.03877101, 0.0041581974, -0.013412023, 0.06319426, 0.012056333, -0.0023038555},
    {-0.010335375, 0.018241791, 0.009345988, 0.06785151, 0.055074655, -0.059829775, 0.06299756, -0.107424214},
    {-0.025934633, 0.09078322, -0.015056593, 0.0474023, 0.020231556, -0.022420364, -0.008745475, -0.069705814},
    {0.019797727, 0.013545999, -0.03611601, 0.07792806, 0.005186199, -0.0013096461, 0.0035054712, -0.12624043},
    {0.035319783, 0.025650276, -0.015136931, 0.0649749, 0.034629952, -0.0075516547, 0.021301076, -0.087753855},
    {0.024563225, 0.01788113, -0.0069153155, 0.0490141, 0.069890976, 0.057642415, 0.0135322595, -0.021218184},
    {-0.02586177, -0.00450777, -0.03703778, -0.00949846, -0.0011188878, -0.039028533, 0.0363792, -0.08133401},
    {0.0013962811, 0.03555624, -0.0444916, -0.0021241999, 0.0350554, 0.056237847, -0.024380218, 3.7780188e-05},
    {0.022979422, 0.023953436, -0.022143472, 0.010216378, 0.019879958, 0.06198753, 0.0060158838, -0.016787143},
    {-0.033881664, -0.026720364, 0.028677985, -0.0049575036, 0.04226405, 0.07399967, -0.025029844, -0.0049647964},
    {0.002841184, -0.026489872, 0.014691794, -0.008429186, 0.046648346, 0.05365996, 0.023301974, 0.009225529},
    {-0.027214246, -0.018020023, -0.0287527, 0.030412717, 0.028257266, 0.0972872, -0.029555036, -0.040677834},
    {-0.029454064, -0.0004928583, 0.006103198, 0.014220754, -0.0028031757, 0.024048293, -0.023902347, 0.058360644},
    {-0.009150256, 0.020586524, 0.0032185076, 0.024689484, 0.041412275, 0.059194267, 0.004804117, 0.006873017},
    {0.019422704, -0.02210673, -0.044935282, 0.013968979, 0.027183555, 0.022386927, -0.054802775, -0.03164359},
    {0.022298772, 0.026244307, 0.035088964, -0.005159412, -0.0038037894, -0.01562777, -0.017626889, -0.0017660388},
    {-0.021080427, -0.016173713, 0.021320451, -0.033274192, -0.05069093, 0.008170508, 0.020607444, 0.042969443},
    {-0.02376683, -0.010858898, 0.007860351, -0.028865281, 0.018237177, -0.0105273025, 0.010427843, 0.05148597},
    {0.02260274, 0.01109443, 0.02226314, 0.016029682, -0.027460145, 0.0019028604, 0.025308184, 0.011185255},
    {-0.013577953, 0.033602227, -0.029674608, -0.03234528, -0.05721466, 0.05503041, 0.05647009, 0.021464007},
    {-0.037497077, 0.016198715, -0.03149562, -0.0038814205, -0.0043750233, 0.029362736, -0.01508115, 0.002196459},
    {-0.043162987, 0.01590434, -0.033649288, -0.0075809686, 0.043276694, 0.11245214, -0.02462752, -0.011474411},
    {-0.0003708303, 0.01274457, -0.02578853, 0.010351495, -0.03607857, 0.048799906, 0.047261983, 0.013715049},
    {-0.0019196832, -0.019334884, -0.029337337, -0.008315585, 0.05312644, 0.075324304, -0.0040254234, -0.013637262},
    {-0.006632603, 0.014786852, -0.028014835, -0.0049430286, 0.009680972, 0.078256436, -0.0177881, -0.04571069},
    {0.01870001, -0.00997223, -0.030771298, -0.031940684, 0.043422922, 0.05269799, -0.022490561, -0.03372882},
    {0.015431175, 0.0089734355, 0.023139546, -0.022652905, 0.041870534, 0.06876116, -0.014147405, -0.02309338},
    {0.028829318, -0.015212598, 0.021483492, 0.013771942, 0.026415955, 0.04618763, 0.025945354, 0.007476951},
    {-0.00075659336, 0.016225928, 0.0077915154, 0.054828476, -0.016036382, -0.00036398438, -0.0052068243, 0.022875372},
    {0.015737848, 0.002477162, -0.018935613, 0.031460542, 0.055750605, 0.11807958, -0.017412322, -0.038256202},
    {0.0018808276, -0.006295489, -0.032086305, 0.030496612, 0.040987924, 0.085369065, 0.0048305932, -0.039925627},
    {-0.009257015, -0.03177729, 0.0051859915, 0.01133785, 0.017528024, -0.005148419, -0.00709558, 0.030810716},
    {-0.011107523, -0.010746444, 0.038301036, -0.015462038, 0.022946414, 0.026184354, 0.017954279, -0.052047115},
    {0.027000114, 0.027672593, 0.027002297, 0.027532134, 8.234604e-06, 0.002552251, -0.022130962, -0.01634442},
    {-0.021196133, -0.028822953, -0.012798563, -0.0020038337, -0.024668744, -0.0035690032, -0.010766739, 0.019187082},
    {-0.015854757, -0.0066654836, -0.026779898, 0.039802104, -0.027486626, -0.012703035, -0.03818641, -0.003496576},
    {-0.027546022, 0.036494315, -0.02454798, 0.02203372, 0.04124053, -0.02006056, 0.042846993, -0.016420944},
    {0.0030732895, 0.015766144, 0.0056008957, 0.020621227, 0.041637253, 0.1220219, 0.016437896, -0.0118786255},
    {0.02908665, 0.013799053, 0.039446548, -0.023182692, -0.033350997, -0.039071087, 0.032177784, -0.038371716},
    {0.018817445, -0.015892223, -0.021680275, -0.021862553, 0.043942567, 0.084270105, 0.032594956, -0.04311713},
    {-0.020025548, -0.0005324278, -0.038841624, 0.005558505, 0.0440464, 0.064585835, -0.03436441, -0.04383487},
    {0.023903416, 0.014845609, -0.026890798, -0.015496991, 0.0065049883, 0.095689274, 0.036167692, 0.016461514},
    {0.0032353017, 0.004046806, -0.032156587, -0.016691623, 0.011879178, 0.05830301, 0.012386709, -0.04544295},
    {0.024624515, 0.019739583, -0.041278277, -0.03143707, 0.065894775, 0.09651567, 0.017623153, 0.013675459},
    {0.023381507, 0.058767512, -0.023669828, -0.00012279063, -0.005238801, -0.0028149802, 0.042794753, -0.012713622},
    {0.011687958, 0.021665696, -0.014324541, 0.042408593, 0.046501808, 0.050250255, 0.0075977314, 0.016323658},
    {-0.033621117, 0.004772686, -0.0043303855, 0.015306243, 0.06844673, 0.07238061, -0.029893769, 0.01879534},
    {-0.02111238, 0.0556887, 0.008937556, -0.005055349, 0.028023636, -0.02288836, -0.012286876, -0.026005406},
    {-0.029299289, 0.04862464, -0.028148595, 0.017687315, 0.058834754, -0.025550056, -0.0023992795, 0.005139666},
    {0.0054195784, 0.001365443, 0.0064311065, -0.017428711, 0.02392406, -0.0031981587, 0.052730042, 0.013838279},
    {-0.026003607, 0.017317696, 0.035691984, 0.051915564, -0.007707078, 0.027843092, 0.0010500492, 0.0059102997},
    {-0.019615127, 0.050706383, 0.0058624446, 0.044553954, 0.029366309, -0.0016974895, -0.0014876483, -0.02435436},
    {-0.021323761, 0.005437899, -0.006948758, 0.028803216, 0.04312899, 0.003514964, -0.0062317373, -0.010970915},
    {0.0019317921, -0.056920342, 0.022979451, -0.024459617, 0.033152316, 0.11297133, -0.042450897, 0.023487749},
    {0.0041049346, 0.020685647, -0.028457258, 0.033562202, -0.012493145, 0.023165794, 0.018074876, -0.011429756},
    {0.014156965, -0.013546363, -0.018593287, -0.01852594, 0.04823866, 0.054548234, -0.042396087, 0.0056031025},
    {-0.02301064, -0.015887648, -0.03817975, -0.052709736, 0.05487073, 0.07777595, -0.017105537, -0.03616528},
    {-0.02164764, -0.021064607, 0.0071868235, -0.037095077, 0.04505445, 0.11814744, 0.029605485, 0.027790556},
    {0.029577728, -0.030160088, -0.022177309, -0.051109508, 0.015275724, 0.08220709, -0.021154955, -0.04644314},
    {-0.022930294, -0.04291689, -0.0062625366, -0.014547519, 0.0117047625, 0.09905594, -0.036986127, -0.021027021},
    {0.022409994, 0.06702463, -0.032829307, 0.018950192, -0.019614931, 0.0063440013, 0.056095835, 0.03330206},
    {-0.0010085462, -0.008487005, -0.027026795, 0.032409728, 0.056868833, 0.11307182, -0.021009553, -0.013729323},
    {-0.023501517, 0.014267415, 0.020180501, 0.010669557, 0.07541978, 0.040697332, 0.0327192, -0.0071680765},
    {-0.0014114492, 0.057382826, 0.021514606, 0.03413012, 0.04598017, -0.024557695, -0.009813675, -0.030944273},
    {0.006362833, 0.03871792, -0.035731766, 0.0092248535, 0.017521871, 0.02299555, -0.01741708, -0.0121436715},
    {-0.03806488, -0.013894786, -0.023984328, 0.015656825, 0.028709786, -0.00821057, 0.027977468, -0.06589073},
    {-0.03148872, 0.01962753, 0.009787135, -0.014157773, 0.033957105, -0.024210565, 0.022401972, -0.03742359},
    {-0.03656129, 0.00083588413, 0.018082034, 0.037172843, 0.03401089, -0.0071912394, 0.035971567, 0.0005163953},
    {-0.016470907, 0.038780004, -0.02170204, 0.005967196, -0.0060206265, 0.014154874, -0.0023037882, -0.040992964},
    {-0.019156579, -0.06254958, 0.028835936, -0.042317152, 0.0031907903, 0.10275427, 0.0016037053, -0.020032154},
    {-0.03544481, 0.030996168, 0.02732724, 0.03690156, -0.010726066, -0.026845548, 0.04964531, -0.040811926},
    {-0.030593108, -0.048641983, -0.0069733895, -0.018557651, 0.011897225, 0.066177115, 0.011155532, 0.008184314},
    {-0.044520386, 0.0006785423, -0.044169184, -0.016857602, 0.06691703, 0.061229333, 0.026694449, -0.0078046094},
    {0.026019363, 0.006051683, 0.0042780368, -0.04538778, -0.008145823, 0.06876113, 0.0057742293, -0.030833147},
    {-0.027084358, -0.024119878, -0.027718537, -0.027261501, 0.06361468, 0.0733412, -0.00093881704, -0.04739991},
    {-0.0069986265, -0.013179736, -0.0029701183, -0.057139635, 0.008263879, 0.06674859, -0.022151163, -0.02045329},
    {-0.038735133, 0.055582423, -0.029405426, 0.008264832, -0.0011026398, 0.019911395, 0.060486086, 0.0060394},
    {-0.015391095, -0.038893, 0.017389765, -0.05166467, 0.06436696, 0.13321294, -0.011881116, -0.03545699},
    {-0.018484443, -0.039057296, 0.03145988, -0.021344595, 0.01886361, 0.12810391, 0.026323972, 0.01870156},
    {-0.032211754, 0.031844087, -0.0269675, 0.044272646, 0.00031843802, -0.03666578, -0.026674174, -0.013939594},
    {-0.013288815, 0.047964532, 0.0050632805, 0.044137497, 0.015304094, -0.023205513, 0.017103793, -0.116566926},
    {0.012324214, -0.0046731946, -0.034240346, 0.002275202, 0.047904506, -0.011624325, 0.040381987, -0.048270896},
    {0.02079627, -0.0144681, -0.0031602457, 0.033874318, 0.00024168374, -0.025375905, 0.028524172, -0.08111606},
    {0.021374907, 0.055411614, 0.02736441, 0.015002764, 0.057497375, 0.013289468, 0.0345621, -0.06276699},
    {-0.013205044, -0.0010317297, 0.01163457, 0.047714632, -0.005305734, -0.037723858, 0.054869708, -0.046263084},
    {0.01867767, -0.06796414, -0.012593543, -0.06788709, 0.0022365807, 0.058082514, -0.043055482, -0.04802943},
    {0.0026572756, 0.05153148, 0.028692253, 0.043888256, 0.0153349945, -0.004199414, 0.044060502, -0.111875825},
    {0.023374846, -0.011463717, -0.014606702, -0.027633827, 0.0333006, 0.08382221, 0.0015404683, 0.019495582},
    {0.006349442, -0.055967044, -0.0064592464, -0.012595456, 0.048263393, 0.11715917, 0.0054445136, 0.011316115},
    {0.025158029, -0.042228617, -0.041408557, -0.009004553, 0.02122761, 0.11672206, 0.029142417, -0.03426347},
    {-0.032558396, -0.07517308, -0.02688115, -0.030718071, 0.05639279, 0.05464202, -0.048476808, -0.025432786},
    {-0.02590554, -0.031516317, 0.009588025, -0.0015430445, 0.012397774, 0.06640899, -0.022272594, -0.011577282},
    {-0.03556585, 0.07557124, -0.02242043, 0.026488278, 0.047514264, -0.037348107, 0.0019209654, -0.1026993},
    {-0.014985709, 8.9917114e-05, 0.024585785, 0.017737485, 0.020477265, 0.08628335, 0.0015131112, -0.042481806},
    {-0.033106748, 0.00958796, -0.005624558, -0.013366751, 0.07992013, 0.096634984, 0.011078205, -0.02226531},
    {-0.004833389, 0.07487617, 0.02377358, -0.0057292064, 0.03892094, -0.030136865, 0.006883621, -0.1007426},
    {-0.012676343, 0.016327335, 0.029246679, 0.03600619, 0.011992726, -0.037372056, 0.029163036, -0.086183324},
    {-0.007857826, 0.006138069, -0.017575681, 0.038598757, 0.04738512, -0.06472383, 0.059653807, -0.09370493},
    {0.02689536, 0.035462897, -0.039264515, 0.010270716, 0.012255695, -0.03759221, 0.043560427, -0.08564944},
    {0.019786991, 0.01376793, -0.02742369, 0.015598851, 0.049815148, -0.07043042, 0.045434736, -0.07182164},
    {0.036265083, 0.017964443, -0.01869631, 0.015381036, 0.0024504745, -0.07287828, -0.016532602, -0.08707102},
    {0.03151473, -0.057101052, 0.007990654, -0.022384746, 0.07045855, 0.08292649, -0.038920563, -0.0101389},
    {0.018853348, 0.019331522, -0.016931472, 0.048690386, 0.043216936, -0.05484365, 0.036078744, -0.0964194},
    {-0.023959875, -0.07274842, -0.018650785, -0.02306419, -0.00087868224, 0.12421754, -0.017524937, 0.028468525},
    {-0.026684266, -0.03769089, 0.017489625, -0.068506844, 0.062044393, 0.12766196, 0.0034811376, 0.019529048},
    {-0.006229017, -0.01875692, 0.01831582, -0.072155684, 0.034151156, 0.072977215, -0.024423813, -0.003907452},
    {-0.020441027, -0.0784855, 0.029652074, -0.02331429, 0.025333377, 0.12423311, 0.0045536985, 0.023761865},
    {-0.040576775, -0.06288266, -0.009867234, -0.057219587, -0.0013878496, 0.06410321, 0.020983377, -0.0038840817},
    {0.029954594, 0.07394257, -0.03045929, 0.060232062, 0.021529295, -0.022255637, -0.013898519, -0.053682536},
    {-0.036517, -0.02042122, -0.0009917272, -0.02817443, 0.0295877, 0.11957294, 0.013602712, -0.02264819},
    {0.0026698348, -0.046678204, -0.005136159, -0.003038952, 0.06351662, 0.12900274, 0.02157054, -0.035948478},
    {-0.017480897, 0.023059573, 0.004909642, 0.062839456, 0.042171266, -0.045000598, 0.025067154, -0.13382366},
    {0.03641673, 0.059027884, 0.009255286, -0.0001443234, 0.021697927, -0.023634141, -0.023142872, -0.09453757},
    {-0.01772582, 0.019524854, 0.0378249, 0.03702641, 0.010671148, 0.0016879305, 0.0013180033, -0.0761733},
    {-0.0019114949, 0.02224976, -0.034149967, 0.007032345, 0.05371105, -0.02969103, 0.015118846, -0.11624142},
    {-0.01606729, 0.046881415, 0.03924503, 0.0067795706, 0.060544547, -0.050551564, 0.012376245, -0.11144429},
    {-0.029498793, 0.024811216, 0.0015802868, 0.027144095, 0.054809596, -0.036764044, 0.029432092, -0.07934266},
    {0.002144679, -0.010155823, -0.022637036, -0.040760335, 0.01883238, 0.05949202, -0.061691716, -0.010011034},
    {0.009350542, -0.0027763774, 0.015239477, -0.01806256, 0.041426, -0.039360244, -0.007279848, -0.055053115},
    {0.0028480242, -0.015556777, -0.00018056705, -0.057700332, 0.028492065, 0.0991267, -0.0061370274, -0.039903842},
    {0.01292752, -0.07682375, 0.00615874, -0.07513797, 0.023104815, 0.07136261, -0.025732175, -0.04732643},
    {0.0007293163, -0.006347249, -0.011053355, -0.0738547, 0.05677006, 0.0510292, -0.05394356, -0.01693458},
    {-0.04182948, -0.029265393, -0.036606237, -0.06749834, 0.040833723, 0.0997982, 0.014066186, -0.0358626},
    {0.030417219, -0.011751839, -0.035633106, 0.0017381924, 0.06822589, 0.06485796, -0.024010304, 0.008826061},
    {-0.005911677, 0.04737427, -0.018298507, 0.037452355, 0.034704998, 0.016541446, 0.025649996, 0.016029203},
    {-0.023585951, -0.022054227, -0.028184872, -0.011727731, 0.059635542, 0.08434623, -0.03447322, 0.011203469},
    {0.014025266, -0.01742116, -0.024890954, -0.03216386, 0.00077995233, 0.07816951, -0.019319719, -0.046479605},
    {0.013619833, 0.050373808, -0.0048924387, -0.016279375, -0.0021968368, 0.0003680471, -0.0025341865, -0.06037224},
    {-0.04170406, 0.020118572, -0.020575266, 0.011406553, 0.021646272, -0.037107244, 0.017508952, -0.0045751305},
    {-0.013708073, 0.05790534, 0.0052077994, -0.005069578, 0.039839964, -0.012448338, 0.04266678, -0.048368566},
    {-0.027566046, -0.006114015, 0.0006733537, -0.0057373457, 0.0021534278, -0.01817576, -0.013139816, -0.0048763496},
    {-0.00624568, 0.061013024, -0.031682797, 0.019490406, 0.015533463, -0.0051043243, 0.022544004, -0.04021469},
    {-0.028005917, -0.01102274, -0.010541158, 0.00015702001, 0.034449127, 0.020804802, 0.039539054, 0.010520964},
    {0.023017775, -0.045178063, 0.002735592, -0.009259183, 0.031849425, 0.09596361, -0.014678226, 0.015781716},
    {-0.034229502, 0.05360744, 0.030236386, 0.027069563, 0.0012415652, -0.05339795, 0.0031251747, -0.04214477},
    {-0.006259823, -0.06779451, 0.013831964, -0.03883765, 0.045883685, 0.11904129, -0.048887916, 0.013603049},
    {-0.0056407712, -0.05925364, 0.024011172, -0.038859483, 0.028500883, 0.09761613, -0.044573538, -0.0142142465},
    {-0.016550269, -0.05791646, 0.008291542, -0.023024447, 0.051248487, 0.07153165, -0.016180668, -0.037888385},
    {0.015876085, -0.0049488884, 0.01769476, -0.045990486, 0.05319542, 0.117917284, -0.028222043, 0.013622884},
    {-0.0076189567, -0.07693448, 0.004022008, -0.0605455, 0.04552047, 0.046822533, -0.056011193, -0.0072046397},
    {0.031749822, 0.007841642, 0.03090161, -0.0033000591, 0.021031637, -0.0016154533, 0.04632298, -0.010942359},
    {-0.04271254, -0.06649502, 0.027470715, -0.017241493, 0.079236716, 0.12464898, -0.009963704, -0.03342934},
    {-0.013299219, -0.06685687, -0.042314697, -0.062183835, 0.083707966, 0.114979014, -0.035241593, -0.028983267},
    {-0.0071388683, 0.020547206, -0.033998977, 0.031140964, 0.03965502, -0.01267418, 0.0369865, -0.021811383},
    {0.007006845, 0.002674069, -0.035795696, 0.0427452, 0.017431527, 0.0018679664, 0.020733671, -0.0393092},
    {-0.012558229, 0.03776475, 0.013186183, 0.0018236997, 0.042548403, -0.070800364, 0.042448215, 0.01233018},
    {0.011963083, 0.03781224, 0.011835899, 0.025115337, 0.004702426, -0.04558842, -0.0037534551, 0.00068359},
    {0.0086566135, 0.005837011, -0.0042076707, 0.042756304, 0.007744082, -0.021035384, 0.021353565, -0.01810476},
    {-0.041409828, 0.0021736526, -0.01824984, 6.1769664e-05, 0.05119964, -0.053474966, 0.013266625, -0.042507827},
    {-0.022635683, -0.055663154, 0.0010914156, 0.0020941014, 0.060909986, 0.09466925, -0.024557276, -0.032626256},
    {-0.014418397, 0.019715605, -0.0038343742, 0.017654123, 0.029223308, -0.049072787, 0.04621837, -0.007953552},
    {0.020087095, -0.073791556, -0.001174769, -0.051408645, 0.0041437144, 0.055785187, -0.0023776863, -0.03095553},
    {0.017944997, -0.028795442, -0.022280835, -0.0431001, 0.01156146, 0.051424325, -0.045317087, 0.0014850297},
    {0.031631753, -0.014228254, 0.03306336, -0.04601133, 0.073224306, 0.042743273, -0.024957763, -0.043001704},
    {0.01314758, -0.047011886, 0.004385036, -0.06714784, 0.06151343, 0.11453973, -0.02442797, -0.045654453},
    {-0.023919292, -0.006397456, -0.029426407, -0.06823855, 0.019548971, 0.10740316, 0.0021436966, 0.022352932},
    {-0.042904157, 0.068516344, 0.018967904, 0.04987541, -0.002743269, -0.059096955, 0.052030027, -0.053273458},
    {0.028643977, -0.019831667, 0.023554284, -0.070738755, 0.02910274, 0.11603034, -0.009871748, 0.002357043},
    {0.015336752, -0.033925384, 0.0029533282, -0.07817658, 0.01761019, 0.13022557, -0.034563515, -0.019811256},
    {0.0009823941, -0.0094708055, 0.037473157, 0.059556134, 0.012157089, -0.07270459, -0.016684188, -0.02768107},
    {-0.013520636, 0.04475929, 0.022322189, 0.030497162, -0.017873643, -0.007050877, 0.0644752, -0.055800483},
    {-0.024506819, 0.0076135173, 0.03201902, 0.004844323, 0.015864953, -0.10532353, 0.051484328, 0.008053022},
    {-0.043786332, -0.0025539147, 0.014931347, 0.036161885, 0.055288147, -0.040068675, -0.0038411408, -0.003153747},
    {-0.028339839, 0.067338385, -0.005315993, 0.06198686, -0.020030037, -0.07956044, 0.056461684, 0.0044128806},
    {0.032022275, 0.05343709, 0.038106993, 0.038409684, 0.010100588, -0.08634154, 0.009917174, 0.0020829856},
    {-0.018109165, -0.051331386, -0.027548848, 0.0072157024, 0.048263863, 0.099875905, -0.026114156, 0.018724779},
    {-0.024062432, 0.0239147, 0.0054425113, 0.03797505, -0.014573535, -0.084603004, 0.048514765, 0.008541164},
    {-0.032520115, -0.0008886764, -0.040984854, -0.051886268, 0.07059396, 0.0713093, -0.032997545, -0.002890326},
    {0.0131938765, -0.002847468, -0.02953991, -0.019528292, 0.050224647, 0.07127096, -0.019923855, -0.0002735905},
    {-0.04024605, -0.03904387, -0.005303543, -0.0018767448, 0.07130146, 0.072597206, -0.058068957, -0.0050464105},
    {0.017303463, -0.0114223985, -0.04290044, -0.018665818, 0.072995454, 0.10423744, 0.010079116, -0.0062283217},
    {-0.04180964, -0.07098353, 0.023422897, -0.026723756, 0.073602244, 0.05867482, -0.03767601, 0.01408722},
    {-0.022725206, 0.03435419, 0.0013407442, -0.005963094, 0.041160386, 0.024236802, 0.05960223, -0.043282658},
    {0.02750608, -0.05388663, 0.0032698715, -0.011462026, 0.08524752, 0.05956062, -0.07902822, 0.006289569},
    {-0.016758123, -0.046691056, 0.0025298956, -0.015703846, 0.07662367, 0.109602295, -0.07757464, -0.02316716},
    {0.018475903, 0.009575371, -0.022154145, 0.030362284, -0.010980123, -0.07807695, -0.002008429, -0.03306695},
    {-0.037569452, 0.06156077, 0.031014279, 0.06068542, 0.031829055, -0.022711765, 0.009490344, -0.0025323397},
    {-0.016292442, 0.060033157, -0.0006788112, 0.011558008, 0.011544385, -0.0421067, 0.05838146, -0.041776273},
    {-0.023553496, 0.03327938, 0.034695685, 0.009439722, -0.021235516, -0.082367875, 0.005991229, -0.036728542},
    {-0.033708256, 0.021874318, -0.00059017166, 0.056045823, 0.010954637, -0.0867589, 0.0121270185, -0.0317303},
    {-0.0016937281, 0.05724195, -0.02451023, 0.04360667, 0.05547426, -0.111014694, 0.031794373, -0.018272897},
    {0.0016427676, -0.041644905, 0.007924755, 0.0004444382, 0.052924305, 0.09641711, -0.0027148891, 0.025535127},
    {0.021715231, 0.029267246, 0.01514703, 0.0320023, 0.015857462, -0.102953024, -0.00199382, -0.051503494},
    {-0.04704513, 0.00598996, 0.014702484, -0.052361898, 0.07094939, 0.10954801, 0.017434295, -0.008943426},
    {-0.041767407, -0.026517702, 0.023621093, 0.009843198, 0.009657956, 0.12824716, -0.016755689, -0.018142065},
    {-0.01442929, -0.026340855, 0.02005988, 0.014173737, 0.01062362, 0.07390464, -0.023852784, 0.026714193},
    {0.0039381455, 0.0036604535, -0.023542417, -0.048089355, 0.052143928, 0.05635821, 0.016073648, -0.031818155},
    {-0.041423317, -0.034403063, -0.009374163, -0.059405725, 0.020677239, 0.09649043, -0.009152859, -0.040918346},
    {-0.035856, -0.010436383, 0.0042835413, -0.0038934068, 0.04041707, 0.011059876, 0.008339373, -0.007936932},
    {-0.022252662, -0.027336655, -0.0053357244, -0.014579286, 0.01852993, 0.10158235, -0.057257745, -0.005678453},
    {0.010573675, -0.02965092, 0.022664294, -0.068677254, 0.033011086, 0.063071094, -0.058899496, -0.028009523},
    {0.023083473, 0.055312093, 0.029557414, 0.029430872, 0.021854606, -0.04379995, 0.008604819, -0.00709444},
    {0.005976098, -0.011498021, -0.019920837, 0.046236854, -0.0022089747, -0.022393223, 0.02521457, 0.006000118},
    {0.018904263, 0.025972076, -0.030966599, 0.017858902, 0.0021356544, -0.010991505, 0.016305225, -0.045777332},
    {-0.033306036, 0.04050483, 0.031406336, 0.01688322, 0.02991706, -0.08497084, 0.010545235, -0.0001745044},
    {0.033541426, 0.018201184, -0.03205254, 0.0105613815, -0.010682148, -0.0518657, -0.008319149, -0.028163048},
    {-0.028469821, 0.044208273, 0.016383186, 0.018335063, -0.0015695853, -0.043070965, 0.014559278, -0.015919168},
    {-0.04148792, -0.015014119, -0.010610695, 0.014358018, 0.030930927, 0.07627474, -0.0003007906, -0.033720747},
    {0.007407135, 0.024412228, 0.004865229, 0.03029105, -0.012643606, -0.0094171185, 0.003993522, -0.019400703},
    {-0.03281094, -0.038484126, 0.03085653, 0.0047966377, 0.008461904, 0.063618675, -0.006776482, -0.017287133},
    {-0.0347529, -0.048488993, -0.0153395375, -0.05199738, 0.04799471, 0.092880875, -0.003437873, -0.04164693},
    {0.018599372, 0.002978036, 0.033708606, -0.035169687, 0.049705002, 0.11391785, 0.018047454, 0.027079593},
    {-0.042528033, -0.010098327, -0.024002584, -0.007714326, 0.019987395, 0.106700696, -0.007010575, -0.030912867},
    {0.012461533, -0.032826334, -0.00226959, 0.017008508, -0.0053990646, 0.05535116, 0.022567673, -0.048942443},
    {-0.008026514, 0.0009439722, 0.038090937, -0.014080616, -0.03499544, 0.009427848, -0.013271544, 0.039151173},
    {-0.036378045, 0.0005537246, 0.020408554, -0.048867602, 0.0064610126, 0.1070648, -0.060672928, -0.0101955775},
    {0.03198593, -0.030181002, -0.0037402802, -0.047217533, 0.03462648, 0.10174747, -0.002825325, 0.011526528},
    {-0.01642687, -0.004884023, -0.03503282, -0.030561488, 0.031051539, 0.017228428, -0.008519383, -0.039223947},
    {-0.0017617382, 0.022289254, -0.020938486, -0.025740687, -0.03227084, -0.006346357, -0.0342351, -0.028167674},
    {0.021914288, -0.014380354, 0.021847669, 0.027584456, -0.036671788, -0.027902313, 0.008238394, -0.025955487},
    {0.027227372, 0.024247937, 0.020172946, 1.1939555e-05, 0.019776601, -0.038448773, 0.0322963, 0.018716447},
    {-0.026125431, 0.0018587336, 0.027969614, 0.027888611, 0.0076206364, -0.013230985, -0.022372577, 0.018555798},
    {-0.022461358, 0.00085590035, -0.037198134, 0.03761179, 0.030754454, 0.0069468766, 0.0323312, -0.02026979},
    {-0.042344946, -0.043430228, 0.01403567, -0.044017494, 0.015419058, 0.09216751, 0.021280477, -0.008293766},
    {0.031867683, -0.029252235, 0.023256756, -0.035289552, -0.038812067, -0.007233832, 0.024947353, -0.022735948},
    {-0.016634325, -0.040161032, -0.009361259, -0.04681126, 0.051596206, 0.1245711, 0.0011635235, -0.013511305},
    {-0.0145233525, -0.019252406, 0.026092155, -0.02235942, 0.065742575, 0.103860036, -0.005107506, -0.006725909},
    {-0.030015226, 0.0010538006, -0.03438625, -0.051614635, 0.0008752588, 0.123435, -0.024370087, 0.022199273},
    {-0.037015516, -0.006588892, 0.026308237, -0.014856947, 0.021260725, 0.0712232, -0.03456111, 0.00046430095},
    {-0.047240518, 0.012998208, 0.0083173, 0.009816988, 0.06029458, 0.12874474, 0.01930426, -0.04303038},
    {0.032873034, 0.046504486, -0.00734587, 0.023536809, -0.020115668, -0.0040429486, 0.03586498, 0.0032209915},
    {-0.022389326, -0.061327145, -0.03286302, -0.026901247, 0.00077789876, 0.114867166, 0.013191973, -0.016242882},
    {-0.007651016, -0.059056174, -0.00800221, -0.0044446536, 0.065827034, 0.11219956, -0.020908756, -0.014256313},
    {-0.014890062, 0.036352344, -0.037703305, -0.030645214, -0.015324743, -0.026552444, 0.02363532, 0.03168104},
    {0.027540281, -0.03443876, -0.0032647662, -0.031903896, -0.037616532, -0.00024698334, 0.037000965, 0.018809045},
    {0.012571745, -0.011697035, 0.0321474, -0.0355008, 0.030333688, -0.015698137, 0.01755154, 0.0069681285},
    {-0.038000394, -0.026510157, 0.0152280405, -0.019132694, -0.034985833, 0.006850086, 0.029892191, 0.015455339},
    {0.03667128, 0.00860668, -0.00077105314, -0.030839868, 0.019083995, 0.004459154, 0.037623473, -0.02523094},
    {0.013339367, 0.030671231, -0.030633878, 0.03789881, 0.027150556, -0.005903352, 0.011425864, 0.024058051},
    {-0.027375104, 0.014430283, -0.044379074, 0.02774705, 0.027991863, 0.035958443, -0.031597216, -0.049420107},
    {0.02551081, 0.007979765, 0.028108366, -0.016694, -0.0127244275, 0.017233195, -0.02170734, 0.008814511},
    {-0.030911718, 0.014728641, -0.04062346, 0.026169969, 0.009911807, 0.11581162, -0.05196216, -0.03144507},
    {-0.032500617, -0.017884195, 0.0149126835, 0.023686783, 0.056606237, 0.1071166, -0.020045206, 0.006115317},
    {-0.027851617, -0.025101613, -0.0047126953, -0.02859625, 0.04455139, 0.056420654, 0.019944184, -0.03352632},
    {0.0074185147, -0.057150457, -0.028955465, -0.017748144, 0.02998436, 0.09572393, -0.024009386, 0.0064265872},
    {-0.019750232, -0.014057154, -0.031962078, 0.00031030583, 0.007709941, 0.04974937, -0.0015651388, 0.025356414},
    {-0.029401539, -0.0061515975, -0.0021021925, -0.0169603, -0.06677782, 0.0015049409, 0.053007856, 0.021358335},
    {-0.03510986, -0.039342366, 0.022741264, 0.012065069, -0.0033604235, 0.10647573, 0.042923085, -0.0413326},
    {0.028323727, 0.013887916, 0.0076074027, -0.027709264, 0.037051015, 0.10375515, -0.01158732, -0.0018314463},
    {-0.01291131, 0.035737425, 0.028064445, 0.01472413, 0.003953391, 0.036417004, 0.059811525, -0.014261444},
    {-0.0035273074, 0.0024763253, -0.0031057894, -0.034289654, -0.070733786, 0.0029457386, 0.03496572, 0.04766114},
    {-0.035383638, 0.065560676, -0.025961887, -0.010301291, -0.07919433, 0.08238297, 0.057428915, -0.002330376},
    {0.015309636, 0.030098474, 0.034219973, -0.03397212, -0.013594087, 0.030119563, 0.0822701, 0.008770301},
    {-0.021507582, 0.048013497, -0.015625292, -0.04709047, -0.04552786, 0.034179993, 0.010368367, 0.016256647},
    {0.023860663, 0.029662635, -0.0012254268, 0.01700432, -0.074135125, 0.004315704, 0.041731205, 0.023490526},
    {0.010949769, -0.0021812196, -0.019508312, -0.030660864, 0.08956306, 0.021908147, -0.08130342, 0.012550144},
    {0.033302337, 0.015465918, 0.011580445, -0.05167622, -0.03306311, 0.037841704, 0.036730066, 0.057031415},
    {0.015144879, -0.020608261, -0.007700084, 0.020291727, 0.04661224, 0.07752857, -0.06721287, 0.018100685},
    {0.029680261, -0.015454781, -0.0013894887, 0.013340303, 0.04746664, 0.05557569, 0.0033562419, -0.010985183},
    {-0.013699574, 0.002555679, -0.02130689, 0.0054627694, 0.03753648, 0.09312215, 0.01200911, -0.02800493},
    {-0.03128378, -0.02543076, -0.0008487671, 0.019136526, 0.027229132, 0.034841493, -0.01428301, -0.022112517},
    {0.0046964292, 0.014769244, 0.0042372826, 0.010512351, 0.07829648, 0.045769487, -0.010084072, 0.02331326},
    {-0.039511573, 0.04201917, -0.0026334152, -0.011595313, -0.044347174, 0.06788734, 0.07077245, 0.036839962},
    {-0.03170656, -0.0362889, -0.015373123, 0.0128568765, 0.05120456, 0.11049767, -0.04535853, -0.042582277},
    {-0.025804391, -0.026926717, -0.02691623, -0.004026517, 0.055716634, 0.122088514, 0.0038127643, -0.025963683},
    {0.009270157, 0.052418854, -0.009684378, -0.020995954, -0.027340114, 0.03663826, 0.05330089, 0.018814338},
    {0.024792196, 0.03372173, 0.029198572, -0.0033245024, -0.043360934, 0.023676306, 0.06575684, 0.03549119},
    {0.02064234, 0.05778119, -0.035135698, -0.06086087, -0.018762685, 0.04861968, 0.051803946, 0.02057159},
    {-0.016470814, 0.026976816, 0.015212826, -0.030133266, -0.01554361, 0.06664512, 0.006976621, 0.032696206},
    {0.01984409, 0.048632175, 0.0059884004, -0.04934318, -0.06381156, 0.0026135722, 0.027069226, 0.03900721},
    {-0.04513095, -0.00037401333, -0.006319478, -0.0018033596, -0.057081014, 0.009726919, 0.049876507, 0.054835122},
    {-0.040874436, -0.028498484, -0.005250712, 0.037165783, 0.08299295, 0.003844908, -0.06492335, -0.047941606},
    {-0.028858798, 0.016472623, -0.036486227, 0.0128844455, -0.06943662, 0.069280244, 0.06100122, 0.046211146},
    {0.008320073, -0.0073317257, -0.014998968, 0.03281009, 0.07203755, 0.037533145, -0.057586204, -0.029172646},
    {-0.038762573, -0.059371736, 0.022441573, 0.0007701302, 0.09308671, 0.038080934, -0.078725085, -0.013896788},
    {0.030021898, -0.021568492, -0.035479523, -0.025692066, 0.051230285, 0.019631917, -0.041895483, -0.05474739},
    {-0.03736659, -0.05080467, 0.014199141, -0.035599086, 0.07903795, 0.022148456, -0.07299145, -0.047647245},
    {-0.0006085289, -0.046306375, -0.026627643, -0.009359174, 0.027596781, 0.012912311, -0.034763005, -0.017944137},
    {0.0065163956, -0.0001428155, 0.015700564, -0.006387879, -0.02902338, 0.047083482, 0.06582614, -0.005557547},
    {-0.015962757, -0.024211695, -0.039391123, 0.019038368, 0.0726141, 0.1093786, -0.03519783, -0.054341804},
    {0.0177882, -0.06433523, -0.027773026, -0.044931907, 0.071457006, 0.07621615, -0.027489964, -0.04263855},
    {0.033715498, -0.0026849478, 0.011112582, -0.03525951, 0.019622596, 0.026755573, -0.00072096096, 0.020712944},
    {0.013499362, 0.0008417623, 0.0063094273, 0.037374984, -0.004174094, 0.022180092, 0.0042392584, -0.010417585},
    {0.036222056, -0.002806061, 0.024600565, 0.007868975, -0.07328703, 0.035441946, 0.02870409, 0.027485361},
    {-0.0054970905, 0.0449912, 0.005532164, -0.026471859, -0.008639358, 0.06456358, 0.046515834, 0.056515597},
    {0.011654008, 0.011452113, 0.022267412, 0.0335716, -0.054585185, -0.013530576, 0.007976159, -0.010779072},
    {0.007275742, 0.013999885, -0.016617177, 0.029682647, -0.017462337, 0.026718274, -0.023579605, 0.022626143},
    {-0.007383817, 0.00746234, -0.009249935, 0.0019023556, 0.06976305, 0.054586653, -0.06414976, -0.021229587},
    {-0.03583114, 0.06610514, 0.035404168, -0.0048398185, 0.03974462, -0.037643332, -0.03717166, -0.03584714},
    {0.006808756, -0.055145495, 0.020633869, -0.03855036, 0.06871391, 0.034405395, -0.074926354, -0.016473083},
    {-0.02423306, -0.055353757, 0.0124355955, -0.002849985, 0.05380771, 0.009843738, -0.03754294, 0.017467333},
    {-0.002856071, -0.026919346, 0.014859615, 0.008470143, 0.01947292, 0.04773331, -0.010438715, -0.015671952},
    {-0.0246652, 0.008825036, 0.030334316, -0.030578507, 0.04834383, 0.0054875035, -0.04925523, 0.01654336},
    {-0.024674049, -0.047188547, 0.016750997, -0.006578544, 0.07012478, 0.0025258497, -0.05099666, 0.011855461},
    {-0.03227807, 0.05330794, -0.005322844, 0.0015477462, 0.022796793, 0.012076414, 0.04121024, 0.021897376},
    {-0.009574916, -0.021012707, 0.030079808, 0.027690902, 0.086225085, 0.059840698, -0.07943491, 0.0029688922},
    {0.028307706, -0.054954182, -0.011398539, -0.022678152, 0.062386483, 0.08255767, -0.037998546, 0.0052061547},
    {0.023035634, 0.06209019, -0.0315611, 0.0066596633, 0.042155255, -0.054947216, 0.012123827, -0.008846466},
    {0.010239738, 0.008171609, 0.028495356, -0.0038426123, -0.015166078, -0.036658328, 0.028288852, -0.08686349},
    {0.0192586, 0.0808768, -0.0305885, 0.06671872, 0.024137663, 0.012086187, -0.02183302, -0.060248706},
    {-0.015153609, 0.025395123, 0.028182477, 0.048620302, 0.043790795, -0.016366884, 0.008774367, -0.048249833},
    {0.018911805, 0.029527351, -0.032192014, 0.029541621, 0.04546864, -0.06398403, -0.014461426, -0.041918304},
    {-0.008254803, 0.024802692, -0.014172887, 0.043492913, 0.014410109, -0.06122196, -0.02756646, -0.02028288},
    {-0.025421197, -0.010590908, 0.020437213, 0.016831033, 0.032711625, 0.032644853, -0.033127405, -0.02460375},
    {0.01854916, 0.053516723, -0.011786077, 0.028610615, 0.019464917, -0.03961496, -0.0018388877, -0.061770566},
    {-0.023165356, -0.001553926, -0.00890929, 0.028179374, 0.0439998, -0.024533216, -0.06563155, -0.008194059},
    {0.0050969375, -0.055466786, 0.0010946033, 0.033547137, 0.036597986, 0.043529015, -0.056706946, -0.03312023},
    {0.022571934, -0.0040931776, -0.038773857, -0.038838867, 0.087486, 0.03087087, -0.041254938, 0.02543279},
    {-0.012889548, -0.030799901, 0.01631287, 0.034019064, 0.022865418, 0.034626435, -0.063788, -0.025439303},
    {-0.033072732, -0.018338127, 0.02779942, 0.010382422, 0.019373417, 0.036446605, -0.07700085, 0.026014946},
    {-0.04561548, 0.020141875, -0.0042572184, 0.056198932, 0.04146777, 0.011763612, -0.013949186, -0.055117257},
    {0.0038573646, -0.0055135256, 0.032061975, -0.025896553, 0.06327491, 0.05771928, -0.05415416, 0.020666376},
    {0.029235836, -0.03474428, -0.044485945, -0.034513, 0.082776524, 0.053842288, -0.049388785, -0.04743048},
    {-0.0069723316, 0.034040507, -0.0012098439, 0.018201739, 0.061007757, -0.0121039795, -0.026563216, -0.061943598},
    {-0.038182154, -6.166233e-05, -0.014139326, 0.06117273, 0.011278797, -0.018606972, 0.0153330015, -0.030787373},
    {0.011830974, 0.059254088, -0.0018476732, -0.04334316, -0.027871715, 0.018418781, 0.013835031, -0.018174287},
    {-0.024496987, 0.027007902, -0.0005091019, 0.023621446, 0.05630469, -0.04906399, -0.0113647375, -0.068206},
    {0.0049912804, 0.016033128, -0.0004425086, 0.04189197, 0.010974242, -0.00031576457, -0.009980845, -0.043305743},
    {-0.03605018, 0.07204879, 0.020236805, 0.020608148, 0.045754604, -0.046234716, -0.026091514, -0.061852355},
    {0.0199642, 0.0016267279, -0.009554699, 0.0018054446, 0.044318527, 0.028092064, -0.074313484, 0.029712003},
    {-0.0024327934, 0.058790628, 0.021727964, 0.006433641, 0.027189622, -0.009021027, -0.018218724, -0.040168416},
    {-0.03224377, -0.033589143, -0.015437083, 0.033351403, 0.06519542, 0.04280117, -0.0598945, -0.022790719},
    {0.017026233, -0.03208837, -0.012935451, -0.012290105, 0.049524147, 0.029199868, -0.06901966, -0.027472347},
    {0.020639865, -0.032053046, -0.008831761, 0.01870623, 0.025111623, 0.011711083, -0.029994097, 0.016484797},
    {-0.011227989, -0.066683926, 0.030000387, -0.028417557, 0.045388415, -0.010318067, -0.015124444, 0.014460526},
    {-0.0368009, -0.04323829, -0.014359011, -0.025328027, 0.075265266, -0.008090302, -0.018437961, -0.0154148685},
    {0.030297872, 0.0029142618, -0.042679254, 0.01589848, 0.036730014, 0.036384694, 0.05089387, 0.05274324},
    {-0.04086922, -0.040596474, -0.023841394, -0.016432425, 0.104828544, 0.010337496, -0.06083587, -0.045013312},
    {-0.011459367, -0.02691008, 0.029734174, 0.019501237, 0.043164298, 0.026814183, -0.016601676, -0.01966912},
    {-0.014524272, 0.0704813, -0.0023125038, 0.05196962, 0.044649936, -0.011462559, 0.005494358, -0.037996866},
    {-0.011818957, 0.0023483292, 0.026269637, 0.03363523, 0.025747705, 0.008502074, 0.029230878, 0.029482037},
    {-0.025450299, 0.007950535, 0.020445123, 0.026630968, 0.025112191, -0.051057335, -0.024728471, -0.00031061278},
    {0.015861101, 0.049746882, -0.020640308, -0.005277081, -0.0041855955, -0.01941155, 0.002394032, 0.0088182455},
    {-0.030286353, 0.049926594, 0.024340384, -0.032111824, -0.058307454, 0.04181442, 0.043643218, 0.017863289},
    {0.013722107, -0.001648292, -0.013008762, -0.022306474, -0.006913533, 0.016648004, 0.048331954, 0.00743853},
    {0.015900236, -0.033046532, 0.017275484, -0.040368624, 0.039593875, 0.015218294, -0.061214842, 0.018719595},
    {0.009969205, -0.005800035, 0.033876523, -0.005159539, -0.04794221, 0.033492662, 0.036489177, 0.060600527},
    {-0.012825349, -0.030820934, 0.024936767, -0.014613526, 0.067858994, -0.009528361, -0.06295078, -0.014633276},
    {0.016634835, 0.004477734, 0.02804674, -0.039618403, 0.06173138, 0.02071616, -0.06652216, 0.030059686},
    {-0.0153794475, 0.0027076418, -0.021163842, -0.025553318, 0.028463693, 0.02655412, -0.065755926, -0.0054151244},
    {-0.014052988, -0.05052698, 0.015884519, -0.035776917, 0.051403064, -0.022114722, -0.055439074, 0.03259738},
    {0.031070929, -0.05729555, -0.023701616, -0.013017991, 0.07766814, 0.015332493, -0.029693497, 0.042813238},
    {0.015124866, 0.008203961, -0.030247295, -0.0052804328, 0.012770087, 0.0078671165, 0.03813387, 0.024222326},
    {-0.0016073204, -0.053778235, -0.039025508, 0.033281315, 0.032148108, 0.021136943, -0.03296353, 0.033514664},
    {-0.034115057, -0.02272278, -0.043879285, 0.001941649, 0.07629263, 0.018421404, -0.078105465, -0.035083983},
    {0.011474721, 0.042951874, 0.01843299, -0.0012893254, 0.018519903, 0.033158183, 0.033666212, 0.019574886},
    {-0.03699342, 0.045184977, -0.008184202, -0.014338908, -0.025694948, 0.03809628, 0.031301674, 0.048315324},
    {-0.026104301, 0.05273155, -0.0030667074, -0.018576657, -0.019165846, 0.039100196, 0.0015187858, 0.041416302},
    {0.017173331, 0.0027001922, 0.021319307, 0.025942653, -0.037565745, 0.011625865, 0.04463258, 0.0026994094},
    {0.033225447, 0.060622994, -0.019355465, -0.0071747475, 0.014353248, 0.03226539, -0.0040855207, 0.04814748},
    {0.0007586852, 0.034152202, -0.02380737, 0.01356047, -0.054687828, 0.0018498563, -0.0041116015, 0.006793641},
    {0.008499815, -0.030733699, -0.005009958, 0.022159774, 0.036195885, -0.008408674, -0.07975638, 0.0531564},
    {0.034200042, -0.003082121, 0.012134399, 0.004503789, 0.0029860232, 0.058983035, -0.0017625213, 0.042906042},
    {0.018333718, 0.0015766555, -0.036142103, 0.0044715814, 0.071968585, 0.007428799, -0.081354536, -0.016831229},
    {0.026615538, -0.064508475, 0.027411183, -0.04636918, 0.03831488, 0.0343649, -0.019899113, 0.019377185},
    {-0.044444643, -0.010655609, 0.012864267, -0.016423732, 0.019091282, -0.013597218, -0.02937851, 0.023430767},
    {0.028198872, -0.0307714, -0.042396232, 0.03379429, 0.060830947, -0.022350173, -0.07266632, 0.035374083},
    {0.031146074, -0.008163776, 0.013503663, 0.0073259743, 0.019982433, -0.029941827, -0.044345174, 0.0023566734},
    {0.010652018, -0.041506108, -0.0010359609, 0.06263933, 0.0039309217, -0.018373106, 0.02151548, 0.03165154},
    {-0.027002824, -0.015146352, 0.0029796239, -0.047822773, 0.10201888, -0.0011164213, -0.04894009, -0.0003021963},
    {-0.02308039, -0.039081763, -0.02853522, 0.025867542, 0.032280233, -0.02239754, -0.07506519, 0.022481915},
    {0.018879794, 0.03403545, -0.007119827, -0.019422848, 0.0067961956, 0.061812393, -8.397449e-05, 0.05105824},
    {0.02693656, -0.012841589, 0.012343217, 0.0077207736, -0.025815269, 0.023196194, 0.045492735, 0.056934293},
    {-0.032006726, -0.010355196, 0.033931352, 0.012231443, -0.060579073, -0.0048311898, 0.056324583, 0.00477951},
    {-0.0048418194, 0.009837236, 0.030596144, -0.026643844, -0.05280601, 0.051096268, 0.0071847676, 0.06707239},
    {0.031234145, -0.0019333874, 0.028783843, -0.03665601, -0.04422468, 0.03127807, 0.0579668, 0.036677923},
    {-0.026333597, 0.04381132, -0.0011907108, -0.04022553, -0.0026766805, 0.031285383, 0.038156286, 0.033398114},
    {-0.004720647, -0.032674458, 0.018053746, 0.01908751, 0.0443085, 0.030828252, -0.060065676, 0.03863141},
    {-0.029518118, 0.008451044, 0.034586973, 0.0036405888, -0.046279766, 0.011866967, 0.014970783, 0.00042176765},
    {-0.035795175, -0.041034814, 0.015038808, 0.02717632, 0.057746112, -0.018600665, -0.005480038, 0.041527577},
    {-0.014138052, -0.02731057, -0.0317929, -0.009258859, 0.027321635, -0.014083471, -0.019655012, 0.019392643},
    {-0.026594898, -0.029117452, -0.0324845, -0.041076627, 0.01883601, 0.012567702, -0.030546635, 0.010085227},
    {-0.0010234666, -0.023954313, 0.009918149, -0.02668268, 0.07307126, -0.023026846, -0.014436868, -0.0036544339},
    {0.020003416, -0.06473348, -0.04448232, -0.022259714, 0.055689607, 0.028541226, -0.03513349, 0.004546706},
    {-0.027772043, -0.010132646, 0.0049861446, -0.022590838, -0.019284774, 0.06512629, 0.03076986, 0.022596927},
    {0.024260696, -0.020687962, 0.0266696, 0.018035466, 0.07152494, 0.02669105, -0.06738818, 0.06432645},
    {-0.01190628, -0.065026246, -0.022320312, -0.030574126, 0.041734807, 0.033674963, -0.08723511, 0.033079598},
    {-0.0058325715, 0.0020700207, 0.02069484, -0.014648081, -0.04723256, 0.05721144, -0.01890086, -0.008324495},
    {0.009260666, 0.028785842, -0.038692355, 0.007775277, -0.052569076, 0.057172764, -0.019069776, 0.05079714},
    {0.038410798, -0.018512052, -0.002786152, 0.007690023, 0.009955103, -0.013531486, -0.019758433, 0.045268174},
    {0.015684199, 0.041747894, 0.029009253, 0.011993608, 0.002695821, -0.002657036, 0.0044923536, 0.0027296087},
    {0.00962133, 0.019893238, -0.009557545, -0.041516908, -0.018588766, 0.03597996, -0.020116912, 0.025473768},
    {0.0008139536, 0.03030091, -0.0010409243, -0.02737203, -0.043504402, -0.0039922213, 0.014923747, 0.008196051},
    {0.020828756, -0.030805375, -0.029499618, 0.0028751239, 0.048185844, 0.0094604865, -0.058719967, 0.0018180073},
    {0.032772794, 0.0429117, -0.033760533, 0.020753993, 0.0003304718, 0.005175601, 0.017300365, 0.001014904},
    {-0.027322542, -0.0038278103, 0.019320132, 0.00092255016, 0.056598026, 0.026304558, -0.066721134, 0.001271523},
    {0.022197539, 0.0066984654, 0.021433275, -0.02850493, 0.08296787, 0.018931726, -0.032010347, 0.048604097},
    {-0.035055272, -0.043528855, -0.02950585, 0.01119705, 0.060736697, 0.047637247, -0.06316071, 0.02336965},
    {-0.01277934, -0.061194327, 0.016300332, 0.023299137, 0.056344938, 0.033130787, -0.066674486, -0.014237892},
    {-0.00054614915, -0.04769551, -0.036789466, -0.038283113, 0.07567439, 0.024878332, -0.07147769, 0.04301735},
    {-0.044860445, 0.00471707, -0.010612379, -0.024498506, -0.019500596, 0.062317234, 0.044448484, 0.060999755},
    {0.022784859, -0.061095126, -0.028638856, -0.015841546, 0.047691796, 0.025783401, -0.08587068, 0.04791394},
    {-0.044188604, -0.05335437, -0.02980247, -0.026254054, 0.10484835, -0.0012267723, -0.07522891, 0.02703581},
    {-0.026285835, 0.036115427, 0.020943392, -0.048088156, -0.021157175, 0.030726822, 0.010800311, 0.018565312},
    {0.026702305, 0.046816174, 0.03340444, -0.00028831343, -0.012202279, 0.050678033, -0.0032303717, 0.06399013},
    {0.038539194, 0.113394044, -0.021042233, -0.022886917, -0.089754336, 0.11688059, 0.12439416, 0.06809794},
    {-0.01768375, -0.0077343965, 0.036876343, -0.0042603286, -0.08160867, 0.0030654264, 0.040020406, 0.06553956},
    {0.023767993, 0.023832176, -0.0074276812, 0.010277228, -0.047720823, 0.0041233846, 0.058628116, 0.024497177},
    {0.024950251, -0.0039959974, -0.0030363686, -0.020596616, -0.0117972875, 0.026893118, 0.013073881, -0.020255908},
    {-0.03349781, 0.00977556, -0.015860062, -0.021601731, 0.043476615, 0.056101553, -0.043680158, 0.016395362},
    {-0.006106604, 0.054845996, 0.022400912, -0.08985928, -0.068971284, 0.104544304, 0.076319836, 0.10588142},
    {-0.0011562542, 0.0025870262, -0.044951778, -0.0065008164, 0.055193666, 0.02981075, -0.021181589, 0.034331962},
    {-0.040821623, -0.0562917, 0.030881554, -0.03868381, 0.031301104, 0.04586116, -0.05740666, 0.04827876},
    {0.0014978413, -0.059169043, 0.0068189325, 0.03099612, 0.07280384, 0.015363821, -0.020819237, -0.021072244},
    {-0.01635663, -0.022928145, -0.04414936, 0.012487649, 0.081231125, -0.017544478, -0.046321113, 0.041525397},
    {-0.028064333, 0.011750886, 0.0070843394, -0.0078440895, 0.04179932, 0.036708593, -0.05033399, 0.03210794},
    {-0.021139042, -0.0043758294, 0.02952651, -0.049685534, -0.017984077, 0.048781328, 0.09125686, 0.07184962},
    {-0.021017227, 0.009836108, -0.044211634, 0.023193074, 0.08732446, 0.028080994, -0.045683064, 0.0561494},
    {-0.001031987, -0.011535029, 0.029947728, -0.012516352, 0.059993487, 0.03224361, -0.015728386, 0.0068360455},
    {-0.039761372, 0.07550728, -0.038420357, -0.017619321, -0.08681413, 0.1009907, 0.105692044, 0.07505186},
    {0.007164026, 0.038785852, 0.014105644, -0.00015080237, -0.041287802, 0.07967103, 0.021811232, 0.035765953},
    {0.0091098845, 0.076762445, -0.0062515773, -0.024023412, -0.07023666, 0.049740333, 0.099651925, 0.09781052},
    {-0.015987245, 0.08409468, -0.012453703, -0.043599017, -0.05921078, 0.05004356, 0.0507794, 0.09533671},
    {0.030269273, 0.059460174, -0.0058034807, -0.06375992, -0.061429884, 0.053988107, 0.110760316, 0.104164764},
    {-0.013132798, 0.078722954, 0.027161628, -0.078029394, -0.087780826, 0.043023698, 0.041875403, 0.11135142},
    {0.019809708, -0.046391036, -0.020972364, 0.021838685, 0.06862317, 0.047233734, -0.08806646, -0.019708738},
    {0.037541524, 0.06945931, 0.031271704, -0.08877168, -0.036897272, 0.05612258, 0.10408965, 0.057359397},
    {-0.031748395, -0.02892303, 0.03271977, 0.011880635, 0.08116824, 0.05911032, -0.064165555, -0.042061485},
    {0.0055965288, -0.054848827, -0.0029993374, -0.045630466, 0.025791978, 0.04760685, -0.044142682, -0.0377117},
    {0.019055068, -0.016807482, 0.007690613, -0.015854657, 0.08081769, 0.050596353, -0.047417343, -0.044703424},
    {0.0032184203, -0.04209167, -0.03855158, 0.027944062, 0.06593136, 0.066600956, -0.021866633, -0.026291508},
    {-0.0076239374, -0.052467417, -0.008736261, -0.042313773, 0.04708612, 0.013005274, -0.041668974, -0.023887401},
    {-0.042772386, 0.021502513, 0.0016500577, -0.020893946, -0.075216845, 0.08222687, 0.01946791, 0.039215676},
    {0.009286606, -0.04293751, -0.017820042, -0.023857491, 0.08545557, 0.07209903, -0.012581733, 0.037868503},
    {-0.008866438, 0.0073805302, -0.032402974, 0.00024307563, 0.057757296, 0.0016078039, -0.018082686, 0.034992687},
    {0.017227635, 0.07006379, -0.0005576387, -0.02722303, -0.06799313, 0.097773954, 0.0557983, 0.08826147},
    {-0.02145342, 0.06562148, 0.02310203, -0.056001045, -0.035987455, 0.062419675, 0.024143744, 0.04939791},
    {0.030934036, -0.0022885285, -0.021736056, -0.04719855, -0.050433382, 0.06714971, 0.033774015, 0.04706148},
    {0.0073565245, 0.088852964, -0.027076315, -0.075867, -0.08053447, 0.083942786, 0.096459046, 0.058504585},
    {-0.020600688, 0.03454103, -0.015831444, -0.05290875, -0.04810238, 0.08910954, 0.11497067, 0.09763146},
    {-0.035650834, 0.06528914, -0.0021286905, -0.010606655, -0.10485836, 0.10861254, 0.096311234, 0.041396856},
    {0.021157015, -0.053030152, -0.025741566, 0.0064823693, 0.08497592, 0.054802954, -0.027063103, -0.06301425},
    {0.026385397, 0.049375, -0.019036056, -0.011547199, -0.03384233, 0.040935628, 0.07658744, 0.043149408},
    {-0.046564333, 0.010359828, -0.0059620156, -0.02893513, 0.042516343, 0.025669206, -0.053162385, -0.05911289},
    {-0.041577525, -0.045407783, -0.036686394, -0.019850247, 0.04656757, 0.05341635, -0.017353244, -0.06855854},
    {-0.045242373, -0.009318954, -0.03809838, -0.021328643, 0.059520938, 0.045761816, -0.02987292, -0.0056105987},
    {-0.014872495, -0.023666281, -0.01623704, 0.001412092, 0.03738093, 0.019092487, -0.0536939, -0.0029745542},
    {-0.022360869, -0.04510412, 0.022502566, -0.02515617, 0.051630173, 0.0289841, -0.08109153, -0.030240614},
    {0.032762293, -0.016201535, 0.0043845363, 0.008779221, -0.012291722, 0.026179032, 0.06601841, 0.023344241},
    {0.025209248, -0.03860364, -0.033225372, -0.010981978, 0.08738077, 0.061987452, -0.031890918, 0.008150907},
    {-0.027102804, -0.051587973, -0.00090198877, -0.029233381, 0.06784312, 0.04808217, -0.034616128, -0.02739423},
    {0.025689073, 0.08958947, -0.015238013, -0.03966328, -0.09066824, 0.08958293, 0.06481847, 0.06501795},
    {-0.020656357, 0.03738987, 0.018331341, -0.040863033, -0.07309182, 0.044346407, 0.032218393, 0.08365137},
    {-0.019266477, 0.030646767, 0.026750088, -0.033123743, -0.051318683, 0.06026434, 0.07318, 0.045794845},
    {-0.013220426, 0.059603464, 0.019351609, -0.07447679, -0.05165868, 0.07212399, 0.06453865, 0.06366885},
    {-0.012857858, 0.04945641, -0.020427795, -0.09155883, -0.052184954, 0.06946783, 0.06048583, 0.11239848},
    {0.011413835, 0.099657975, 0.021336239, -0.029782599, -0.05711694, 0.07340384, 0.080875985, 0.076640345},
    {-0.034089908, -0.020332968, -0.028589465, 0.006269851, 0.08636519, 0.08244337, -0.018964225, -0.10434582},
    {0.0052423254, 0.057277594, -0.035553165, -0.04826306, -0.07212545, 0.08783722, 0.11543183, 0.06472126},
    {-0.0058098286, -0.034629498, -0.043071512, -0.017234791, 0.037769094, 0.055165906, -0.050016295, -0.047112487},
    {-0.036032096, -0.015656656, 0.03376873, 0.023027714, 0.079940125, 0.050844256, -0.02906234, -0.050363414},
    {0.00995737, 0.0005478955, -0.023428695, -0.023924584, 0.070809595, 0.086748555, 0.008847303, -0.057368316},
    {-0.022122083, -0.042479135, 0.01729119, -0.0023401817, 0.022969186, 0.07654202, -0.006206031, -0.026040457},
    {0.020752389, -0.053616103, -0.042897698, -0.04402306, 0.049806897, 0.045342166, 0.00846395, -0.008487681},
    {-0.017510047, -0.0138332965, -0.037716966, -0.013388188, -0.04142359, 0.06442321, 0.027184468, 0.07255577},
    {-0.021213373, -0.051626626, 0.02248162, -0.022357963, 0.08448325, 0.038709324, -0.047750473, -0.014684495},
    {-0.021276003, -0.058788445, 0.0017509306, -0.040303256, 0.082205854, 0.031572737, -0.017936371, -0.0011403095},
    {-0.002100427, 0.050849937, 0.017986238, -0.012801664, -0.035300042, 0.10257735, 0.07995595, 0.062025677},
    {-0.017125519, 0.0009774043, 0.002084352, -0.0595569, -0.010933651, 0.028757513, 0.019224968, 0.066968046},
    {0.0043252856, 0.06711159, -0.0311508, 0.0052736127, -0.006646499, 0.04019904, 0.059732314, 0.0543152},
    {0.006542485, 0.03022068, 0.017579302, -0.052278813, -0.09226082, 0.06773558, 0.09167773, 0.080301724},
    {-0.023097077, 0.10535595, -0.027355187, -0.06200533, -0.10083412, 0.08410144, 0.107463524, 0.052375965},
    {-0.0056265034, 0.036006473, 0.010445464, -0.007145716, -0.07217902, 0.09741051, 0.07236284, 0.047918335},
    {0.02197743, -0.0023789294, 0.0059625693, 0.002408679, 0.07595949, 0.09807368, 0.017622849, -0.10883167},
    {-0.028010512, 0.03744809, 0.0014658757, -0.060996905, -0.06083642, 0.11425117, 0.11017779, 0.12108052},
    {-0.023542857, 0.0010923158, -0.036840517, -0.047050145, 0.006108795, 0.10560829, 0.0002300395, -0.025417775},
    {-0.038539875, 0.013942392, 0.013762616, 0.022576945, 0.025854891, 0.05758478, -0.01102467, -0.09719102},
    {-0.03755676, -0.008253526, -0.043999054, -0.0010304716, 0.035293896, 0.054798245, -0.0015252508, -0.023343},
    {0.010638974, -0.05071839, 0.027964199, -0.04864127, 0.062474895, 0.06948299, -0.042255178, -0.028197873},
    {-0.013316, -0.036747247, -0.009700878, -0.014213694, 0.076067485, 0.12598015, -0.0074273716, -0.076350965},
    {-0.011017697, 0.0150225675, 0.028223302, -0.026305493, 0.028743606, 0.019691614, 0.025850963, 0.022703195},
    {-0.025386276, -0.020359404, -0.04043842, -0.01168942, 0.05065139, 0.07499087, -0.038025133, -0.08083236},
    {0.012422771, -0.0040875557, -0.020900682, -0.03329576, 0.07455995, 0.07182477, -0.012185414, -0.0056041223},
    {-0.02354353, 0.045861527, -0.03786077, -0.050543502, -0.017320195, 0.08547727, 0.09313373, 0.06770111},
    {-0.030730316, 0.030247573, -0.017676262, 0.014614268, -0.042269494, 0.037126314, 0.039069954, 0.009603562},
    {0.017605195, 0.026218884, 0.008694109, -0.051757757, -0.024306253, 0.0050193793, 0.011135774, 0.0066686044},
    {-0.0034063011, 0.08039753, -0.028429974, -0.07775113, -0.032720234, 0.059093595, 0.026683737, 0.054097746},
    {-0.009487398, 0.08069278, -0.02193473, -0.023241336, -0.09754261, 0.06638649, 0.07041958, 0.077765875},
    {-0.012096686, 0.01562102, -0.009079073, -0.008031625, -0.08338425, 0.09110787, 0.08412692, 0.077721305},
    {0.0042362623, -0.031775467, 0.011520841, 0.014517022, 0.07681857, 0.11830134, -0.018999824, -0.11903905},
    {0.0068756863, 0.039114468, 0.0013200678, -0.039124705, -0.064116664, 0.06454435, 0.068356425, 0.10607336},
    {0.019908106, 0.0069583645, 0.017018938, 0.018417971, 0.06587373, 0.0630159, -0.04016081, -0.08930944},
    {-0.040043566, 0.0033038775, 0.025219819, 0.009301049, 0.037621222, 0.12676679, -0.043624777, -0.0487318},
    {-0.007081138, -0.009118574, 0.028010856, -0.041086152, 0.048062038, 0.12567922, 0.0016382003, -0.086564995},
    {0.026023578, 0.008503331, -0.020017646, 0.022147484, 0.078822374, 0.07996998, -0.028393587, -0.07629248},
    {-0.01413653, -0.0279906, 0.016404822, -0.025790308, 0.06169792, 0.08614387, -0.030952934, -0.09433778},
    {0.028869959, 0.0064886995, -0.028117767, -0.02733895, -0.023897178, 0.02664515, 0.014619793, 0.025700087},
    {-0.019238418, -0.025439572, -0.012294574, -0.044989187, 0.026761454, 0.05689039, 0.016255239, -0.044077277},
    {0.0053463094, 0.016886948, -0.020560218, -0.037899837, 0.0734528, 0.053856943, 0.01810806, -0.08106003},
    {-0.0050840788, 0.032561444, 0.009513792, 0.0038597086, -0.019866053, 0.0322291, 0.06334617, 0.05810945},
    {-0.03273763, -0.016710686, 0.039078288, -0.050323773, -0.013000845, 0.011691892, -0.008539911, 0.014853522},
    {-0.026021447, 0.040440567, -0.02037404, -0.005125375, -0.038030554, -0.0047328346, 0.00065074046, 0.024890216},
    {0.02282191, -0.0044556106, 0.013618708, -0.016443443, -0.011336183, -0.0009926233, -0.013293101, -0.018375823},
    {0.002125235, -0.0034470793, -0.012750046, -0.021234322, -0.027732592, 0.003570752, 0.06281591, 0.0068472847},
    {-0.043617312, 0.06044374, 0.017938685, -0.03632418, -0.034733597, 0.06282068, 0.016269542, 0.051608592},
    {-0.006814184, 0.02883804, 0.03142461, -0.004076064, 0.09083795, 0.13290249, -0.012465778, -0.10674486},
    {0.025729716, -0.023535652, -0.00356853, 0.023274664, -0.031722836, 0.009982833, 0.0031887325, 0.03113909},
    {0.019072104, 0.012682722, 0.012857947, -0.048979715, 0.07065828, 0.14125617, -0.05615099, -0.051143683},
    {0.008388118, -0.04566061, -0.02950709, 0.023690514, 0.035594318, 0.13413209, -0.04532841, -0.0828861},
    {0.009325323, 0.015144337, 0.025977986, 0.023710633, 0.041295078, 0.12187209, 0.008248287, -0.108561926},
    {-0.020017358, -0.039823484, -0.036773603, -0.052557267, 0.0134731885, 0.1261748, 0.0063126553, -0.070327915},
    {-0.008183286, -0.042131823, -0.02853719, -0.012598982, 0.030393532, 0.07589788, -0.0381656, -0.07053087},
    {0.03079002, -0.003917512, 0.015069716, 0.023738943, -0.013131236, 0.039505105, 0.030302973, 0.067764215},
    {-0.03658541, 0.019762404, -0.007945665, -0.044921663, 0.06806579, 0.068418026, 0.007573279, -0.057227522},
    {0.01562644, -0.03918764, -0.026588975, -0.003950816, 0.03398232, 0.11180437, -0.03776867, -0.04914233},
    {0.011370982, -0.011565856, -0.009520704, -0.040508196, -0.022154808, 0.05298748, 0.054297093, -0.0023270536},
    {0.0027104337, 0.018785415, 0.017764494, -0.05627447, 0.0059622196, 0.024063993, 0.012293892, -0.0026880014},
    {-0.008037893, 0.047174223, 0.019225985, 0.004833848, -0.006650278, 0.03282671, 0.04684531, -0.00096344925},
    {-0.007390993, 0.0043756915, -0.03853401, -0.037626725, -0.0048692124, 0.056439552, 0.039209746, -0.003914217},
    {0.0071652997, 0.033506118, 0.026687033, -0.040756736, 0.02237288, 0.04047204, 0.013933449, 0.008593181},
    {-0.038585767, -0.00884968, -0.019772733, -0.030605143, -0.0033623932, -0.0006034298, 0.030298738, -0.006961123},
    {0.031238513, -0.023941508, -0.042379178, 0.009426763, 0.06669099, 0.13729124, -0.01838225, -0.07017779},
    {0.0035086013, -0.012340407, 0.0010015182, -0.024039775, -0.048771616, -0.008510595, -0.01004178, 0.04019912},
    {0.009518525, 0.027092045, -0.018389074, 0.02083184, 0.034031656, 0.11008829, -0.048164163, -0.050112586},
    {-0.0019138777, -0.036124058, -0.016890323, -0.030682757, 0.049310144, 0.14519452, -0.04806957, -0.05026517},
    {-0.0054036407, 0.024324283, 0.026413618, -0.038915146, 0.082302436, 0.10201366, -0.04797966, -0.0800603},
    {-0.0072331904, 0.009450517, -0.040454898, -0.04276023, 0.07449282, 0.1181076, -0.01758543, -0.10201567},
    {0.018087918, -0.021230835, -0.03893314, -0.04822566, 0.057499923, 0.14692068, -0.009594321, -0.06049273},
    {0.02261458, 0.010642764, -0.0152124325, 0.010454867, 0.026989134, 0.03307007, 0.0544436, 0.010331518},
    {-0.0013007586, -0.010018229, 0.0077938573, -0.0028666242, 0.07244314, 0.11559315, 0.011235342, -0.097123414},
    {-0.008870589, 0.04266535, 0.018101258, -0.05081316, 0.06542617, 0.07715464, 0.00031572182, -0.07298605},
    {0.013259489, 0.002935181, -0.00404568, -0.037105806, -0.042779308, -0.0014352071, 0.036240414, 0.042824782},
    {-0.017175006, 0.034930855, -0.015691385, 0.011472694, -0.03950814, 0.052207258, 0.05710626, 0.013240795},
    {0.026655264, 0.014392309, -0.03515797, -0.029822102, 0.019721776, 0.04934444, -0.017701816, -0.00038563277},
    {0.020073358, 0.00809698, -0.026812531, -0.02665663, 0.023059512, 0.052806772, -0.02169545, 0.022306206},
    {-0.012186866, 0.0372169, 0.021919906, -0.03882306, -0.041710753, 0.046809897, 0.03216932, 0.03446187},
    {0.031296417, 0.0417249, 0.035968587, -0.021971555, 0.0035055976, 0.048462875, 0.0010719292, 0.03741742},
    {-0.043007836, -0.04147874, -0.017729405, -0.05500718, 0.039640307, 0.086212546, 0.0078014764, -0.041671462},
    {0.035569943, -0.00562401, 0.000313662, -0.032223422, -0.018377133, 0.00031333335, 0.047223672, 0.015418099},
    {-0.021096384, -0.037052486, -0.038315147, -0.006636039, 0.01057031, 0.096922964, 0.008837426, -0.100177296},
    {-0.035709288, 0.022005728, 0.01758675, -0.018709617, 0.044609725, 0.14892511, -0.034212127, -0.08552729},
    {-0.026651906, -0.01955057, -0.019766122, -0.04281307, -0.005450368, 0.10225398, -0.0058403234, -0.033654742},
    {-0.023667345, -0.021634666, -0.016380245, -0.031445384, 0.019141443, 0.08976996, -0.037575386, -0.0507242},
    {-0.030964296, -0.032366887, -0.0043937406, -0.006539408, 0.061398096, 0.14787425, -0.039969362, -0.085191384},
    {0.018272514, 0.01313576, 8.707866e-05, 0.0007230678, -0.021934126, 0.068513446, 0.008084802, 0.009845935},
    {0.030528381, 0.013219606, -0.010624214, -0.038245987, 0.05579459, 0.09461395, 0.0084715495, -0.060293138},
    {0.01040957, -0.02131612, -0.0018718296, -0.029697828, 0.083014205, 0.14112917, -0.050021734, -0.089461386},
    {-0.028135795, -0.007203431, -0.039557066, 0.012873518, -0.02400659, 0.017652746, 0.044888787, 0.007057801},
    {0.032616317, 0.0010741202, -0.025621396, 0.018097747, -0.048905864, 0.0015842745, 0.013452655, 0.030656036},
    {-0.014444547, -0.01130737, 0.025345735, -0.014967574, 0.03089372, -0.011232646, -0.0053494573, 0.003987942},
    {0.017665729, -0.0046994793, 0.010194417, 0.011761252, 0.0070364494, 0.011243512, 0.033168633, -0.012616633},
    {0.032730952, 0.0096200155, -0.030627903, 0.025568139, -0.038338047, -0.008996172, 0.0005842651, 0.03838588},
    {0.032102734, 0.047755793, 0.020915303, -0.039444987, -0.045361858, 0.043442905, 0.01441039, 0.04024873},
    {-0.0026333025, 0.008649341, 0.008162947, -0.026195664, 0.05832741, 0.13931851, 4.389345e-06, -0.016084831},
    {0.010197189, 0.011398289, -0.0025076494, -0.029153055, 0.020760082, 0.0058568865, 0.026153527, -0.0019599758},
    {-0.03330797, -0.027187321, -0.024760189, 0.0018147521, 0.030543614, 0.08584644, 0.031730935, -0.0810315},
    {-0.04251845, -0.039717283, -0.032177582, -0.016912438, 0.06414477, 0.11103919, 0.010655262, -0.046341285},
    {-0.037132323, -0.0117234, 0.007760439, -0.057555728, 0.059909806, 0.094414406, 0.039995592, -0.02814464},
    {0.010739909, 0.015952898, 0.027771913, -0.023700692, 0.05049763, 0.07311476, 0.042266544, -0.034283035},
    {-0.008781456, -0.01530999, -0.0124861095, -0.0016829217, -0.012120363, 0.06828533, 0.026232703, -0.07077945},
    {-0.03548427, 0.05383055, 0.015811268, 0.005355694, 0.009557888, 0.0062443665, 0.047140166, 0.07316251},
    {-0.025965557, 0.013141228, 0.010546047, 0.005385243, 0.021744087, 0.12129372, -0.0013770597, -0.08849095},
    {-0.026782772, 0.02315971, 0.024462588, -0.04856116, 0.029806359, 0.105326004, 0.026697837, -0.11192583},
    {-0.020516882, 0.040160134, 0.024341688, 0.0025745581, 0.018110987, 0.04869996, 0.02258785, 0.043563478},
    {-0.023636878, -0.018827967, 0.029599547, -8.160789e-05, -0.005194462, 0.014472249, -0.018152941, 0.050084118},
    {0.014363203, 0.006380823, -0.026486285, -0.027396489, -0.051939424, -0.0036035287, 0.020997204, -0.0001256639},
    {0.013743721, 0.014908707, -0.03089979, 0.022549639, -0.0032992598, -0.014573987, 0.012373948, 0.01509438},
    {0.032282915, -0.01903361, 0.03286586, 0.010976556, 0.0148161175, 0.011761377, -0.01188787, 0.03196231},
    {-0.044791363, -0.017439915, -0.025386844, 0.015681108, -0.010083096, 0.028649248, 0.009055545, 0.031614624},
    {-0.0012835121, -0.060058422, 0.006654287, -0.0652238, 0.046033453, 0.12841901, -0.023758905, -0.045743138},
    {-0.0033258758, 0.038889877, 0.038582437, 0.010300972, -0.0028415136, -0.03264319, -0.002582848, -0.035544675},
    {-0.00079567055, -0.053479813, -0.003068907, -0.00398322, 0.0064567183, 0.107162654, 0.046868257, -0.041356158},
    {0.019226542, -0.041099966, -0.005968738, -0.03577323, 0.022318415, 0.12971926, 0.046146248, -0.020868436},
    {-0.045811966, -0.028484242, -0.030263675, -0.035827104, -0.013308589, 0.06369137, 0.026349021, -0.049773894},
    {0.011746219, -0.011172989, 0.019148273, 0.006455439, 0.039067954, 0.074287996, 0.01634609, -0.07875718},
    {0.030332124, 0.009015979, -0.040863838, -0.03231857, 0.037062146, 0.1208714, 0.02565656, -0.061186835},
    {-0.041334834, 0.05991969, -0.017069453, -0.03989643, -0.07132645, 0.038370002, 0.05304709, 0.006831629},
    {0.019748924, -0.04328552, -0.018487401, -0.05865812, -0.0024018574, 0.11524519, 0.040065363, -0.084779136},
    {0.018167255, -0.017887209, 0.026725363, -0.014166906, 0.01653486, 0.13003583, -0.010236961, -0.04164191},
    {-0.037107177, -0.0012245689, 0.03369043, -0.020212488, -0.039812565, -0.00626351, -0.02146644, 0.0008839603},
    {-0.003926702, 0.03308629, 0.029427737, -0.008492437, 0.007307346, 0.014677253, -0.023443809, 0.006099596},
    {-0.013952753, -0.0433599, -0.030946927, -0.04742151, 0.029621704, -0.013140856, -0.028557781, 0.014117258},
    {-0.012371417, -0.059882436, -0.0011086613, -0.045174174, -0.01425068, -0.01621798, 0.017697707, 0.17064284},
    {-0.012571944, -0.075870976, 0.01997463, -0.041477263, -0.056249157, -0.14662385, 0.05865625, 0.15677354},
    {0.0009383373, -0.020455785, -0.0040371493, 0.015844187, -0.04397455, -0.0360237, 0.028496597, 0.093220726},
    {-0.02522376, -0.020010056, 0.03197839, -0.049352657, -0.03100971, 0.116228916, -0.04012981, -0.016534923},
    {-0.02204146, -0.044577677, -0.03833508, -0.0866888, 0.09290912, -0.065420434, -0.020518336, 0.042513408},
    {-0.0058610137, -0.019200636, -0.0041765072, -0.003250826, 0.024904251, 0.12861839, -0.018319951, -0.0792431},
    {-0.016635774, 0.025619783, -0.03167422, -0.038214933, -0.004581598, 0.13589495, 0.014488693, -0.07596705},
    {-0.0067011435, 0.0034167396, -0.019962285, 0.011707843, 0.03539791, 0.121766865, 0.0068130624, -0.060702145},
    {-0.024510834, -0.010970867, -0.0050815362, -0.038567413, -0.01126176, 0.08360757, 0.033295617, -0.047189865},
    {-0.0417838, -0.0021800958, -0.023861017, -0.026696114, -0.0036870085, 0.110000394, -0.0024763234, -0.0686527},
    {-0.0291122, -0.077888004, 0.032215834, -0.07562359, 0.071733154, 0.025261678, -0.033950765, 0.0034295088},
    {0.02045774, -0.017432831, -0.022634152, -0.06414639, 0.028172292, 0.105706826, 0.019288948, -0.042938817},
    {0.0042508813, -0.020126738, -0.044372372, -0.061877817, 0.0035594522, 0.07808643, -0.012409452, -0.005642928},
    {0.011939779, -0.06928789, -0.013423303, -0.03516234, 0.09672686, -0.036387146, -0.0658047, 0.0593931},
    {-0.040145338, -0.0678028, 0.025770266, -0.068643294, 0.058685407, -0.023637624, -0.034410752, 0.013458504},
    {-0.02935247, 0.031528816, 0.006891169, -0.03815418, 0.044181455, 0.035662748, 0.014484405, -0.050093055},
    {-0.0034842566, 0.029592624, -0.03309824, 0.030008918, 0.06363465, 0.007939124, -0.028566578, 0.087088615},
    {-0.011034364, -0.06335147, -0.013267209, -0.018042184, 0.09618694, -0.041728407, -0.011709287, 0.07338687},
    {-0.032738216, -0.028477907, 0.0015635646, -0.082301706, 0.0560472, -0.01777478, -0.003941405, 0.04229746},
    {-0.007205973, -0.056368943, -0.0035358109, -0.0050982423, 0.058218945, 0.038658354, -0.015118985, -0.013805911},
    {0.03183707, -0.02509389, 0.031759992, 0.028076319, 0.03559365, -0.030081153, -0.032507114, 0.033732288},
    {-0.04180416, -0.033946555, 0.021791346, -0.011391237, -0.00922129, 0.1062904, -0.049292225, -0.07660619},
    {-0.03321952, -0.055074625, -0.026142513, -0.036689315, 0.023969615, 0.10601746, -0.0030446055, -0.05299962},
    {-0.011625857, 0.002080065, -0.0028833984, 0.012852319, -0.021911314, 0.070299454, -0.027065534, -0.044505004},
    {-0.013734933, -0.03695141, -0.026517577, -0.049415674, 0.03999859, 0.07925764, 0.0060096774, -0.055755958},
    {-0.023360802, 0.01310527, 0.03293294, 0.01803875, 0.022659082, 0.12085008, 0.0046191295, -0.018891871},
    {-0.042987052, -0.047908813, -0.03415041, -0.013959689, 0.08391915, 0.026897348, 0.017588802, -0.005266738},
    {-0.041949924, 0.015984142, -0.0328909, -0.065802544, 0.011777542, 0.1112776, -0.048278913, -0.039743852},
    {0.012132792, -0.037101872, 0.017726317, -0.03245197, 0.059214164, 0.09229425, -0.016142601, -0.03629193},
    {-0.008590342, -0.04010863, 0.026857752, -0.010096308, 0.09382048, 0.01972835, -0.007853989, -0.008333821},
    {0.015470634, 0.040189385, -0.015323289, -0.035677325, 0.05666672, 0.048757408, -0.015169871, -0.05586615},
    {0.009482584, -0.019651467, -0.027579581, -0.014916434, 0.0728624, 0.029808275, -0.03975138, -0.011372767},
    {-0.030616084, -0.046821564, -0.024396239, -0.029210685, 0.097035974, -0.03449723, -0.031310186, -0.029037535},
    {0.015500119, -0.051679444, 0.033145506, 0.004217304, 0.081524774, 0.03670261, -0.016725777, 0.020147398},
    {-0.036980115, 0.011347208, -0.03726594, -0.02736499, 0.073106706, 0.03341468, -0.040837537, -0.018946167},
    {-0.014895386, 0.007084162, -0.0047290847, -0.035335455, -0.008129222, 0.08320063, 0.008944225, 0.0025634149},
    {0.008302893, 0.006258728, -0.007239632, 0.023373958, 0.08666339, 0.06436354, -0.052825946, -0.0116874715},
    {-0.020615503, 0.01402722, 0.035455607, -0.022927938, -0.029270753, 0.07272211, -0.014673759, -0.070535235},
    {-0.0005449099, 0.00259047, 0.0010670535, -0.056435976, -0.030207997, 0.10012793, 0.002790347, -0.062602706},
    {0.004662256, -0.020481138, 0.03133081, -0.014466292, -0.042398714, 0.103999466, 0.042364113, -0.033586983},
    {-0.043799207, -0.01862038, -0.0079979785, -0.010419076, -0.030612174, 0.058362864, -0.048841007, -0.07728178},
    {-0.01267681, 0.043620918, 0.02921836, -0.025553776, -0.034671206, 0.07382994, 0.047540788, -0.03699826},
    {-0.0064846124, -0.03157632, -0.014931998, -0.06286845, 0.003353687, 0.12099405, 0.023800205, -0.013008174},
    {-0.038714845, 0.0069533857, -0.019418135, -0.027666697, 0.06805592, 0.02946341, -0.037398938, -0.0888295},
    {-0.012103359, -0.08044198, -0.01014677, -0.050378744, -0.013535995, 0.08277017, -0.028825665, -0.018179508},
    {-0.007921711, 0.07315827, 0.0021021105, -0.038470402, 0.034443576, 0.03580257, 0.0030028177, -0.10367412},
    {-0.0007206566, 0.06874001, -0.024610892, 0.02952553, 0.010570126, 0.09801532, 0.0025291534, -0.030637383},
    {-0.0009727795, 0.010488279, -0.0016195419, -0.06167625, -0.017843204, 0.108822756, 0.001250322, -0.06135509},
    {-0.035084892, 0.055523068, 0.012461145, 0.0023264054, -0.008885036, 0.11132164, 0.056913503, -0.090207204},
    {0.0057001356, 0.0153491525, -0.012748074, -0.013497729, 0.04505784, 0.07521335, 0.03796359, -0.07231022},
    {-0.010933694, 0.07548339, 0.032151435, -0.033003185, 0.036720227, 0.0533045, 0.03059129, -0.07101949},
    {0.026016427, -0.01339506, -0.017690344, 0.020786766, 0.011161349, 0.05710381, 0.059728827, 0.047306642},
    {-0.00042427867, 0.042328555, 0.02547878, 0.007340191, -0.004671526, 0.04932717, 0.06550336, -0.07401475},
    {-0.03103178, 0.05211953, 0.031259067, 0.011007794, -0.03699453, 0.017231684, 0.03720936, 0.10609901},
    {-0.045296565, -0.0155847175, 0.017037518, -0.030673001, 0.020133723, 0.033751354, 0.0419724, 0.097962},
    {0.017077079, 0.06033735, -0.022121456, -0.043235816, -0.02448433, 0.025825502, 0.028013455, 0.038506802},
    {-0.02138547, -0.010696566, -0.0165247, -0.040897824, -0.016628096, 0.023604596, 0.02687781, 0.0379296},
    {0.013044325, 0.02206775, -0.025294924, 0.015286587, -0.0050918204, 0.021006467, 0.020562045, 0.056663103},
    {0.028398624, -0.047460835, 0.024730273, 0.022499911, 0.091243, 0.06483454, -0.049957067, -0.039355688},
    {-0.029594699, -0.016510956, -0.03925926, -0.0045729256, 0.0156082865, 0.08486197, -0.014867862, -0.015452322},
    {-0.012640409, 0.008844319, -0.033680458, -0.015147171, 0.04827272, 0.09197715, -0.009590492, -0.08929251},
    {-0.024024034, 0.010813835, -0.014764234, 0.040417116, 0.013827319, 0.05386038, 0.056248516, -0.06306892},
    {-0.018206785, 0.022621822, -0.03851043, -0.008789638, 0.032172933, 0.024913184, -0.011794465, -0.11829838},
    {-0.026155557, 0.046099342, 0.00983494, -0.027771695, 0.06277432, 0.024111448, 0.0041975304, -0.086198024},
    {0.02563755, 0.028277699, -0.031144856, 0.033386823, 0.009173761, 0.04973969, 0.029298563, -0.079776235},
    {0.025007695, 0.025515698, 0.014219782, 0.003631436, -0.00080069416, 0.03918593, -0.0035577219, -0.04596665},
    {0.019927766, 0.027620899, 0.023457238, 0.004414014, 0.02718218, 0.069642566, 0.032591157, -0.06895736},
    {0.01336381, 0.054813687, -0.023585461, 0.043595105, 0.0037818914, 0.036696035, 0.017486138, 0.0027164056},
    {-0.029990248, 0.0334886, 0.029146405, 0.051963978, 0.028541012, 0.06707509, 0.0021981392, -0.08822262},
    {0.019960292, 0.051128767, -0.021651592, -0.008600425, 0.019651901, 0.031479638, 0.03776196, 0.055079367},
    {0.017050501, 0.050006952, -0.04056084, 0.03322685, -0.007556979, 0.03636445, 0.024632843, 0.040722},
    {-0.0075576506, 0.06644066, 0.03274407, -0.008572287, -0.04350138, 0.07149217, 0.044621643, 0.04487676},
    {-0.032372892, 0.058558002, -0.039514784, 0.008570284, 0.023125637, 0.038968604, 0.00977891, 0.092298545},
    {-0.016198335, 0.042352557, -0.03827868, -0.023879986, 0.013931599, 0.041783, 0.0004241648, 0.107377},
    {0.009933414, 0.013208017, -0.0074245343, -0.060535815, 0.05685741, 0.066379726, 0.02529659, -0.08099354},
    {-0.017074643, -0.02056973, 0.021390243, 0.0142433895, 0.04245193, 0.06311861, 0.023879543, 0.07851573},
    {-0.019390618, -0.039515603, -0.018641356, -0.024380516, -0.041110598, 0.09267312, 0.06438719, 0.0595621},
    {0.019594926, 0.012010873, 0.0074009043, -0.0120930895, 0.055196572, -0.009889229, -0.04895582, -0.045676634},
    {-0.006750832, 0.03167339, -0.00062498695, 0.04098481, 0.08095044, 0.017963873, 0.016828232, -0.0958644},
    {-0.029788006, -0.010964503, 0.03404416, 0.029874621, 0.05785515, 3.1510775e-05, -0.02434656, -0.09584451},
    {0.017192012, 0.0010205578, 0.0096792085, 0.04481942, 0.03813848, 0.012230376, 0.0012057412, -0.10468603},
    {0.031824112, -0.02169793, -0.03701128, 0.027282834, 0.08349747, 0.009066255, 0.0150400065, -0.054286834},
    {1.1223368e-05, 0.0059375116, 0.007781137, 0.027888032, 0.05941993, 0.009594079, 0.0011487063, -0.06200741},
    {0.022652058, 0.01973485, -0.040778995, -0.020663824, 0.015408032, 0.0751961, 0.018544167, -0.07064712},
    {0.030135404, -0.022865774, -0.043753184, -0.0074623893, 0.07199204, 0.052935727, 0.022897812, -0.061912347},
    {-0.046680026, 0.03973537, 0.029091295, 0.028457645, 0.0129076475, 0.020069672, 0.06313882, 0.07297009},
    {-0.009864527, 0.051814906, 0.023000771, 0.0056445613, -0.036438257, 0.0400151, 0.0020836992, 0.07302065},
    {0.009375267, -0.002019461, 0.02384436, -0.008245573, -0.0022314158, 0.0061988756, 0.061243057, 0.068898514},
    {0.005805339, 0.012581524, -0.02187455, 0.018230416, 0.027778076, 0.07836756, 0.007023292, 0.06952524},
    {-0.0075938357, 0.07544512, -0.018229341, 0.029660843, 0.019240854, 0.07769714, 0.0051449, 0.035974074},
    {-0.0124960495, -0.04037087, 0.0061388835, -0.020163957, 0.03861849, -0.016531518, 0.008838874, 0.04549661},
    {-0.0030755675, 0.056371994, -0.035406116, 0.03102788, 0.011151353, 0.072987385, 0.031222334, 0.03654778},
    {0.01224793, 0.008101419, -0.04083998, 0.033758663, 0.022545235, 0.017449616, 0.006487192, 0.09621389},
    {-0.006198998, 0.013228187, -0.0067857713, 0.0073072347, 0.03936082, 0.038915783, -0.044029143, -0.058238715},
    {-0.025799885, 0.018432595, 0.018240858, -0.020629842, 0.09368594, 0.012663662, -0.055704795, -0.047037575},
    {-0.028484466, 0.042221118, -0.03479342, 0.00064241525, 0.04362377, -0.004391384, -0.0013182915, -0.036205083},
    {-0.011390857, -0.0071680266, -0.04014097, 0.026853666, 0.060929306, 0.019261265, -0.029950406, -0.0629322},
    {-0.03318618, 0.01759687, 0.026707023, -0.035873104, 0.06834931, 0.008804447, -0.032658424, -0.03449499},
    {-0.026006892, -0.035061523, 0.03368149, -0.0032666354, 0.047577348, -0.0011004505, -0.025670651, -0.003374353},
    {0.028367879, 0.030341005, 0.024574837, 0.020259444, 0.044090945, 0.050155446, 0.052326217, 0.010078321},
    {0.017397206, 0.0045063673, 0.038578942, 0.030874137, 0.040832214, 0.040261764, 0.0030929907, -0.051421344},
    {-0.04040182, 0.047653895, -0.025352307, -0.034111056, 0.0057333983, 0.05766171, 0.038624983, 0.09027498},
    {0.023853822, 0.038214702, 0.005279631, -0.035628933, -0.026977867, 0.07868052, 0.03419005, 0.08767303},
    {0.00980613, 0.0076715015, -0.03199131, -0.0057592657, -0.021249745, 0.068934225, 0.047854308, 0.054639988},
    {0.024482, 0.026617479, -0.017689114, -0.02307212, 0.022335026, 0.031109352, 0.06394387, 0.095307514},
    {-0.023843037, 0.045261092, -0.022266764, -0.04468069, -0.04323402, 0.085912764, 0.043371778, 0.03295836},
    {-0.02053892, 0.02952003, 0.030733502, 0.04427333, 0.05510143, 0.07101297, -0.014713029, -0.08434026},
    {-0.032184027, 0.057397276, 0.008940495, -0.0029471056, 0.005387123, 0.026614698, 0.057561953, -0.015110761},
    {-0.030526496, 0.056967318, -0.00017735519, 0.016307194, 0.04876654, 0.053308282, 0.040869776, -0.025325341},
    {0.013074706, 0.03136805, 0.005605802, 0.0002000941, 0.029774299, -0.0106472, 0.014646488, -0.030850658},
    {0.0063782693, 0.05966989, -0.027522914, 0.03389244, 0.044094104, 0.055442926, -0.06201344, -0.06727396},
    {-0.037837677, 0.0028653068, 0.011223767, -1.0184893e-05, 0.06398391, 0.052153476, 0.0034748001, -0.007853687},
    {0.021652222, -0.003038339, 0.011778526, 0.009970337, 0.0832783, 0.056871396, -0.039701607, -0.06125416},
    {-0.02444724, 0.011336264, 0.035329625, 0.06005873, 0.10414877, 0.07215818, -0.05069231, -0.058669493},
    {-0.03410818, 0.046660464, -0.0013692938, 0.06242409, 0.05897481, 0.03721458, -0.025105838, -0.058635026},
    {0.017876081, 0.069418564, -0.031422067, 0.047393505, -0.0043703443, 0.045153927, 0.05484928, 0.026098851},
    {0.004488644, 0.036971044, 0.019113088, 0.014842536, 0.04598469, 0.08545417, -0.04498974, -0.056046426},
    {-0.026480041, 0.062138125, 0.025777465, -0.0024085485, -0.04982258, 0.093052045, 0.023777155, 0.10635772},
    {-0.0044346657, 0.00201403, -0.016614052, -0.014085559, 0.0078032645, 0.06455371, 0.025688494, 0.09302593},
    {0.025454978, 0.0023596915, -0.03907534, 0.019688865, -0.012985622, 0.08289811, 0.07160165, 0.03828745},
    {0.030612815, 0.042478938, 0.02095656, -0.021530658, 0.024879659, 0.08304924, 0.043994896, 0.039869595},
    {-0.0064807218, 0.062072333, -0.013535451, -0.018919291, -0.049836278, 0.09148574, 0.080246225, 0.043163773},
    {0.014642326, -0.010520556, 0.014448667, 0.0048962813, 0.07613411, 0.09167724, -0.04127923, -0.11630572},
    {0.024326265, 0.0021286167, -0.018968476, 0.01455684, -0.009447804, 0.099513076, 0.0026744667, 0.07307426},
    {-0.045823313, 0.03353476, 0.031404566, -0.024237605, -0.0061809556, 0.047846593, 0.02801159, 0.01423671},
    {-0.042419005, 0.0023177126, -0.012870371, 0.04127048, 0.040202256, 0.027019998, -0.08523604, -0.11417294},
    {-0.00044667925, 0.0058833766, -0.012260725, 0.014623472, 0.10843804, 0.065147236, -0.02462252, -0.08892327},
    {-0.0010847002, 0.051395997, -0.03561985, 0.01342158, 0.0076058684, 0.023494458, 0.020806033, -0.0251608},
    {0.0144542465, 0.0023073344, 0.01965276, -0.006206808, 0.03945261, 0.023608644, -0.07202123, -0.12558843},
    {0.007309356, -0.005204248, -0.004060631, 0.0037927555, 0.079238586, 0.08623203, -0.041841656, -0.13976066},
    {-0.04067844, 0.020969242, 0.029211776, -0.021571225, 0.055555634, 0.033263117, -0.050467964, -0.07128966},
    {-0.019626888, 0.04060508, 0.018015768, 0.06294689, 0.037508618, 0.05195249, 0.04573028, 0.04036955},
    {-0.0066843787, -0.0129468525, 0.017985467, -0.0015218746, 0.08890543, 0.037606705, -0.013785073, -0.08566133},
    {-0.04113449, 0.052836087, -0.002670194, 0.031211857, 0.016528027, 0.07735325, 0.07100403, 0.041663606},
    {0.008730896, 0.022656914, 0.02113888, -0.0054753134, 0.03116588, 0.060838137, 0.058071077, 0.1144827},
    {-0.045343466, 0.057291716, -0.033051644, -0.008057987, -0.044658095, 0.020741832, 0.031178681, 0.049963813},
    {0.011694166, 0.026513424, 0.02103863, -0.0160765, -0.026398974, 0.06497492, 0.06924371, 0.053621765},
    {0.02996592, 0.06788451, -0.04200664, -0.01584082, -0.012192253, 0.025494732, 0.02108087, 0.07161621},
    {-0.0056614946, -0.0441195, 0.019522814, -0.029975994, 0.06230054, 0.021776943, -0.0444846, 0.015104748},
    {-0.02430209, 0.059028693, -0.025176832, 0.009204041, -0.038806885, 0.045569815, 0.060383033, 0.04291657},
    {0.0126555525, 0.026263941, 0.023136875, -0.01985381, 0.019292478, 0.046814, 0.068879835, 0.08383902},
    {-0.032912955, -0.022226732, 0.02625944, 0.016735744, 0.08482772, 0.0032293191, 0.00768768, -0.097639084},
    {0.033418786, -0.011222522, -0.01543214, 0.049103394, 0.04571887, 0.014107994, 0.028610317, -0.095071},
    {-0.011586116, -0.002603162, 0.016261939, 0.035221703, 0.061444964, 0.03127921, -0.047456767, -0.067003086},
    {0.00783294, -0.001457001, -0.027539045, -0.038726296, 0.02735526, 0.086378746, -0.010072321, -0.12764823},
    {-0.033222035, 0.028405972, 0.014061096, 0.007412634, 0.05767116, 0.055040866, -0.054632865, -0.13255112},
    {-0.045094967, 0.0070593143, -0.020648455, 0.0030112544, 0.055800863, 0.056052364, 0.00962507, -0.081921116},
    {-0.021821743, -1.6465168e-05, 0.021643477, 0.05522832, 0.05793018, -0.0028307554, -0.031917155, 0.047642127},
    {0.016166843, -0.011666301, -0.0047521703, 0.029684076, 0.07725049, 0.0794552, -0.035429854, -0.07037822},
    {0.0010048467, 0.059964623, -0.014760332, 0.007946313, 0.008867798, 0.054081213, 0.073773526, 0.06934811},
    {0.005868735, 0.0024033152, 0.023947302, 0.040642057, 0.0437191, 0.048827346, 0.0688191, 0.11699516},
    {-0.01535405, 0.06199609, 0.01363071, 0.02671557, 0.003403137, 0.065859616, 0.07099338, 0.074708566},
    {0.026158243, 0.0010818195, 0.03334575, 0.0319546, 0.030589202, 0.0649829, 0.028669072, 0.05707992},
    {0.013946705, 0.03634338, -0.03064375, 0.01599212, -0.023535904, 0.09202194, 0.0378131, 0.11011831},
    {0.019020382, -0.005558843, -0.020803088, 0.053619906, 0.028467176, 0.019532386, -0.006975924, -0.015792273},
    {-0.040282752, 0.020821389, 0.027997816, 0.008488944, 0.03948819, 0.042257424, 0.052281458, 0.057928417},
    {0.0045253425, 0.06303851, 0.0004477558, 0.040599056, 0.00824458, 0.05462039, 0.07425292, 0.08577684},
    {0.014874088, -0.021190783, 0.03959368, 0.015997168, 0.04368946, 0.044915576, -0.030945348, -0.059787538},
    {-0.043722987, 0.02968813, 0.00087089965, 0.06832421, 0.07262252, -0.01464199, -0.050300367, -0.10001579},
    {0.021842055, -0.004574109, -0.011196844, 0.013124548, 0.043939456, 0.074802905, -0.020635974, -0.03788689},
    {-0.0151075525, -0.008010818, -0.02796018, 0.014952019, 0.04517821, 0.030572757, -0.025869353, -0.089576356},
    {0.016278947, 0.0024302583, 0.012948849, 0.05109241, 0.040703535, 0.05477283, -0.023917029, -0.062763646},
    {0.014049893, 0.023554605, 0.014110285, 0.010079281, 0.041709706, -0.012553154, 0.038351838, -0.087656096},
    {-0.037147697, 0.019154519, -0.0038791073, 0.0087727215, 0.014486565, -0.032520145, -0.040854357, 0.08278293},
    {-0.036777727, 0.012434887, 0.0003747806, 0.0030384029, 0.003512365, 0.09542969, 0.005746493, -0.06475469},
    {-0.030234916, 0.018976843, 0.024811538, -0.0014293325, 0.00676879, 0.04363956, 0.045151148, 0.07903941},
    {-0.025748739, 0.06804826, -0.026788607, -0.007380801, 0.0037729759, 0.06853135, 0.0669862, 0.1263218},
    {0.019825133, 0.041709643, 0.012986586, 0.02332144, 0.04878436, 0.029364778, 0.033431035, 0.11981469},
    {0.012620531, 0.0099480245, -0.03285573, 0.002775156, -0.008678922, 0.04443905, 0.020260451, 0.062436115},
    {-0.008456703, 0.061258487, -0.014176107, 0.05534759, 0.006365118, -0.0050965347, 0.06481029, 0.12925413},
    {-0.037073366, -0.028091079, -0.02589154, 0.040726203, 0.02814066, 0.07256159, 0.017925339, -0.019219885},
    {0.019940628, 0.0033377383, 0.024399687, 0.032734983, 0.031491995, 0.07409602, 0.032909475, 0.03919514},
    {-0.039185632, 0.044795774, -0.012680683, 0.019771636, -0.020378396, 0.022457369, 0.068212464, 0.07300404},
    {0.022553308, 0.009014576, 0.031071495, 0.002761723, 0.011343893, 0.027347134, 0.0075259297, -0.036995},
    {-0.0050901175, 0.0019817294, -0.032128412, 0.03480969, 0.038582917, 0.11986602, -0.003936797, -0.036115505},
    {-0.010348282, 0.01176902, 0.0013451204, 0.029341979, 0.03191782, 0.052218206, 0.054728296, -0.046318572},
    {-0.013398284, 0.040475506, 0.002960705, -0.01545158, -0.014144131, 0.012276994, 0.017021265, -0.05403721},
    {0.004674934, 0.056087997, 0.03124698, 0.0007269831, 0.018076206, 0.042789597, 0.021819342, -0.08482773},
    {0.01250648, 0.018752646, -0.03081056, 0.010089771, 0.043634012, 0.03574893, 0.039820347, -0.07727058},
    {-0.0009726516, 0.029589452, 0.008938701, 0.006069972, 0.04066253, -0.057244156, -0.024034701, -0.01376984},
    {0.015041714, 0.03084863, 0.019672558, 0.018850777, 0.019615438, 0.07713237, 0.015199829, -0.058101457},
    {-0.026590481, 0.025623035, 0.02391646, 0.07329294, 0.0072843065, -0.00608843, -0.027684933, 0.030770058},
    {-0.0250296, 0.03360696, -0.009831004, 0.06501925, 0.05938365, -0.05334726, 0.02191052, 0.085277684},
    {0.026474608, -0.0014131011, 0.006604649, 0.05422763, 0.017711433, -0.013808754, 0.01322402, 0.06147624},
    {-0.019393865, 0.06000497, 0.02009713, 0.026821867, 0.060304176, -0.025069157, 0.04658732, 0.083037406},
    {-0.004858179, -0.0020460456, -0.006680023, 0.02470977, 0.028214367, -0.005812529, -0.0010733561, 0.0920791},
    {-0.02237757, -0.02131194, -0.036601793, -0.03345885, -0.02462317, 0.07108896, 0.057132173, -0.015009032},
    {0.016133742, 0.074667275, 0.03294196, 0.01852015, 0.04667649, 0.012426202, 0.015149174, 0.06192363},
    {-0.041125953, 0.04774291, -0.022113407, -0.025363868, -0.034166604, 0.056502264, 0.06319418, 0.0867172},
    {-0.026566867, -0.016924312, 0.011088453, -0.010697814, 0.01329445, 0.03368221, 0.022244465, -0.05393002},
    {0.029797971, 0.006636441, -0.024136886, 0.023984542, 0.0055714, 0.072898746, 0.02163428, 0.019820023},
    {-0.03345811, 0.04290684, 0.03088084, 0.013105525, 0.0023348844, 0.09927474, 0.055800498, -0.0128326565},
    {-0.006819711, 0.012181994, 0.017965542, -0.0056490083, 0.018447617, 0.036502693, 0.006493871, -0.029982645},
    {-0.009010824, 0.03874221, 0.022173246, -0.013863921, 0.004810446, 0.046835452, 0.07647093, -0.046795387},
    {-0.030208819, 0.06031001, 0.011480163, -0.028332002, -0.018894827, 0.044356536, 0.029187106, -0.028437998},
    {-0.018282538, -0.0018460989, -0.039637238, 0.059473, 0.085180104, -0.05271338, -0.02031025, 0.028160548},
    {-0.018662415, 0.006174967, 0.028949596, -0.039065562, -0.018930206, 0.02587602, 0.06941654, -0.03468858},
    {0.002817931, 0.06592988, -0.04393615, 0.03350307, 0.08525003, -0.067918584, 0.006604893, 0.084276706},
    {-0.008801689, 0.04680715, -0.032438617, 0.049147874, 0.047388848, -0.034596123, -0.052405566, 0.031624667},
    {0.0038788472, 0.06487982, 0.0068708733, 0.05752187, 0.019496271, -0.029192055, -0.021001965, 0.08034043},
    {-0.0067433347, 0.035123486, -0.033013742, 0.04785803, 0.06445708, -0.038597263, -0.054036785, 0.090244494},
    {-0.03170583, -0.007104156, -0.038327314, 0.07577297, 0.013299274, -0.015672233, -0.02185182, 0.017142784},
    {0.009774609, 0.0487522, -0.009572146, 0.028907044, 0.040411018, 0.077003144, 0.05564779, 0.046293832},
    {0.023801202, 0.017387386, 0.019845214, 0.016789263, 0.09028581, -0.049994078, 0.018826094, 0.060706574},
    {-0.027049499, 0.0215473, 0.023834376, 0.07264869, -0.00034704845, -0.03404307, -0.0050969976, 0.017900532},
    {0.022392077, 0.032681458, -0.018938113, -0.0075147273, -0.042214178, 0.038641345, 0.06878262, -0.02955672},
    {0.020889001, 0.013946487, -0.01153882, -0.013279759, -0.014521666, 0.034252964, 0.03230436, 0.00933796},
    {0.013126099, 0.057500884, -0.018585624, -0.022964502, -0.035362728, 0.08302633, 0.062994935, -0.025739877},
    {-0.023745487, 0.009844229, 0.0121265985, 0.021464108, -0.010567415, 0.077625394, 0.0060638837, 0.033587623},
    {0.0016363536, 0.024708616, -0.037297003, 0.02319599, -0.05585921, 0.05015966, 0.07767456, 0.009012381},
    {-0.0030941234, 0.042265054, -0.03358162, -0.048172206, -0.017260008, 0.07226049, 0.021685602, 0.025823347},
    {-0.004922703, 0.023961743, 0.030860541, 0.033526983, 0.0067949886, -0.06632957, 0.0034920126, 0.11714113},
    {-0.03509347, -0.0037642785, -0.0092589725, -0.028936356, -0.047702692, 0.072126836, 0.012975258, 0.0030414108},
    {-0.00276268, 0.021259878, 0.03184205, -0.00036221853, 0.007533455, -0.04709684, 0.0150419, 0.11741507},
    {0.013889396, 0.026991371, 0.00047447908, 0.016668877, 0.028956603, -0.04096025, -0.0066070925, 0.03741468},
    {0.027667345, -0.0060524163, -0.017923307, -0.0015836969, 0.040849235, -0.07313367, -0.015459156, 0.042971753},
    {-0.023054238, 0.0065525663, -0.036826838, 0.06765226, 0.053141408, -0.017002702, -0.008712411, 0.030436538},
    {-0.015444588, 0.03230995, 0.029287538, 0.0013335575, 0.009677971, -0.040376823, -0.02969933, 0.10807446},
    {0.004447002, 0.047923863, 0.02632355, -0.00077687553, -0.0014301125, 0.082140654, 0.02603774, -0.039088793},
    {0.026793417, 0.04780951, 0.005358523, 0.019289281, 0.03168092, -0.046871312, -0.014765368, 0.065405816},
    {0.022068419, 0.010464823, -0.011029453, 0.072801754, 0.02226821, -0.014423298, -0.045906324, 0.024489436},
    {-0.010441095, -0.0062047457, 0.037760265, -0.053446352, -0.0056738015, 0.050692987, 0.042156074, -0.026110303},
    {-0.020226184, 0.03295465, 0.038685545, 0.0017538746, -0.024697423, 0.09647549, 0.07089074, 0.014718732},
    {-0.0064058453, 0.028756121, -0.03145559, -0.0003280543, -0.04665818, 0.09199498, 0.06619291, 0.016761925},
    {0.02476953, 0.038506694, -0.028878957, 0.023560932, -0.029093387, 0.056917593, 0.023236325, 0.03370779},
    {-0.044135246, 0.058727194, -0.0022523366, -0.030452542, -0.023112746, 0.057608377, 0.018428206, -0.013646163},
    {0.018085236, 0.07173649, -0.015372513, -0.005347501, 0.014855932, 0.016647188, 0.07692862, 0.007846949},
    {0.01891572, -0.0053328304, 0.02825081, 0.01820968, 0.05298691, -0.048322953, -0.045044612, 0.03402241},
    {-0.017495234, 0.00591772, -0.036735944, 0.01641113, -0.057065938, 0.06169554, 0.026247518, -0.0409602},
    {-0.011470655, -0.019875482, 0.009701773, 0.019136876, 0.028148048, -0.041530583, 0.013946595, 0.07719979},
    {0.02715912, -0.021022053, 0.02887756, 0.013908325, 0.06725171, -0.009293798, 0.010253378, 0.081004575},
    {0.0035778037, -0.024055183, -0.02050523, 0.06725246, 0.04573055, -0.01691119, 0.0018193531, 0.03654571},
    {0.001235993, -0.013732664, -0.029926492, 0.06931993, 0.0150517505, 0.026819116, 0.014059805, 0.07153854},
    {-0.012882251, 0.020186912, -0.041575298, 0.01885388, 0.024188975, -0.058237575, 0.000943253, 0.04036773},
    {0.00904043, 0.019270902, -0.033842932, 0.018354934, 0.019474892, 0.046610605, 0.026470402, -0.063803256},
    {0.026171181, 0.033004016, -0.010075272, -0.0020193725, 0.013008917, -0.038448937, 0.001206556, 0.10242443},
    {0.022238052, 0.011599117, -0.02057875, 0.057115737, 0.081442885, -0.038719513, 0.011185362, 0.054267656},
    {0.011546691, 0.0059314454, -0.027931176, 0.00524733, 0.0045382017, 0.051796857, 0.01750306, -0.015524831},
    {0.00022591332, 0.021215236, -0.031119823, 0.0068185967, -0.051122658, 0.02892154, 0.05140544, -0.059210613},
    {-0.007576824, 0.053246573, 0.014962148, 0.016054355, -0.026404757, 0.073487654, 0.04096667, -0.020353854},
    {-0.02319715, 0.003638177, -0.020418596, 0.0028981105, 0.018821344, 0.016346686, 0.023311643, -0.059914507},
    {0.02346189, 0.06210495, -0.017817285, 0.025240079, -0.044390228, 0.0742594, 0.035054166, 0.0051956633},
    {0.02824727, 0.005642169, 0.0094787665, -0.03708414, -0.038430363, 0.031247076, 0.0052195564, -0.03216688},
    {0.021284005, -0.0058694314, 0.017908998, 0.05742214, 0.004890459, -0.004456026, -0.062491473, 0.06430059},
    {-0.004445547, 0.035914782, 0.001529228, -0.025093978, -0.04767032, 0.036821943, 0.025066353, -0.025454432},
    {-0.03740311, -0.014175506, -0.02443803, 0.005686152, 0.019381186, -0.05018689, -0.022862505, 0.02750484},
    {-0.040865548, -0.04898941, 0.007432315, 0.0643734, 0.024224915, -0.050235536, -0.05822313, 0.07351456},
    {-0.022295969, -0.015480379, -0.018265022, 0.0038982038, 0.023116637, -0.060244378, -0.02770416, 0.10069283},
    {-0.0137491105, 0.032043945, 0.020684645, 0.023943435, 0.036688402, 0.0120231705, -0.07364735, 0.044987597},
    {-0.010270494, -0.005082791, -0.02930283, 0.06210414, 0.024256768, -0.013945021, -0.0065684225, 0.10946736},
    {0.023473801, 0.09084085, 0.00720855, 0.015850069, 0.041040394, 0.06427743, 0.020756552, -0.06169438},
    {0.016221682, 0.012132257, -0.0014845883, 0.003494307, 0.012941577, -0.03284551, -0.013180307, 0.026758265},
    {0.02064078, 0.010810445, -0.03175975, 0.022141654, 0.03015899, -0.03817025, -0.005160664, 0.09063256},
    {-0.0039346083, 0.07736658, -0.008829823, -0.0059791836, -0.020495491, 0.06541295, 0.07387209, -0.04469561},
    {-0.008369178, 0.0901307, -0.018670151, 0.055468705, 0.022902137, 0.09201536, 0.06783401, -0.021004925},
    {0.01171359, 0.07549639, 0.005373457, -0.036114614, -0.0026049574, 0.08037471, 0.055935416, -0.026040493},
    {-0.04708723, 0.04075225, 0.013625308, 0.00076404226, -0.036522727, 0.07807071, 0.02950961, -0.027816065},
    {0.02506122, 0.052428678, -0.02102831, 0.016924204, -0.05242803, 0.0690466, 0.04423659, -0.038037002},
    {0.028977292, 0.017173562, 0.024702195, 0.041756265, 0.017618421, 0.078823954, 0.03522968, 0.01325806},
    {-0.026490925, -0.024895145, -0.013224889, 0.02131037, 0.0260964, 0.066541895, 0.027598027, 0.06275663},
    {-0.026115194, 0.038308572, 1.0943086e-07, 0.0028560457, -0.0072453385, 0.053254407, 0.054680526, -0.040344007},
    {-0.023163877, -0.003561746, -0.042285625, 0.03106861, -0.011061967, -0.036463365, -0.045624048, 0.12629323},
    {-0.01002438, -0.03275678, 0.020026583, -0.0044160103, 0.05182527, 0.016053682, -0.01220138, 0.04725177},
    {-0.022687564, -0.044297256, -0.02275792, 0.012671356, 0.008429594, -0.034138754, -0.046914175, 0.090571284},
    {0.014051872, -0.02702281, -0.0024747732, 0.0050151465, 0.06996486, 0.026078122, -0.07688575, 0.10918833},
    {-0.027160374, 0.014565781, 0.025877643, 0.059954308, -0.002992714, -0.026214011, -0.011512522, 0.13875075},
    {0.010693272, 0.06252118, -0.03455234, 0.002497608, 0.015294898, 0.057972424, 0.022712668, -0.05029677},
    {-0.0065530655, -0.014508806, -0.03972932, -0.008639506, 0.027517278, -0.046936575, -0.046143774, 0.008940983},
    {0.029866979, 0.0067261504, -0.010934229, 0.016610702, 0.07266016, 0.0077627134, -0.040190287, 0.035167743},
    {0.01336282, 0.045032226, 0.031434126, 0.023670487, -0.05888628, 0.0648551, 0.064083815, -0.04373832},
    {0.010625709, 0.08120225, 0.008589674, 0.017498793, -0.032852516, 0.10693204, 0.06643881, -0.045839805},
    {-0.02984493, 0.04069767, 0.006589896, 0.026273867, -0.010413352, 0.043778423, 0.029185668, -0.07685927},
