#include "core.h"
// Conv1D Layer 0 Weights
const fixed_p conv1d_0_weights[3][1][16] = {
    {-0.20028545, -0.23880813, -0.34271398, 0.16370115, 0.08606835, -0.2449686, 0.19264758, -0.023617359, -0.05033883, 0.25945342, 0.23780075, 0.21640226, -0.19569016, 0.17185687, -0.26745576, 0.0624626},
    {0.11644047, -0.09788227, 0.33403948, 0.23151903, -0.24146892, -0.16052818, 0.27569312, -0.12944582, -0.05651131, -0.19607244, 0.12545218, -0.29471108, -0.27335835, -0.030416546, 0.021953268, -0.3396168},
    {0.25051227, 0.14303316, 0.02092323, 0.0015741695, 0.025026932, -0.16887848, 0.23851681, 0.40825248, -0.0044484334, -0.17400411, -0.27589816, 0.1945359, -0.0045878883, 0.08920179, -0.000789691, 0.14183179},
};
const fixed_p conv1d_0_biases[16] = {
    -0.07538469, -0.08103308, 0.0017274431, 0.04272829, -0.006893166, -0.1042452, -0.06879044, -0.12169741, 0.0074739796, -0.08687663, -0.022892945, -0.008819377, -0.028698998, 0.019737363, 0.024801884, -0.060761094
};

// Batch Normalization Layer 0 Parameters
const fixed_p batch_norm_0_gamma[16] = {
    1.21189, 1.2320628, 0.9704438, 0.86364794, 0.94451547, 1.3154949, 1.0147675, 1.1396059, 0.8634744, 1.2410587, 0.7013059, 0.989103, 0.8839669, 0.9083819, 0.8682415, 1.020036
};
const fixed_p batch_norm_0_beta[16] = {
    -0.104988605, -0.056436412, -0.11905578, -0.04320253, 0.11006232, 0.12893912, -0.09281423, 0.019802907, -0.022045845, -0.004047219, -0.10258075, 0.15432814, -0.077915125, -0.15530446, -0.19383204, -0.07102234
};
const fixed_p batch_norm_0_mean[16] = {
    0.0026046287, 0.0021923133, 0.011416183, 0.03988895, 0.008119108, 0.0049952744, 0.0087167155, 0.0011081476, 0.019910749, 0.0022163359, 0.008146413, 0.0046650474, 0.015183579, 0.017071368, 0.043466985, 0.0015384164
};
const fixed_p batch_norm_0_variance[16] = {
    0.0001847111, 0.00013039385, 0.0009244096, 0.0016819334, 0.000340002, 0.00040319026, 0.0009471545, 8.7899265e-05, 0.00017506181, 0.00017415629, 0.0007369312, 0.00027231197, 0.0013956494, 0.000408619, 0.000972196, 0.000102701226
};

// Dense Layer 0 Weights
const fixed_p dense_0_weights[944][16] = {
    {0.035911236, 0.07083074, -0.055921085, 0.043955613, 0.0014693496, -0.013329081, 0.0022822036, -0.072488435, 0.007061882, -0.020509562, 0.051075872, -0.035125975, 0.019502059, 0.08373379, -0.09120043, 0.028298745},
    {-0.044698503, 0.059550337, 0.06766215, 0.03853827, 0.03690431, -0.010650675, 0.0056436346, -0.04321232, 0.032302648, -0.04298446, -0.049175136, -0.015323838, 0.039899193, -0.068555236, 0.0053103557, -0.10727485},
    {0.13822487, 0.17005306, -0.05954014, 0.058383353, 0.10002203, -0.0117084235, -0.026521595, 0.09327713, 0.02395763, -0.0057966257, 0.009340811, 0.11253893, 0.02867332, 0.086299926, -0.05010845, 0.02194896},
    {-0.07313854, -0.043997034, 0.044488285, -0.031538896, -0.049228333, -0.0005490992, 0.0027865802, -0.061564017, -0.040109534, 0.00036322817, -0.019507632, 0.046997577, -0.01609804, -0.16199476, 0.0329447, -0.118968464},
    {-0.054389868, 0.010138075, -0.022878855, -0.08843973, -0.02608231, 0.012379183, 0.00069152, -0.034789868, 0.049338907, -0.073256135, -0.017739259, -0.019117452, -0.07490305, 0.028124245, -0.042713333, -0.021433381},
    {-0.12060981, -0.02595796, 0.12523638, -0.011164378, 0.07820266, 0.07305547, -0.024692057, -0.09087912, -0.038317654, 0.09779958, -0.13223289, 0.07975422, -0.022963433, -0.13222606, 0.03093359, -0.111321576},
    {-0.015062744, -0.039465934, 0.10422304, 0.0995915, -0.045097396, 0.036232933, 0.04186162, -0.043831497, 0.01281428, -0.02780081, -0.0030652238, -0.024821023, -0.004704597, -0.068920255, 0.03010127, -0.025315095},
    {0.0005329344, -0.014184272, 0.019205894, 0.07850137, -0.0067069912, 0.046682738, 0.06959171, -0.03589944, -2.6123935e-05, 0.035974335, 0.031172158, -0.02015536, 0.023636365, 0.048755072, 0.007044529, 0.034731824},
    {0.031787526, 0.011825819, 0.0430439, 0.09730749, 0.062399033, 0.025715642, -0.022312617, 0.013747337, 0.066496745, -0.015101515, -0.0062103877, 0.002487348, 0.033917848, 0.082553476, -0.04520129, 0.067094974},
    {0.03439255, -0.011163879, -0.06932619, -0.05766359, -0.03458168, -0.0343048, 0.006683912, -0.029369915, 0.0071669924, 0.030841473, -0.02556502, 0.0005499777, 0.005013033, 0.02311029, 0.041501205, 0.012442134},
    {0.011325134, -0.009904291, 0.0014869394, -0.023803262, -0.019439342, -0.08367251, -0.014336033, -0.007459182, -0.03137967, 0.026392478, 0.0043402836, 0.016786734, 0.022379538, -0.054530796, 0.008042333, 0.05948221},
    {-0.03934944, -0.027744606, -0.013086748, -0.109448865, -0.07938789, -0.05212408, -0.022402637, -0.038226277, -0.055793766, -0.0608373, 0.028192144, -0.016173266, -0.07420478, -0.058745217, 0.0011319064, 0.009988084},
    {-0.03923662, -0.030496815, 0.12081547, 0.13834295, 0.098845795, 0.0979202, -0.067491114, -0.019194355, 0.12209102, 0.038811464, -0.025472678, 0.052466214, -0.053956993, -0.043149028, 0.009061185, -0.0022946398},
    {-0.083259754, -0.09779825, 0.06231444, -0.030516082, -0.035086837, -0.017300159, 0.024108162, -0.06016205, -0.02584813, 0.031222021, -0.067028455, 0.018092781, -0.024314774, -0.14667541, 0.058800593, -0.096085675},
    {0.06442721, 0.08965981, 0.080746256, 0.14337756, 0.113445364, 0.011626935, -0.034514055, 0.008929907, 0.13454984, -0.042953815, -0.026333034, -0.012049654, 0.038539276, 0.14459996, -0.051817685, 0.08244228},
    {-0.058502186, 0.033449065, -0.08733799, -0.089976974, -0.07010289, 0.013296905, 0.029362757, -0.03324391, 0.008399828, -0.116342425, -0.011132046, -0.02688287, -0.066506304, 0.051885523, -0.049347248, -0.035839256},
    {0.00880386, 0.09269131, 0.06336681, 0.038492985, -0.029610889, -0.0018282128, 0.061916206, -0.07293004, 0.024929315, -0.04029797, 0.04980779, -0.010678446, 0.0010205414, 0.023409214, -0.0054803104, 0.005632082},
    {-0.029659173, 0.07369481, 0.01159757, -0.06666914, -0.041216884, 0.048179723, 0.03919642, -0.06714808, 0.024636887, -0.104539305, -0.010758809, -0.030867333, 0.024233682, 0.056788612, -0.02104145, -0.07659244},
    {-0.0021396896, 0.076119326, -0.04686627, -0.03986587, 0.019071018, -0.058449928, 0.0027337088, 0.0051463847, 0.0051428126, 0.008813945, -0.040450495, 0.0122368075, -0.021661608, 0.053344842, -0.011964013, 0.020744845},
    {0.018912664, 0.03509344, -0.012481659, -0.02476831, -0.009027489, 0.015441343, 0.03355291, -0.023955548, 0.0076304465, 0.067483865, -0.025352024, 0.00012353963, 0.015203509, 0.039427754, -0.0047274563, -0.07803402},
    {-0.031057686, 0.037229225, 0.033609368, -0.007319485, 0.048224628, 0.040181153, 0.051262926, -0.012680911, 0.03509622, -0.034160938, -0.01879015, 0.040682543, 0.024031978, 0.0121635515, 0.008049088, -0.013514404},
    {-0.0509132, -0.057007678, -0.018321972, -0.07899481, -0.005475764, 0.017847901, -0.02165712, -0.056149, -0.10286726, 0.06471965, -0.05994283, 0.0071042245, -0.003252971, -0.07782271, -0.027378256, -0.09340897},
    {-0.017974323, -0.011480473, -0.0028619398, 0.026867596, 0.042743843, 0.018381532, -0.0030078255, 0.02299665, 0.040633347, 0.008738789, 0.026907194, 0.017437553, 0.034048453, -0.035802964, -0.029081168, 0.020801043},
    {-0.012115576, -0.021790469, -0.0125894705, -0.010566996, -0.067007616, 0.02812843, 0.011207278, -0.07866481, -0.0015211499, -0.05456077, 0.01968804, 0.028262917, 0.004051941, 0.0067326184, 0.028967291, 0.021069901},
    {-0.018737651, 0.0064588273, 0.0123793185, 0.013764455, -0.005671282, 0.020311456, 0.031194145, -0.011853398, -0.012512688, 0.00024311614, 0.009009121, -0.014250196, -0.009830651, 0.039413296, -0.03071338, 0.035088517},
    {0.06289362, -0.03746366, 0.010289453, 0.060916737, 0.02478822, -0.09908694, 0.044246987, 0.027906166, 0.032557905, 0.04408914, -0.067587435, -0.0383983, 0.03169222, 0.012813325, 0.07506641, 0.011056173},
    {0.080233686, 0.03160655, -0.0018054388, 0.0017389366, -0.011946036, -0.017352344, 0.017685147, -0.0067072115, -0.05034723, 0.10962417, -0.009206573, 0.020379214, 0.013201579, 0.049836006, 0.012174622, -0.032262053},
    {0.04587099, -0.046708416, -0.032926034, -0.029812982, -0.0036801272, 0.022545254, 0.0140253315, 0.023594698, -0.061543263, 0.009519222, 0.019844422, 0.061983507, -0.046195123, -0.0015544653, 0.0219697, 0.008029312},
    {-0.065005384, 0.032218188, 0.0323722, -0.01968055, 0.03225127, 0.05825703, -0.001699156, -0.052343696, 0.06762472, 0.023591751, -0.0035749867, 0.017305143, -0.009317174, -0.023126025, -0.005990845, 0.015945163},
    {0.037911173, -0.016588593, -0.028300863, -0.03927683, -0.008842995, 0.052450158, 0.023531402, -0.014303409, -0.022491824, 0.021174613, -0.014493353, 0.04274051, -0.026849385, -0.0051799333, 0.013697923, -0.061778184},
    {-0.019400502, 0.06285832, -0.004020179, 0.019012783, -0.0042297537, 0.029407917, 0.013663275, -0.012345777, 0.023509145, -0.058920417, -0.004524162, -0.0013020266, -0.008354758, 0.093634255, -0.066623576, 0.026884424},
    {-0.03716215, 0.029808946, 0.014396608, -0.052811064, 0.032294054, -0.06981996, -0.0048016408, 0.06808806, 0.073494345, -0.0317277, -0.055951014, 0.021268172, -0.0071363333, -0.003597411, 0.02897778, 0.011393123},
    {0.0051453784, 0.015494614, 0.012260979, -0.018932045, -0.03894083, -0.06126359, -0.0061811474, -0.02543006, -0.017082172, 0.010300831, 0.021184292, 0.0293098, 0.04108603, -0.046518095, 0.0042340877, 0.068071544},
    {-0.07961066, 0.06943415, 0.049135268, -0.056016784, 0.06759622, -0.03660074, -0.028294435, 0.034782194, 0.030213062, 0.008073905, -0.022454929, 0.0017713524, 0.04512973, -0.0021885196, 0.017883759, 0.0196793},
    {-0.0024592855, 0.0554174, 0.007848658, -0.036660332, 0.0063923476, -0.041690446, -0.022636188, 0.007583778, 0.044911012, 0.051809575, -0.04633857, 0.026600016, 0.01315927, 0.019732544, 0.0035851812, -0.009999528},
    {0.030924529, 0.05230127, 0.037288375, -0.044637416, 0.02386207, -0.03439188, 0.005760701, -0.019719925, 0.013018186, 0.051045973, -0.0299478, 0.010142783, 0.0111338245, 0.020864459, -0.021375906, -0.080609076},
    {0.0060658325, 0.009379072, -0.0017819144, 0.031947378, 0.01820639, -0.047387633, 0.036157098, 0.039572112, 0.0395788, -0.027769594, -0.026533565, 0.017898824, 0.032846633, -0.052223213, 0.04963608, 0.015853247},
    {0.012245907, 0.03595958, -0.013505578, -0.04073224, 0.013376176, 0.0066618384, -0.035144784, -0.011013233, -0.054122895, -0.008890341, -0.0045192707, 0.0019519901, -0.016882358, 0.025778316, -0.041709118, -0.040534854},
    {-0.014444983, -0.043211862, -0.033628713, 0.04014207, -0.023950733, -0.0361074, 0.034335103, 0.032427575, 0.024607416, -0.02308441, 0.0060308287, -0.012051276, 0.022815436, -0.058525987, -0.0013267569, 0.047345277},
    {-0.016728338, 0.05610769, -0.047740687, -0.014971922, -0.01993462, 0.034852073, -0.003853117, -0.016107062, -0.0032621708, -0.07248631, 0.017982, -0.0028581342, 0.045231637, 0.009448262, -0.021795586, -0.0011723451},
    {0.019917022, -0.013340101, 0.003396245, 0.062879965, 0.031205822, -0.018609153, 0.03423997, 0.01180943, 0.04850318, -0.012372268, -0.015945321, 0.020477766, -0.009795676, 0.020769732, 0.00831621, 0.0081481},
    {0.009924218, -0.017744066, 0.0074730627, -0.051946033, 0.04537318, -0.06512302, 0.043390527, -0.020800041, -0.011455913, 0.05747129, -0.008194299, -0.0668496, 0.025426257, 0.0061073466, 0.011673243, -0.022035133},
    {0.0076501574, 0.018631415, 0.008153265, 0.0070709726, 0.00036688882, -0.043580834, -0.012208777, -0.0008203168, -0.02017307, 0.011631815, -0.022181587, -0.012512589, 0.02311447, 0.039221987, 0.0037148874, -0.028858919},
    {0.040208332, -0.030245146, -0.004515124, 0.034110542, 0.019546092, 0.076437615, 0.021066738, 0.02108008, -0.017545983, -0.0057603973, 0.0064593353, 0.039311633, -0.068648174, 0.01820468, -0.000409825, -0.020688582},
    {-0.051662087, 0.007189501, 0.008679935, 0.046359926, 0.032770284, -0.0657178, 0.010734465, 0.011700264, 0.061328374, -0.0028996035, -0.0044516614, -0.022499554, 0.048967037, -0.06538603, 0.034202456, 0.047215518},
    {-0.018149076, -0.01549437, 0.012423756, 0.033852234, 0.014516069, -0.013568868, -0.010151913, -0.004327355, -0.0020860077, 0.006975799, 0.011571919, -0.042473044, -0.0024929629, -0.019892888, -0.021784613, -0.029094763},
    {0.018931223, -0.014460602, -0.014521137, 0.042322934, -0.0072318665, 0.019531554, 0.04574055, 0.023499709, -0.0072334628, -0.024275254, -0.009072251, 0.0013443081, 0.015707258, 0.012627211, -0.01798828, 0.029911447},
    {-0.058830157, 0.0071351915, 0.058922842, -0.017740948, 0.0050723264, -0.070634685, -0.0013450917, 0.017105434, 0.012849557, -0.012795131, -0.06649343, -0.037123762, 0.013529744, -0.00028759328, -0.009385309, -0.022149887},
    {0.025708852, -0.019345438, -0.010941864, -0.030138822, -0.021537352, 0.021630315, 0.0031439792, -0.025017595, -0.0039948635, -0.029372126, 0.0029424736, -0.026650269, 0.06042052, -0.045943994, 0.03681543, 0.0611626},
    {-0.0050049014, 0.049337197, 0.024499517, -0.044275306, -0.007165272, -0.02035991, -0.006358548, -0.0004906704, -0.0026428767, 0.048314564, -0.050561674, 0.011324486, 0.007219401, 0.031977285, 0.02197731, 0.043385647},
    {0.011976593, 0.055317476, -0.024977477, -0.014859653, 0.016522935, -0.023361836, 0.014893777, -0.007927101, 0.006973435, 0.04256661, -0.08737558, 0.00762897, -0.007953515, -0.014313327, 0.035518337, 0.0058972514},
    {-0.0030940368, 0.05034665, 0.046903364, 0.010232786, 0.020580864, 0.030914607, 0.01993833, -0.021448312, 0.0033590926, 0.073513016, -0.023716936, -0.012303644, 0.028074998, 0.045771442, 0.031914916, -0.0016415829},
    {0.0008432709, -0.03081965, -0.043388866, 0.066243805, 0.0011296526, -0.07198985, 0.05637166, 0.045360688, 0.029244723, -0.012791471, -0.01138349, 0.013966204, 0.040721178, -0.0038478083, 0.026237188, 0.036801603},
    {-0.008001212, 0.033393417, 0.01801056, -0.023958534, 0.0398156, 0.03151754, -0.023039967, 0.007624378, -0.0054473625, 0.052443936, -0.016540004, 0.0027367566, 0.0062377704, 0.046553932, 0.03494747, 0.03427591},
    {-0.017957095, -0.054200716, -0.05270988, 0.03375172, 0.0026803128, -0.042253517, 0.032255188, 0.05291315, 0.053607676, -0.008256863, 0.065174915, -0.009991351, -0.016082525, -0.0014698433, -0.07866345, 0.036755223},
    {-0.008990235, -0.011321967, 0.001048299, -0.036752004, 0.010427811, 0.006647391, 0.039702136, -0.032835416, 0.058202997, 0.0008445598, 0.048202366, 0.033219945, -0.0069895484, 0.035936147, -0.012782705, -0.011684732},
    {-0.0033569138, -0.030078707, -0.03439317, 0.029917806, 0.013524434, -0.057240605, 0.008752101, 0.028726676, 0.03747575, -0.043299492, 0.02424675, -0.009008422, 0.0014701779, -0.03219103, 0.007604247, 0.016580505},
    {0.0030710706, -0.025395155, 0.0064632464, -0.046818033, 0.020096106, 0.0053908597, 0.037826616, -0.056640983, -0.032313474, 0.04893955, -0.028469417, -0.011954503, 0.029615046, -0.028469207, 0.030457493, -0.034290485},
    {-0.010965107, 0.047197748, 0.011409894, -0.03016951, 0.032822147, -0.03863946, 0.012430204, -0.01806221, 0.021150151, 0.035622306, -0.00568084, -0.032746874, 0.009601516, -0.036091715, 0.001186585, -0.024845166},
    {0.06523557, -0.043653443, -0.03351823, 0.052399017, -0.011941763, 0.026319008, 0.063484214, 0.020481529, -0.037053432, 0.001080938, -0.014779686, 0.016152065, -0.018837113, 0.026184823, 0.0023244263, 0.00045195094},
    {-0.020333244, 0.009048806, 0.00013449215, 0.04158681, 0.0054585575, -0.06713473, -0.029187504, 0.031719036, 0.035436675, -0.042311404, -0.004984112, -0.0074806404, 0.003560118, -0.056443054, 0.013714702, 0.035096455},
    {0.0019347889, 0.021405898, 0.028042156, 0.008586757, 0.00677314, -0.02343937, -0.00015708283, 0.0046997615, -0.025091017, 0.040078867, 0.010576299, -0.07296262, 0.00021530717, 0.017083773, -0.0020782556, -0.00067936326},
    {-0.02016242, -0.007887807, -0.029973522, 0.054785244, -0.032160524, -0.029439026, 0.0318726, 0.027123557, 0.06419762, -0.008544958, 0.016763102, 0.045998346, 0.0019833753, -0.010724302, 0.0136182485, 0.0059666364},
    {-0.058331165, 0.032566797, -0.005138396, 0.00037707534, 0.01605969, -0.0636819, 0.017027646, 0.036835782, -0.033439774, 0.013591152, -0.057307854, -0.05221687, 0.01803095, -0.008221101, 0.0076913354, -0.0099091},
    {0.0035029815, -0.04098788, -0.032711767, -0.089132704, 0.021931652, 0.005942852, -0.012360531, 0.0004356141, 0.009631568, -0.00042714272, 0.0018224984, 0.004833445, 0.025569601, 0.002149602, -0.0044070976, 0.045416057},
    {0.0427697, 0.039757505, 0.016488886, -0.035256576, -0.021181354, -0.063512035, 0.038330384, -0.016185949, -0.020866916, 0.03648954, -0.13195252, 0.039424714, 0.0357076, -0.03350348, 0.059404466, 0.019975446},
    {-0.02762799, 0.040521014, -0.012290935, 0.013822316, -0.018477432, -0.036399633, 0.029834012, 0.0016912047, 0.014966627, -0.017270278, -0.040679052, 0.01590928, -0.019767258, 0.011925841, 0.016441733, -0.007071456},
    {0.04591106, 0.05263554, 0.0014174242, -0.026474051, -0.009251809, -0.00916609, -0.030030489, -0.0015207411, -0.0069298265, 0.0069542727, -0.03959268, 0.016814854, 0.0375933, -0.015686097, 0.07721704, 0.018385243},
    {0.01927035, 0.01714873, 0.016656691, -0.004606843, 0.005406769, -0.033514854, -0.036409065, 0.012499184, 0.017181553, -0.0030480935, 0.009578924, -0.01218307, 0.0076722843, -0.00019672449, 0.052919436, 0.020811552},
    {0.023746971, 0.012631568, -0.018630343, -0.022247775, 0.015355052, 0.03295571, -0.044738326, 0.008045195, -0.04394115, -0.0054865493, -0.046945285, -0.039515637, -0.010684165, 0.047121476, 0.050155416, 0.016006025},
    {-0.023217209, -0.03234094, -0.012855683, 0.014631198, 0.044709116, -0.07058053, 0.0062042363, 0.0451574, 0.043404374, -0.028170276, 0.07462867, -0.032485027, -0.032939155, -0.02615539, -0.050677765, 0.0047981143},
    {0.0136158345, -0.01403351, -0.028959803, -0.060062356, 0.0435027, 0.026503751, -0.005244169, 0.014067301, 0.018483074, 0.028862486, 0.01621899, -0.008212192, 0.035409607, -0.017232517, 0.021880463, -0.021692071},
    {0.00048766116, 0.009165563, -0.0074519548, 0.022072094, 0.0031038737, -0.016294878, 0.028525963, 0.008462617, 0.026048783, -0.025260925, 0.049044773, -0.005954154, -0.043614127, -0.012032943, -0.004621688, 0.013300365},
    {0.09122794, 0.0037747384, -0.012808996, -0.026971053, -0.026131185, -0.04325806, -0.017311307, -0.009335794, -0.016567081, 0.050286572, -0.055736434, 0.026599493, 0.040950585, 0.0008765888, 0.055338714, -0.056671984},
    {0.007267141, 0.045944598, -0.012169363, -0.021903727, -0.027055075, 0.0041545606, -0.0073560113, -0.014925969, 0.0061015235, 0.016392892, 0.016912613, -0.02913658, -0.010177854, 0.0065661254, 0.013575355, -0.030588675},
    {-0.017856674, -0.016998986, -0.017691527, 0.02290985, 0.01733411, 0.03497024, 0.03348962, 0.039284054, 0.024224019, 0.038011655, 0.012339081, 0.033965472, 0.011798753, 0.026750166, -0.0018597102, 0.009296766},
    {0.0063405205, -0.03270012, -0.029825045, 0.025705459, -0.012162904, -0.036228653, -0.028533963, 0.040652446, 0.02591891, -0.021353487, 0.020326732, -0.032431595, -0.022065917, -0.01810139, 0.014021799, 0.059180494},
    {-0.004954705, -0.011756255, -0.024768826, 0.009348264, -0.02563522, -0.0050996663, -0.0011661338, 0.015958745, -0.024405375, 0.038088154, -0.023727275, 0.021880927, 0.0101555195, 0.055283938, -0.014476837, 0.019036928},
    {0.0013548739, -0.021320099, -0.020267732, 0.019746242, -0.0112004, -0.028487593, 0.019784149, 0.05189123, 0.0039186454, -0.044974107, 0.026848147, 0.014818619, -0.01756868, 0.0072789174, -0.019264577, -0.001710112},
    {-0.047393072, 0.005750194, 0.037635688, 0.015196154, 0.005219737, -0.049482945, -0.019032579, 0.04911207, -0.04627815, -0.047607604, -0.045236755, 0.010381917, -0.008286102, -0.025468068, -0.02813156, -0.039041515},
    {0.0038145022, -0.060655337, -0.037393134, -0.06020307, -0.002668545, 0.014256324, -0.01704721, -0.019188935, 0.0086299945, -0.008245293, -0.032185644, -0.03658671, 0.06929071, -0.057382632, 0.025086733, 0.038889382},
    {0.005178255, 0.0021466895, -0.031441692, -0.022800023, -0.04616319, -0.07478368, 0.025798686, -0.04845857, 0.054314647, -0.014868661, -0.06943338, 0.02772109, 0.027970923, -0.014659271, 0.033368453, 0.02458131},
    {-0.0037504814, 0.041247852, 0.022699496, 0.018362643, -0.055274706, -0.037277825, 0.03900142, 0.016508292, 0.02148219, -0.0480059, -0.07005198, 0.08663573, -0.022511244, 0.027130838, 0.011529865, -0.028532151},
    {0.03690685, 0.05999338, -0.025199402, -0.028983852, -0.014539651, 0.03634509, -0.046497755, -0.021590661, -0.012813158, 0.024847336, -0.056000464, 0.01810742, 0.005925845, 0.040238887, 0.069251664, -0.001770002},
    {-0.009443555, 0.0070123347, 0.007155531, 0.047166795, -0.04275116, -0.010946731, 0.0034682346, 0.027388655, -0.019918283, 0.02314472, 0.027026422, -0.005142696, 0.016805984, -0.020250726, 0.00023106919, 0.039396767},
    {0.04661592, 0.043873347, -0.017583212, 0.003718671, 0.0026487457, 0.08618589, -0.055932928, 0.044101845, -0.025068054, -0.048204124, -0.046438612, 0.017744247, 0.031121865, 0.07402498, 0.033228867, -0.030131267},
    {-0.053245924, -0.018326415, 0.03979709, -0.015063032, 0.037160892, -0.046519235, -0.057957586, 0.02876484, 0.009670668, -0.020520642, 0.13497399, -0.03944416, -0.06447153, -0.0065687476, -0.06056949, 0.0228639},
    {0.042866558, -0.05695602, -0.04297482, -0.059799097, -0.020460095, -0.011054784, -0.0044959732, -0.004692053, 0.0018334372, 0.025831321, 0.001502119, 0.038029768, 0.043498766, -0.013584371, 0.010725103, 0.009591887},
    {-0.0072788675, 0.0063276864, 0.019800432, 0.024928935, -0.015192397, -0.025254907, -0.015157033, -0.013183932, 0.0044056377, -0.01304978, 0.06313366, -0.03813761, -0.012784256, 0.008981789, -0.027628211, -0.022315424},
    {0.035095163, -0.026053375, -0.020315064, 0.03228096, -0.0324585, 0.04414879, 0.04677066, -0.026440898, -0.019461239, -0.012745554, -0.026134629, 0.024890546, 0.039010454, 0.03551558, 0.062411837, 0.009909676},
    {0.010329932, 0.003169494, 0.016293364, -0.013287238, 0.012586349, -0.004058795, 0.01258051, -0.0654022, -0.0033441843, -0.008599937, -0.046216026, 0.011387131, 0.026679361, 0.028575884, 0.050017186, -0.013632905},
    {0.031260595, -0.045900006, 0.015870988, 0.0132451365, -0.017878039, 0.049731772, 0.04364712, 0.0020011063, -0.014900267, 0.0026840868, 0.001863116, 0.015127755, 0.023059487, 0.016853848, 0.028780384, -0.018128883},
    {-0.021891925, -0.008127288, -0.0071538496, 0.037721336, -0.012938882, -0.014618323, -0.03196026, 0.06570178, 0.030258374, -0.0024771646, 0.07473117, -0.033625435, -0.08042418, 0.0014361327, 0.0014469118, -0.005487067},
    {0.024219254, 0.009660881, 0.011438322, -0.004706559, -0.009373535, 0.03864626, -0.024703955, 0.016703919, 0.015790114, -0.015041269, -0.05097143, 0.05775577, -0.025822703, 0.053581726, 0.025473293, -0.00667931},
    {-0.027593652, -0.019317973, 0.011906743, 0.029227342, 0.006733183, -0.037639882, 0.039109837, 0.021989625, -0.009629401, -0.02795377, 0.080768436, -0.018426638, -0.008404158, 0.0015585714, -0.04877001, -0.013846029},
    {-0.02586947, 0.0034509362, -0.025556028, -0.012011636, -0.056201637, -0.04405348, -0.02682644, 0.019674884, 0.04691401, -0.07516906, -0.0031155096, 0.010695355, 0.04087235, -0.024987936, -0.006606508, 0.051057268},
    {0.015375873, -0.040634982, -0.011338313, -0.115867406, 0.007828031, -0.045725077, -0.010024018, -0.01557444, -0.03765526, -0.036000997, -0.0687295, -0.04661945, -0.023983223, -0.026112735, 0.00066076964, 0.0244714},
    {0.0466727, -0.019870797, -0.021382786, -0.0031998737, -0.023831835, -0.016310362, 0.021040654, -0.02180225, 0.07102083, -0.103290655, -0.08154412, 0.006165516, 0.059433974, -0.07422585, 0.06245764, 0.055389386},
    {0.016356258, 0.053006627, 0.0044210902, 0.015949532, -0.022472924, -0.045237534, 0.06147225, 0.020599961, 0.013725232, -0.018112272, -0.051056128, 0.04579678, -0.048430525, 0.01794504, -0.011688699, -0.02761471},
    {0.022926874, -0.00985837, -0.017787205, -0.010359237, 0.03789478, 0.01814314, -0.0013269208, 0.026378512, 0.005766188, -0.008067774, -0.041626766, 0.051327094, -0.058862418, 0.027816093, 0.019856654, -0.023429638},
    {0.009452559, 0.012183128, -0.0030227783, 0.041271012, -0.006020378, 0.008342294, 0.0123220775, 0.023557587, -0.011592858, -0.013822674, 0.0135288285, -0.04778316, -0.013584483, -0.009606159, 0.022274233, -0.014579771},
    {0.021225307, 0.029928003, -0.029723225, -0.06302248, -0.018944368, 0.062332302, -0.0065585743, 0.08804903, 0.0028264893, -0.024088139, -0.02844486, 0.08863429, 0.04867587, 0.052042063, 0.031931393, 0.019790959},
    {-0.01907641, 0.02333853, 0.020226616, -0.025187468, -0.012036138, 0.0045275176, -0.0201922, -0.016659806, 0.008072939, 0.00564439, 0.091225095, -0.06869019, -0.061742347, 0.007746209, 0.0032158592, 0.03944962},
    {-0.010232796, -0.067693435, -0.012998812, -0.07667429, -0.035671107, 0.01449926, -0.0071226717, -0.030388886, 0.0041679638, 0.006156683, -0.025142489, 0.060249437, 0.010382199, 0.039287146, -0.0047987327, 0.040806957},
    {0.006265581, 0.022435404, 0.017831933, 0.00021139794, -0.011595674, -0.036113538, 0.007425049, -0.01872733, -0.003969715, 0.00022995431, 0.023313222, -0.02793284, -0.021282813, -0.008465645, -0.0077433097, 0.0012441281},
    {-0.0043874267, 0.04014236, 0.046026643, 0.021854697, -0.020742502, -0.01371409, 0.022863353, 0.0017139257, -0.0061594993, 0.0053399554, 0.00041000568, -0.06579712, 0.028386578, 0.009425128, 0.026133122, 0.015932662},
    {0.024269732, 0.0479032, -0.016873466, -0.0018865359, -0.0038180433, 0.010987795, -0.005407847, -0.008257164, -0.012960746, -0.00909374, -0.00897004, 0.0037995055, -0.019773217, 0.040504962, 0.027843812, -0.034198675},
    {-0.0149637805, -0.020464059, 0.03958394, 0.0014256219, -0.01906007, 0.012790183, 0.032247823, 0.013283344, 0.03906638, 0.005893595, -0.0135290995, 0.073705345, 0.069579765, 0.0054181903, 0.034939755, 0.011606807},
    {-0.0004961672, 0.032756593, -0.00086150656, 0.08707878, -0.0016468745, -0.033980764, -0.012159991, 0.054683454, 0.02843707, 0.0015469481, 0.00965395, 0.00078350067, -0.083098404, -0.009592142, 0.015056359, -0.0025067327},
    {0.0074559036, 0.0014446907, -0.009165629, -0.038704325, 0.00032657548, -0.019984983, -0.0059587946, 0.04193259, 0.036402814, -0.008902598, -0.03534624, 0.061814334, -0.05793779, 0.026970137, 0.02214857, 0.002760791},
    {-0.02063736, 0.014192495, 0.031869713, 0.007506855, -0.012969746, -0.043815386, 0.025442705, -0.016776325, -0.01515748, 0.0002599812, 0.030828733, -0.06416226, -0.036361974, -0.0020401117, -0.03093977, -0.010846179},
    {0.005362512, 0.0027261435, 0.0041842344, 0.040528465, -0.027019858, 0.028438877, 0.02246073, 0.0015534051, 0.035978306, -0.025503334, -0.008658609, -0.02296643, 0.008813163, -0.0166439, 0.0021528064, 0.025015702},
    {-0.017481834, -0.04972708, 0.008585153, -0.04747138, -0.041329812, 0.022406528, 0.020020535, -0.04548083, -0.022588026, -0.07501792, -0.0046162065, 0.030436698, -0.017874641, 0.0333328, -0.019906674, -0.03345343},
    {0.06013745, -0.013918167, 0.015859978, 0.019352501, -0.04950459, 0.0040321443, 0.037338525, -0.01658315, 0.04838058, -0.06756384, -0.01542867, 0.022315508, 0.01787896, 0.00043021468, 0.03743579, 0.07257394},
    {-0.0039852955, 0.0280629, 0.034809448, 0.022536453, -0.029818734, -0.0064006452, 0.060754582, 0.0034500617, -0.035779823, -0.04518249, -0.018118365, -0.010752445, -0.027697783, 0.027331978, -0.0010971392, -0.025209881},
    {0.020565419, 0.0625731, -0.016008468, -0.010308404, 0.043804962, 0.007723656, -0.022042595, 0.04243238, 0.0004931085, 0.0131800175, -0.026058227, 0.024117654, -0.034833632, 0.02109607, 0.023341972, -0.01817406},
    {-0.013584125, 0.0070566577, -0.0023098907, 0.057056684, 0.02125222, 0.0045395666, 0.018869955, -0.0039581303, 0.023308601, 0.005427727, -0.007568969, 0.016513886, -0.015788022, -0.00297402, 0.0036315164, -0.023049155},
    {0.006468265, 0.050891597, -0.078108765, -0.11165701, 0.0444506, 0.017715743, -0.058104586, 0.117212005, -0.03961189, 0.053365286, 0.0011458639, 0.088986605, 0.049891118, 0.015497125, -0.011353281, 0.06345275},
    {0.0068713017, 0.026433967, -0.003625135, -0.025969751, 0.012051718, 0.004170195, -0.055915147, -0.031331554, 0.020070856, 0.035152193, 0.011261028, -0.034543227, -0.049467236, -0.0024042823, 0.0128917545, -0.0105888285},
    {0.040469736, -0.04315501, 0.013539926, 0.021902822, -0.03831518, -0.011028669, 0.029033124, 0.0067802384, -0.037821796, -0.0511489, 0.014163408, 0.053597156, -0.011486315, 0.049880546, -0.004237576, -0.031001344},
    {-0.021019666, -0.022294555, 0.0033473207, -0.025131445, -0.012365028, -0.0110533815, -0.009502201, -0.030840224, -0.020751132, -0.01144251, 0.017395603, -0.0076172734, -0.036804836, -0.0017747792, -0.015080066, -0.004982261},
    {0.03246488, 0.019021707, 0.029346852, 0.053449985, -0.034922745, -0.052932072, 0.012759978, 0.012623748, -0.017230224, 0.058110766, -0.02726473, 0.038325727, 0.065708086, -0.016564751, 0.040916704, 0.04455204},
    {0.03353213, -0.0031038458, -0.024671044, 0.02934029, -0.024312941, 0.019309482, 0.01697828, 0.016630767, -0.011731694, -0.017339395, -0.029370537, -0.0061377306, -0.0049314937, 0.03955065, 0.025282552, -0.017735347},
    {-0.04442518, 0.000624078, 0.0046345713, 0.036204014, 0.055800214, 0.0034433028, 0.050679736, 0.06469327, 0.014624863, -0.003827928, -0.026091887, 0.03240075, 0.027332516, 0.019591162, 0.014363718, -0.023653243},
    {0.018773336, -0.0014228878, 0.004630292, 0.029193204, 0.01951344, -0.049920965, -0.048738953, 0.0131853055, 0.011146336, 0.015813017, -0.008340462, 0.010134616, -0.096176885, -0.021414421, 0.02232094, -0.010576993},
    {-0.012541142, 0.007219311, -0.021666301, 0.029130805, 0.037696652, -0.0015264087, 0.013042035, 0.0890833, -0.002775741, 0.00719893, -0.031241486, 0.015632402, -0.02719112, 0.017804706, 0.0036996733, -0.032911297},
    {-0.03117294, -0.017814042, 0.020903837, -0.04511469, -0.026827374, -0.005023563, 0.028018966, -0.026566066, -0.05664234, -0.012125547, 0.024372024, -0.03683592, -0.039396796, -0.015491432, -0.03247508, -0.003279679},
    {-0.012548632, -0.02505123, 0.03571278, 0.034055367, 0.0055869743, 0.07324381, 0.038147952, -0.019109279, 0.010319449, -0.013358648, -0.004808759, 0.011340658, 0.026795965, 0.0084546115, -0.011986792, 0.029670859},
    {0.034556076, -0.013483471, 0.030124363, -0.0016470593, -0.03384793, -0.024506975, 0.0014067235, 0.013429711, 0.022378886, -0.059389185, -0.036379818, 0.045924757, -0.023937484, -0.028069146, 0.017850889, -0.018354867},
    {-0.004054956, -0.047555514, -0.0060682287, -0.010481089, -0.014175615, 0.0020590478, 0.029165246, -0.0075470293, 0.02669966, -0.038945965, -0.02211995, -0.0074276417, 0.02116831, -0.00927512, 0.026117356, 0.04509981},
    {-0.028870918, 0.006215333, 0.066383965, 0.041539147, -0.0056199133, -0.038005427, 0.068338595, -0.005727079, 0.0006565624, -0.015137786, -0.0014241801, 0.024060272, 0.008384669, 0.026095137, -0.0070810276, -0.06267468},
    {0.01885552, 0.023498543, 0.019197736, 0.011997418, 0.022913238, -0.045559008, -0.01030117, 0.06450431, 0.011264442, 0.016731344, -0.028298058, 0.053966906, -0.033630513, -0.00556466, 0.0046309545, 0.008469548},
    {-0.01266321, 0.021768015, -0.03597419, 0.046971895, 0.017077064, -0.013348372, 0.02775783, 0.010133587, 0.034283873, -0.00641658, -0.01739377, -0.025206776, 0.00057356467, 0.012942143, 0.014609893, -0.03432793},
    {0.026568772, 0.043486048, -0.10187752, -0.030232593, -0.016785884, -0.020787464, -0.06814311, 0.11333766, -0.045484852, 0.04518046, 0.040372495, 0.09830543, 0.036869228, 0.005025105, -0.025076412, 0.05946531},
    {-0.013177982, 0.004404828, 0.015850602, 0.0041717007, -0.006362164, -0.013704202, -0.009237571, 0.021799043, 0.012275735, -0.018680802, 0.011848355, 0.008551489, -0.042659126, -0.020174025, 0.018708479, 0.017060494},
    {0.016092371, -0.02699064, -4.55869e-05, 0.00873263, -0.010413729, -0.026398035, 0.0029650559, 0.03767938, 0.023357157, -0.018985204, -0.020393426, 0.068472445, -0.026747871, 0.006632816, 0.027417498, -0.0136179095},
    {0.0073956214, 0.014915684, -0.013479851, -0.013382586, -0.012299663, -0.008851504, 0.010861879, -0.019925753, -0.0142781725, 0.010649883, 0.005869392, -0.01350514, -0.019395137, 0.011411392, 0.002646063, -0.01179249},
    {0.0202292, -0.0088841645, 0.01656731, 0.0710025, 0.011858583, -0.018303156, 0.025921835, 0.009936793, -0.03480246, 0.016688714, -0.020811576, -0.06881579, -0.02054991, 0.060758997, 0.022378644, 0.0097078085},
    {-0.010209132, -0.0020187155, 0.024297144, 0.010411211, 0.0248078, -0.031523462, 0.01079957, 0.0035342402, 0.022722812, -0.01177799, -0.019989733, -0.0073059765, -0.037397042, 0.0327516, 0.013733748, -0.015339302},
    {-0.042601336, -0.031810913, -0.0022131219, 0.020837355, 0.067558266, 0.021642646, 0.028949093, 0.05158047, 0.056250773, 0.009910464, -0.033592686, 0.015375143, 0.022097535, 0.003382863, 0.032141224, -0.018259885},
    {0.020207679, 0.03789431, -0.02816271, 0.012741581, -0.006495539, -0.048497614, -0.00044056762, 0.025101218, -0.0182692, 0.020660019, -0.016025662, -0.010290609, -0.06666489, -0.006515433, -0.003364152, -0.033106428},
    {-0.014760472, 0.0085479105, 0.02588719, 0.02669144, 0.034794036, -0.035362504, -0.028051773, 0.053964067, 0.001514213, 0.00753439, -0.028019337, 0.027967367, -0.03988528, -0.010203884, -0.015022036, -0.029876368},
    {0.02141875, 0.010753505, 0.0049783043, -0.017624574, -0.019945381, -0.0021893573, 0.0012992311, -0.026574166, -0.030747205, 0.011968305, 0.0124453725, -0.020958284, -0.039372124, 0.0056292634, -0.009328581, -0.02619825},
    {-0.014736251, -0.039362114, -0.0072018537, 0.022432467, -0.005938703, 0.020824643, 0.023653854, -0.020808188, 0.031761546, -0.027855517, -0.005442811, -0.0024918185, 0.04518028, -0.014364369, 0.02409784, 0.022552872},
    {-0.015093003, -0.04340111, 0.023107601, -0.03813396, -0.0069035087, 0.015748292, 0.035775006, -0.023562782, 0.046104837, -0.00038435997, -0.015619567, 0.032092437, -0.007000715, -0.0012086248, 0.014479093, -0.029066},
    {-0.020120936, -0.008428802, -0.030249348, 0.019440727, -0.00039801863, -0.017565344, 0.018522324, 0.012791751, 0.01327071, -0.006621142, 0.004674281, 0.037291978, 0.0226865, 0.015576406, 0.005239474, 0.0272439},
    {-0.041083857, 0.014640091, -0.003766989, 0.012988565, 0.016934684, -0.04811434, 0.058059238, -0.0030179492, -0.0033838048, -0.031207066, -0.03109982, -0.02221527, -0.014288648, 0.021777986, -0.015151245, -0.06442802},
    {-0.008132011, 0.003082437, 0.008204713, 0.0051821233, 0.02941205, -0.043928783, 0.014532093, 0.041042794, 0.0029031823, 0.011126586, -0.032084685, 0.039535437, 0.003969814, 0.020317186, -0.011198125, 0.017289698},
    {-0.02135331, 0.021280285, -0.004614913, 0.027938858, -0.011303456, -0.019877596, 0.028436277, 0.0012294805, 0.023626829, 0.01911935, -0.021510692, -0.023841737, 0.011226607, -0.020664606, 0.004634222, -0.01702988},
    {0.054596048, 0.02855701, -0.056838997, -0.0029280894, -0.037723303, -0.0076864646, -0.035424966, 0.05004079, -0.06000888, 0.027131448, 0.040216938, 0.09499432, -0.028480494, 0.0071896575, -0.009285267, 0.02433129},
    {-0.045200676, -0.0040157614, 0.010515893, -0.010273088, 0.022022579, -0.0013505432, 0.0078247795, 0.020608641, 0.060361233, -0.015018631, -0.049279585, 0.012417215, -0.020595882, 0.003900734, 0.009917546, -0.00523459},
    {0.010568575, -0.03631228, 0.0018416304, -0.0027484237, -0.019007452, 0.017499335, -0.008843939, 0.004904298, 0.03477444, -0.0090516275, 0.01536887, 0.027745599, -0.0076115984, 0.00637341, 0.0018142273, -0.0055142688},
    {0.006552049, 0.0036425644, -0.01460112, -0.0039008586, -0.022711754, -0.0077406596, -0.0021380305, -0.0062999106, -0.0067074522, 0.0029064622, 0.009355221, -0.007715636, 0.0029888733, 0.0092346035, 0.0043812008, -0.017438516},
    {-0.022109695, -0.020034835, 0.0105093885, -0.012698902, -0.0040723193, 0.016152995, 0.03475371, 0.010979366, 0.016469646, 0.010783316, 0.016884694, -0.011623314, 0.002142323, 0.030297022, 0.018756205, 0.022735743},
    {0.0010833399, 0.016276574, 0.0076822178, -0.008364188, -0.003184968, -0.018513918, 0.011172816, 0.027047316, 0.022552496, 0.009499082, -0.01188989, 0.0007410013, 0.014330048, 0.011320155, 0.026356163, 0.004397728},
    {-0.019084897, -0.033638056, 0.006575631, 0.003760853, 0.010055026, 0.014128967, 0.009640279, 0.018610157, 0.044275112, 0.02843641, -0.027384223, 0.007176747, 0.024326432, -0.0047543813, 0.03752525, 0.02450673},
    {-0.0014700526, 0.040809333, -0.025362233, 0.05402703, -0.026504304, 0.0015260382, -0.0033400476, 0.008614501, -0.00020538895, 0.004286303, -0.003426431, -0.005314641, -0.029783605, -0.01883723, -0.003073676, -0.038290482},
    {0.004796184, 0.008009874, 0.01412323, -0.0014714026, -0.0012750584, -0.025167532, 0.0064457357, 0.020284493, -0.0076917093, 0.021312542, -0.043932468, 0.0031432076, -0.001298986, 0.0043230015, 0.005658101, -0.004496655},
    {-0.013255985, -0.01375958, -0.030407408, -0.003964811, -0.03868793, -0.013438937, 0.010774568, -0.025102092, -0.02218917, -0.0069266967, 0.0054558306, -0.025771445, 0.006387899, 0.01757344, 0.009781485, -0.03474177},
    {-0.005284247, -0.016271677, -0.004684971, 0.00980604, 0.002839019, -0.026240954, 0.0106295645, 0.0077975052, 0.019669605, -0.0028279307, -0.017282397, 0.012668932, -0.015771452, -0.023798496, 0.013716714, 0.011715652},
    {0.0239677, -0.031831212, 0.03602421, -0.022535512, -0.010453644, -0.028262934, 0.0082851425, -0.009382519, -0.010644672, -0.037998658, -0.029073365, 0.0307724, -0.02112627, -0.0101683, 0.016985703, -0.024280185},
    {-0.023726461, -0.0051216963, 0.019399233, -0.006897776, 0.005576735, -0.013162125, -0.00031896256, 0.010499512, 0.0052424385, -0.008581902, -0.023191264, 0.009206903, -0.01828739, -0.020824622, 0.024295382, 0.008823976},
    {0.0009964543, -0.009444308, 0.0043343217, -0.0008639606, -0.012153447, 0.0064959284, 0.041505486, -0.011867274, -0.032651693, -0.03687884, -0.005211815, 0.0018900494, 0.00207026, 0.005782811, 0.008299043, -0.03938804},
    {-0.03060353, -0.02030456, 0.012256169, -8.065754e-05, 0.017129185, -0.02571927, 0.016926788, 0.0023560927, 0.013723595, -0.0075250873, -0.06812053, 0.03856586, -0.03370639, -0.006495488, -0.010017043, 0.0057200957},
    {-0.021115689, 0.023009406, -0.010351924, 0.019195043, 0.007634125, -0.007801401, 0.013804625, 0.0034703566, 0.012939193, 0.013863105, 0.037991475, -0.02584181, 0.020752657, -0.0053562494, -0.01733923, -0.011473976},
    {0.028317695, 0.025786271, -0.038525295, -0.03112082, -0.017644903, -0.01887524, -0.01590148, 0.030062148, -0.016796831, 0.02517677, 0.031850718, 0.0711778, -0.025560802, -0.023266155, -0.0026705072, 0.012788787},
    {-0.041702032, -0.0762563, 0.005494022, -0.031630088, -0.00096830365, 0.013578098, 0.017883517, -0.0073379735, 0.012780102, 0.010922576, -0.042364806, 0.031799145, -0.037715483, -0.0048069246, -0.009431363, -0.011377955},
    {-0.016778309, -0.02330709, 0.01679742, -0.006229022, 0.0024401676, -0.040348474, -0.0011288268, 0.0109063005, -0.0037291837, -0.034675058, -0.034587264, 0.032436993, -0.006037053, 0.012705611, -0.016498657, -0.012899671},
    {0.012639693, -0.009941279, -0.007287907, -0.010442539, -0.016886827, -0.0025147372, -0.007884736, -0.0023462798, -0.005342931, 0.008052868, 0.026264261, -0.017267954, 0.0047504636, -0.0043456787, -0.0055099134, -0.015086899},
    {0.024446312, 0.008359806, -0.0035280609, -0.004148427, -0.00032722717, 0.022438236, 0.0052148644, -0.005968266, 0.010320298, 0.029766744, 0.015769837, 0.015016504, 0.00089869346, -0.0030375829, 0.021805331, 0.0067300294},
    {-0.035066944, -0.0695118, -0.01607881, -0.0030695684, -0.014873526, 0.0046946984, 0.006062426, -0.0035214745, 0.009643163, -0.014340383, -0.018090898, -0.00531064, -0.006420899, -0.0019317467, -0.019871108, 0.005424074},
    {-0.0016828408, 0.0014380163, -0.029068334, 0.016633429, 0.015685964, 0.00053895655, 0.018121142, 0.019161604, 0.029302606, 0.00030629954, 0.004893749, 0.0025642132, 0.042724762, -5.912443e-05, 0.017550785, 0.017394425},
    {-0.010677914, 0.006001484, 0.007545503, 0.028212253, 0.0011093908, 0.008412938, 0.008113177, 0.010319905, -0.01112188, 0.01839406, 0.026931169, -0.026549846, -0.033526417, -0.01680287, -0.01891843, -0.03916109},
    {-0.036691092, 0.00034129544, 0.0030056539, 0.005629062, 0.014578645, -0.0197878, 0.020403342, 0.001697951, 0.02336742, -0.011300968, -0.055999763, 0.023116939, -0.022843042, -0.007635531, -0.005913559, -0.0012958017},
    {0.022097021, 0.00012670184, -0.0036961427, -0.018983489, -0.02676184, -0.0047720755, 0.008330517, -0.00093135744, -0.018642278, 0.007414728, 0.029410103, -0.024246177, -0.00893553, -0.0052221813, 0.003515928, -0.018562637},
    {0.014351262, 0.027510663, 0.0064844047, 0.0132824695, 0.008119205, -0.0138801895, 0.010191729, 0.0048485273, -0.02178584, 0.016398259, -0.004156201, -0.0063741743, -0.0012227694, -0.0035222343, 0.005408506, -0.008554398},
    {0.010910179, -0.028663354, -0.0036777963, -0.018933851, -0.018906506, -0.004250757, -0.00082840706, 0.0004007249, -0.012711841, -0.00871567, 0.005533035, -0.013783748, -0.011554036, -0.0024178415, 0.00052573695, -0.022672161},
    {-0.0030117163, 0.031314705, -0.013051895, -0.018839037, -0.015880475, 0.018016001, -0.02268034, 0.012616227, -0.021437261, -0.004781604, 0.00088529044, 0.025933065, 0.0054017184, 0.011980425, -0.018558914, 0.0049031805},
    {-0.03865337, 0.011812289, -0.002179592, 0.0015780067, -0.00011983141, -0.061939783, 0.014948523, -0.0002517996, -0.008221702, -0.001233737, -8.8511864e-05, -0.012360646, 0.019898603, 0.0014484233, -0.029599773, -0.04846368},
    {-0.020794276, 0.006990182, 0.010839048, 0.036492344, 0.029251449, -0.027334135, 0.02584903, 0.02518423, 0.003441835, -0.014006844, -0.046707645, 0.03718845, 0.00041642273, 0.009649297, -0.001805489, -0.022237109},
    {-0.012624706, -0.0070359427, -0.00069493154, -0.004639699, -0.011906983, -0.016228002, 0.009190724, -0.0123725915, -0.0066926638, -0.0222367, 0.008945878, 0.0086616045, -0.0033141074, -0.025312984, -0.026554944, -0.0024093029},
    {0.038260784, 0.011509067, -0.048431553, -0.004133576, -0.01484682, 0.0066215037, -0.016916832, 0.026374131, -0.022024589, 0.013292727, 0.013060747, 0.08908662, 0.0054497896, 0.017137038, -0.016795611, -0.0071828146},
    {-0.0109490715, -0.022143258, 0.021760037, -0.039636716, 0.008058913, -0.032426994, 0.010375411, -0.013486794, 0.0046666586, -0.01377133, -0.048428517, 0.049431264, -0.025264695, -0.004928902, -0.004874763, -0.044512186},
    {0.0038591162, -0.013547326, -0.004279392, -0.022280699, -0.022790726, 0.0011416451, 0.00092804455, 0.0005008309, -0.0030647144, -0.0022948522, 0.00864538, 0.010826279, 0.0024194447, 0.0095224865, 0.00306359, 0.0010156439},
    {0.00940008, -0.016024606, -0.0067612003, -0.021258455, -0.023137031, 0.004981867, -0.012177162, -0.016275527, -0.013850384, -0.0012776635, 0.01992773, -0.0053776586, -0.009420632, -0.01741359, -0.013304688, 0.0007168534},
    {-0.016295882, 0.013186818, 0.0002441749, 0.026133828, -0.00550777, -0.0143569, 0.017639332, 0.015130336, 0.0008670467, -0.03703447, -0.008093704, 0.0039320346, 0.034198616, -0.011982094, -0.013826261, -0.042067494},
    {-0.018712219, -0.032232303, 0.00027258083, 0.0077711944, -0.009689726, -0.004530365, 0.010905384, 0.006905658, -0.0216005, -0.030018246, -0.033728175, 0.010028717, -0.0048592873, -0.022020333, -0.007850011, 0.0010793641},
    {-0.022926014, -0.016885636, -0.013601812, 0.0063612107, -0.009420605, -0.0018039455, 0.015139618, -0.0013431829, 0.00825756, -0.04743108, -0.0035458605, 0.016302196, 0.023334108, -0.004592427, -0.009042139, 0.0044169477},
    {0.01714421, -0.0050131027, -0.014820454, -0.040068332, -0.030281423, -0.004307501, -0.009604976, -0.011353951, -0.020952152, -0.0009298072, -0.01273906, 0.02199357, -0.05055461, -0.0115346145, -0.029673727, 0.0011760696},
    {-0.03346223, -0.001410561, 0.026226785, 0.025405992, 0.033204917, -0.048214257, 0.027407674, 0.023429807, -0.013664087, -0.017393496, -0.047552414, 0.017911278, -0.018200738, 0.0018377977, -0.013443379, -0.03791334},
    {-0.0074675456, -0.027782109, -0.014970256, -0.031073006, -0.025799531, -0.020426156, -0.021756425, -0.013725745, -0.018843286, 0.001991375, 0.03479349, -0.028228153, -0.0058974926, -0.01921796, -0.034042124, -0.02026163},
    {-0.023277372, 0.013230572, -0.0015627091, -0.017492836, -0.022796022, 0.014055258, -0.008044643, -0.009172875, 0.0035411962, -0.026567409, 0.0031346392, 0.0100332275, 0.011257971, 0.0078677535, -0.009659904, 0.0021285033},
    {-0.008809285, -0.003210661, -0.0046791285, -0.015212815, -0.0031161467, 0.00649343, 0.0033706902, 0.008508573, -0.020404048, -0.006777027, -0.011639696, -0.0039734133, -0.014832348, 0.004226259, -0.0045878687, -0.0020887756},
    {0.0051616044, 0.011780429, -0.0017316593, 0.00011222976, -0.01589522, -0.00036498398, -0.003313617, 0.010737506, -0.01672422, -0.013092631, -0.015941726, 0.023744505, -0.0017514733, 0.010237785, -0.0060025584, -0.014306931},
    {-0.045548286, -0.007673205, -0.0096614165, 0.015203418, 0.015757514, -0.038068496, -0.00241556, 0.012534003, 0.0039013093, -0.020639442, 0.02620644, -0.07015245, 0.009939311, -0.02091867, -0.06386748, -0.035319913},
    {-0.015318039, 0.018111646, 0.015390698, 0.009383839, 0.030964205, -0.048976462, 0.035564426, 0.010038287, 0.0039000448, -0.008996884, -0.034338757, 0.0024172885, -0.00906308, 0.03367062, -0.0023084807, -0.0464627},
    {0.0030246559, 0.03387084, 0.005896323, -0.0012865769, -0.0032083383, 0.013029722, -0.011443865, 0.029839233, -0.01020564, -0.009078214, 0.0006236507, 0.013595987, 0.024648763, -0.010572946, -0.0066854353, 0.00019822465},
    {0.021703178, 0.014117512, -0.029870166, -0.0069085197, -0.020746306, 0.008547332, 0.0075082583, 0.0030940217, -0.02397004, 0.020773351, 0.0065584485, 0.071521714, -0.004286574, 0.017682571, 0.0061085774, -0.031063372},
    {-0.019176625, -0.011509304, 0.016001653, -0.023056198, 0.010834186, -0.03386102, 0.0075552883, 0.0053809565, -0.011030485, -0.01910495, -0.033700384, 0.00638126, -0.019345203, 0.003176906, -0.0063065793, -0.03205011},
    {-0.003131374, -0.0005966452, 0.00081436837, -0.0017870585, -0.0006684306, -0.002780624, 0.008083154, 0.0048556966, -0.013345022, 0.0005688737, 0.0011332695, -0.0022580652, -0.0014620866, 0.003331656, -0.00095886004, 0.0023350623},
    {0.004490478, -0.013976914, -0.001719444, -0.0024915189, -0.023302557, 0.0064717745, -0.016225578, -0.005244394, -0.0027709336, -0.0058625937, 0.015771713, 0.011952623, 0.007932609, -0.023690723, -0.0075052525, 0.014571947},
    {0.0035986546, -0.00047337977, 0.023172347, 0.00093794195, -0.0042209732, 0.0014993957, -0.0037789696, 0.011572301, -0.0020201649, 0.0047535766, 0.0069585745, 0.015606683, -0.00015655422, -0.005945122, -0.008915906, -0.0015772852},
    {-0.008383498, 0.0029395625, 0.02226403, -0.0017829312, -0.0044077625, -0.03009199, -0.004919646, -0.010223539, 0.0040608123, -0.016045922, -0.009083936, 0.0036327373, 0.0051321373, -0.008551742, -0.0068294634, -0.0061902655},
    {0.008225738, 0.025750961, 0.022130027, 0.017737996, 0.004830876, 0.0006330748, -0.004422248, 0.024264218, -0.008756895, -0.0055224975, -0.0063526044, 0.019643787, 0.041972835, -0.0031210678, -0.008770869, 0.009734309},
    {-0.0013042783, -0.008030276, -0.0044959565, -0.006385097, -0.014086128, -0.0248353, -0.010666736, 0.020298934, -0.0148812095, -0.014715849, -0.010150313, 0.030009886, -0.006550573, -0.024282446, -0.015276742, -0.0045041097},
    {-0.020453874, 0.011245822, 0.00839102, -0.003135048, 0.026601544, -0.05262519, 0.02662633, 0.007860201, -0.008876282, -0.007894207, -0.03281263, -0.0019675868, -0.010959949, 0.019128362, -0.011230945, -0.043497726},
    {-0.020897051, -0.03639673, -0.024236655, -0.017894398, -0.023687787, -0.0033083258, -0.025915792, -0.0048785866, -0.015366982, -0.013142259, 0.02817785, -0.02352357, -0.0030044792, -0.03663946, -0.03412064, -0.0009585671},
    {0.012000356, 0.030664703, 0.026525673, 0.016995884, -0.005299848, 0.0074818814, -0.0026985507, 0.024614755, -0.014446113, -0.011937349, -0.0137217855, 0.023435174, 0.02578137, 0.00968562, -0.0073856027, 0.012577037},
    {-0.010287197, 0.009005528, 0.025724016, 0.026495837, 0.0018256843, -0.004360864, -0.00097260217, 0.0035642188, -0.0017028073, 0.0054294, -0.0045019165, 0.011596469, -0.00613545, -0.0021066626, 0.010158474, 0.004611948},
    {0.015557931, 0.013422056, 0.02059935, 0.009146904, 0.0028275982, 0.004432161, 0.008524007, -0.0057488256, -0.014092944, 0.0033355765, -0.0060518393, 0.031842057, 0.003979123, 0.0007275348, 0.004853383, -0.0043411474},
    {-0.019657874, -0.008372479, 0.029569887, -0.016161928, 0.008255226, -0.042576753, -0.007134827, 0.0051042684, 0.014918057, 0.005995104, -0.023616381, 0.012169535, -0.007717715, -0.030590368, 0.00526374, 0.012652813},
    {-0.019371375, 0.009449243, 0.014755747, 0.014212219, 0.029003697, -0.04920526, 0.022125289, 0.03699334, -0.0022149358, 0.0019448854, -0.055826154, 0.017378872, -0.016306423, 0.025906699, -0.0064574652, -0.015447126},
    {-0.013528012, 0.017310921, -0.0042317295, -4.0354324e-05, 0.0013232908, 0.0020369543, 0.0011424164, -0.005855292, -0.010586117, 0.0030729834, 0.01775322, -0.014270123, 0.02658277, -0.026965104, -0.0050296923, -0.000308638},
    {0.035289668, 0.038386434, -0.014179926, -0.0032042675, -0.018622147, 0.04231536, 0.006490148, 0.02729526, -0.020062013, 0.015179491, 0.01031679, 0.05868118, -0.011448846, 0.024288688, 0.012942789, -0.0058838213},
    {-0.017378815, 0.0003625536, 0.0044788388, 0.0082170805, 0.01623555, -0.013751495, 0.006673617, 0.015013268, -0.007214386, 0.011395061, -0.026925163, -0.01315861, -0.016017804, -0.0039813556, 0.014581399, -0.007934712},
    {-0.002637547, -0.003422757, -0.009084204, 0.022876946, -0.002129491, -0.0014155289, 0.0015098334, 0.0044248207, 0.002714266, 0.017430255, -0.00320387, -0.005319336, 0.0016279911, 0.0017989173, 0.021096343, 0.0028947876},
    {0.006356873, 0.005591561, -0.0034879711, -0.0064188046, -0.019649066, 0.017126739, -0.009823751, -0.013345318, -0.00947815, 0.0009646151, 0.017450733, 0.0038840154, 0.005858634, -0.020998474, 0.0064025316, 0.011215441},
    {-0.008220433, -0.0061098486, -0.008630758, 0.006697215, 0.0017772107, -0.016555766, 0.0027689831, 0.0051393406, -0.006649248, -0.001372074, 0.013022762, -0.011389959, 0.0024514494, -0.01087302, -0.0068662586, -0.009993236},
    {-0.0071398057, -0.005993699, 0.0017199912, 0.012544177, -0.010988806, -0.023357192, 0.0016835385, 0.005622904, -0.0214815, -0.0003021176, -0.023216488, 0.0024299396, 0.003188342, -0.015488585, -0.0035054428, 0.0012968776},
    {-0.016555797, 0.016631482, 0.0014213459, 0.025183773, 0.010427165, -0.018895933, 0.0031582974, 0.005027733, -0.0011363674, 0.008753175, 0.010065857, -0.023859717, 0.041224707, -0.028916957, 0.0027712267, -0.006983866},
    {0.00066766655, 0.014494256, -0.020853998, -0.022515241, -0.0015587484, 0.01594988, -0.0029794208, 0.0011651949, -0.032777485, 0.0065590576, -0.000565354, 0.006549742, 0.0065706274, -0.020503532, -0.0007187219, -0.0035764668},
    {-0.024824455, 0.0023684325, 0.008494292, 0.0049141636, 0.025465544, -0.048675355, 0.018160433, 0.026384037, -0.01112532, -0.0009235435, -0.04289301, -0.0065956917, -0.014764546, 0.014542435, -0.008764471, -0.023684938},
    {0.0011749759, 0.008881063, 0.00283893, -0.021587867, -0.024953729, 0.003734753, -0.023545401, -0.008417364, -0.009592591, 0.0015116219, 0.01339887, 0.013082152, -0.00296397, -0.03434789, 0.0051250895, 0.015591301},
    {0.007104182, -0.0005259601, -0.0077034496, -0.00804037, -0.0024079478, 0.007173314, -0.006356943, -0.011732103, -0.015299488, 0.0014869123, -0.0043654284, 0.0011479659, 0.018591087, -0.02458358, 0.003273006, 0.0023694595},
    {-0.0057937577, -0.011243301, -0.0042699017, -0.009238997, -0.0012808667, -0.0029670675, -0.0027020318, -0.0019452589, -0.012359672, -0.0046093347, -0.014321184, -0.0050716465, -0.012290749, -0.0048691477, -0.0047266884, -0.0026833666},
    {-0.004269627, -0.008226712, -0.0027961433, -0.009071869, -0.0016137381, -0.0017977973, -0.006021317, -0.0021533063, -0.007904636, -0.0065547503, -0.0033638787, 0.0043679713, -0.004935706, -0.011402761, -0.00028842196, 0.0045615695},
    {0.0145662455, 0.017856194, -0.03639022, -0.007603845, -0.008939373, 0.008177077, -0.012311187, 0.009304359, -0.055891044, 0.005744762, -0.0058799083, -0.026947124, 0.018690448, -0.017790942, -0.002786355, -0.020342346},
    {-0.020623244, -0.011081137, -0.016414093, -0.0011631788, 0.04884709, -0.020855678, 0.020508548, 0.028107319, -0.0071151373, 0.017159909, -0.026725672, -0.030360468, -0.009862976, 0.014002516, -0.0018074056, -0.02818909},
    {-0.017133247, 0.008947669, -0.0035381769, 0.020150404, -0.024313709, -0.011092397, 0.0059566293, 0.00902483, 0.0051827407, -0.016288226, 0.02367612, -0.013830764, -0.0007766605, 0.0015938835, -0.0004812663, -0.015448277},
    {-0.0057370886, 0.0029426129, -0.027059961, -0.0015954653, -0.020343747, 0.0078073447, -0.0032669152, 0.015676115, 0.00794716, 0.000298156, 0.021843217, 0.011855405, -0.0005858989, 0.004526717, -0.0013166134, 0.012234117},
    {-0.016040443, -0.015004241, -0.0009806859, 0.0076527074, 0.015407469, -0.012807701, 0.0045123375, 0.01408886, -0.014250423, 0.017694578, -0.024545738, -0.021138452, -0.015542804, 0.0026168579, 0.009189921, -0.004140093},
    {-0.0015718439, -0.0035824252, 0.0016440699, -0.001235998, 0.00044770958, 0.0003581904, -0.0005399701, -0.0006231268, -0.000861295, -0.00042933872, -0.0010058159, -0.0012180773, -0.0019906836, -0.0005735464, -0.00036038028, -0.00041316974},
    {0.010009691, 0.014303047, 0.008474158, 0.0018727313, -0.03439715, 0.01003458, -0.00953309, -0.005759531, -0.0029685034, -0.012919003, 0.017005194, 0.018186046, -0.002224153, -0.011844998, 0.00023152975, 0.008776409},
    {-0.0038153455, -0.012927658, -0.015122927, -0.004942214, -0.003576218, -0.0008891552, -0.0023045784, 0.0015383371, -0.006056613, -0.0016488929, 0.015929706, -0.020734811, -0.0045699384, -0.0031825632, -0.0026493168, -0.02116768},
    {-0.010344016, 0.0038674134, -0.011037503, 0.0116407145, 0.009324023, -0.015824893, 0.00551991, 0.005155491, -0.012287368, 0.008109852, -0.004315028, -0.019149097, -0.012592468, 0.0011569727, 0.0014763435, -0.031317975},
    {0.010333754, 0.0042728744, 0.0068107913, 0.03561554, -0.006345349, -0.004377968, 0.025148973, 0.006965106, 0.0026629968, -0.0022066077, 0.02372499, -0.017270276, 0.009542846, 0.0055461195, 0.0141033195, -0.037561342},
    {-0.016137326, 0.011646766, -0.011648006, -0.008635535, -0.013688121, -0.0013683713, -0.00948855, 0.013025118, -0.027745532, -0.0013264928, -0.0039249873, -0.00016187003, -0.00871575, 0.0005151361, -0.0030134423, 0.011331719},
    {-0.01748111, -0.016169608, -0.011889185, 0.005913317, 0.032271575, -0.022187496, 0.023038305, 0.02340669, -0.012332674, 0.011218937, -0.026577927, -0.031900365, -0.010029107, 0.014544017, -0.0013829987, -0.029671427},
    {0.026300851, 0.024189387, -0.012279799, 0.0023372422, -0.052342452, 0.021384265, -0.019713163, -0.006349533, -0.0420882, -0.00913646, 0.009992561, 0.014100139, 0.010586894, -0.022689823, -0.00032348649, 0.009457487},
    {-0.0011162007, -0.007929647, 0.0010037178, -0.007114866, -0.003809229, -0.0027896534, -0.0014809656, -0.0035510755, -0.008837546, -0.00442149, 0.010249481, -0.024424966, -0.008480916, -0.0031584133, -0.0022827988, -0.022195468},
    {-0.0059540155, -0.010743102, 0.00046055854, -0.009008055, -0.00091409555, -0.0046273316, -0.001820514, -0.0012753103, -0.011691102, -0.004633839, -0.016006472, -0.007724804, -0.014350072, -0.004546423, -0.0048876954, -0.0027477813},
    {-0.002202553, -0.0039690034, -0.008441137, -0.0069299187, -0.008962473, 0.0021829237, 0.0008874599, 0.0060797194, -0.008889394, -0.0027004026, -0.0062483703, -0.005898801, -0.0096450765, -0.0020144861, -0.0029800783, -0.0019015335},
    {-0.002979186, -0.008133041, -0.011526743, 0.0009482242, -0.021823583, 0.005312371, -0.004718099, 0.0075660604, -0.014589018, -0.00823526, -0.0009382583, -0.049717717, -0.012235693, -0.004822952, -0.013151609, -0.030330967},
    {-0.02842864, -0.031834442, -0.009594689, -0.016791815, 0.04782033, -0.017868988, 0.007515935, 0.022179054, -0.014922625, 0.019757418, -0.034539152, -0.053796396, -0.010941681, 0.0062494003, -0.010859015, -0.0013753524},
    {-0.020920288, 0.008027383, -0.015235651, 0.0025040226, 0.004343404, 0.009219931, 0.005211746, 0.019810801, 0.0021905932, 0.010197021, -0.00023450484, -0.015038856, 0.012609998, 0.014590145, 0.0036631585, 0.008341522},
    {-0.0048141894, -0.0012713207, -0.01210827, -0.0010835297, -0.0019557744, 0.0019440604, -0.00443027, 0.0066923993, 0.0003153618, 0.003119487, 0.006603947, 0.010474764, 0.0021222923, -0.002758327, -0.0016513387, 0.009960433},
    {-0.013718521, -0.013778147, 0.00066652463, -0.014431141, 0.00506281, -0.009901028, -0.00020985951, -2.900834e-05, -0.016840395, -0.00037644515, -0.022017645, -0.019242497, -0.0184884, -0.00675408, -0.008948774, -0.005787686},
    {-0.001632141, -0.004136764, 0.0016916064, -0.0012868423, 0.00037084727, 0.0005038388, -0.0002591132, -0.00066068507, -0.00085806893, -0.0004686249, -0.0009752128, -0.0017572184, -0.0019900184, -0.0005637416, -0.00041922828, -0.0004083687},
    {0.0046367487, 0.013922721, -0.000661324, 0.0020614883, -0.019356381, 0.003991536, -0.0008959406, -0.00031208733, 9.0888934e-05, -0.0057193083, 0.013364598, 0.0065189824, 0.0015110353, 0.003649095, 0.0002883408, -0.0070784036},
    {-0.0043006684, -0.005849936, -0.004562031, -0.005187085, 0.00054369326, -0.0012892883, -0.0015413391, -0.0012911169, -0.005165384, -0.0009841708, -0.006644124, -0.0026189708, -0.005683096, -0.0018936571, -0.004499873, -0.0015754721},
    {-0.011513943, -0.015842812, -0.003084746, -0.0065897233, 0.016399803, -0.010522265, 0.003205518, 0.008710221, -0.015927663, 0.0034572165, -0.02481847, -0.019086244, -0.0099736005, 0.0042149043, -0.0050694677, -0.0052788},
    {-0.019848775, 0.0023307682, -0.0039767213, 0.0055406825, 0.02927211, 0.0031197772, 0.010477299, 0.019030584, -0.00044605005, 0.02196398, -0.0022926717, -0.022255378, 0.018172534, 0.015882751, 0.002861104, -0.010666395},
    {-0.022334453, 0.0012416628, -0.02047905, -0.0069311014, -0.01471018, 0.001449154, -0.0022653507, 0.0062878197, -0.009875998, -0.0029319238, -0.0018833565, -0.022197703, -0.006959671, 0.0022567487, -0.009885984, 0.00106184},
    {-0.031969644, -0.026320683, -0.006668907, -0.019253707, 0.040597774, -0.019167593, 0.004851512, 0.01763321, -0.019579004, 0.021186626, -0.032904107, -0.050730385, -0.014738349, 0.008923944, -0.012602546, -0.007603085},
    {-0.00049034593, 0.013114688, -0.0022921455, 0.002977653, -0.039786126, 0.0011782451, -0.0063201105, -0.011217459, -0.009375495, -0.013795848, 0.015616046, -0.0046264874, -0.008093703, -0.006240446, -0.010193296, -0.025119422},
    {-0.0042080493, -0.006545256, -0.004790281, -0.005734182, -0.005180153, 0.009005616, -0.0009916305, 0.0046261568, -0.0051461807, 0.0017691525, -0.00450806, -0.005962889, -0.004586959, 0.0002609066, -0.0017696534, -0.0014339802},
    {-0.005939247, -0.010735875, 0.00046063855, -0.009007475, -0.00092468865, -0.0046778335, -0.0017447871, -0.0012930715, -0.011715973, -0.004722387, -0.016009742, -0.00771111, -0.014315136, -0.0044968715, -0.004866455, -0.0028286956},
    {-0.0052029206, -0.010644706, 0.0007180786, -0.0070703593, -0.00012063705, -0.0018639354, -0.001594722, -0.00094484334, -0.008400981, -0.00036492213, -0.009651957, -0.0049717077, -0.010564168, -0.0034075212, -0.005957982, -0.0007757802},
    {-0.010240079, -0.014446176, -0.008190698, 0.0033110732, -0.017365048, -0.0024129942, -0.00080345495, -0.007968196, -0.020879203, -0.007688599, -0.020605348, -0.011351712, -0.013357822, -0.003158945, -0.011622797, -0.004727736},
    {-0.01595374, -0.02695463, -0.011878376, -0.015213357, 0.0025355192, -0.0027059617, -0.0021211691, 0.0049627945, -0.012373514, 0.0052599944, -0.022205845, -0.03510982, -0.019298516, -0.0102884425, -0.010907439, 0.0025785689},
    {-0.023486232, -0.0004873619, 0.0039101257, 0.00033028776, 0.0033481666, 0.0013071501, -0.0037943183, 0.0021301217, -0.0002444524, -0.0030679484, -0.0020205688, -0.015045793, 0.0009619591, -0.005767945, -0.003516548, 0.011532422},
    {-0.007850814, -0.004671216, -0.0016850024, -0.0012561039, 0.008508872, -0.001997054, -0.0067448234, -0.00069852994, 0.00031225014, 0.0038557674, 0.0030270999, 0.00613014, 0.0014606674, -0.0033456786, -0.0018741376, 0.010170238},
    {-0.008689269, -0.013400399, -0.00063814456, -0.0137207275, -6.503488e-05, -0.010771679, -0.0011743784, -0.0024202364, -0.017661622, -0.0033410527, -0.02179292, -0.015232537, -0.017384777, -0.0051406096, -0.008872998, -0.0055834544},
    {-0.0016861806, -0.0043081613, 0.0016975147, -0.0012863722, 0.00037078213, 0.000567672, -0.00025871248, -0.0007271982, -0.0008531543, -0.0004674587, -0.0009619105, -0.0019554375, -0.0019894838, -0.00052519573, -0.00044818915, -0.0004075835},
    {-0.00353154, 0.004867511, 0.012298009, -0.0023217625, 0.0002654433, -0.00093511865, -0.0023580475, -0.0035824445, 0.0016567713, -0.0037063423, -0.0008663667, 0.008037006, 0.0026522642, 0.00048985967, 0.0013862288, -0.000766994},
    {-0.0042863274, -0.006458556, 0.0014946654, -0.0050105336, 0.0006280699, -0.0013297398, -0.0007183058, -0.0008535482, -0.0050791935, -0.0027830803, -0.0077375947, -0.0039321617, -0.007372724, -0.0025903762, -0.0033877594, -0.0011736638},
    {-0.012453522, -0.014419644, 0.00025553303, -0.012437413, 0.003409803, -0.005301615, -0.00207905, 0.0012556639, -0.0119642755, 0.002853891, -0.018246774, -0.01790752, -0.014705776, -0.006668135, -0.004724788, -0.0033519336},
    {-0.0010749401, -0.003703278, 0.002783156, 0.00580837, -0.0072833383, 0.002954233, 0.0010266365, -5.3698743e-05, 0.00782173, -0.012316615, 0.004744641, -0.00036049436, -0.0003530085, -0.00662853, -0.0037819617, 0.003649053},
    {-0.02781474, -0.010633531, -0.0036474543, -0.007919883, -0.0008248084, -0.008064987, -0.0021263163, -0.007065818, -0.013500941, -0.0036462746, -0.009090168, -0.012337722, -0.010415257, -0.004765476, -0.012237353, 0.008226194},
    {-0.020624507, -0.027396206, -0.009012529, -0.015935106, 0.005017963, -0.0068945796, -0.0020726458, 0.0031911205, -0.019458963, 0.00218124, -0.024971485, -0.036171995, -0.022724984, -0.007490241, -0.016329743, -0.00013600136},
    {-0.011915067, 0.0005386219, 0.0017642855, 0.00052425836, -0.0034272557, -0.007949527, -0.002047107, -0.0075909602, -0.011379651, -0.006702274, -0.008657299, 0.0076159225, -0.005480376, -0.00019198761, -0.0070572365, -0.0038711247},
    {-0.0045811823, -0.008801279, 0.0018576373, -0.006736658, 0.00012334659, -0.0013852519, 1.7093553e-06, -0.0011858972, -0.0067944033, -0.002982883, -0.009789357, -0.0062655117, -0.009188637, -0.0030218405, -0.0040826956, -0.0021190555},
    {-0.005939334, -0.01073588, 0.00046079548, -0.009008051, -0.0009225002, -0.0046754186, -0.0017451847, -0.0012929466, -0.011715891, -0.004722986, -0.016011277, -0.0077135814, -0.014315116, -0.00449822, -0.004866514, -0.0028254571},
    {-0.005652796, -0.009594723, 0.00075591274, -0.006840168, 0.0002729795, -0.0018509466, -0.0003016138, -0.0009147823, -0.0075158593, -0.0036521535, -0.011367223, -0.0069291396, -0.010250883, -0.0038149436, -0.0039079217, -0.002077706},
    {-0.027354784, -0.01353289, 0.0007599625, -0.013419306, -0.001671224, -0.0045467485, -0.0029447284, -0.0020336818, -0.0125035625, -0.013595511, -0.019077318, -0.027838273, -0.012105164, -0.0048362473, -0.007819607, 0.0050726226},
    {-0.0038153746, -0.025013492, -0.013614505, -0.0072294506, -0.014890901, -0.0046152277, -0.0009025163, -0.0028591692, -0.016961781, -0.010745143, -0.0204034, -0.015345045, -0.019380836, -0.006568925, -0.010520314, 0.0072520967},
    {-0.011266672, -0.0037197338, -0.0023745394, -0.001737386, -0.00073828, 0.0034187948, 0.0012233594, -0.0024198648, -0.0005785388, -0.007194941, -0.005008535, -0.0036095607, -0.0027138083, 0.0007285276, -0.0034442162, 0.00961735},
    {-0.0009489765, -0.0023959123, -0.0011469049, -0.0013518939, 0.007614588, 0.0018337423, 0.003681713, -0.0030025544, -0.0005312081, -0.003059941, 0.0014206448, 0.0061076605, -0.004376587, 0.0009872242, -0.00031964827, 0.005440915},
    {-0.005520493, -0.01183127, -0.0018077549, -0.01383362, -0.0033769575, -0.010021735, -0.0013991765, -0.0027849828, -0.018077344, -0.004829123, -0.021840144, -0.009503508, -0.018365512, -0.0046876674, -0.0074802386, -0.006531442},
    {-0.0016847334, -0.004325008, 0.0016838145, -0.0012842973, 0.0003670104, 0.000567676, -0.00025902764, -0.0007570488, -0.00085348694, -0.00046827592, -0.000959767, -0.001820907, -0.001990518, -0.00051538943, -0.00045216875, -0.00040781306},
    {-0.0040813047, 0.0018158278, 0.007901142, -0.008986658, 0.0064353105, 0.00012200585, -0.00038394934, -0.002331957, -0.0010255626, -0.0009805132, -0.0028702558, 0.002185629, -0.0011885032, -7.341348e-05, -0.0011598754, -0.004215086},
    {-0.004256697, -0.004810904, 0.0012400982, -0.005012266, 0.00044388897, 0.009173272, 0.008836802, -0.0020333154, -0.001112781, -0.01895197, -0.0050404216, -0.005253015, -0.005549465, 0.0067960075, -0.0037502714, 0.0055016507},
    {-0.011725538, -0.015151646, -0.0035437949, -0.012949148, -0.0069071683, 0.0021751886, 0.0037586568, -0.008067691, -0.0093727335, -0.018573225, -0.00987479, -0.018081948, -0.015425753, 0.0012354364, -0.01113298, 0.00809562},
    {0.013034792, 0.0019302741, 0.0018058257, 0.0067657083, -0.015400884, 4.1033592e-05, -0.0014715438, -0.012458924, 0.0077572344, -0.014323309, 0.0045830775, 0.014015151, 0.0024201875, -0.0034170074, 0.0016014741, -0.00096034986},
    {-0.020323744, -0.011172219, -0.0035547926, -0.014904126, -0.00084143714, -0.009520611, -4.9306836e-06, -0.006020172, -0.013281154, -0.0021790473, -0.0134883495, -0.0014567826, -0.017387845, -0.000969465, -0.009812235, 0.0032813682},
    {-0.0053032995, -0.02370126, -0.010559929, -0.011273834, -0.01563139, -0.009927166, -0.0019569395, -0.005327474, -0.02120008, -0.007436035, -0.024204176, -0.01448745, -0.022935828, -0.0077145635, -0.012180018, 0.0008672077},
    {-0.018132921, 0.000624893, 0.008927265, -0.010248646, 0.004286459, -0.007688645, -0.0037175138, -0.0030885658, -0.004732418, -0.0037453547, -0.010027615, -0.0060160933, -0.0075916117, -0.0035324674, -0.0022828479, -0.0027946667},
    {-0.004696315, -0.0088418815, 0.0018964435, -0.0072143413, 0.00017141602, -0.0014066594, 2.7807226e-05, -0.0011765497, -0.006736274, -0.0028573961, -0.00982941, -0.0062209805, -0.009172795, -0.0029924249, -0.0040569957, -0.0021055837},
    {-0.005938653, -0.010696384, 0.00048946426, -0.009007795, -0.0009280115, -0.004710353, -0.001763242, -0.0012670099, -0.011718484, -0.0047175842, -0.016018847, -0.0077328924, -0.014355239, -0.0044950205, -0.0048471866, -0.002788901},
    {-0.005224952, -0.008242431, 0.0011849203, -0.0070487643, -0.0007470948, 0.00486848, 0.008725927, -0.0059677884, -0.0041503604, -0.014814352, -0.0037893492, -0.011376008, -0.011335604, 0.0035756545, -0.0072063045, 0.0045874575},
    {-0.01330493, -0.013647869, 0.0002579856, -0.016343392, -0.0015439988, 0.0058386293, 0.010115098, -0.013347037, -0.007321828, -0.014865563, -0.002521254, -0.012527227, -0.018676426, 0.009635094, -0.0113086775, 0.008415602},
    {-0.0008952959, -0.016207224, -0.006283737, -0.007283025, -0.0052764537, -0.010244291, -0.0034021547, 0.00082526926, -0.018329581, 0.00421412, -0.021443544, -0.010552827, -0.018735772, -0.006532842, -0.003888006, -0.0033647784},
    {-0.024406165, -0.0029975004, -0.004777557, -0.0041771447, 0.0008380412, 0.0142915035, 0.00887715, -0.0062005473, 0.00775751, -0.029125903, 0.013665251, -0.021504741, 0.0058663883, 0.0075470326, -0.008089311, 0.031924017},
    {-0.023377806, -0.0010580007, 0.00022075113, -0.0033760602, 0.0024184296, 0.016758924, 0.010025772, -0.004588156, 0.015628718, -0.034551088, 0.015522375, -0.020362321, 0.009490061, 0.008967512, -0.005493583, 0.029536793},
    {-0.0055071097, -0.011837269, -0.0018194405, -0.013856671, -0.0033448613, -0.0100113405, -0.0013751788, -0.0027920255, -0.018076334, -0.004840283, -0.021841316, -0.009504641, -0.01836519, -0.004688289, -0.0074803634, -0.006531307},
    {-0.0015988672, -0.003542014, 0.0016220997, -0.0012809067, 0.00040050052, 0.00044064832, -0.00027185256, -0.0005546236, -0.00085882784, -0.000466223, -0.0009903142, -0.0009247854, -0.0020047203, -0.0006205248, -0.00022933936, -0.00040935585},
    {-0.01342318, -0.0015490345, 0.00086859474, -0.008386656, 0.003858669, 0.0046611535, 0.0040915804, -0.0024830373, 0.003166256, -0.012888495, 0.00374258, -0.0074225934, 0.0031940613, 0.001967671, -0.0041223695, 0.011841996},
    {-0.007655361, -0.0050319918, 0.0025566071, -0.0049838517, 0.0018484273, -0.0009609504, -0.0010851074, -0.004582, -0.0049142954, -0.005558254, 9.9660036e-05, -0.011976901, -0.0045276266, -0.0026743463, -0.005534985, 0.003235689},
    {-0.0142403245, -0.012263052, -0.0009801331, -0.011490053, -0.0017466947, -0.0052306587, -0.0029873315, -0.003665059, -0.014254331, -0.008248676, -0.016286338, -0.014640551, -0.0105204545, -0.00513691, -0.0062382333, -0.00042852963},
    {-0.00022415136, 0.00048877625, 0.0015211764, -0.0011444327, 0.0018907657, 0.014239039, 0.0072071697, -0.006950361, 0.0062743416, -0.01673687, 0.015970504, -0.015834015, 0.0008832926, 0.005822041, -0.0059048585, 0.013295326},
    {-0.029355213, -0.010814178, -0.0034337922, -0.014838975, -0.0024288902, 0.004357222, 0.00961627, -0.009167621, -0.0050851065, -0.027507855, -0.0013755666, -0.018934976, -0.0060306396, 0.007390403, -0.011510667, 0.020076571},
    {-0.0068134423, -0.020273605, -0.00832309, -0.013022047, -0.007522696, -0.011487532, -0.0019967495, -0.0026666094, -0.02095714, 0.00039955525, -0.022037853, -0.01670713, -0.021835595, -0.0066571874, -0.009782471, 6.880757e-05},
    {-0.020145811, -0.008409244, 0.00020651355, -0.016245551, 0.0021054724, 0.0065130373, 0.007598401, -0.009400812, -0.00090874423, -0.01649901, 0.001165089, -0.013705795, -0.010062487, 0.007990418, -0.011259796, 0.014618434},
    {-0.0046518557, -0.00527208, 0.003270165, -0.0072006346, 0.0012271886, 0.01259066, 0.0091839405, -0.008461001, -0.0007873713, -0.022888849, 0.00623512, -0.017309118, -0.007283443, 0.0073629385, -0.008803625, 0.008994975},
    {0.022231027, 0.024958747, -0.045977887, 0.0260868, -0.034780603, 0.0013657281, 0.00032731777, 0.0046703997, 0.043448765, 0.047810446, -0.025267815, 0.0072222617, 0.015620573, 0.0032482478, 0.054310925, -0.0124584325},
    {-0.013880341, -0.008739488, 0.00074814656, -0.0058586244, 0.00060451496, 0.0010349404, -0.003166662, -0.0005227194, -0.00494672, -0.0107567385, -0.008218324, -0.015891697, -0.0036054137, -0.006667355, 0.0013782674, 0.0047825654},
    {-0.028909406, -0.118594654, 0.06803382, -0.037554316, -0.086170055, -0.04674039, -0.1002038, 0.022746753, -0.22614199, 0.07694305, -0.0094837835, -0.09175585, 0.0074336114, -0.100857206, -0.06502249, 0.26569223},
    {-0.016775183, -0.075318076, 0.051097587, -0.02325713, -0.05046799, -0.042633124, -0.05961862, 0.01196331, -0.16309002, 0.05584724, -0.01529598, -0.06341804, -0.0145735545, -0.07132203, -0.040167347, 0.1550149},
    {0.18142302, -0.06474139, -0.027944587, -0.029844806, -0.023616701, 0.19821724, -0.03390523, 0.08092273, 0.022026727, 0.06978222, -0.023940274, 0.06888607, 0.07994731, 0.052075755, 0.23492269, 0.05757776},
    {-0.030678459, 0.010202362, 0.0025429435, -0.004733487, 0.0102836825, -0.03970947, -0.0065870634, -0.016644228, 0.014546644, -0.009655107, -0.004689362, 0.016675316, 0.010881433, 0.008708631, -0.040394854, 0.049075387},
    {0.010990272, -0.025017409, -0.055748023, 0.0117691, -0.05944487, -0.013718831, -0.008179222, -0.0049413596, -0.01585322, 0.06640543, -0.0334746, -0.012423009, -0.014682644, 0.005664954, 0.02712684, 0.0070889043},
    {-0.024727419, 0.003683574, 0.0069566164, 0.022037584, 0.0019305121, 0.06297116, 0.0008390644, -0.05496124, 0.01748737, 0.014241366, -0.022330709, -0.02572132, 0.034390453, 0.021495415, 0.016288234, -0.03458035},
    {0.050106354, -0.01919809, -0.010995666, -0.012288581, 0.0018364664, 0.06856729, -0.0046681957, 0.028223397, 0.022273974, 0.010179154, 0.0009637864, 0.032667354, 0.02541948, 0.018056186, 0.07398781, 0.0074030934},
    {0.077679254, -0.05884039, -0.053287372, -0.052643143, 0.015020846, 0.027259687, -0.05962059, -0.033038497, -0.07231948, -0.011138305, 0.041169595, 0.022606181, 0.048416425, 0.03702309, -0.0380014, 0.06157531},
    {0.026166817, -0.049486548, 0.010208284, -0.045001805, 0.0032443672, 0.03663304, -0.047247935, 0.00082608813, -0.07753345, 0.0029898398, 0.0313326, -0.018481113, 0.011968202, -0.022202445, 0.007814994, 0.06999143},
    {0.07930481, -0.017084006, -0.04490811, 0.0007451973, -0.048194792, 0.057365883, -0.07451987, 0.040223848, -0.02455073, 0.09814517, -0.0028199693, 0.023646604, 0.04630757, 0.052504137, 0.06420332, 0.08181838},
    {0.10936708, -0.05685235, -0.014310169, -0.04926944, 0.00066502416, 0.15237138, -0.028470222, 0.045254588, -0.008656429, 0.018740663, -0.00994564, 0.013276471, 0.060059115, 0.023297789, 0.1527856, 0.034936234},
    {-0.018285116, 0.0021783328, 0.016478, -0.0022105689, -0.0037753982, -0.05661382, -0.020933256, -0.010807759, -0.058012333, 0.0294491, -0.010720738, -0.035151634, 0.0047154212, -0.012587713, -0.051458377, 0.044938713},
    {-0.027858656, -0.010773789, 0.005978454, -0.014432127, -0.006820396, 0.0017034546, -0.0071560806, -0.005393844, -0.018793628, -0.016596207, -0.0062099006, -0.020966154, -0.0018182007, -0.004763546, -0.01135246, 0.029882358},
    {-0.0036137176, 0.010530974, -0.006967494, -0.0081937, -0.0010241307, 0.0102401925, -0.020537682, -0.010280239, -0.0013529822, 0.0059941984, -0.0073056663, 0.00059596665, -0.0009926236, 0.007454163, 0.0010513961, 0.013545969},
    {-0.01429429, -0.024193732, -0.059590813, -0.070491575, -0.015359799, 0.06833346, 0.062116023, -0.052517295, 0.04232408, -0.10248664, 0.007580839, 0.0023550228, -0.050282713, 0.015165771, -0.015877377, -0.046916872},
    {-0.059943028, -0.03110448, 0.02025904, -0.035240296, -0.009161317, -0.13871525, -0.0082948785, -0.046523746, -0.027539222, 0.047788702, 0.044158336, 0.040200353, -0.030215317, 0.0007147529, -0.097317114, 0.08777928},
    {0.07864993, 0.121383466, -0.04967883, 0.03275719, 0.074507914, 0.017985828, 0.045848787, 0.032387946, 0.06379216, 0.038644, 0.008598228, 0.13200139, 0.010304848, 0.08558639, 0.051959798, -0.106073506},
    {0.04028316, -0.009037566, 0.0037015837, 0.05580905, 0.048354045, -0.02329372, -0.04194119, 0.03945898, -0.09287959, -0.014105056, 0.0037885422, -0.076030165, 0.07927608, -0.040519826, -0.035116907, 0.0665157},
    {-0.039931163, 0.022983817, -0.000160534, -0.06521723, -0.008471701, -0.019259294, -0.013789966, -0.03042394, -0.0036170257, 0.033784784, -0.005580105, 0.015625287, -0.03161707, 0.010910648, -0.0027330283, 0.058402784},
    {0.009861857, -0.016946271, -0.015863815, -0.078818984, 0.0144480495, -0.003061536, 0.005759022, -0.058873188, -0.033899277, -0.053737707, 0.05094995, -0.05481446, 0.112084664, 0.006150992, -0.013245599, 0.035119373},
    {0.042464975, -0.01504675, -0.04518611, 0.033449817, -0.02351668, -0.08014641, 0.021709604, 0.09804653, 0.0699586, 0.03450442, -0.012683509, 0.026178475, 0.041519787, -0.04261464, 0.08061885, 0.10179943},
    {-0.02066318, -0.025979092, -0.062239096, -0.018508732, -0.060968373, 0.09576712, 0.0592441, -0.050217334, 0.0037673379, -0.026548503, 0.017251752, 0.025347626, -0.029292123, 0.07754675, 0.002869289, -0.012728003},
    {0.009940683, 0.00032250516, -0.06514529, -0.053907283, -0.026783876, 0.064257726, 0.020674808, -0.054771718, 0.048011225, 0.00077957095, 0.005425229, 0.00090343144, -0.013198024, 0.062414046, 0.057262618, -0.035342637},
    {0.018805439, 0.05565235, -0.077402845, 0.10539311, 0.018273756, 0.017352453, 0.061754867, 0.07476317, -0.021275671, -0.06309544, -0.0027331966, -0.015026024, 0.08911521, 0.004955622, 0.004595465, 0.015570592},
    {0.02757254, 0.02620516, -0.042963944, 0.0091951145, 0.04591389, -0.017251192, -0.0083309775, 0.028695067, -0.07123499, -0.036751296, -0.003399267, -0.020665258, -0.009710342, 0.024023233, -0.04812963, -0.018966053},
    {0.019223236, -0.05977191, -0.048882995, 0.0072551914, 0.0075753015, -0.04146147, -0.0060820538, -0.0069665704, -0.037147205, -0.007481041, -0.03622856, 0.014386608, -0.011475197, -0.01208461, 0.008005147, 0.02216562},
    {0.053039417, -0.036449328, 0.002607605, -0.06886245, -0.025653949, 0.04331836, -0.024203848, 0.0124229, -0.023514679, 0.051072694, 0.02303213, -0.0037484122, 0.028306788, -0.0047465866, 0.07956634, 0.08535852},
    {0.0062216436, -0.047657344, 0.027564881, 0.03187316, 0.022219973, -0.037729666, -0.052930653, 0.002684876, -0.08468277, -0.005395682, -0.007780632, -0.09925544, 0.066970706, -0.057127643, -0.015238508, 0.0572609},
    {0.037890967, -0.010530645, -0.059886232, -0.01609113, -0.016978592, 0.09723804, 0.023605702, -0.040420048, 0.098726384, 0.027581373, 0.0049987165, 0.034132507, 0.0040411497, 0.085988395, 0.10710774, -0.08175286},
    {-0.036626294, -0.030508107, -0.018661344, -0.013525997, 0.015810193, -0.07503665, 0.018092858, 0.008791878, -0.017198293, 0.068436064, 0.0041391137, 0.057487883, -0.057979424, 0.03813806, -0.06357863, 0.036872912},
    {0.048083335, -0.02863637, -0.084602095, -0.08711944, -0.06826444, 0.06360371, 0.033553336, -0.022506062, 0.020023232, -0.05302235, -0.03731331, 0.036463875, -0.004244022, 0.021609474, 0.06541844, 0.046121698},
    {-0.011566041, 0.010136414, 0.002189433, -0.007323681, -0.037122305, -0.0027958252, -0.015477826, -0.04854912, -0.062040288, 0.055786584, 0.007810486, 0.013220324, 0.033361014, -0.0078524975, -0.013331832, 0.060448624},
    {-0.013319062, 0.049372155, -0.037513625, -0.023148097, 0.0065825065, -0.03606657, 0.026051113, -0.050738223, 0.02005891, 0.022099787, 0.009895357, 0.077801265, -0.08897507, 0.013699443, -0.033800427, -0.029843273},
    {0.038000777, 0.026023928, -0.03645013, 0.081616424, 0.022706343, -0.03208677, -0.021954155, 0.05510789, 0.028368775, -0.018433772, 0.022796117, 0.010100602, 0.10254502, -0.05462711, 0.013324255, -0.02429243},
    {-0.020411946, -0.041498348, 0.008466226, 0.002127833, 0.033500694, -0.019863276, 0.019299112, 0.0060725613, 0.05639945, 0.017335642, -0.019407462, 0.04247796, -0.027420947, -0.03218251, 0.05077936, 0.0048046946},
    {0.029749006, 0.017998567, -0.032831326, 0.050776336, -0.008192165, 0.014645184, 0.016920159, 0.0516834, -0.015765905, -0.06785322, -0.014608062, 0.021885162, 0.08968946, -0.0024795542, -0.00038900736, -0.016845806},
    {-0.027865607, -0.022767326, 0.008587918, 0.014231385, 0.034974273, -0.045607384, -0.005744952, 0.041278712, 0.116513774, -0.02466543, -0.0012883731, -0.06934587, 0.029177396, -0.08625275, 0.09204408, -0.0037847313},
    {-0.030485364, -0.047722515, -0.044318024, -0.03446437, -0.06615026, 0.059864037, 0.02987668, 0.01176871, -0.045487273, -0.07138323, -0.010831047, 0.014433713, 0.0102314865, 0.04404615, -0.05777077, 0.052431595},
    {-0.034472216, 0.0091297915, -0.032603305, -0.035307396, -0.0056832503, 0.0045936, 0.038982358, -0.03182078, 0.063746385, -0.013240034, -0.012553434, 0.017767873, 0.00048482144, 0.0052504144, 0.040897526, 0.009105474},
    {0.09409851, 0.0716482, -0.041993856, 0.13206305, 0.027487617, 0.05320185, -0.0018644225, 0.07516674, -0.009421878, -0.020139644, -0.020069579, 0.028623985, 0.04343139, -0.0042500296, 0.019563984, -0.066535674},
    {0.117381744, 0.04607216, -0.08832778, 0.0707933, 0.02193971, 0.055645913, -0.0042298418, 0.06228858, 0.0042918436, -0.032912612, 0.010785256, 0.023827765, 0.018087441, 0.03634057, 0.029835839, -0.052404933},
    {0.02406966, -0.0753053, -0.05092379, -0.01738419, 0.035100017, 0.03877549, 0.018378666, -0.028693551, -0.018104246, 0.042980935, -0.008988229, -0.03104966, 0.05224461, 0.010961846, 0.049133528, 0.029303113},
    {-0.055345323, -0.009181865, 0.04109164, 0.05204179, 0.023287646, -0.049123134, 0.01013868, -0.015485756, 0.05866089, 0.049914666, 0.010035601, -0.03423415, 0.0042675785, -0.011207152, 0.02209711, 0.056909658},
    {0.015430503, -0.029075589, -0.02354608, 0.024298344, 0.009687088, -0.011543378, 0.0018257957, 0.02140986, 0.036669675, -0.03157976, -0.008815329, -0.03786767, 0.052603334, -0.03275462, 0.024178427, 0.014991926},
    {-0.05114089, -0.015155951, -0.04222023, -0.07281873, -0.0035409178, 0.00519035, 0.034416188, -0.07334596, 0.08691659, -0.014342369, -0.020401765, 0.032738302, -0.027467126, 0.025245845, 0.038319495, -0.008654747},
    {0.010691619, 0.009842685, -0.005876462, -0.018578649, -0.008915241, -0.041517608, 0.0062964265, -0.028773118, -0.018506382, 0.07728546, 0.010274555, -0.0017095057, -0.03341933, 0.005364203, -0.03181951, 0.016134521},
    {0.008659301, -0.04622885, -0.0013851931, -0.089179575, -0.07035106, 0.080971405, 0.06893808, -0.035817176, -0.050492745, 0.015378898, -0.037798196, 0.059771307, 0.0005872768, 0.08880222, -0.011105156, 0.041012965},
    {-0.016542584, 0.046038322, 0.013714614, -0.018176856, -0.07259108, -0.027915556, -0.007989044, -0.035811502, -0.020570561, -0.00552483, -0.008687921, 0.0070549934, 0.011484094, 0.0052031823, -0.049020134, 0.025531275},
    {-0.040986206, 0.034641888, -0.002720157, 0.009595319, -0.028140428, -0.087161236, -0.014838937, 0.01925414, 0.0010192089, 0.020751487, -0.0057586706, 0.04510009, -0.015003793, 0.019785762, -0.036600012, -0.02349591},
    {0.09625785, 0.04276597, -0.041646864, -0.011983005, -0.03646768, 0.022182854, 0.015716296, -0.022719292, -0.017534588, -0.06424791, -0.0039835386, 0.019177323, -0.0048635253, 0.02501312, -0.027959492, -0.0016520942},
    {0.04277696, 0.0013410168, 0.019465797, 0.01771195, -0.0009171, 0.0065609226, 0.04632304, 0.011657713, 0.029427467, 0.044551015, -0.0042062285, 0.036454365, 0.0052851173, 0.037072424, 0.05295166, -0.016980488},
    {-0.0070300302, 0.00597166, 0.01328049, -0.0403647, -0.0773796, -0.0006946171, 0.00048058416, 0.0053788773, -0.07582894, -0.08018446, 0.022644736, 0.0008970154, 0.010142951, 0.029048493, -0.05812139, 0.01038815},
    {-0.004612931, -0.02136593, 0.017506082, 0.0042692916, 0.057166744, 0.0033062762, 0.029936558, 0.062385757, 0.083810836, -0.054175247, -0.00993388, -0.021747405, -0.06130716, -0.062508866, 0.016766721, -0.03775745},
    {-0.09302093, -0.053010143, -0.055728465, -0.039095458, -0.01960461, 0.0072344756, 0.018936623, 0.009565993, -0.020243675, -0.003915947, 0.012550712, -0.07434025, -0.009111279, 0.010335499, -0.034032155, 0.051397767},
    {0.027052512, -0.028102169, -0.04263718, 0.012091982, 0.0044015055, 0.035320427, -4.6187764e-05, 0.024415545, 0.01595115, -0.0012379695, 0.030235734, 0.037203547, 0.029184485, 0.0074330526, 0.040069975, 0.005913609},
    {0.09245188, 0.00078550895, -0.0121871615, 0.026882695, 0.0016461262, 0.06987874, -0.061274808, 0.030016048, -0.033724803, -0.043381326, 0.021490993, 0.053075306, 0.030974256, -0.03236388, 0.04381877, -0.048200242},
    {0.09379465, 0.0032055592, -0.014235335, 0.011009122, 0.016047487, 0.029246004, -0.024154773, 0.065888464, -0.03776605, -0.017437933, -0.015947951, 0.07819529, -0.022241835, 0.021855647, -0.009426897, -0.006562718},
    {0.025342004, -0.06793289, 0.006354632, 0.028592713, 0.030039597, 0.01582167, 0.046240535, 0.011416252, -0.003830729, 0.06636641, 0.008222426, 0.005445817, -0.03016633, 0.018848414, 0.02981067, 0.033564944},
    {-0.026580323, 0.010420893, -0.024511209, -0.0010243665, 0.001402356, 0.02206026, 0.02649047, 0.010666177, 0.020901741, -0.042103425, 0.04538382, 0.0044528563, 0.012558334, -0.036146093, 0.010893139, 0.024676654},
    {0.013726255, 0.049909856, 0.031512946, -0.016207295, -0.031337295, 0.053954545, 0.004034119, -0.033421326, -0.055949386, -0.01923297, -0.022157118, -0.046118945, 0.03640214, 0.003842791, -0.022118455, -0.015773488},
    {-0.010270474, -0.029201936, -0.012924926, -0.05398695, -0.026121888, 0.020679593, 0.031678714, 0.03290848, 0.035240196, -0.009100908, 0.01921754, 0.002362244, -0.04679918, 0.040135317, 0.040480494, 0.018108064},
    {0.010108418, -0.033356506, 0.0056359977, 0.045328543, 0.0042728796, -0.0329825, 0.012867009, -0.035998106, 0.0052331015, 0.06189232, 0.013589272, -0.06387855, -0.021267813, 0.0101134665, 0.022757899, 0.017294418},
    {-0.058198277, -0.00063901837, -0.009591842, -0.027294116, -0.01485712, -0.0015948155, 0.07960177, 0.021530973, -0.032734778, 0.07124944, -0.069309585, -0.004168363, 0.002836423, 0.010299503, -0.03260193, 0.011173731},
    {-0.06604725, 0.056189217, 0.019154346, 0.0069389055, -0.054106724, -0.024379354, -0.010011961, 0.0024990274, 0.035501756, 0.041437317, 0.00077015895, -0.020787511, -0.014588645, -0.02285292, -0.012797555, -0.0072981506},
    {0.0037993947, 0.064824745, 0.037059654, -0.0064817267, 0.049973503, -0.040769547, 0.023601662, 0.027042866, -0.008539641, 0.04772114, -0.003972939, 0.016032172, -0.023797113, 0.031181134, 0.020319602, -0.007984811},
    {0.047895804, 0.083036676, -0.029917225, -0.071352184, -0.06997214, 0.01609079, 0.0060850144, 0.010941931, -0.026872177, -0.015912514, -0.0013090054, 0.04223637, 0.011197989, 0.021928268, -0.021734796, -0.0047724736},
    {0.02805794, -0.024631595, 0.029701864, 0.00027797834, 0.012050578, 0.008573972, 0.013788642, -0.04725276, -0.030613279, 0.05698649, 0.01091367, 0.031137576, 0.0018634298, -0.0024216454, 0.025113363, 0.035279788},
    {-0.0025992473, 0.06584059, -0.0087374495, -0.0153208515, 0.01183253, 0.005189004, -0.029721519, 0.026189454, -0.034700174, -0.035354514, 0.01237878, -0.0036006111, 0.013437216, 0.012733033, -0.06439904, -0.007864935},
    {0.057023987, -0.045285434, -0.026696082, -0.0009839743, -0.0053494535, 0.056159083, 0.034991745, 0.014183187, 0.0123531725, -0.016229825, 0.0011969395, -0.016744766, -0.063519366, -0.051727243, 0.02812631, -0.040668905},
    {-0.04363599, -0.07328429, -0.0530739, -0.07017409, 0.057644658, -0.00647773, 0.05243689, 0.022248784, -0.045481265, 0.017582638, -0.021838496, -0.09937316, 0.051692534, -0.04064897, -0.037937116, 0.00094062515},
    {0.045290586, -0.018697696, -0.0076699993, 0.020149998, 0.019524401, -9.668072e-05, -0.033873625, -0.004911841, -0.008976727, 0.039687537, 0.00814106, 0.021627612, -0.011085446, -0.0052293036, 0.010125635, -0.010395085},
    {0.09064573, -0.03292969, -0.010047238, 0.027412063, -0.0021839072, 0.020945497, -0.017693127, -0.022808429, -0.01713261, -0.01593202, 0.035276387, 0.07214112, 0.0034260114, -0.030686565, 0.029979542, 0.004165609},
    {0.0939669, 0.0201355, -0.008470016, -0.037968006, 0.015641749, 0.053256232, 0.040141594, 0.011311341, -0.03900426, -0.004733952, 0.002084207, 0.11239624, -0.022802647, 0.015316884, 0.002547798, -0.040643398},
    {-0.04429572, -0.09428838, -0.0015037413, -0.013788628, 0.0038820892, 0.024189852, 0.06853498, -0.016009538, -0.031259846, 0.023829494, 0.004502339, -0.037094757, -0.017028261, 0.03857294, 0.010551924, 0.04531499},
    {0.04169898, 0.044817023, 0.032614656, -0.0033651823, 0.003057051, 0.010537451, 0.005855228, -0.034879927, 0.043384172, 0.015405456, 0.020658182, 0.016919289, 0.014434811, 0.0015408199, 0.028943539, 0.0027805697},
    {-0.06780654, 0.019313982, 0.039859217, -0.0050849826, -0.022693694, 0.02964043, 0.057060104, -0.036716778, 0.009067691, -0.037467867, -0.00869089, -0.027465284, -0.0038763534, 0.03058576, -0.014013241, -0.04790601},
    {-0.022168178, -0.051464163, 0.0018282922, 0.013873565, 0.023400629, 0.01751218, 0.06742789, 0.03813889, 0.00042226893, 0.021054013, -0.0076162782, -0.000837766, -0.05175344, 0.049964637, 0.033515528, -0.02831932},
    {0.016425751, -0.005981907, 0.011013111, 0.052108243, -0.0168854, -0.039673273, -0.025184082, 0.030208226, 0.01883306, 0.019582635, -0.01702221, -0.052530367, 0.0051186117, -0.018598286, 0.022312894, -0.013052577},
    {-0.027655525, 0.025303746, -0.0026730169, -0.02363029, 0.03680777, -0.043173376, 0.03901871, 0.0190122, 0.019061835, -0.012608033, -0.05450187, -0.06743537, -0.04476505, -0.054829746, 0.0018426348, -0.005668966},
    {-0.06928888, 0.094908975, 0.011850435, 0.021577304, -0.00065620494, -0.040547542, -0.063690744, 0.014178457, 0.037552003, -0.004879898, -0.023604138, -0.028004002, -0.015410968, -0.045484398, -0.010807865, 0.019316688},
    {0.019550076, 0.04539016, 0.034313846, -0.017423734, -0.006402676, -0.036429856, 0.04660694, -0.0074666603, -0.008832285, 0.032579217, -0.04569271, 0.026942218, -0.041160468, 0.03054245, 0.0073549864, 0.03874776},
    {0.015191736, 0.09407305, 0.06135371, -0.014510908, -0.053624604, -0.02439664, 0.006989231, -0.041239552, 0.016265048, -0.022542594, -0.041683152, 0.033989355, -0.021288939, 0.021132518, 0.002472605, 0.004618912},
    {0.027767202, -0.0144036645, 0.0318138, 0.007867934, -0.02077947, -0.040798843, -0.017751435, 0.0013274072, -0.02748272, 0.021960793, -0.041021466, 0.009716386, -0.021251086, 0.021018991, 0.013401096, 0.020417923},
    {-0.04112178, 0.09772453, 0.007051878, 0.03761762, -0.0016223056, 0.011379667, -0.07600065, 0.04187798, 0.042332437, -0.04983664, 0.009129317, -0.051163234, -0.020025155, 0.0135885505, -0.040721714, -0.024797004},
    {0.041803136, -0.08685343, -0.051524933, -0.025466662, -0.038470637, 0.059136253, -0.00433913, -0.030732926, -0.025322614, -0.041597832, -0.014527179, 0.011984063, 0.0052108513, 0.009770057, 0.04129291, -0.00018369645},
    {-0.039920077, -0.048405606, -0.013671921, -0.024469616, 0.018062321, 0.019273696, -0.0035703501, -0.01808563, -0.004785534, -0.012493792, 0.035644956, -0.046568375, 0.040683605, -0.04188743, 0.0064578163, -0.009783145},
    {0.050090548, -0.03821581, -0.0034815622, -0.017097807, 0.017534817, 0.0041564913, 0.013138298, -0.024447378, -0.018154433, 0.013611293, 0.016355265, 0.015582179, -0.02949231, -0.017732482, 0.010252487, -0.0018536722},
    {0.13486017, -0.03126038, -0.005557318, -0.003811868, 0.025126433, 0.033017647, 0.019993518, -0.03302496, -0.0070604696, -0.02371663, 0.026212217, 0.062497422, 0.0012308477, -0.04252837, 0.010813231, -0.007932232},
    {0.087971054, 0.07437259, 0.026676456, -0.03939289, -0.017078433, -0.008811846, -3.548796e-05, -0.016959084, -0.070314445, 0.039160885, 0.002346188, 0.071400724, 0.031822644, -6.850049e-05, 0.018968392, -0.008532185},
    {-0.044568837, -0.07701549, -0.0056547644, 0.0072885025, -0.026680697, 0.06664678, 0.059353188, 0.018133195, -0.0631418, 0.029995548, 0.022575399, -0.030318478, 0.02575694, 0.045841884, -0.019888086, 0.029837355},
    {0.024142234, 0.02802542, 0.025033565, 0.015520018, -0.0026528453, -0.01820273, 0.010753271, -0.039209705, 0.038407087, 0.07434828, 0.0006382399, 0.01703769, -0.009068198, -0.007970206, 0.031608224, -0.01965501},
    {-0.008870796, 0.05110192, 0.039076038, 0.011448414, -0.036833223, 0.00673843, -0.0028436598, -0.035081457, 0.037131194, -0.01751236, -0.022169331, 0.0011052461, -0.054201733, 0.046657037, 0.001207294, -0.046048056},
    {0.03898222, -0.03957888, 0.0025167156, -0.027092304, 0.022947378, 0.012395481, 0.009506397, 0.0077647534, -0.03757294, 0.048732232, -0.00037939582, 0.0062647164, -0.03975668, -0.0075842007, 0.005712838, 0.02100699},
    {0.013642726, -0.022164583, 0.008173776, -0.03940756, -0.038279016, 0.021491764, 0.006092191, -0.014627638, -0.018647535, 0.0007992877, 0.010522629, -0.03935306, 0.035391092, 0.012094883, 0.0054163835, 0.02187026},
    {-0.030071357, 0.047162343, 0.009640698, -0.014455668, -0.03203893, -0.057598896, 0.03119821, -0.007407256, -0.015667908, -0.047995903, -0.054105185, -0.034868814, -0.08082079, -0.0272302, -0.023769377, -0.0005322832},
    {-0.06369966, 0.034896027, 0.011290727, -0.056184668, -0.004105977, -0.026805194, -0.041725613, 0.014501, 0.09137478, -0.014762441, -0.05537826, 0.0036557657, -0.06574589, -0.014668849, -0.005470637, 0.012314288},
    {0.01816786, -0.013311233, -0.00010565781, -0.01693409, 0.00903237, -0.048797633, 0.03999125, 0.005893285, -0.010715364, 0.023528636, -0.014284324, 0.049934004, -0.020637654, 0.017407086, 0.019681409, -0.00011733017},
    {0.019501472, 0.051650476, 0.053609334, 0.0017906952, 0.003323032, -0.01860972, -0.017556481, -0.019009879, 0.02181879, 0.02076869, -0.009181938, 0.029818486, -0.05714715, 0.024121076, 0.0011352126, 0.009317064},
    {0.053576943, -0.008785689, -0.026366534, -0.0067339665, -0.028854763, 0.0015411073, 0.0063063256, -0.010781952, -0.04740785, -0.028677449, -0.017941758, 0.036783405, -0.063718654, 0.015515197, 0.023410741, -0.0052596116},
    {-0.011203501, 0.024536116, 0.07123338, 0.029531915, 0.034291815, -0.033919856, -0.05175463, 0.00720393, 0.037644144, 0.041817747, 0.034601893, -0.026119893, -0.0032478678, -0.03670605, -0.008347847, 0.009258244},
    {-0.016752994, -0.015425657, -0.053084888, -0.021758245, 0.0046049035, 0.081327535, 0.03901812, -0.044671077, -0.023292055, -0.01685482, -0.0027942332, 0.0073179533, 0.0613341, 0.026234372, 0.01404878, -0.030142423},
    {-0.0017948877, -0.013671787, 0.0045500677, 0.0085617965, 0.058373526, 0.048202954, 0.0475095, 0.02712604, 0.026624823, 0.04345994, -0.026115736, -0.040217683, 0.051395215, -0.031448994, 0.046647154, 0.02931033},
    {0.07163862, -0.029701756, -0.037262317, -0.00768901, -0.0056142625, -0.0030837122, -0.007236603, 0.016259786, -0.04329951, -0.042680353, 0.011837905, 0.030512806, -0.026861511, -0.03695733, 0.0006996948, 0.0034718947},
    {0.103605755, -0.021216549, -0.027959965, -0.035234615, 0.058692973, 0.026886586, 0.03067221, -0.0048239073, -0.07502717, 0.02774024, 0.012975296, 0.047403097, 0.041322105, 0.0016234802, 0.006892881, -0.015261172},
    {0.01079706, 0.0620297, 0.054313116, -0.009610695, 0.008214936, -0.0323759, 0.0027770014, 0.032466084, -0.037719272, -0.039424486, -0.028781168, 0.049183052, -0.06605041, -0.0051860604, -0.0029509317, -0.037851386},
    {-0.039009806, -0.045918256, -0.018758424, 0.023976961, 0.022699313, 0.062318638, 0.009584437, 0.006601489, -0.010019356, 0.026720453, 0.04069821, -0.026653228, 0.029665181, 0.015385034, 0.008680669, 0.042619955},
    {-0.016186755, 0.0052605337, 0.05523027, -0.009846924, -0.0025871834, -0.047800865, -0.036045533, 0.00337603, 0.0041885516, -0.0071562775, -0.056449883, 0.007356725, -0.021391097, -0.020436862, 0.024771344, 0.0015741313},
    {-0.017643243, 0.0044915904, 0.036681768, 0.0006590265, -0.0057355775, 0.011024596, -0.024016902, -0.037936345, 0.04947873, 0.052717745, 0.023406057, 0.01928426, -0.017624423, 0.03798184, 0.0049472246, 0.025092129},
    {0.039396368, -0.03473163, -0.03608257, 0.018813739, -0.0087528, -0.0037608205, 0.04433914, -0.022956438, -0.050084278, -0.024639117, 0.013700406, 0.0056925896, -0.016774664, -0.016943779, 0.012462868, 0.00050994},
    {-0.028382234, -0.03456446, -0.0023415138, -0.029381765, 0.028648842, 0.036283378, 0.03604318, -0.0055195675, 0.0120688025, 0.00453948, -0.04110151, -0.07122791, -0.0020682253, 0.004111289, 0.017698923, 0.01326959},
    {-0.050349582, 0.014713115, -0.008309512, 0.013136136, 0.021843318, -0.012282272, -0.041122325, 0.0051398077, 0.045352664, -0.029837534, -0.0047543216, -0.03859677, -0.02361652, -0.015629891, 0.005101286, 0.0016562232},
    {-0.072913356, 0.019563915, 0.029727912, -0.040852703, 0.03271175, -0.020900646, 0.003513347, -0.0025367956, 0.052352574, 0.0028622795, -0.033133347, -0.03197873, -0.0045377756, 0.0026729533, 0.016360426, -0.028204108},
    {0.019142749, 0.030394096, -0.007833948, -0.01814559, -0.01968177, -0.0060851336, 0.0073132357, 0.016990839, -0.022764483, 0.035210986, -0.032644585, 0.023843158, -0.02295875, 0.029258648, 0.020929838, -0.013678111},
    {0.011567467, 0.05996017, 0.047254845, -0.014619223, 0.016013542, -0.06655232, -0.0117205, 0.019100288, 0.006158922, 0.022990592, -0.0027725522, 0.037601285, -0.052091174, 0.041410908, -0.009754988, -0.031009732},
    {0.0027580548, -0.008455689, -0.031556442, -0.018404486, -0.008058476, -0.011491252, 0.016724823, 0.000110046225, -0.01126823, -0.027545419, -0.0031032434, -0.00963406, -0.006457227, 0.018172294, -0.010506053, 0.016174065},
    {-0.052325375, 0.04250479, 0.07139217, 0.011650847, 0.05098916, -0.05533296, -0.0071414257, -0.050967302, 0.092166655, 0.0073424145, 0.026369054, -0.017019454, 0.024791515, -0.00780332, -0.0070693246, -0.013553389},
    {-0.035656538, 0.021099938, -0.020506596, -0.018732825, 0.040777132, 0.035980813, 0.005002801, -0.03441209, -0.061195783, -5.4073666e-05, -0.03347242, -0.04453428, 0.047443133, 0.00710647, -0.021338645, -0.008609598},
    {0.03015341, 0.0011663397, -0.0018688657, 0.014236754, -0.010155185, 0.006425101, -0.025795003, 0.017192377, 0.038693227, -0.007070722, 0.001324441, -0.028060857, 0.049639102, -0.027144836, 0.047961313, 0.012060261},
    {0.037626084, 0.0019484026, -0.029788189, -0.007459045, 0.005835251, 0.024992378, 0.0047052666, -0.006893965, -0.03387457, -0.048977323, 0.0001039201, -0.012915243, 0.017156836, -0.043405432, 0.014474345, -0.012844435},
    {0.045225706, -0.013422707, 0.00020368292, 0.010565172, 0.016925365, -0.0173394, 0.024382101, 0.059056494, -0.088185094, 0.031478096, 0.015139436, 0.012915631, 0.032184206, 0.0099509815, 0.0010987236, 0.021199726},
    {0.03248769, 0.059995614, 0.029147426, 0.033679858, 0.016255533, -0.032184634, -0.009463713, 0.0668096, -0.077354304, 0.0072923205, -0.0016145902, 0.005511948, -0.06306512, -0.0020649198, -0.031124081, -0.020591158},
    {-0.038215224, -0.08775183, -0.013553084, 0.027038014, -0.015385731, -0.0028509302, -0.00051493157, 0.023183774, 0.006420236, 0.039166264, 0.0295395, -0.03737136, 0.040765814, 0.0048070815, 0.0004504542, 0.025127836},
    {0.0015896683, 0.022477945, 0.009544184, 0.0035677617, -0.011643642, -0.053029887, 0.0036527663, -0.020911828, -0.010991758, -0.01904348, 0.0013601662, 0.024935698, -0.00047476322, 0.0055985125, 0.014656767, 0.00553804},
    {0.023270633, 0.015544677, 0.03913409, -0.012932282, 0.013876178, 0.012919068, -0.016574986, -0.011123554, 0.07309074, 0.05965904, -0.005987515, 0.034569077, 0.00010042699, 0.047975536, 0.04042136, 0.027755432},
    {0.062725395, -0.00053849054, -0.05693261, -0.010846107, -0.0071098553, -0.010541097, 0.005202375, 0.0061182617, -0.059843674, -0.03271698, -0.041500323, 0.017517274, -0.006606881, -0.034069937, 0.020701597, -0.0097336145},
    {-0.049996115, -0.033939566, 0.012275735, -0.0060095624, 0.030790415, 0.020730766, 0.02370909, 0.012903855, 0.00022242338, 0.027023686, -0.0054045375, -0.05274576, 0.018964965, 0.014447458, -0.013927661, -0.0147471875},
    {0.021315908, -0.05451231, 0.011493327, -0.06962879, -0.047172707, -0.035313345, -0.021044103, -0.006621718, 0.020004924, -0.048680853, -0.029651085, 0.042879842, -0.062003065, -0.036394726, -0.023446746, 0.032153945},
    {-0.070230246, 0.012356084, 0.021318307, -0.04083779, 0.044535447, -0.036680996, -0.014269058, -0.01351445, 0.037266433, 0.03924459, -0.029991344, -0.016444117, -0.056615878, 0.045424294, -0.027066564, -0.06443355},
    {0.031458963, -0.0132185, -0.08887873, 0.007871423, -0.029689211, -0.014986077, 0.031544153, 0.00035401425, 0.0051498273, 0.0056193857, -0.033422936, 0.030336183, -0.038519982, 0.00991961, 0.0031571714, -0.01895823},
    {0.017040387, 0.034838974, 0.019621326, -0.0045919097, 5.9894606e-05, -0.018933527, -0.001496401, 0.010127169, 0.03854735, 0.03812, 0.03400014, 0.04010246, -0.060604777, 0.06678602, 0.005064891, -0.012308495},
    {0.020363543, -0.012573888, -0.01623012, -0.022486024, -0.0010797341, 0.03777778, 0.009684956, -0.018370569, -0.041615337, -0.007101541, -0.012209993, -0.0001817781, 0.021621222, 0.00730833, 0.005808004, 0.031207249},
    {-0.038149774, -0.021036718, 0.018921608, -0.0294148, 0.022378255, -0.0628791, 0.0027402039, -0.03517708, 0.046149243, 0.069234304, 0.006019642, 0.022764998, 0.00071179797, 0.036915913, 0.045608558, -0.00665124},
