#include "core.h"
// Conv1D Layer 0 Weights
const fixed_p glove_conv1d_0_weights[5][1][4] = {
    {-0.36675042, 0.027323257, 0.3683694, -0.112844415},
    {-0.14557678, 0.32318535, -0.13985746, 0.008925756},
    {-0.30801746, -0.026744654, -0.19418576, -0.15453449},
    {0.15601347, 0.23335853, -0.12583195, -0.03477537},
    {-0.41303346, -0.13193414, 0.27513924, 0.053490512},
};
const fixed_p glove_conv1d_0_biases[4] = {
    0.057738602, -0.0056124665, 0.022639496, -0.024090182
};

// Batch Normalization Layer 0 Parameters
const fixed_p glove_batch_norm_0_gamma[4] = {
    1.0340568, 1.1035066, 0.8491711, 1.0139973
};
const fixed_p glove_batch_norm_0_beta[4] = {
    -0.027193911, -0.032621875, 0.006499602, -0.03649038
};
const fixed_p glove_batch_norm_0_mean[4] = {
    0.1738713, 0.043159872, 0.04011457, 0.02482887
};
const fixed_p glove_batch_norm_0_variance[4] = {
    0.065183766, 0.0070102355, 0.0032393888, 0.0027118754
};

// Conv1D Layer 1 Weights
const fixed_p glove_conv1d_1_weights[3][4][16] = {
    {0.026282003, 0.29511034, -0.3011857, -0.052902643, -0.10983579, -0.23058146, -0.050541986, -0.25465184, 0.100004464, 0.1467319, -0.2061117, 0.19520338, 0.1801736, 0.07373537, -0.20322603, -0.22842324, -0.09785527, -0.036416203, -0.14093947, -0.30855685, -0.01634093, -0.20042291, 0.3144288, 0.31723362, -0.11069499, -0.17381015, 0.30606532, -0.2049216, -0.25248986, 0.15755603, 0.21297778, -0.032115344, -0.179031, 0.036842432, -0.11860822, 0.24543111, -0.13417755, 0.1186894, 0.031793065, -0.19141434, 0.007656943, 0.24078347, 0.15517855, -0.36712226, -0.059235655, 0.2808163, -0.21865633, -0.15082546, -0.24212371, -0.010978284, -0.02584915, 0.13821594, -0.3282019, -0.2894421, 0.14544827, 0.2578611, 0.2566533, 0.06448722, -0.017089067, 0.03489321, -0.21600653, -0.011103171, 0.33887106, 0.12522933},
    {0.08945584, 0.1673582, 0.21412195, -0.27210483, -0.2018228, 0.07656883, -0.0876078, 0.3244912, 0.19465233, 0.036712997, 0.25411662, -0.075465314, -0.28965905, -0.010593834, -0.09274471, -0.3979928, 0.07469481, 0.12739508, -0.2359036, 0.2265537, -0.27362677, -0.23963434, -0.2347495, 0.21112917, 0.1703622, -0.000682043, 0.12677759, -0.18919049, -0.23617463, 0.26398075, 0.31129456, 0.0230868, 0.116482, -0.2044726, -0.09518457, 0.24775681, -0.25409722, 0.130179, 0.13938418, -0.16737397, -0.028237095, -0.106006, -0.10762728, -0.21474142, -0.28180727, -0.06753203, -0.27786928, -0.17291087, -0.18485434, 0.060337476, 0.023521744, 0.032564793, -0.16672151, -0.3054585, -0.021420058, -0.094359726, -0.057183202, -0.02146621, -0.15764263, -0.2868498, -0.27163747, 0.20293683, 0.06445017, -0.23276581},
    {0.2100534, 0.35492966, -0.18088149, 0.108461335, -0.21980046, -0.15987605, -0.4209499, 0.20802268, 0.13669287, 0.17885564, -0.112301335, 0.12596323, -0.23609892, 0.25386962, -0.19603518, -0.2337881, -0.43323585, -0.011987345, -0.15363516, 0.11572571, -0.13478398, -0.30411825, 0.13245718, -0.034698848, -0.26915383, 0.14443566, -0.06786271, 0.016906198, -0.10534039, 0.07268584, 0.15511231, -0.086633466, -0.039744083, -0.14242776, -0.10504358, -0.08072175, 0.16817883, 0.3186351, -0.11348164, 0.13976116, -0.2703497, 0.008958309, -0.057440028, -0.16092414, 0.06790373, -0.17500877, -0.1331116, -0.10143859, -0.065093674, 0.19937289, -0.20824324, -0.15702957, -0.21577933, -0.11424429, 0.049785055, -0.24070813, 0.013288359, -0.03393812, -0.26165247, 0.2678712, 0.22007835, -0.25959775, 0.07431926, 0.21561095},
};
const fixed_p glove_conv1d_1_biases[16] = {
    0.02797858, -0.15018985, 0.08209582, 0.090950094, -0.1144488, 0.010816411, -0.059145305, -0.015043812, -0.04168682, -0.05396992, -0.024088738, -0.026617648, 0.11018327, 0.12110154, 0.004810078, -0.045154557
};

// Batch Normalization Layer 1 Parameters
const fixed_p glove_batch_norm_1_gamma[16] = {
    0.98690367, 0.99865806, 1.0304062, 0.94264275, 1.0111722, 1.0965351, 1.0020143, 0.9150707, 1.0018425, 0.96847373, 0.96582925, 1.0649053, 0.916721, 1.0316197, 0.98644954, 1.0832738
};
const fixed_p glove_batch_norm_1_beta[16] = {
    0.010865968, -0.15221913, -0.062321804, 0.2007161, -0.20823672, 0.06932203, -0.021202806, 0.10937098, 0.022462854, 0.23462625, 0.07361342, 0.099971876, -0.026925951, 0.15594676, 0.08504637, -0.047043484
};
const fixed_p glove_batch_norm_1_mean[16] = {
    0.19048752, 0.3557042, 0.18974711, 0.33963588, 0.2233112, 0.3706844, 0.21483928, 0.17839342, 0.26506498, 0.17925003, 0.24277182, 0.2243677, 0.256076, 0.32365763, 0.15505806, 0.13424078
};
const fixed_p glove_batch_norm_1_variance[16] = {
    0.051068686, 0.61881274, 0.049650535, 0.23855314, 0.072127216, 0.13271657, 0.11905699, 0.14387469, 0.29227394, 0.11301938, 0.18250403, 0.13450773, 0.081323855, 0.25268587, 0.13946421, 0.028514417
};

// Conv1D Layer 2 Weights
const fixed_p glove_conv1d_2_weights[5][16][16] = {
    {0.07602906, -0.07009524, 0.21946567, 0.064784534, 0.07435344, 0.09458081, 0.18425764, -0.1829307, 0.059229795, 0.11110978, 0.042221952, -0.017027315, 0.085519195, -0.10221918, 0.054910906, -0.111813776, -0.12202776, -0.088472486, -0.08805331, 0.08092476, 0.23465756, 0.06415238, -0.117261775, 0.18255743, -0.19602606, -0.053279094, 0.23598742, 0.19191423, -0.012963102, -0.22092678, 0.04734826, -0.295236, -0.1346013, 0.096278176, 0.1941693, -0.00017555323, 0.10875861, 0.17662454, -0.23112956, -0.05877246, 0.2249862, -0.08009101, -0.1043072, 0.16522793, -0.008330814, -0.08745029, 0.05504356, 0.055755932, -0.030032584, -0.13208449, 0.05306419, -0.059756592, -0.16477476, 0.11678261, 0.18955019, -0.15743747, -0.12488978, -0.1494734, -0.018750342, -0.03827716, -0.113147184, 0.045480262, -0.18262358, -0.20816948, -0.037243426, 0.033660717, 0.21438085, 0.11748916, 0.0930029, 0.062252533, -0.07155133, 0.07637416, -0.093501486, 0.11397896, 0.034613848, -0.14527896, -0.14462714, -0.17065598, 0.008963747, 0.08721626, -0.07574054, 0.10526917, 0.057354838, 0.058544386, -0.100876264, -0.07882517, -0.12151655, 0.0006752758, 0.13251023, -0.19559461, 0.119208775, 0.015173569, 0.14211398, -0.10862454, -0.20872335, 0.014724831, 0.171123, 0.0779896, 0.015177097, 0.19086798, -0.292538, 0.11324823, 0.22181307, -0.10972126, 0.06479202, -0.06352527, -0.13487653, -0.160794, 0.04410997, -0.100102246, -0.16398561, 0.03527728, -0.05818462, 0.13995802, -0.064423494, 0.07843682, -0.18755908, 0.020687802, -0.028951192, -0.020680942, -0.049914762, -0.042648844, 0.07624588, -0.14365992, -0.07818255, -0.18366551, -0.3030467, 0.19874209, -0.13400044, -0.08353385, -0.054755334, 0.085092925, -0.13795786, 0.11934098, 0.15112211, 0.15235667, 0.08003324, -0.008380569, 0.104105756, 0.016380742, 0.07172695, -0.007068145, -0.07491524, 0.08357728, -0.10070566, -0.12204657, 0.17593591, -0.06767373, 0.054814275, -0.21091698, -0.053936172, 0.006662048, -0.2062861, 0.15449956, -0.02817795, 0.023878422, 0.0030883942, 0.06409811, -0.06155585, 0.075676486, 0.18642715, -0.030741101, 0.028743638, 0.08804695, -0.18736802, 0.10353718, 0.05548271, -0.01249805, 0.13652022, 0.071805164, -0.08108212, 0.0785459, -0.11110379, 0.092934884, 0.03525875, -0.115924135, -0.060508605, -0.049015127, -0.033827357, -0.22888307, -0.076254465, 0.026108665, -0.032816224, -0.1076124, -0.051116895, 0.08936046, 0.0426643, -0.17705397, 0.021345364, 0.07645019, 0.057210483, -0.07856554, -0.0748028, 0.17674236, -0.05021416, -0.046802532, 0.05744633, -0.077239774, -0.16176775, -0.058843564, -0.0033467468, 0.0050936844, 0.10496495, 0.11031443, 0.22705716, -0.20191011, 0.051690318, 0.16564453, 0.034052756, -0.04888867, -0.11555661, 0.14767645, 0.0818434, 0.025957422, -0.15769944, -0.10217465, -0.05176915, -0.122479, 0.16960998, 0.0318532, 0.10748548, -0.14911836, -0.10600785, 0.039140355, 0.24203178, -0.03937873, 0.12424062, -0.22498383, 0.07815821, 0.021812206, -0.06996145, -0.00047936128, 0.1698825, -0.029069072, 0.054939885, -0.019038642, -0.05737992, -0.086331256, -0.036952842, -0.07558769, -0.092402026, -0.14927961, 0.0021255738, 0.15507758, 0.11914522, -0.137669, 0.12840463, -0.1334221, 0.22020936, -0.0010010584, 0.09488231, -0.16950911, -0.020118952, -0.20321822, 0.04094066, 0.0013037323},
    {-0.04811067, -0.12166677, -0.14115237, 0.14342104, -0.009005517, -0.013613841, -0.032238934, 0.06718149, -0.09919533, -0.05701402, -0.046775866, -0.0125768855, -0.18112238, -0.012598363, 0.1554537, 0.03927849, -0.039349277, -0.10079292, 0.16882065, 0.08115521, 0.110970214, -0.0049182484, 0.12375503, 0.042665638, 0.042291522, 0.034553777, 0.16524065, -0.12188448, -0.057839975, -0.113192104, 0.04222398, 0.07380809, -0.004256764, 0.14284249, 0.07005408, -0.05401398, -0.09230994, 0.21545206, -0.10243938, -0.017134814, 0.12221732, -0.08924257, -0.13009614, -0.1422707, -0.06820709, -0.22780597, -0.11347647, 0.16382554, 0.11263071, 0.0013883299, 0.080721624, 0.09765028, -0.13162538, 0.10749862, 0.16452055, -0.0909703, 0.16160531, 0.033546325, -0.095338784, 0.12558125, -0.057062693, -0.17309342, -0.1967196, -0.05352252, -0.034198113, 0.1937016, -0.007582717, -0.023587568, 0.03813435, 0.05161894, -0.14624853, 0.06829453, -0.108414195, 0.034903094, 0.02506758, -0.055244245, -0.0128174685, -0.17654441, 0.13686334, -0.14978056, -0.041730635, -0.034695324, -0.044813603, 0.13902149, 0.19209273, -0.05089339, 0.09805118, -0.025419671, -0.2721288, -0.11948823, -0.12003188, 0.08899457, 0.0028914856, -0.021987803, -0.092286736, 0.095435284, -0.07975783, -0.13158783, 0.011229414, 0.07827427, -0.08416364, 0.03395545, -0.14602795, 0.0023028108, -0.167246, 0.1477332, 0.0138663305, 0.149057, -0.08530359, 0.03696164, 0.14377393, -0.094854675, -0.056517616, -0.0035989573, -0.09526803, 0.11602151, 0.09284035, 0.054994278, -0.012313755, 0.13592334, 0.051665552, -0.054329243, 0.11328746, 0.12673542, -0.104214475, 0.10793018, -0.03676328, -0.054936413, 0.08846884, -0.049976412, -0.043427, -0.13937382, -0.03349589, 0.0476164, -0.0073140203, -0.25299916, 0.11438767, -0.17532535, -0.054404892, -0.1487129, -0.108147494, 0.11223677, -0.06543246, -0.10426225, -0.055529863, -0.00097619544, 0.022357076, 0.022322625, 0.04404707, -0.07642686, -0.038466915, 0.16503127, -0.09256927, 0.005443496, -0.042328764, 0.16972445, -0.017753372, -0.036191493, 0.013349335, 0.11100919, 0.035223834, 0.14708264, -0.11206846, -0.21296947, 0.022187235, 0.04560077, -0.14521158, 0.10388349, -0.06924383, -0.1463288, 0.021822508, -0.0071407068, 0.21691756, 0.07231051, 0.041185647, -0.028303785, 0.024630522, 0.05124611, 0.07995584, -0.16543365, -0.13115728, -0.013650843, -0.09410673, 0.14950024, -0.17854586, 0.038353086, 0.09942536, 0.0022375092, 0.2557477, 0.054322124, 0.05828902, 0.016129116, -0.16148768, -0.062357355, -0.07016528, -0.13523322, -0.02159385, 0.19542919, 0.113445476, -0.07975017, 0.0037026994, 0.05316264, -0.13209541, 0.08089084, 0.03260144, -0.21892893, 0.037157036, 0.025963558, -0.09843914, 0.10602751, -0.096244104, -0.12969558, -0.12146131, -0.04848738, -0.18137969, -0.1689047, -0.06658228, -0.1498124, -0.025562815, 0.022283642, -0.119183764, -0.023318937, -0.292893, 0.059589837, 0.035252023, -0.08449051, 0.0013259131, 0.059072655, 0.215813, 0.08976497, 0.048482276, -0.13103184, 0.072893515, 0.14031492, -0.06057455, -0.109999724, -0.018708598, -0.18469135, -0.14037663, -0.114776365, -0.060310528, 0.013813137, -0.065990105, -0.03615433, 0.02504247, -0.19693345, 0.1380667, 0.07193316, -0.09660429, 0.052581687, -0.17046553, 0.108200446, 0.041464865, -0.18446684, -0.19801682, 0.14244027},
    {0.15555918, 0.10554236, -0.007550649, -0.017938899, -0.12392863, -0.043281544, -0.08074296, -0.35521337, -0.008112199, 0.085419625, -0.18874292, 0.1366505, -0.026248526, 0.010074892, -0.026547074, -0.029703876, 0.06635855, 0.018011322, -0.06330093, 0.12550424, 0.15644592, -0.053601157, -0.054858435, -0.081469424, -0.058051232, 0.12044687, 0.10812866, 0.16285238, -0.084442794, -0.19545475, -0.07895769, -0.009300972, 0.11772247, -0.08461595, -0.05572726, -0.21344666, 0.030765658, -0.03910161, -0.19307281, 0.20965874, -0.15447074, -0.05282488, -0.16491571, -0.10062204, 0.1183003, 0.0010814052, 0.09336057, 0.025546106, -0.10595854, 0.112006865, -0.019807272, -0.09083217, -0.28974655, -0.11525399, -0.06646118, 0.0033217927, 0.053846747, -0.028980542, 0.11174547, -0.17404501, -0.011865083, 0.08385727, -0.011017492, -0.17786123, -0.058567166, 0.24366976, -0.17641045, -0.049142305, -0.14795987, 0.028457128, 0.19012311, -0.13401029, 0.066825725, -0.050349537, -0.18236372, 0.23454969, 0.034561098, -0.17758669, -0.12695302, 0.037636396, 0.18425843, -0.060242757, -0.02902443, -0.053850137, -0.021472339, -0.067929946, 0.050931852, 0.12798114, 0.15887882, 0.103260264, -0.12234129, 0.23050506, -0.10033249, 0.04617786, -0.11125189, 0.035688087, 0.022230946, -0.008372607, 0.049251128, 0.007839987, -0.045801096, -0.0954163, 0.054138817, 0.17159526, 0.11599531, 0.028007299, 0.13673547, 0.15294129, -0.09329178, -0.025360132, 0.074905, 0.059204493, -0.202152, 0.17474535, -0.13980679, -0.07936621, 0.046247285, -0.050224207, -0.11262208, 0.16093053, 0.06344991, 0.15121174, 0.12323664, -0.038875267, 0.19958822, 0.037040398, 0.06835358, -0.040320035, 0.104323745, 0.040764447, 0.06817856, 0.08573527, -0.05674245, -0.06709334, -0.014332364, -0.002707594, -0.08943796, 0.23734915, -0.01654269, 0.030301267, 0.06980095, -0.18687889, -0.02130536, -0.014603978, 0.14700384, -0.11967893, 0.08904362, -0.029998315, 0.024762698, -0.0387647, -0.09264735, -0.08845278, -0.12844667, 0.06423544, -0.036155544, 0.13430803, -0.14449613, 0.09641682, 0.15427428, -0.0973699, 0.05442412, -0.21573123, -0.04721429, 0.106443286, -0.038942937, 0.11707614, -0.012101308, 0.055333495, -0.08172276, -0.13329184, -0.13654263, -0.1411667, 0.13123612, -0.0961942, 0.0030415982, 0.12566818, -0.20785482, -0.060047098, -0.12490224, -0.16550484, -0.17701852, 0.17778178, -0.22665705, 0.028661586, -0.049043596, 0.11456568, -0.1541427, -0.080100164, 0.09998136, -0.16131209, 0.08510599, -0.12199592, 0.06985038, -0.07963226, -0.046435334, 0.10965648, -0.1021971, 0.08721012, -0.1117905, -0.11998012, 0.020882817, 0.16412926, -0.11466415, 0.14390874, 0.07448336, 0.06572146, 0.11867314, 0.022123782, -0.012317444, 0.064010955, -0.13239689, 0.03562547, -0.15375476, -0.1526283, 0.052955523, 0.03646451, 0.028935315, 0.2077828, 0.097261526, -0.28583446, 0.21974121, -0.066703, -0.09828749, 0.014522767, 0.116178066, 0.0103086345, -0.08833638, -0.07840687, -0.2329949, -0.011135765, -0.08290891, -0.0077976594, -0.14457683, -0.25144956, -0.15372795, -0.058227003, 0.09492429, 0.22030883, 0.025125563, -0.037858848, 0.0931503, 0.05343226, 0.13351962, -0.13065301, 0.10951088, -0.33262214, 0.04834512, 0.037946098, -0.0010396582, -0.04080094, -0.01254414, 0.11144716, 0.016801065, -0.16334717, -0.18075778, 0.115795635},
    {0.22167823, -0.014678612, 0.013689552, -0.091139756, -0.037789833, 0.08938461, 0.050735936, -0.16274063, 0.20257697, -0.03283325, -0.07860269, 0.008326028, -0.028935334, 0.038153443, -0.2320207, -0.23976412, -0.016248548, -0.02405797, -0.12953636, -0.18102174, -0.019745614, 0.088190936, 0.16603965, -0.0072829924, -0.027185395, -0.014220923, 0.014774103, 0.21950898, 0.1850632, 0.09485593, -0.078931645, -0.007047401, 0.08818291, -0.11640923, -0.094718665, -0.18549576, 0.19637121, 0.033292543, -0.17900579, 0.20877561, 0.062150545, 0.10597014, -0.11036776, 0.08024843, -0.07395357, -0.22118698, 0.028474357, -0.16550893, -0.19176698, -0.11004998, -0.16690224, -0.05940208, -0.24270475, 0.08580617, -0.21630299, -0.08678092, 0.054097287, -0.2045466, -0.15992318, -0.059612077, 0.06359507, -0.015799565, 0.013892989, 0.0924939, -0.2730835, -0.14191276, -0.07490873, 0.1484489, -0.15380836, 0.042635363, 0.021028135, 0.05861526, -0.09672414, -0.011065737, -0.08500996, -0.025155997, 0.08592549, -0.109495334, 0.08161569, 0.114069894, -0.16723284, -0.060712334, 0.06429222, 0.1263316, -0.18483438, 0.18303598, -0.06168814, -0.0013040162, -0.06598179, 0.046470907, 0.024678592, -0.02011552, -0.13524292, 0.12297255, -0.20395268, -0.18531649, -0.06958736, -0.033793315, -0.06281798, -0.079649575, -0.23291011, 0.1135602, 0.032725245, 0.15540144, 0.14463931, -0.17320353, -0.08205294, 0.07417347, -0.14816755, 0.0203119, -0.012004537, 0.0865074, 0.054903097, 0.11190103, 0.17602776, 0.029290019, -0.1107567, -0.043491486, 0.09896119, 0.05418575, -0.1779706, 0.11879891, -0.105171226, -0.086038984, -0.17286557, -0.037124585, 0.05764341, -0.13714348, -0.052399013, 0.030429495, 0.019195808, -0.24614647, 0.18243928, -0.12053156, -0.08310273, -0.2405352, 0.03443376, -0.020515334, 0.16366966, 0.2306611, -0.18366487, 0.20621589, -0.093818106, 0.12066944, -0.12788984, 0.090281345, -0.073779464, -0.1164976, -0.18437363, -0.06517088, -0.13501307, 0.029532775, -0.103907324, -0.15654208, 0.15801542, 0.124438055, 0.16037624, 0.11980833, 0.033365417, -0.24393003, -0.21952544, -0.073459335, 0.032863162, -0.14685147, -0.08857882, 0.25113806, -0.039396264, 0.098915964, -0.02921474, -0.09107741, -0.094304025, 0.11537573, 0.0029902898, 0.005281723, -0.07619384, -0.02953547, 0.09171243, 0.011534306, 0.16893837, -0.011750413, 0.100252636, -0.0077784406, -0.034189377, -0.094539404, -0.1138361, -0.13731281, 0.12636323, 0.27570006, 0.05725698, -0.14347933, 0.10432574, 0.043580856, 0.065397605, -0.15931033, 0.15210679, -0.031172289, -0.14442128, 0.07122487, -0.20636979, -0.10628804, 0.14511156, 0.030968409, -0.13364121, -0.007938169, -0.002545224, 0.043315683, 0.03467521, -0.22627847, -0.11015972, -0.019448785, -0.11414429, 0.08793157, -0.07713381, -0.04318296, -0.07521076, -0.13900691, 0.0369788, -0.17406145, -0.12685487, -0.086189546, -0.10101197, -0.09394377, 0.0871412, 0.052499942, -0.05749834, -0.17162757, -0.045276713, 0.20036912, -0.07332934, -0.058122233, -0.0720565, -0.09375822, -0.052011833, -0.025172792, 0.044680417, 0.103605665, -0.08252157, 0.10641752, -0.019908782, 0.06901095, 0.10538114, -0.15847278, 0.1419853, -0.22614598, 0.19108813, -0.015007868, 0.022290155, 0.02594682, -0.090352185, 0.048779536, 0.16933866, -0.046386506, -0.0074328226, -0.09591085, -0.15972705, -0.19267137},
    {0.04124704, 0.022752363, -0.092850134, -0.12209609, 0.05489534, 0.09863184, 0.02121479, -0.036477882, -0.17073989, -0.198604, 0.011760035, -0.1416566, 0.09888663, -0.020851946, -0.042683683, -0.04400809, -0.13253741, -0.13163751, 0.09132977, -0.08821482, 0.023182955, -0.08305653, 0.15224312, -0.08360094, -0.13113916, 0.050806645, -0.04622463, -0.018046198, -0.17090875, 0.0063420106, -0.19579634, -0.048920132, -0.0075468705, -0.1526699, -0.05030807, 0.15753715, 0.06812366, -0.10796707, -0.098527044, 0.08052846, -0.04291319, 0.15002297, 0.024876358, -0.005475987, -0.106190346, -0.054940853, 0.077431574, 0.034574404, -0.112761036, -0.05908776, -0.15251693, 0.09098821, 0.1258467, -0.052271135, -0.037932597, -0.0040473267, -0.0060190805, 0.13770197, -0.035992276, -0.1420197, -0.030811867, -0.0038591586, -0.08234007, -0.11225392, 0.15560807, -0.11757786, -0.032747123, 0.05648812, 0.10281064, 0.1454516, 0.044577163, -0.13348882, 0.0048765354, 0.12927587, -0.04614234, 0.24515502, -0.0074534146, -0.06984436, 0.00918759, 0.15130971, 0.15394747, -0.25980747, -0.111821376, -0.07647676, -0.07155095, -0.24664146, 0.11287408, -0.04716058, -0.14304158, -0.073754534, 0.13464847, -0.08384895, -0.20622818, 0.0062079076, 0.18284968, -0.21608542, 0.12521614, -0.124258034, -0.376286, 0.12679742, -0.053332597, -0.17076631, 0.20506874, -0.06041895, 0.046357915, -0.053183526, 0.019221194, 0.0486567, 0.10450876, -0.15669152, 0.026882539, 0.008978144, 0.13638222, 0.0684807, 0.014224387, 0.049736097, -0.09436553, -0.23733471, -0.04738716, -0.16150464, -0.0987493, -0.15569642, -0.12391699, -0.15933137, 0.06302979, 0.02943306, -0.014031966, -0.019511398, -0.18982749, -0.18448389, -0.18461703, -0.0709171, -0.18831293, 0.13388517, 0.11938747, -0.24504863, -0.027787616, 0.039285388, 0.06407473, 0.0396513, 0.110070735, -0.2258189, 0.019356657, 0.13129649, -0.03950844, 0.13959357, 0.013763739, -0.03279431, -0.07340245, -0.048625797, 0.05834853, -0.034563333, -0.06520885, -0.07500208, 0.056382645, -0.068555064, 0.094825946, 0.14064136, -0.1967222, -0.28480512, 0.043374535, -0.17063664, -0.2682759, 0.03397529, -0.07876737, -0.1327822, -0.1504123, 0.022869509, 0.023904117, -0.06769539, -0.09159366, -0.051163685, -0.16351502, 0.018207157, 0.058724854, -0.10370206, -0.013771885, 0.18458456, 0.0742019, 0.020655038, 0.0016034485, 0.059455972, 0.0652273, -0.1775684, -0.09636775, 0.024480272, -0.024336051, -0.064310536, 0.07606742, -0.026113799, -0.16598506, -0.010956495, 0.06551278, 0.085477255, -0.097361244, -0.12233779, -0.0023139124, -0.042496353, 0.09629854, -0.07211705, 0.065584175, -0.031820185, -0.25711182, -0.13533448, 0.06115924, -0.13135062, 0.06789056, -0.20010212, -0.024323672, 0.076663285, -0.1582052, -0.17708677, 0.16843422, -0.10622085, -0.124600545, 0.09869238, -0.22869287, -0.006150087, -0.01020542, 0.12490459, 0.051302545, -0.12565961, 0.06277729, 0.088760786, -0.16967463, -0.19811615, -0.19632472, -0.064862855, -0.0876603, -0.11730975, 0.17472385, -0.069295116, 0.10870098, 0.041817576, -0.07306374, -0.1649818, -0.052377474, -0.0069791474, 0.20997398, 0.066425055, -0.22863811, 0.0026591518, 0.07698508, -0.14851052, -0.18994938, -0.047073774, -0.073806025, 0.14658831, 0.15270884, 0.07914298, 0.17681345, -0.062138066, -0.12170129, -0.17678532, -0.027508058, -0.041804485},
};
const fixed_p glove_conv1d_2_biases[16] = {
    -0.067701235, -0.069071054, -0.00038412426, -0.09362987, -0.14990252, -0.19330321, -0.064869046, -0.10587654, -0.20377247, -0.1302544, -0.087132655, -0.102024235, -0.009446422, 0.082022496, -0.10355053, -0.03874623
};

// Batch Normalization Layer 2 Parameters
const fixed_p glove_batch_norm_2_gamma[16] = {
    1.8726943, 1.805845, 1.6675707, 1.7768493, 1.6711887, 1.7551427, 1.7679396, 1.8161191, 1.6330447, 1.6407591, 1.4943485, 1.6513104, 1.7897238, 1.7129288, 1.7217506, 1.9104812
};
const fixed_p glove_batch_norm_2_beta[16] = {
    0.4441382, -0.041444845, 0.16600555, 0.13534129, 0.11214771, 0.25344855, 0.3226748, 0.08842492, 0.24798504, 0.19174714, -0.1600739, 0.24878423, 0.012387151, 0.12918797, -0.018354625, 0.046824556
};
const fixed_p glove_batch_norm_2_mean[16] = {
    0.3686491, 0.16727926, 0.14055006, 0.21641897, 0.057277847, 0.22005527, 0.12044646, 0.19694868, 0.17380355, 0.20915706, 0.27226368, 0.46670216, 0.32096234, 0.16723451, 0.22183879, 0.09797165
};
const fixed_p glove_batch_norm_2_variance[16] = {
    0.4664327, 0.20528224, 0.09552357, 0.20538852, 0.036273304, 0.18243015, 0.10886696, 0.20663095, 0.12150117, 0.1984185, 0.37492847, 0.5742006, 0.3362355, 0.22567078, 0.27065656, 0.09045762
};

// Dense Layer 0 Weights
const fixed_p glove_dense_0_weights[192][12] = {
    {0.07130082, 0.064084314, 0.06349505, 0.04526509, -0.024953976, -0.045293625, -0.062434215, -0.04936456, 0.021504913, 0.019029958, 0.06264949, -0.009983432},
    {0.005078829, -0.0006188361, -0.010212475, 0.010234879, 0.0064465855, 0.026713414, -0.010580948, 0.00093936303, -0.047461677, -0.005046983, -0.0007595676, 0.012745915},
    {0.0013798351, -0.008051341, 0.0051976847, -0.007111854, 0.025661988, -0.002062905, 0.031709813, -0.011999179, -0.022207186, 0.064437434, -0.0063834297, 0.008291464},
    {0.0023688283, -0.024783203, 0.013034695, 0.0041791815, 0.0067077694, 0.0043446515, -0.011295686, -0.009109713, -0.009256194, 0.01496404, 0.008033344, -0.015444139},
    {-0.059354097, -0.018765127, 0.014812166, 0.02491533, 0.043036222, 0.047183808, 0.00074925576, 0.07350861, 0.098954394, 0.041933484, -0.040009014, 0.06315551},
    {-0.0007533226, -0.007328661, 0.0396277, 0.005323263, 3.0494804e-05, 0.0051500495, -0.035411924, 0.046380144, -0.01120627, 0.0002859889, 0.02410572, -0.005273892},
    {0.0082115065, -0.0027606706, 0.006750232, 0.044146832, 0.025074065, 0.007636208, -0.035467602, -0.0045664883, -0.008766691, 0.00971625, -0.0031775245, 0.032603614},
    {-0.010910475, 0.021166546, -0.04778743, -0.024432868, 0.007012839, 0.022889208, 0.06871221, -0.00030510558, -0.017223617, -0.03316231, -0.03897527, -0.0028952947},
    {0.07371984, -0.0285654, 0.052373026, 0.013535053, -0.0050592646, -0.06210361, -0.012320215, 0.020574423, -0.02324345, 0.008901043, 0.034482762, -0.002610351},
    {0.013889726, 0.079260565, -0.011956252, -0.0142818205, -0.018119592, 0.0017448831, 0.077565916, 0.0065400675, 0.07832181, 0.054494202, 0.0024593219, 0.05494419},
    {-0.008211274, 0.041531254, -0.0055031, -0.0046406495, -0.005911782, -0.017382106, 0.03454856, -0.057777584, 0.050738156, 0.040563375, -0.06768108, 0.0802824},
    {-0.023656102, 0.019937336, -0.036942065, 0.008977732, 0.0042861137, 0.042122856, 0.039551694, 0.027270315, 0.020011675, 0.031878535, -0.0012906883, 0.039925344},
    {-0.016926968, -0.014964622, -0.030159704, 0.057988275, 0.03458826, 0.0628357, -0.0025407071, 0.03619981, -0.015496647, -0.0024604506, -0.022247564, 0.07624922},
    {0.023741955, -0.006109332, 0.012318062, 0.008525838, 0.0110463, -0.006514214, 0.01572853, -0.036583856, -0.0085745165, 0.0035781083, -0.019042257, -0.0011189749},
    {-0.012863713, 0.022148179, 0.0057930104, -0.0137071, 0.025512323, 0.044682667, 0.02536319, 0.013379044, 0.02088976, 0.0317748, -0.008754038, 0.07680622},
    {0.020675205, -0.07045536, 0.039064348, -0.032759044, 0.027525792, 0.036216527, 0.01713074, 0.025874795, -0.03279869, -0.009627761, -0.035128128, -0.017429564},
    {-0.0005890335, -0.00557639, 0.0048373034, 0.0012451429, -0.001403694, -0.016742991, -0.00595491, 0.022843115, 0.00144391, -0.010016807, -0.00068520807, -0.012661666},
    {0.006484438, 0.019959966, 0.03616288, -0.0037035863, 0.0023082516, -0.018402174, -0.030935936, 0.012834933, -0.01240603, -0.0075612585, 0.025487676, -0.028221017},
    {0.008910673, 0.02770423, 0.014275099, -0.009092633, 0.0069031734, -0.0015002072, 0.012343726, 0.059887033, -0.004898521, -0.015398926, 0.00751076, 0.02029011},
    {0.015517843, 0.008274346, 0.0069266427, -0.014338344, 0.0049448004, 0.04615819, 0.01980986, -0.0429789, -0.0010093551, 0.018801391, 0.026893798, -0.038314696},
    {0.0058694794, 0.024976252, 0.041920003, -0.02180216, 0.0056768795, -0.017935993, -0.0038189895, 0.038723353, 0.016730761, -0.015631037, 0.0037802595, -0.007998657},
    {-0.009540907, 0.0054123867, 0.032189537, -0.018289434, 0.012930808, -0.005279856, -0.045256265, 0.06425542, 0.05925249, -0.019588277, 0.008486385, 0.033036415},
    {0.03221862, -0.012793255, -0.0033196155, 0.012007665, -0.0013602683, -0.009484313, 0.034087267, -0.011126254, -0.017785795, -0.016780417, -0.0017817627, -0.020772627},
    {-0.024859784, 0.038653698, -0.021180974, 0.05145152, -0.018538192, 0.02276032, 0.089912884, -0.03392193, 0.027082859, 0.055343468, -0.060558274, 0.045436453},
    {0.03162304, 0.036931213, 0.040505998, -0.010481904, 0.010978172, 0.046470083, 0.058234613, 0.020578137, 0.018073056, 0.0060111964, 0.08365001, -0.060410917},
    {-0.031591102, 0.00943907, -0.0073524, 0.027912052, 0.019721847, 0.06586291, 0.0071111815, 0.016619913, 0.0017361116, 0.015296497, -0.0219139, 0.07472209},
    {-0.006128658, 0.025666086, -0.007818526, 0.043785576, -0.018491708, -0.0039782184, 0.013825877, -0.014363652, -0.006536156, 0.03785799, -0.012163213, 0.022259746},
    {0.012460389, 0.040693842, 0.016975226, 0.007928998, 0.008424504, 0.023745257, -0.03571075, 0.011834668, 0.008151122, -0.037027657, 0.02679834, 0.010811814},
    {-0.0045127855, -0.009436893, -0.009186699, -0.009426331, 0.018622883, 0.018134784, -0.010441133, 0.03263479, 0.0064637153, -0.012861956, -0.0071388497, 0.013697934},
    {0.011067185, -0.018177187, -0.0012283411, 0.044617336, 0.034938082, 0.041872177, -0.014858738, -0.0118772, -0.009250832, 0.0006999533, -0.013692654, 0.033323575},
    {-0.026356053, -0.013196886, -0.010032831, 0.050734706, 0.009129501, 0.043773238, -0.027996512, 0.016316, 0.031956308, 0.024570428, -0.027436698, 0.106139116},
    {0.049596284, 0.03340039, 0.04771763, -0.023390671, 0.013166023, 0.024229163, 0.012523869, 0.013851627, 0.0180504, -0.008162155, 0.026597405, -0.0261183},
    {0.0056958585, -0.0074379114, -0.00041661758, 0.027422614, 0.00905857, 0.014502295, 0.00029777043, 0.05085817, 0.023840504, 0.007011855, 0.03572023, 0.015112972},
    {-0.027653392, 0.0012072176, 0.007886491, -0.020300137, 0.024610676, 0.020284621, -0.013204729, 0.020680202, -0.012973875, 0.0022871424, 0.005887113, -0.017312232},
    {-0.01588908, 0.05521663, 0.020552278, -0.008210425, 0.0065273168, -0.035156988, 0.032594353, 0.03216601, 0.03589087, -0.021753239, -0.013568324, -0.008539406},
    {0.06420448, 0.027047027, 0.036185063, -0.03274784, -0.0065612025, 0.013050917, 0.0052383165, -0.036701206, 0.047875, -0.009892041, 0.01831697, -0.029849282},
    {-0.0067714103, -0.013534268, 0.027921155, -0.01909243, -0.014227395, -0.044878393, 0.016903514, 0.076586306, 0.019526798, -0.009717348, -0.019465812, -0.012194701},
    {-0.022358289, -0.008541005, -0.005686196, 0.0011436217, 0.003724342, 0.005794985, -0.0051672687, 0.025585031, 0.048147723, -0.0028585182, 0.018182581, 0.010508026},
    {0.08348173, 0.027801957, 0.06294968, 0.09226075, -0.017123315, -0.022460831, 0.0049742446, 0.0009212235, -0.018070653, 0.039586723, 0.062539876, -0.0328495},
    {0.01700456, 0.024079744, 0.015875425, -0.00816031, -0.02101331, -0.030416008, 0.021078028, -0.025836792, 0.0016525176, 0.029836511, -0.017256407, 0.03181037},
    {0.035489596, 0.040484417, 0.0005016458, -0.0026139321, -0.009663555, -0.011962295, 0.029191922, 0.0116076395, 0.009009531, 0.014945443, 0.0543556, -0.004768018},
    {-0.009628401, 0.032671202, 0.0068049165, -0.021561459, 0.027011245, 0.023122067, -0.007948562, 0.01883769, -0.02470148, 0.0078053474, 0.009173624, 0.00916866},
    {0.008431044, 0.004128504, 0.006449974, -0.0027916415, -0.0035002183, -0.010073653, -0.011128595, -0.0053363284, -0.004003119, -0.0025441824, 0.013867503, -0.01501951},
    {0.013946376, 0.019311322, 0.015991144, -0.0026377882, -0.0071543455, -0.028332718, 0.004792568, 0.035041746, -0.0022547645, 0.0020402856, 0.012147164, 0.008031872},
    {-0.021094857, -0.029293347, -0.020970324, 0.029188119, 0.009512511, 0.020096041, -0.035017233, 0.03361927, -0.007884842, -0.03451915, -0.021026852, 0.026902199},
    {0.030166432, -0.008398603, 0.0033664797, -0.0330105, 0.019776164, -0.001717763, 0.008661167, -0.0121799745, 0.014485815, -0.014832626, -0.012019647, 0.0031964795},
    {-0.012607645, -0.0025804115, -0.0013737618, -0.028152462, 0.004602222, -0.005926094, -0.0026633013, 0.012251183, 0.012653492, -0.004132048, -0.0034246028, -0.021200323},
    {0.011945871, 0.034698695, 0.0078035328, 0.011841543, -0.001326944, 0.042617604, 0.015347166, -0.041080683, -0.01937884, 0.04186414, 0.03275998, -0.032945335},
    {0.022172244, 0.009629823, 0.020766037, 0.00049171736, -0.011586092, -0.012752082, -0.0038835092, -0.0118848635, 0.03127848, 0.013099875, -0.0025466427, 0.021957112},
    {-0.033835515, 0.09681507, 0.02570405, -0.028874807, 0.07943448, 0.06548875, -0.0108674, 0.04707307, -0.054457963, 0.03733701, 0.03034732, 0.059615172},
    {-0.009758646, 0.08857658, -0.0012510194, -0.014143124, 0.00093303696, -0.010679621, 0.007851606, 0.02477693, 0.020969592, -0.054855198, -0.03828579, 0.04867095},
    {0.02673502, -0.00825732, 0.015116997, -0.003917795, 0.01503681, 0.0009811175, 0.0150661105, -0.01589546, 0.029873252, 0.027595682, -0.0024308101, 0.005136993},
    {-0.0058944365, 0.039225657, 0.006554677, -0.01543121, 0.019671377, -0.0014713495, 0.00270021, 0.023115704, -0.012742008, -0.02144877, -0.010048573, 0.0069424654},
    {-0.028179359, -0.019522676, -0.009211031, -0.016723113, 0.011635364, 0.02243885, -0.025546042, 0.03196614, 0.034016263, 0.016474826, -0.0027357973, 0.04384447},
    {0.015159564, 0.0036988151, 0.053594533, 0.042983163, 0.06301605, 0.05289192, 0.007924521, -0.013971877, -0.056282107, 0.10871086, 0.05463692, 0.011352612},
    {0.010800951, -0.0046846946, -0.005547216, -0.023713794, -0.019329922, 0.053347666, 0.037249275, -0.02341916, 0.025090344, -0.018645456, 0.024504038, -0.0423698},
    {0.03758447, 0.038050205, -0.0032152466, 0.01567268, -0.041129585, 0.0075718216, 0.0717272, -0.025390476, 0.07156079, -0.028520012, -0.013394301, 0.03380968},
    {0.0019007665, 0.012668624, -0.004119585, 0.046505254, -0.018018464, 0.008615604, 0.0037964778, 0.017151393, -0.0026104548, -0.057347696, -0.03050312, 0.008736858},
    {0.004154303, -0.035220258, -0.0007884877, 0.018205075, -0.016377794, -0.007738323, -0.0032761025, -0.014357004, -0.016727129, -0.011507215, -0.010169553, -0.015728574},
    {-0.016529717, 0.019294277, 0.030335074, 0.06456443, 0.017890554, 0.018885614, -0.010444412, 0.0062084193, -0.052914932, 0.07440795, 0.03877947, 0.014502906},
    {-0.02874186, 0.02449842, -0.0015401371, -0.046344303, 0.06005593, 0.04310377, -0.022100909, 0.050371446, -0.005996733, 0.0018378682, 0.012293694, 0.036112644},
    {0.0330943, -0.0012019216, 0.01286336, -0.014926232, 0.03462175, 0.014638427, -0.011254109, 0.016171934, 0.0015893222, -0.022935549, 0.013552426, 0.0039653615},
    {-0.0142373545, -0.026249206, -0.0149473455, -0.010291681, 0.00076627656, -0.0033181629, 0.005075062, 0.07130843, 0.008888476, -0.015224776, 0.019518547, -0.015946742},
    {0.030390091, 0.017999444, 0.040479816, -0.011118532, -0.007389183, -0.006181137, 0.020045068, 0.055870175, 0.0147550935, -0.0014266397, 0.08607154, -0.004952063},
    {0.060443055, 0.024694746, 0.0035191146, 0.022326337, -0.025599545, 0.019795274, 0.003965784, 0.014042028, 0.004574843, -0.03288537, 0.031816773, 0.020373547},
    {-0.01193836, 0.03513143, 0.0057004453, -0.020257354, 0.014117218, 0.010661622, -0.019694613, -0.012540603, 0.0019200081, -0.010732607, -0.0026575676, 0.016220532},
    {-0.018079432, 0.019559855, 0.013585388, 0.098874316, -0.009325109, 0.03473128, 0.010955901, -0.005558539, -0.030076852, 0.013929153, 0.017060636, 0.0128210625},
    {0.057644017, 0.007241409, 0.06445048, 0.009274964, 0.011310782, -0.04414723, -0.007132947, 0.008446984, 0.050014786, 0.06267617, 0.05871876, -0.0036483165},
    {-0.017388592, 0.020326996, 0.01669298, 0.051144026, 0.010249244, 0.015919685, 0.011184716, 0.016292632, -0.0050085075, -0.012448984, -0.02988957, 0.030388605},
    {0.021795433, -0.0115967225, -0.0028864373, 0.0129925795, -0.012122801, -0.0012867266, -0.016330322, 0.036866494, 0.001720943, -0.02900907, 0.016297417, 0.023787484},
    {-0.019500308, -0.06581234, 0.021186776, 0.09320496, -0.03945807, -0.016048817, 0.0065743066, 0.02147924, 0.022992948, 0.017539984, -0.039389893, 0.010901662},
    {-0.018472986, 0.009874545, 0.007994569, -0.0406886, 0.037621822, 0.033442445, 0.008829581, 0.054091275, 0.024515014, 0.051074687, 0.059855707, -0.008288845},
    {0.0345828, 0.044195876, 0.023127917, 0.025462175, -0.0066003357, -0.0066594016, -0.0032789034, -0.009791047, -0.003651465, 0.03928479, 0.04090543, 0.02404403},
    {-0.0060803723, 0.046991806, 0.019006561, 0.046496786, 0.002381396, 0.003427738, -0.009494249, -0.04895392, -0.009211368, 0.034593962, -0.014068846, 0.031438403},
    {-0.024920788, 0.012634061, 0.0049235728, -0.004622531, 0.028526528, 0.024217512, 0.010852339, 0.024793698, -0.037569348, 0.01940065, 0.020420978, 0.006428652},
    {-0.029574903, -0.02917861, 0.007863498, 0.020080868, 0.023523457, 0.05444601, -0.0052448986, 0.034345355, -0.011059804, 0.02707502, 0.018531814, 0.006567173},
    {-0.01515484, 0.014118864, -0.0104027465, -0.024556465, 0.039162442, 0.040209398, -0.013894579, 0.08599121, -0.01092409, -0.052897573, 0.037180737, 0.0019360984},
    {0.052712634, -0.015194341, 0.027380783, -0.018422924, 0.056229778, 0.006804931, 0.0034932713, -0.045472518, -0.017268632, -0.014116803, -0.016656417, -0.0015693414},
    {-0.032316186, -0.04888605, 0.012123349, -0.024500644, 0.016024021, -0.010931613, -0.016038045, 0.038306903, 0.024214292, 0.03667389, 0.0043406356, -0.001341774},
    {0.0017083198, 0.07057159, 0.014218518, -0.028221944, 0.016658766, 0.038662817, -0.019319601, -0.029782956, 0.0203494, 0.00067624793, 0.059878953, -0.005196291},
    {0.027586129, -0.011751774, -0.020917516, 0.064067446, -0.03476655, -0.020519273, 0.045953445, 0.059651602, 0.034342524, -0.014914954, 0.06542349, -0.021196287},
    {0.004195024, -0.049160723, 0.0076404917, -0.032481816, -0.01073371, -0.019506564, -0.031205837, 0.011392216, 0.09214343, -0.014997896, -0.037643164, 0.06604505},
    {0.005355837, -0.013822136, -0.0033494185, 0.01250724, -0.03683956, -0.018796172, -0.018758887, -1.6281061e-05, 0.06416484, -0.037738707, -0.022619931, 0.0376799},
    {0.0373243, 0.008753045, 0.005072672, 0.020064201, -0.007854488, -0.025617674, 0.030239802, -0.009251628, -1.2458593e-05, -0.0016793489, 0.005812223, -0.023758726},
    {-0.0037420464, -0.008794428, -0.007916393, 0.040816646, -0.013426699, 0.033100095, -0.0002466906, -0.012374697, 0.033360254, -0.056916762, -0.015000709, 0.028501976},
    {0.008489324, -0.0184489, -0.026031446, -0.0061503905, -0.012498398, -0.004909123, -0.03337116, 0.05716685, 0.060443953, -0.02818987, 0.008292632, 0.040691953},
    {0.042330436, -0.02090937, 0.054918885, 0.05874803, 0.026199726, 0.018318877, -0.02679609, 0.0057121324, 0.033583667, 0.020411719, 0.0467711, -0.00030863137},
    {-0.020955322, -0.025051307, 0.018277451, 0.013766615, 0.009755496, 0.001257893, -0.0069639, 0.03653031, -0.005216125, 0.036847956, 0.021301957, -0.013090802},
    {0.016542664, 0.013603622, -0.0034160966, 0.04752975, -0.032449156, 0.011765903, -0.008187128, 0.025125226, 0.0051314505, -0.042789802, 0.036929153, -0.019772118},
    {-0.0073566753, 0.0498437, -0.028254285, 0.012762979, -0.012145712, 0.022512814, -0.0036997264, -0.01882649, -0.00020592348, -0.050527792, -0.009240897, 0.017336173},
    {-0.0021210222, 0.0008869524, 0.0023723661, -0.025875969, 0.02371836, 0.018834677, -0.008264476, 0.034788083, -0.021046119, -0.016804466, 0.020677619, -0.007511846},
    {-0.013209657, -0.0014064914, 0.014410014, -0.014410613, -0.00058211247, 0.011022261, -0.015853869, 0.019295286, 0.025969371, 0.0021096957, 0.0071164533, 0.022780186},
    {-0.015164345, 0.010700932, 0.017621875, -0.041926213, 0.025655113, 0.0078022247, -0.043385644, 0.017731182, 0.041290086, 0.007506389, 0.00060267997, 0.04650217},
    {0.043430388, -0.013071468, 0.04035341, -0.04296574, 0.08372459, 0.033325247, -0.00669338, 0.006288957, -0.008002572, 0.010911248, 0.02836878, 0.017526075},
    {0.0014463797, 0.019383995, 0.023432508, 0.005200341, 0.017720142, 0.0093112, -0.034494456, 0.0069335396, -0.023561494, -0.008219155, 0.0154415, -0.0057151397},
    {0.024728447, 0.048092704, -0.010780347, -0.018827315, -0.030306166, 0.011678874, 0.03135857, -0.036758058, -0.0041145, -0.02569479, -0.046879206, 0.0153982},
    {0.045448657, -0.0055733314, 0.01696665, 0.011807585, -0.0028386475, -0.0154505065, -0.0032565263, 0.031163424, 0.041991133, 0.032322366, 0.052312758, 0.015534369},
    {-0.018512525, -0.013762459, 0.0063248076, -0.03903379, -0.039180398, -0.071502104, -0.019952066, 0.0092787715, 0.1351743, 0.054152198, -0.008609989, 0.030165108},
    {-0.014364592, 0.0009245679, -0.019984173, 0.018184436, -0.021898562, 0.053199627, -0.00023308868, 0.0036422932, 0.039372526, -0.05712605, -0.025401924, 0.02981311},
    {0.07823194, -0.011411617, 0.028305756, 0.02630662, 0.011918134, -0.030131334, 0.05197618, -0.0029565345, -0.018053198, 0.07644774, 0.045351546, -0.024001991},
    {-0.010501473, -0.012914046, 0.014983369, -0.000108505956, -0.0130715985, 0.018036857, 0.0062600905, 0.009756633, 0.06327832, -0.009325905, 0.02453088, -0.0019796079},
    {-0.0026281376, 0.025869906, -0.01929129, 0.016645325, -0.009083287, -0.016407365, -0.024365792, 0.001556175, 0.044734634, -0.006034928, 0.009950439, 0.031682607},
    {0.039716534, -0.028123641, 0.009276929, 0.016366726, -0.025688238, -0.034595277, 0.009370051, 0.017236952, 0.02484819, -0.019028965, 0.024872443, -0.028363017},
    {0.046425633, 0.030731453, 0.0089380555, -0.0009619011, -0.033085655, -0.03483345, 0.055711716, 0.00036572973, -0.008364175, -0.045084164, -0.010304149, -0.023716604},
    {-0.006772071, -3.098612e-05, -0.0086007705, 0.049435165, -0.018747598, 0.061167646, 0.07627255, 0.026626896, -0.024468902, 0.02038498, 0.0145934345, -0.0132120345},
    {-0.021491036, -0.05261267, 0.037610114, 0.026951233, 0.0059526702, 0.038761333, -0.025077952, 0.0526227, 0.02587339, 0.013082019, 0.015223812, 0.019906092},
    {-0.0158908, -0.020883597, 0.005378651, -0.017190207, 0.006620525, -0.005343671, -0.011169872, 0.024681548, 0.012307615, 2.7084825e-05, -0.0011748178, 0.00042858618},
    {0.0028394982, -0.024345452, 0.038311698, -0.023293478, -0.0038694202, -0.009932254, 0.0046702977, 0.029355908, 0.045414567, 0.033060864, 0.0030984753, 0.012045184},
    {-0.012205944, 0.004059255, -0.0071006855, -0.027022168, -0.012002555, -0.031787902, -0.011155267, -0.010645214, 0.0444053, 0.008800313, -0.022849102, 0.019550338},
    {0.06033668, 0.0035968632, 0.0266693, -0.031011397, 0.07661384, 0.028986594, 0.025713783, -0.0093226675, -0.020199168, -0.031656574, -0.000903213, 0.0045738793},
    {0.03782337, 0.061826948, 0.011606699, 0.0061940337, -0.020653555, -0.025114002, -0.029487357, -0.0017371016, 0.023216762, -0.06747455, 0.0019744602, 0.034090355},
    {-0.016541256, 0.028746769, -0.00411363, -0.020918475, -0.0101487655, -0.0055131977, 0.010078327, -0.0034150532, 0.008409224, 0.0019804249, -0.017581971, 0.0026785631},
    {0.011233845, 0.040073197, 0.005360586, 0.046159007, -0.017437117, -0.012634341, 0.037744537, 0.010881597, 0.03746171, 0.025088055, 0.006893721, 0.020485245},
    {0.0077875927, 0.003765069, 0.020429732, 0.0048727635, 0.0045620827, -0.012348295, -0.01712978, -0.021884933, -0.00721399, 0.021214493, 0.026657663, -0.0073955306},
    {-0.035763614, -0.007466743, 0.0060073854, 0.005938491, -0.017958146, 0.018753367, 0.009550659, 0.007083526, 0.08903727, 0.0022918794, -0.01133915, -0.004232631},
    {0.068993494, 0.0017234139, 0.019647755, 0.008770909, 0.053397316, 0.008321768, 0.05292936, -0.02913446, -0.021399409, -0.017819224, 0.0018233163, -0.02406799},
    {-0.042821493, -0.06959415, 0.0460465, -0.00943039, -0.012873483, 0.027783569, 0.020214787, 0.04617658, 0.034596365, 0.0073683835, -0.04519909, -0.0064966613},
    {0.03908491, 0.052473027, -0.00039582327, 0.019897735, -0.03452425, -0.038822923, -0.0023462663, -0.03013903, 0.029966686, 0.019212527, 0.0046314257, 0.044775233},
    {0.048929285, 0.013733326, 0.0010375135, 0.006757264, 0.019621193, 0.0074510355, 0.037621472, 0.058465302, -0.039779354, -0.009564511, 0.045498084, -0.006208297},
    {0.037412427, 0.018329442, 0.019503983, -0.002257532, -0.018949283, -0.03118177, -0.018046787, -0.026773354, 0.013185923, 6.2972715e-05, 0.022466492, 0.0066277194},
    {0.011624265, 0.012396138, -0.0052127996, 0.04044989, -0.027941912, 0.012961313, -0.0058055483, -0.023693344, 0.005804445, 9.862626e-05, 0.027613338, -0.0032326498},
    {-0.01799635, -0.01198481, -0.0010546393, 0.01998636, -0.004952647, 0.01405319, -0.024198806, 0.00048559826, 0.01823541, -0.0034822547, -0.0049720304, 0.0065972987},
    {-0.011014274, 0.0013292942, 0.011486186, -0.035794552, 0.03787611, 0.014370763, -0.018456357, 0.010723131, -0.018349886, 0.0068477313, 0.004914376, 9.259151e-05},
    {0.018489296, 0.05124278, -0.009595379, -0.006891861, 0.0024638714, 0.012626625, 0.010690434, -0.0005496332, -0.0018536072, -0.006555105, 0.017243475, 0.023239195},
    {0.017685426, 0.033795796, 0.011959341, -0.029560354, 0.04248946, 0.025677638, -0.014535562, -0.0075496472, -0.0382694, 0.018616792, 0.02954547, 0.015186235},
    {0.04265939, -0.013988266, 0.017743787, -0.05930309, 0.052619357, 0.008627183, 0.037185583, -0.009803507, 0.017730854, -0.016399335, -0.025689585, 0.0062180324},
    {-0.013006483, -0.012383393, -0.011770823, -0.0022587029, -0.01115656, -0.019830102, -0.007849286, -0.015567786, 0.022063876, 0.0067149997, -0.027846176, 0.02020463},
    {-0.0042900303, -0.009365325, -0.015618169, 0.021425394, 0.0009097371, 0.0141795585, -0.025389425, -0.0019396839, -0.006884708, -0.012832436, -1.837705e-05, 0.015411175},
    {0.04396667, 0.008940541, 0.028602805, -0.01814322, 0.013818068, -0.015615141, -0.036716655, -0.017787172, 0.02265737, -0.0026118043, 0.034404874, 0.013204552},
    {0.035070565, 0.023568105, -0.017920202, -0.011947201, -0.034040105, -0.0179842, 0.0901164, 0.055244636, 0.007688298, 0.021420602, 0.03656134, 0.0033108986},
    {0.009851754, 0.01999227, 0.018159429, 0.039677102, -0.010725161, 0.020236196, -0.006652493, 0.024748089, 0.013189587, -0.008798884, 0.029607954, -0.010983238},
    {0.043499574, -0.025552908, 0.026347734, 0.04650515, 0.058029633, 0.02992055, 0.039775167, -0.020895822, -0.08124102, 0.043802015, 0.026537191, -0.011702649},
    {-0.03407869, 0.030424759, -0.0051990254, 0.030950217, -0.017355004, 0.033976153, 0.006136293, -0.006325868, 0.026386304, -0.018809285, -0.030738335, -0.042938687},
    {0.018631112, -0.018676365, 0.0034167408, 0.034007624, -0.022267133, -0.016611302, -0.007941394, 0.031046068, 0.033418573, -0.011550872, 0.022666337, 0.038017437},
    {0.020462994, 0.007874558, 0.005056985, 0.029640589, 0.0071553187, 0.00947022, 0.03508253, 0.004876495, -0.035228852, 0.054402813, 0.0014352567, 0.009031919},
    {-0.03700684, -0.006276905, -0.009201276, -0.008292551, 0.042317744, 0.04992914, -0.01774628, 0.051068448, -0.048158474, 0.010487382, -0.013778834, 0.043657903},
    {-0.024904756, -0.0021484978, 0.0012166897, 0.026813773, -0.027177665, 0.06654101, -0.036203593, 0.025459997, 0.04694469, -0.043306157, -0.004862232, 0.026537035},
    {-0.011004405, 0.06299314, 0.022834057, -0.023208635, -0.0037563848, -0.002386723, -0.0072138514, 0.0022854565, 0.047458407, 0.011610383, -0.017719071, 0.029778702},
    {0.002965552, 0.049674116, 0.013139577, -0.02734931, 0.03418071, 0.013041411, -0.026151268, -0.002960933, -0.02959707, 0.0069055506, 0.016682195, 0.014714783},
    {0.02083849, 0.06618066, 0.005994085, -9.343013e-05, 0.020101521, 0.029478785, 0.0055223657, 0.042878807, -0.0037138546, 0.037600875, 0.053922176, 0.026095454},
    {0.008993665, -0.015411241, -0.029806338, 0.012569581, -0.01783185, -0.030972129, 0.063333124, 0.06742517, 0.043950617, 0.0094898725, 0.0133362925, 0.004054698},
    {0.043348894, -0.046891183, -0.0013164802, -0.018599411, 0.07074413, 0.014567435, 0.073112294, 0.055378176, 0.034700554, -0.0034556165, -0.022875132, 0.0036454678},
    {-0.028742285, 0.0032621513, -0.015563119, 0.040475495, -0.008456252, -0.020831145, 0.032362398, -0.054776035, -0.016791176, 0.11555322, -0.024231324, 0.028676825},
    {-0.026650768, 0.021250935, -0.013832524, -0.028463552, -0.011642076, 0.006720886, 0.09106571, -0.0051169167, -0.011927253, 0.04550436, -0.026083855, 0.066529706},
    {-0.0033809503, -0.010081482, 0.012342149, 0.06212136, -0.012402158, 0.004296061, 0.007988265, 0.010398252, 0.012313932, 0.07508808, 0.020359337, 0.06322267},
    {-0.012430944, 0.044128932, -0.015353312, 0.0120696705, -0.03347103, -0.044429168, 0.048855223, -0.033619743, 0.0040422645, 0.01085428, -0.00026952173, -0.0018103719},
    {-0.0292723, 0.014276411, -0.0034835944, 0.03309856, -0.01744498, 0.07149553, -0.0028663955, 0.017097214, 0.048571616, -0.022667775, 0.0175868, -0.00243166},
    {0.06434218, 0.022492161, 0.0053512054, -0.031968545, 0.041660488, 0.006933467, 0.07279822, 0.10186284, 0.0024007612, -0.01729393, 0.043156575, -0.0057120803},
    {-0.049053222, 0.045465317, 0.0047020013, 0.03437391, 0.0084357085, 0.08002159, 0.006532142, 0.063394904, 0.040580466, -0.04205476, -0.021290068, -0.03806896},
    {-0.03500016, -0.023059087, -0.009250134, 0.039732818, -0.00016982746, 0.019760594, 0.00813609, -0.014466914, 0.022074483, 0.057180546, 0.017386638, 0.04486935},
    {-0.00086504564, -0.0019809706, 0.0004088817, -0.012902996, -0.005176616, -0.012527661, -0.013993576, 0.0064402497, 0.027971065, 0.019157907, 0.01668344, 0.0046277884},
    {-0.034940396, 0.02364311, -0.005122267, -0.044461414, 0.04382982, 0.05956536, 0.031337306, 0.040135227, -0.04876038, 0.03070122, -0.008403557, 0.031576186},
    {0.011524264, 0.024667827, 0.012709037, 0.014424311, -0.0009871474, 0.048737183, -0.03614685, 0.009463604, 0.0014834872, -0.030843774, 0.03853252, 0.023834266},
    {-0.0031823192, 0.035052378, -0.0018499244, 0.00021034431, 0.005683768, 0.012881771, -0.00025810665, -0.007949506, 0.029794518, 0.00090878387, 0.013588683, 0.0056824693},
    {-0.008884411, 0.03486011, -0.032334343, -0.034321494, -0.014315335, -0.03619797, 0.057673976, 0.040166955, 0.024846204, 0.009354759, -0.013376289, 0.026563624},
    {-0.015651677, -0.01920732, -0.013208935, 0.0969379, -0.016609421, 0.03264662, 0.052723832, 0.032936145, -0.034743007, 0.021499977, 0.03915909, -0.016009985},
    {-0.028244607, -0.014384806, -0.0060899085, 0.048006948, -0.026628293, -0.053116787, 0.0707913, 0.011764922, 0.006141729, 0.08721411, 0.028899593, -0.0057432796},
    {0.06708062, -0.040691677, 0.0155, -0.053669203, 0.06492212, -0.0073318765, 0.0480458, -0.016225591, 0.028797705, -0.03863684, -0.030790891, 0.0014636503},
    {0.0006492067, 0.029595647, -0.023855349, -0.018877765, -0.0035732007, -0.01791239, 0.04061428, -0.003265001, -0.008324324, 0.013679114, -0.031742252, 0.01785481},
    {0.0027887544, 0.054059375, -0.018592604, -0.015961554, -0.014777241, -0.022025896, 0.0032760878, -0.029287025, 0.01463632, 0.0039703804, -0.007984896, 0.013697126},
    {0.0023249795, 0.0480919, -0.02815043, 0.04935809, -0.024088088, -0.029544689, 0.07811353, -0.046877302, 0.0048421617, 0.0029976198, -0.025661344, 0.023689868},
    {-0.005509185, -0.004162952, 0.007006318, 0.01856843, 0.02621262, 0.033068113, -0.050523374, 0.012291147, -0.0367077, 0.021321932, 0.010377857, 0.031648725},
    {-0.03947369, -0.04468376, 0.047333788, 0.030449722, 0.010481173, 0.025416628, -0.0074570165, 0.005937217, -0.027108, 0.06052769, -0.0097460495, -0.018882597},
    {0.029967282, -0.028458726, 0.0011648157, 0.055913333, 0.025966704, 0.005072946, 0.04666569, -0.017185293, -0.019622954, 0.03425473, -0.017906066, -0.0120111825},
    {-0.053937588, -0.029797988, 0.040295668, 0.048853517, -0.009850854, -0.0014416784, -0.009262786, 0.036225963, 0.02451418, 0.023549484, -0.03335353, -0.029063301},
    {0.02524626, 0.023460602, -0.044985276, -0.046138376, 0.023973372, 0.018822063, 0.083416, 0.073066674, -0.019869445, -0.042737864, -0.036063015, 0.07875049},
    {-0.0002034627, -0.022296952, 0.029690482, -0.048983637, 0.02324755, -0.006590879, -0.021011429, 0.061590496, 0.044603936, 0.014746319, 0.022192819, 0.0278829},
    {0.021685151, 0.058841433, -0.03576292, 0.013023797, 0.013184033, 0.0031057093, 0.07704585, 0.08713241, -0.049137395, -0.024392493, 0.02763272, 0.0011061175},
    {0.008276163, 0.039004706, 0.039281413, 0.01634263, 0.010786827, 0.026976421, -0.018677766, -0.0012127546, -0.0077792103, 0.00972318, 0.029027134, -0.0015048266},
    {-0.0102227405, -0.030809963, 0.00987583, 0.014962887, -0.026887663, -0.015727783, 0.033509348, 0.010669287, -0.0038022012, 0.023055058, 0.0072470177, -0.040938005},
    {0.03583075, 0.017214444, -0.039570943, 0.02572192, -0.049124114, -0.036142457, 0.0869714, 0.00868179, -0.013178251, -0.04733199, -0.020406768, -0.023429113},
    {-0.011771574, -0.045602754, -0.011203873, 0.047910023, 0.003531951, 0.056564465, 0.010946359, -0.00247639, -0.031339623, 0.03281537, 0.017207665, 0.00081590394},
    {0.015189104, 0.055985384, -0.018584507, -0.014230948, -0.018143473, -0.0044157514, 0.026393717, 0.057869993, 0.0010144128, -0.01454547, 0.02634929, 0.023051482},
    {0.04084699, 0.030108765, -0.036489636, -0.004881218, -0.0106515195, -0.022923594, 0.08197544, 0.069017716, 0.001160043, -0.04527822, -0.0002222493, -0.00095725956},
    {-0.006398083, -0.017620161, -0.03909448, 0.043527465, 0.02028058, 0.031853672, 0.033884566, 0.024124732, -0.05892877, 0.011460438, 0.007110407, 0.010030617},
    {-0.007713056, 0.028597465, -0.06293912, 0.04236893, -0.004965527, 0.122725114, -0.0077179656, -0.01270866, 0.062907144, -0.058450006, 0.03890794, 0.047542438},
    {0.082555115, 0.12366187, -0.0010074957, -0.025641497, 0.011572205, 0.00054771034, 0.049563497, -0.045099158, -0.021241963, -0.0370029, -0.031451207, 0.055683482},
    {0.00926244, -0.037283536, 0.004665062, 0.051735934, 0.012672901, 0.028252233, -0.051868234, -0.003186039, -0.002132675, 0.052862845, 0.033480614, 0.07165365},
    {0.035557125, -0.017172609, 0.069826, 0.027379617, 0.017640326, 0.021837914, 0.0057117217, -0.014711371, -0.038450208, 0.06310796, 0.0041065817, 0.01941044},
    {0.037222173, -0.04813609, -0.013380235, 0.05592704, -0.01568797, -0.016878841, 0.034698028, 0.028250732, 0.0057298336, -0.032671105, 0.020444354, -0.032547496},
    {0.0051501407, 0.011379243, 0.052564, 0.0685102, -0.009251343, 0.02665502, -0.01998999, 0.018604493, 0.00096223486, -0.045618393, -0.039436363, -0.021408428},
    {0.004851338, 0.06393498, -0.012882399, 0.0042604418, 0.06299883, 0.087251835, 0.01191276, -0.0098000625, -0.04970456, 0.0328724, -0.01863221, 0.092816174},
    {-0.0020080958, -0.005553074, 0.032016046, -0.025794335, 0.05474585, 0.009720793, -0.00026130566, 0.04685154, 0.015636314, 0.04391768, 0.0487609, 0.016589664},
    {-0.046147708, -0.002783909, -0.041643564, 0.0031765914, 0.007968682, 0.053454965, 0.040078435, -0.023258794, 0.024335314, 0.041120283, 0.03205139, -0.017074373},
    {0.0071470416, 0.058565866, -0.006547736, 0.033049766, -0.011442539, 0.044312976, 0.0131797865, -0.04700029, 0.034660783, -0.02231477, 0.018061467, 0.007468434},
    {0.003007175, 0.03558036, 0.0070740297, -0.008787773, 0.0060736816, 0.008387499, 0.020711176, 0.052566487, -0.004577755, -0.038913574, -0.040694673, 0.027150525},
    {0.039841723, -0.010826892, 0.031776063, 0.00089936785, 0.028188242, -0.02420766, -0.0022533957, -0.024625098, 0.0026739838, 0.03978803, -0.0014293926, 0.017028986},
    {0.0015356528, -0.007710738, 0.029574526, 0.025047176, 0.020865897, 0.019049523, 0.024948573, -0.012445202, -0.033332705, 0.06584847, -0.015702032, 0.04686815},
    {-0.02547663, -0.05543231, -0.0094394935, 0.054741386, -0.015438989, 0.010670012, -0.011075399, 0.019587805, 0.0411991, 0.08271481, 0.018230936, 0.0560171},
    {-0.0038453436, 0.0031774184, 0.0066746594, -0.045777783, 0.021374492, -0.0030230838, -0.009093756, 0.07243918, 0.053344928, 0.011586652, 0.03249807, 0.016449776},
    {-0.03852306, -0.03351031, -0.032260507, 0.028562345, -0.008183893, 0.04771697, -0.026890928, 0.0070238756, 0.013924525, -0.017444387, -0.014328514, 0.026608933},
    {-0.010169828, -0.015756559, -0.09410212, -0.00090324576, -0.0550048, 0.04052436, 0.081795745, 0.010072071, 0.0688984, -0.04193855, 0.06728783, -0.0098708905},
};
const fixed_p glove_dense_0_biases[12] = {
    0.3476659, 0.09936726, 0.18644834, 0.16165316, 0.07422081, 0.1113486, 0.24820279, 0.10154557, 0.2521034, 0.016432023, 0.2475062, 0.18760806
};

// Dense Layer 1 Weights
const fixed_p glove_dense_1_weights[12][10] = {
    {0.23271751, -0.23151506, 0.16191834, -0.382426, -0.82194746, 0.58554876, 0.6217818, -0.62539095, -0.7436075, -0.83318496},
    {-0.6314712, -0.100886814, 0.87151384, -0.6034104, 0.2892796, 0.45415515, -0.81181186, -0.84665704, -0.30948195, -0.7097946},
    {-0.73967355, 0.0710292, -0.65981025, 0.40246177, -0.38500807, 0.53041553, 0.23822701, 0.045815893, 0.6733304, -0.7668121},
    {-0.033562675, -0.8486993, -0.16603254, -0.8349856, -0.26066005, 0.07843025, -0.6734074, 0.41724578, 0.43065175, 0.45863506},
    {-0.74875426, 0.5196075, -0.6828327, -0.36641994, 0.08441156, -0.75414884, 0.37265956, -0.09909309, -0.50265574, -0.45609275},
    {-0.7743837, 0.4081588, -0.34940347, -0.8064421, 0.5901525, -0.61919385, -0.025996195, 0.049030744, -0.33271214, 0.33602682},
    {0.5924672, -0.18241216, 0.4114509, -0.19838658, 0.042611904, -0.6282414, 0.23315302, -0.07674152, -0.8505813, -0.959071},
    {0.8449112, 0.5868879, -0.64625233, 0.2363835, -0.331381, -0.9468843, -0.74348015, -0.45318276, 0.53517395, 0.10408629},
    {-0.31206244, -0.77186894, -0.30825585, 0.9608399, 0.45584893, 0.040656116, -0.3205479, -0.7385217, 0.39310417, 0.22270478},
    {-0.61014456, 0.07670166, -0.090846755, 0.36776417, -0.38433784, 0.118005745, -0.32345232, 0.96205753, -0.16140816, -0.66120744},
    {0.16102862, 0.18662046, -1.1529057, -0.48850355, 0.07302615, 0.53124225, -0.4668956, -0.31825975, -0.60710245, -0.82175267},
    {-0.39360887, 0.25682366, 0.39394584, 0.5399127, -1.0265713, -0.20342135, 0.14102966, 0.039721634, -0.71360266, 0.6051902},
};
const fixed_p glove_dense_1_biases[10] = {
    0.06417295, -0.23510844, -0.09447996, 0.044775497, 0.054315828, -0.034385286, 0.24791141, 0.03351708, -0.088365465, 0.08745551
};
