#include "core.h"
// Conv1D Layer 0 Weights
const fixed_p conv1d_0_weights[3][1][16] = {
    {-0.1009073, 0.3833228, 0.44585177, 0.18589188, -0.047665488, -0.258963, -0.16366503, -0.275379, 0.15654103, -0.27276593, -0.060484868, -0.31461966, 0.20109954, -0.28387347, -0.14480707, 0.029692436},
    {0.3524715, -0.19055231, 0.23718017, 0.20846201, 0.38217142, -0.07231152, -0.06984884, -0.15709288, 0.010922471, -0.3009481, -0.5569302, 0.21824464, -0.38149947, 0.4015726, -0.15869609, -0.33195794},
    {0.27799293, -0.18072832, -0.06328957, 0.28000116, 0.029871976, -0.17054892, -0.0066709267, 0.23175414, -0.25985712, 0.03745548, -0.19279495, 0.24883458, 0.19499043, -0.17486034, 0.40301377, -0.18917747},
};
const fixed_p conv1d_0_biases[16] = {
    0.034788433, -0.11975803, 0.0634579, -0.12317035, -0.01677615, -0.012691618, 0.038555082, -0.035864186, -0.041662335, -0.15997161, -0.010215462, -0.08130531, -0.022939235, 0.008435552, -0.13299996, -0.11133485
};

// Batch Normalization Layer 0 Parameters
const fixed_p batch_norm_0_gamma[16] = {
    0.82064474, 1.3348719, 0.82956237, 1.3605484, 0.9344579, 0.6699593, 0.7379876, 0.65188193, 1.0874842, 1.3539972, 0.92194164, 1.0585696, 0.982147, 0.8985584, 1.1668463, 1.2963462
};
const fixed_p batch_norm_0_beta[16] = {
    -0.17233525, 0.07746833, -0.16187665, 0.037405822, -0.14548028, 0.21898323, 0.07526963, -0.06840519, 0.03348997, 0.03938249, -0.08277058, 0.11019579, -0.07220301, 0.06827039, -0.032780368, 0.05631381
};
const fixed_p batch_norm_0_mean[16] = {
    0.039496083, 0.0016254233, 0.062774196, 0.0031588017, 0.009342877, 0.021834439, 0.05029005, 0.009261352, 0.003968736, 0.0021105106, 0.041347075, 0.0036855116, 0.004772552, 0.014891205, 0.0011231453, 0.0038525404
};
const fixed_p batch_norm_0_variance[16] = {
    0.0029648093, 0.00015091775, 0.00441157, 0.00027740648, 0.0007992741, 0.0016177153, 0.00085785246, 0.00079499616, 0.00026877454, 0.0001637643, 0.005208814, 0.00034850975, 0.00036527333, 0.0007506449, 9.608709e-05, 0.00030757135
};

// Dense Layer 0 Weights
const fixed_p dense_0_weights[944][16] = {
    {-0.00593429, -0.032954603, -0.038106397, -0.01658592, -0.03916281, 0.08978585, -0.055998232, -0.034640327, 0.0380648, 0.031986658, -0.03317666, 0.048213292, 0.029334202, 0.013131596, 0.007857118, -0.0028716302},
    {0.04314523, -0.0010424734, 0.017857326, 0.056494385, 0.017852841, 0.010961449, 0.018143801, -0.028283421, 0.03165981, 0.0021688468, 0.012027149, 0.021944907, 0.01695928, 0.0352433, -0.026182575, -0.0012823218},
    {-0.023181694, -0.04231756, 0.120533355, -0.08204249, -0.031016102, 0.09454184, -0.13705161, -0.078311846, -0.027372831, -0.10312204, -0.15277836, -0.0629605, 0.0038255956, -0.23109074, -0.047919087, 0.11119306},
    {-0.056770694, -0.05732909, 0.07373135, 0.036900878, -0.014705684, -0.027513906, -0.007636876, 0.018845055, -0.00048204046, -0.061253816, -0.04441771, -0.02882608, -0.027853483, -0.024647105, 0.021181878, -0.055902902},
    {0.01898472, -0.008973221, -0.021234134, -0.005098888, -0.0036059076, 0.0622126, -0.0019993805, 0.0150711965, -0.0050733583, 0.035410743, -0.037425052, 0.03448714, 0.013947555, 0.01269117, 0.008383137, -0.021319475},
    {0.06974274, -0.09688097, -0.059593562, -0.10314852, -0.050746404, -0.019637462, 0.0043797824, 0.03205824, 0.07631172, 0.04810915, 0.082176164, 0.10194696, -0.008527445, -0.10289419, 0.107572086, -0.049972977},
    {0.065900154, -0.06191749, -0.12968075, 0.0032785675, -0.029128961, -0.09312523, 0.09394219, 0.031363383, 0.03957395, 0.070361406, 0.15683961, 0.106266305, -0.06734426, 0.03320583, 0.07805382, -0.098332375},
    {0.086565346, -0.04167547, -0.08688287, 0.037306704, -0.04606681, -0.10134423, 0.027811637, -0.028751932, 0.040805887, 0.041012894, 0.15787932, 0.1510578, -0.06983354, -0.082968466, -0.037560813, -0.067246415},
    {-0.051124137, 0.044485737, -0.022851856, 0.041600417, 0.010799742, -0.018797075, 0.032002494, -0.033357386, -0.008060526, -0.0993973, -0.037489925, 0.016411606, -0.028166782, 0.11432751, -0.015248093, 0.0059918244},
    {0.058847185, -0.12051183, 0.037374984, -0.024594342, -0.085235946, 0.07329448, -0.11632429, -0.0328468, -0.1133814, -0.026414393, -0.03487417, -0.104604945, -0.10580492, -0.16446605, -0.052738257, -0.048362505},
    {0.007366864, -0.07588789, -0.06360951, -0.09512892, 0.0069695655, -0.0013519804, 0.034082633, 0.03520141, 0.084083065, 0.009435305, 0.04984553, 0.07477453, 0.010587549, -0.08429403, 0.16761746, -0.06448224},
    {-0.0041689943, 0.05349094, -0.15339819, 0.09926981, -0.016488181, -0.041573595, 0.17046483, 0.04413673, -0.00521267, 0.032574344, 0.031996228, 0.011820831, -0.04040927, 0.04871956, 0.068956554, 0.016987558},
    {-0.12744617, 0.1113, 0.071472324, 0.016589243, 0.07000427, -0.002134199, 0.063950926, -0.051694773, -0.080177195, -0.15724121, -0.044007365, -0.09465278, 0.075918816, -0.027289081, 0.043254375, 0.032957394},
    {0.03353788, 0.04851389, -0.100603156, 0.06654469, -0.037065014, -0.086485304, 0.060206212, -0.06638447, -0.00787898, 0.013182599, 0.11531322, 0.024295028, -0.01530907, 0.11221141, -0.004482127, -0.06476596},
    {0.042284414, -0.010612059, 0.042832993, 0.006944788, -0.06592401, 0.0401562, 0.013140335, 0.080838725, 0.04381396, -0.06322424, -0.020763673, 0.04598713, -0.022382172, 0.041682083, 0.06555002, -0.01852495},
    {-0.08768081, -0.07688334, 0.015295405, -0.025145149, -0.019716838, 0.13805634, -0.102578126, -0.033549953, -0.06466659, -0.07450218, -0.10401766, -0.033194426, -0.10714699, 0.02546196, 0.06822322, 0.009901784},
    {0.06698011, 0.030270685, -0.0014137384, -0.016469821, 0.0133977365, 0.050825804, 0.0113484375, -0.0048526227, -0.027915247, 0.028216513, -0.008096292, 0.0031964008, -0.01989301, -0.035849713, -0.020058217, 0.025574477},
    {0.009245811, 0.009645368, 0.067793325, 0.042682916, -0.012536325, 0.043805975, 0.003942087, -0.017464789, 0.049033374, 0.02780105, -0.013072942, 0.025933959, -0.029657291, 0.042285826, -0.060890462, -0.02077617},
    {-0.015762499, 0.005995419, -0.005944316, -0.017037274, -0.035487533, 0.119200625, -0.058007643, -0.009117392, 0.011333615, 0.06440476, -0.012386999, 0.029990844, 0.026467651, 0.04637671, -0.031486623, -0.021597087},
    {-0.032972407, -0.050711587, 0.0015569672, 0.009307197, -0.023914056, -0.0600967, -0.029020395, -0.010790066, 0.017800845, 0.00023973729, -0.036055747, 0.037296638, -0.036006648, 0.0013573118, 0.04142929, -0.027670858},
    {0.0042939135, 0.0035132188, 0.006101139, -0.022285957, -0.016146548, 0.020189244, 0.006467697, 0.024185399, 0.019903302, 0.049750477, -0.023344994, 0.00062575017, -0.005937192, -0.024172738, -0.011304884, 0.0051484727},
    {-0.03860045, -0.035398196, 0.031198733, -0.039880894, 0.0035971403, -0.003468421, -0.029490922, 0.027183883, 0.015468984, -0.0010036264, -0.0166541, 0.037757423, -0.0034128719, -0.015772913, 0.13066432, 0.01174023},
    {-0.028945822, -0.009768748, -0.023881406, -0.0016567367, -0.030135382, -0.014168681, 0.059999865, 0.039770022, 0.015526219, -0.0014073447, 0.05023361, -0.024324635, -0.010615533, 0.015427086, 0.07301997, -0.05968644},
    {-0.0018877105, 0.068007894, -0.0245277, 0.0061764694, 0.03150118, 0.009327069, 0.07625787, 0.05709999, 0.009939746, -0.049674507, 0.031373058, -0.0058144806, -0.007105751, -0.018418215, 0.044923943, -0.016392512},
    {0.0050583268, 0.010346828, 0.009919403, 0.07955781, 0.0085944375, -0.019131565, -0.0353214, -0.014832715, -0.004339816, 0.020736115, 0.029671986, -0.0061250217, -0.0201516, 0.016026314, -0.13585256, -0.059612066},
    {-0.06742579, 0.0064471955, -0.0030267525, -0.02353975, 0.0028808245, 0.08080036, -0.06746445, 0.008778733, -0.025026508, -0.08989364, -0.0214094, -0.024801921, -0.06977469, 0.016608732, 0.035953794, 0.020496715},
    {-0.04586862, -0.026049694, 0.010839508, -0.038184386, 0.0044104173, -0.02603023, -0.034034155, 0.011673369, 0.051334076, -0.025295727, -0.0139248045, 0.0071740244, -0.047514938, -0.040386036, 0.05675728, -0.011067362},
    {0.03045343, 0.05317085, -0.061565217, 0.072056815, -0.029837834, 0.018359859, 0.08170613, 0.013591608, 0.032444824, -0.05199444, 0.03398299, -0.052804977, 0.0016257424, -0.008842593, 0.06648326, 0.034470715},
    {-0.00827484, -0.0055372464, 0.009144916, -0.01406449, -0.04676515, 0.011329186, -0.043652, -0.048077244, -0.0015544615, -0.015848065, 0.045518517, -0.047569457, 0.07679284, 0.007886976, -0.048854295, -0.010820168},
    {0.0006772354, -0.008646369, -0.013654571, 0.008825809, -0.012730092, -0.008689803, -0.025372624, -0.06282304, -0.021572156, -0.03315081, 0.0051128655, -0.00701646, 0.033356298, 0.023500096, -0.01680673, -0.046189576},
    {0.049311295, 0.017044391, -0.05490665, 0.038846955, 0.03709589, -0.021870315, 0.024325661, 0.06329092, 0.01766225, -0.05518691, -0.023291953, 0.0114651825, 0.023755673, 0.011154745, 0.05644257, 0.013537656},
    {0.0032089374, 0.025564844, 0.023233443, 0.0337472, 0.0040612123, 0.06568642, -0.03735901, -0.033024017, -0.016083546, -0.0048959483, -0.006179945, -0.01569818, -0.09316752, -0.031604543, -0.046314534, -0.00516898},
    {0.044682268, 0.067462936, 0.006937297, -0.0149743585, 0.021120869, 0.045852687, 0.005921718, 0.040347364, -0.010839544, 0.032013714, 0.023935474, -0.01966904, 0.028938375, -0.05657179, -0.019941673, -0.013627576},
    {-0.015128882, -0.040001538, 0.05619552, -0.0043794923, -0.008255137, 0.049087323, -0.01397085, -0.007872951, 0.012995762, 0.02553313, -0.04274016, 0.023759497, -0.07073073, 0.06678741, -0.04126659, 0.043429855},
    {0.00088213035, 0.036984105, -0.021142108, -0.02234677, -0.02869403, 0.05362913, -0.006893092, 0.02919716, 0.04743314, 0.028474433, 0.019465439, -0.0034566442, -0.025016295, 0.022918813, -0.04353796, -0.028819637},
    {-0.03673155, -0.068673514, 0.066136695, 0.052814588, -0.04874549, -0.063139856, 0.028013248, -0.044502005, -0.004741946, -0.029493487, -0.023890333, 0.022645233, 0.0003256139, 0.0046174023, 0.014017454, 0.012228886},
    {0.025139922, 0.021816546, 0.010971542, 0.0042761094, 0.01262598, -0.026841156, 0.024028229, 0.016390853, -0.008096271, 0.016019875, -0.00801604, 0.000101464975, 0.016366161, -0.026992023, -0.03518516, 0.0009607626},
    {-0.004726018, -0.008451607, 0.022693422, 0.032653656, -0.028590139, -0.012474372, 0.01021331, 0.044027377, -0.013586937, 0.029728882, -0.045631137, 0.019986445, -0.01132913, -0.016389783, -0.00369824, -0.0034217373},
    {0.02521345, -0.006264347, -0.001480882, 0.049778596, -0.019251334, -0.010185663, -0.008309147, 0.02982799, 0.009964665, -0.0074435356, -0.013369456, -0.026212865, 0.009771502, 0.007952683, -0.0020456582, -0.04159077},
    {0.06824587, 0.076942414, -0.017899372, -0.015431135, 0.0002326663, -0.00540183, 0.002963902, 0.048029467, 0.038692594, -0.0016479065, 0.036870595, -0.0027803355, -0.04770068, -0.07708633, -0.014266104, -0.03642416},
    {0.041024424, 0.03305685, 0.026344113, 0.043410804, 0.0061851013, 0.015525013, -0.020545596, 0.006558833, 0.037116554, 0.00221098, 0.025447404, -0.013282689, 0.024670873, -0.05849777, -0.13405503, -0.002277716},
    {-0.017684653, 0.060661327, -0.030649427, -0.07333565, -0.025145262, 0.06920916, -0.011515607, -0.056381408, -0.00927184, -0.022373818, 0.06224308, -0.039104033, 0.01884581, 0.021847837, 0.0053960774, -0.023969512},
    {0.031673975, -0.017311083, -0.011990955, 0.045799453, -0.0054446775, -0.056132857, -0.01317657, 0.014005416, 0.01868499, 0.036050137, -0.03737751, 0.033385728, -0.07131085, -0.07322726, -0.07983832, -0.023210946},
    {0.02236425, 0.07320728, 0.015311337, 0.041126356, 0.026323905, -0.02875047, 0.003925165, -0.024756627, 0.01050164, 0.0020040055, -0.0013677764, -0.068273835, -0.031201309, -0.049078625, -0.015241079, -0.0020685638},
    {-0.032183006, -0.02218037, 0.031400464, -0.022919288, -0.014269232, -0.017456716, 0.0011162193, -0.018253094, -0.030284386, -0.013766465, 0.02852382, 0.022164593, 0.023446567, 0.025632914, -0.02370347, -0.042885907},
    {-0.02124713, 0.00357198, -0.004442988, -0.008182789, -0.020305736, -0.009947127, 0.0017995213, -0.038408887, 0.028903339, -0.012509233, 0.078969754, 0.034519885, 0.062254146, 0.021867048, 0.00028503378, -0.021539398},
    {0.047995877, 0.060050666, -0.065158665, 0.022875955, -0.008643872, -0.07316694, 0.047284048, 0.037590265, 0.018625015, -0.063574426, 0.002927282, 0.013087175, -0.024353204, 0.0082795005, 0.049795616, 0.03486071},
    {0.023316815, 0.06288736, -0.015179743, -0.012234068, 0.0035687054, 0.10909781, -0.017409787, -0.019183217, 0.0035523025, -0.00378704, 0.051191524, -0.05197519, -0.011433809, 0.010931015, -0.042504113, -0.026517957},
    {0.03687277, 0.046022456, -0.0009863877, -0.027526196, 0.03353672, 0.0013461572, -0.003906492, 0.04630501, 8.3954525e-05, 0.035106044, 0.0051393355, 0.0104075745, 0.018580992, -0.017564321, -0.04520472, -0.03154813},
    {-0.026546417, -0.048529334, 0.00051774917, 0.034185864, 0.0019207016, 0.037576407, -0.039466713, -0.02785116, 0.008962353, 0.033573993, -0.061108302, 0.0085923895, -0.08298344, 0.046265025, 0.005806935, 0.045670755},
    {-0.005222613, 0.02460022, -0.03277444, -0.029727818, -0.051034424, 0.052866492, 0.006763411, 0.053656757, 0.023082567, 0.050194684, 0.0018635625, 0.0062996643, -0.030573837, 0.008820453, -0.04194826, -0.01785642},
    {-0.054262772, -0.02166628, 0.028155584, -0.0033170097, -0.094367675, -0.07498526, 0.07639555, -0.013770832, -0.030890696, -0.021792274, -0.03743003, -0.0069824546, -0.00059590884, 0.072436675, 0.0180307, 0.072597876},
    {0.006807429, 0.033680424, -0.0153984185, 0.019325182, 0.055715766, -0.057312112, 0.018145803, -0.014659068, 0.021943327, 0.040770385, 0.014323102, 0.06397421, 0.03792327, 0.023926292, 0.019490484, 0.019524356},
    {0.032716013, 0.013228926, 0.008011088, -0.010259615, 0.030340994, -0.05411427, 0.073685035, 0.0112156635, 0.007105277, 0.032642324, -0.011755905, 0.029514235, 0.020201033, -0.00958859, -0.013641291, 0.031194527},
    {0.012526313, 0.010790838, 0.020988574, 0.008763008, -0.0068931263, -0.023337413, 0.03241061, -0.012367294, 0.011049865, 0.0041846717, -0.007620479, -0.0059214667, -0.004528971, 0.00022789891, -0.01406149, 0.0056882496},
    {0.05018411, 0.01938816, -0.024697801, 0.022353474, -0.016882833, -0.023124147, -0.0080975015, 0.008418065, 0.02072152, -0.018629061, -0.0011008531, -0.017037215, -0.007109461, -0.023023047, -0.057732817, -0.051388536},
    {0.022814361, 0.010253196, 0.035166856, 0.050272163, 0.009894713, 0.053874206, 0.02028865, 0.03355411, -0.004190912, 0.0055981483, 0.004363167, -0.044946264, -0.012379678, -0.06150482, -0.06650671, -0.03567618},
    {-0.02546827, 0.08335057, -0.014782389, -0.041787907, -0.0042263553, 0.07693615, -0.0067149615, 0.022226669, 0.018309474, 0.05473036, 0.029677575, -0.05059586, -0.01922488, 0.030759133, -0.017812073, -0.012485135},
    {0.012710723, 0.009627248, 0.036703523, 0.026837759, 0.02990356, -0.07377803, 0.055665415, -0.028236436, 0.0019788523, 0.0048822253, -0.017606448, 0.06038309, 0.03169967, -0.042545944, -0.08388219, 0.021346295},
    {0.03664106, 0.05691495, 0.03933019, 0.017829986, 0.06019082, -0.010259486, 0.010972263, -0.016545588, -0.013190992, -0.0016615691, -0.040709447, 0.022868285, -0.061596517, -0.04158216, -0.006798497, -0.0074053714},
    {-0.0030286394, -0.042790353, 0.017730674, -0.007691959, -0.06757882, -0.009798316, -0.006418716, 0.023840107, 0.0011667405, -0.07717743, 0.010856855, -0.017791174, -0.004708155, 0.04566433, -0.03960347, -0.023132468},
    {0.011517564, 0.00028719704, 0.011816786, 0.010944504, -0.041553993, 0.015883053, 0.010881123, -0.006151722, -0.024197327, -0.013176496, 0.0407737, -0.019251652, 0.029711748, 0.011234615, 0.0052973093, -0.021483822},
    {0.028121283, 0.019147255, -0.011383202, 0.009721764, 0.021435568, -0.045883458, -0.04370632, -0.012172082, 0.03293204, 0.04513677, 0.010536316, -0.02430206, -0.00041079288, 0.012185648, 0.05156982, 0.011568456},
    {0.027819594, 0.029710075, -0.0005601983, -0.023109088, -0.0075256727, 0.03557318, -0.07238453, 0.023204757, -0.010934601, -0.0079493495, 0.04026347, -0.011626263, -0.005699003, 0.04507641, -0.047656853, 0.011928618},
    {0.04829735, -0.014582528, 0.007479052, -0.030248323, 0.042092204, 0.027986994, 0.00070413755, 0.007848057, -0.012990459, -0.0073859715, 0.018315012, 0.023451978, 0.033598136, -0.019974872, -0.043990564, -0.06479161},
    {-0.029735936, 0.025164051, -0.015928943, 0.025629312, 0.008014402, 0.057622608, -0.03409732, -0.058567017, 0.024640093, 0.039518055, 0.011914166, -0.0022059965, -0.03909744, 0.05713438, -0.041331977, 0.0018830829},
    {0.05903662, 0.017909532, -0.0032967452, -0.025518142, 0.026873324, 0.03682007, 0.005002822, 0.0031114959, 0.009788236, 0.012348733, 0.023909597, 0.013103297, 0.022857724, -0.008713549, -0.013550078, -0.038517796},
    {-0.09467903, 0.014806982, 0.02768201, 0.0019591702, -0.047951236, -0.037790347, 0.09138714, 0.015784726, 0.008494409, -0.02850543, 0.02131084, -0.05354243, 0.042075757, 0.004177641, 0.044474043, 0.10076597},
    {-9.388076e-05, -0.003888018, 0.017336676, 0.00041266804, 0.034240127, 0.007185705, 0.038443103, -0.0050451136, 0.050210822, 0.060133226, 0.03594295, 0.034564804, 0.039325383, -0.0028068472, -0.03501062, -0.01745132},
    {-0.008045181, 0.0061848494, 0.062915534, -0.019572714, 0.016416144, -0.062234826, 0.04174704, 0.04235502, -0.002060875, 0.017886834, 0.015142235, 0.043060414, 0.026480805, 0.0234153, 0.020206215, 0.039581347},
    {0.01665693, 0.0076387674, -0.002977462, 0.03634727, 0.016160328, -0.007894867, 0.017470881, 0.010636074, 0.020213252, 0.002222848, -0.020197235, 0.018421365, 0.021644227, 0.022125944, -0.020354675, 0.006063698},
    {0.029357815, -0.008200668, 0.029569242, 0.0064893016, 0.015437565, 0.008914224, -0.0015676899, -0.03203685, -0.01088619, -0.014746437, -0.03991843, 0.013619583, -0.02106204, -0.04541149, -0.085929625, -0.04567793},
    {0.03933916, -0.01255654, -0.02566899, 0.047639966, -0.014929388, 0.059217177, -0.006598067, 0.041721635, 0.01670158, -0.0064744065, -0.024566064, -0.037452318, -0.012781526, 0.011493254, -0.08445134, -0.06374113},
    {-0.0057386537, 0.0059194015, -0.022570856, 0.03919375, 0.021620667, 0.010590845, 0.012566523, -0.03620766, 0.0006641608, -0.0065387874, 0.007717228, -0.06598048, -0.019631494, -0.0075418213, -0.03798075, -0.05742427},
    {0.009593248, 0.00961884, 0.025726505, -0.048862264, -0.004681665, -0.010915825, 0.06311431, 0.023086645, 0.04100007, 0.015188643, 0.039073497, 0.034378603, 0.05823485, -0.017951267, -0.002979148, 0.012059191},
    {-0.048714723, 0.06937264, 0.006321567, 0.018689776, 0.0402205, -0.006445286, 0.031290215, -0.026810963, -0.010972233, 0.02601566, -0.001371155, -0.010011658, -0.033064477, -0.026869504, 0.05537896, -0.03113585},
    {0.019773182, 0.024335608, -0.00957406, -0.043077495, -0.026743127, -0.0017722312, -0.021680105, -0.008449035, -0.011597287, -0.03531249, 0.0070373164, 0.04099644, -0.025748333, 0.03570837, -0.035072688, -0.041432988},
    {-0.0060638944, 0.033311754, -0.0037032336, 0.011152835, -0.023650616, -0.060920138, 0.013352599, 0.011520056, -0.030903589, 0.024448749, 0.046171635, 0.02001594, 0.049007084, -0.036786463, -0.013205185, 0.04278493},
    {-0.024775572, 0.008719719, -0.0154988095, 0.014481858, 0.015022471, -0.019235156, -0.018607898, -0.01942896, -0.0020741187, 0.05145956, 0.002840752, -0.009373613, -0.031023629, 0.017560843, 0.0066279112, -0.007499653},
    {0.07357869, 0.028850095, -0.039456416, 0.005909975, 0.028905213, 0.053028665, -0.035386145, -0.012296981, -0.003789832, -0.023370745, 0.04221655, -0.023488307, 0.015145778, 0.022583699, -0.07549425, -0.028176764},
    {0.03638401, 0.00065199076, -0.013308396, -0.02591539, -0.010495112, 0.005548327, 0.0008221763, -0.0016502221, -0.009806229, -0.04655459, 0.07443102, 0.03515661, 0.07216021, -0.015791278, -0.038369983, -0.096012816},
    {0.004902849, 0.03199319, 0.015642224, -0.0007866159, 0.042355716, 0.022646531, -0.020986203, -0.007644033, 0.06701509, -0.02779568, 0.067836635, 0.015584766, -0.010224756, 0.07175387, 0.025150267, 0.0062315655},
    {0.06363439, 0.014895369, -0.05927521, -0.01838741, 0.034859523, 0.045254268, -0.01910984, -0.006728621, 0.01221405, -0.030488702, 0.048842724, 0.00049903296, 0.013112126, 0.0075263996, -0.02694304, -0.052126605},
    {-0.05669007, 0.024063809, -0.007898118, -0.022329593, -0.017105922, -0.058657795, 0.07123138, 0.04498825, 0.04504506, -0.040112454, -0.016914558, -0.028246924, -0.020508321, -0.02022412, 0.028958756, 0.09148386},
    {0.0027432304, 0.0052196365, 0.0053391824, -0.014069701, 0.015057748, 0.054974843, 0.019813567, -0.0021162666, 0.02695314, 0.025583554, 0.062095225, -0.0054552704, 0.046192918, 0.0065612355, -0.0017956052, -0.05480021},
    {-0.009164666, -0.013177121, 0.027071739, -0.02987435, -0.023551632, -0.013354202, 0.07173605, 0.05143541, -0.026496073, 0.04817731, 0.012531111, 0.015719458, 0.04631308, -0.002217343, 0.013674087, 0.043184623},
    {-0.019937566, 0.023666518, 0.025399128, 0.006798928, 0.009226576, -4.6426016e-05, 0.043959126, 0.02130659, 0.00078326114, 0.015724046, 0.0070541776, 0.009256074, 0.016345056, 0.027100304, 0.009714239, 0.023912966},
    {-0.009285021, 0.025327634, 0.015462811, 0.0006396435, 0.0126072215, 0.0037985295, 0.028196327, 0.0023836528, -0.011974633, -0.0040423544, 0.014944845, 0.00330939, 0.072289295, -0.007271349, -0.028632266, 0.009855844},
    {0.06721727, 0.016368113, 0.010275518, 0.03789734, 0.02214105, 0.058200017, 0.0303823, 7.8522135e-07, 0.012075655, -0.030935815, -0.0067387554, 0.0026921744, 0.028885016, -0.019079313, -0.041978583, 0.0066402196},
    {0.017004237, 0.020214433, -0.03007495, 0.07893605, 0.017382797, -0.02561686, -0.0017005713, 0.019667815, 0.078575075, -0.10898704, 0.01821043, -0.0017376596, -0.037801623, 0.020206029, -0.00601427, -0.034991387},
    {0.010258289, -0.03190804, 0.02848805, -0.05794827, -0.051518057, -0.0020459394, 0.0770124, 0.034504887, 0.001958376, 0.035363313, 0.0040521678, 0.04094238, 0.055270936, -0.006753334, -0.028178709, 0.016749147},
    {-0.037996855, 0.028339053, 0.034029722, 0.051260583, 0.054608807, -0.020399123, -0.008260443, -0.04039802, -0.008530864, -0.014795255, -0.029173197, 0.015108871, -0.008392776, -0.051317394, -0.009248737, -0.020551322},
    {0.05465579, -0.0035672116, 0.026510736, 0.0050571742, -0.013429838, 0.00058925466, -0.024574604, -0.0111256605, -0.021188911, -0.041679285, -0.041008014, -0.03213052, -0.0013265066, -0.0075212736, 0.026505481, 0.0009012432},
    {0.026780937, -0.002011605, -0.032517005, 0.02712065, -0.052477427, -0.042419884, -0.00034068455, 0.0013973124, -0.008163346, -0.022463053, -0.0349432, 0.012610877, -0.060124107, -0.002904247, 0.01654669, 0.050418694},
    {-0.005728323, 0.02751739, 0.021482684, 0.056346986, -0.0039375867, -0.010062714, -0.025282055, -0.08694569, 0.039592512, 0.021007504, -0.035887588, -0.03993341, -0.032169722, 0.022347087, 0.0047057457, -0.019328918},
    {0.043941166, 0.040317576, -0.025906755, 0.002254161, 0.050786942, -0.06876841, -0.0785732, -0.0007718875, -0.03675663, -0.029410588, 0.016470458, 0.005770451, -0.019846544, 0.037403144, -0.009053657, -0.05658999},
    {0.02168291, -0.017212376, -0.048278295, -0.052658956, -0.04131909, 0.01521188, 0.013540181, -0.026127385, -0.022560319, -0.000910028, 0.051698416, 0.049078733, 0.01770767, 0.009961052, -0.059211936, -0.07403534},
    {0.041345935, 0.01959771, 0.02250034, 0.0040149135, 0.0011921638, -0.008184824, 0.0015238015, 0.020987483, 0.008759657, -0.005036675, -0.005096272, -0.032942697, -0.03721708, -0.012631734, 0.041788053, 0.005052881},
    {0.038577463, 0.0029604807, -0.037991732, -0.046955723, -0.013244697, 0.02582277, -0.010208412, -0.019012386, -0.01860074, -0.033624925, 0.075928345, 0.009977852, 0.058732115, 0.01215184, -0.03090311, -0.0902629},
    {-0.017133769, 0.045272138, 0.01823002, 0.014405919, 0.026634097, 0.018121202, 0.0596158, 0.05435386, 0.024068842, -0.040578607, -0.036265306, -0.058447048, -0.050206482, 0.0019947558, 0.05444827, 0.006789412},
    {-0.012363535, -0.01716918, 0.012802151, -0.011930496, 0.019414717, 0.01604318, 0.013721347, 0.0052177077, -0.027103579, -0.0154428035, 0.026451694, 0.023112616, 0.044138387, -0.01007683, 0.006998501, -0.058810722},
    {-0.012901442, 0.01608159, 0.010812075, -0.010326577, -0.02734493, 0.0036214227, 0.04943952, 0.02317984, -0.03531148, 0.03029917, 0.0024587852, -0.013977686, 0.054354537, -0.0034029868, -0.014216087, -0.012590629},
    {0.0046230825, 0.02454218, 0.0032413776, 0.023012664, -0.027876925, 0.054180995, 0.03261946, 0.009298963, 0.0030889066, 0.0035734714, -0.008082916, -0.058185488, 0.011544113, -0.0029318635, -0.009324685, -0.0052934024},
    {-0.008763716, -0.047292978, 0.011471568, -0.009536606, -0.027100766, 0.012709932, 0.011697964, -0.015527006, -0.0060591786, -0.033466224, 0.005764716, -0.020575542, -0.0054696496, -0.0225698, -0.044745333, -0.039228044},
    {0.039802894, -0.0045702606, -0.01291963, -0.01454785, 0.020003466, 0.052668914, 0.04097885, 0.041044552, -0.012446535, -0.014971558, -0.03577917, -0.043471992, 0.002276673, -0.000779214, -0.026557019, 0.024303865},
    {0.037531935, -0.015509924, 0.012946186, 0.06564123, 0.038928103, -0.05785776, -0.036304697, -0.029243967, -0.0071166516, -0.072491296, 0.031797454, 0.036138207, 0.017931974, -0.02234533, -0.0054590674, -0.061224937},
    {0.014603773, -0.0069277277, -0.0023530354, -0.028748142, -0.061798498, 0.037103392, 0.09119589, 0.041373815, -0.052328788, -0.0023804882, 0.0017900735, 0.017419973, 0.05987229, -0.009771897, -0.04412564, -0.035101436},
    {0.0057743457, 0.015311977, 0.045361876, 0.052401725, 0.058177993, 0.021167548, -0.014439762, -0.06646202, -0.020180076, -0.08116795, 0.028990127, -0.036832437, 0.007233011, -0.028399944, 0.011603078, 0.010600687},
    {0.01908733, -0.003450645, -0.013852489, 0.014589449, -0.0058475593, -0.0043682605, -0.025316868, 0.021168333, 0.024111109, -0.008618211, -0.012807204, -0.007629216, -0.018639132, -0.0027797834, -0.034732245, -0.02503287},
    {-0.006396691, -0.02645438, 0.01020909, 0.019970197, -0.033314615, -0.032022107, -0.023801647, -0.020093543, 0.010609359, -0.02304143, -0.01568017, 0.006360984, -0.016977886, -0.0020295545, 0.00606509, -0.024144068},
    {-0.04145524, 0.0020304858, -0.005111599, 0.04572815, 0.03488791, -0.061051335, -0.04351479, -0.07342753, 0.03065649, -0.0063575213, 0.0306682, 0.021526655, 0.06604485, 0.0067236554, 0.0024735434, 0.0054509686},
    {0.037920374, 0.04087071, -0.08067947, 0.012027539, 0.028000476, 0.0022768907, -0.06356305, -0.004880768, -0.06274404, -0.018623084, 0.03195287, 0.050217856, 0.021463903, 0.045603402, -0.017303951, -0.030662535},
    {-0.010809186, -0.019280165, -0.0076441187, -0.025989788, -0.04657135, 0.009048957, -0.0020323386, -0.041330867, -0.063156694, -0.020074503, 0.0567066, -0.03430046, 0.011673503, -0.026492432, -0.06430783, -0.06138091},
    {0.037471212, 0.052662335, 0.015988171, 0.027676849, -0.0035751015, -0.022684386, -0.033936206, -0.018477064, 0.039562672, 0.009845818, 0.026753472, -0.025542563, 0.008286792, -0.010712151, -0.031097677, 0.013595187},
    {0.021508012, -0.005653432, -0.05379239, 0.0025494096, -0.025153304, -0.024097608, -0.027338006, -0.014834619, -0.01600006, -0.010246319, 0.045579784, 0.049651198, 0.03665508, 0.055597488, -0.052501436, -0.059238184},
    {-0.0056111133, 0.033939924, 0.025173113, -0.027731877, 0.011114208, 0.027982665, 0.023756955, -0.025143487, 0.010935049, -0.0039405134, 0.020234475, -0.0465168, -0.004733804, -0.02050187, 0.044890266, 0.016577624},
    {-0.016443577, 0.0048051295, 0.019897768, -0.0051233866, 0.008363109, 0.009671213, -0.036666654, -0.044759165, 0.0017141363, -0.012160221, 0.04714234, 0.004316734, 0.017261555, -0.025154626, -0.057094373, -0.032818828},
    {0.0051248968, 0.01652808, 0.028250627, -0.018281518, -0.0222402, 0.02621861, 0.04362331, -0.015287893, -0.046701994, 0.017369462, -0.0082959, -0.0063933735, 0.054494508, 0.008251244, -0.0068814456, 0.027451454},
    {-0.0127751175, 0.03163715, 0.024548484, -0.02851584, -0.0038497285, 0.024720501, 0.02030861, -0.019463088, -0.027380947, -0.027267687, 6.3316045e-05, -0.03949245, 0.0307203, -0.015828716, 0.028923932, 0.033919167},
    {0.02422563, -0.014345007, 0.004739213, -0.045859993, -0.03122937, 0.031538405, 0.01725979, -0.02165534, -0.005080374, -0.01625061, 0.04615288, -0.0005714877, 0.06393627, -0.048553746, 0.006406277, -0.015308725},
    {0.048483893, 0.009200574, 0.034456097, -0.0056106867, -0.018228648, -0.024205616, 0.02577553, 0.0041175946, 0.005572619, 0.008123079, 0.0010354546, -0.033133883, 0.023783473, -0.0005113851, -0.016092787, 0.020973086},
    {0.044360373, 0.003699247, 0.029262524, 0.00029012602, 0.05957968, -0.056092143, -0.024669068, 0.006887702, -0.0139976675, -0.050486274, 0.020009017, 0.048017133, -0.032709166, 0.034942515, -0.011906618, 0.0005561269},
    {0.0117785055, -0.009249561, 0.0047460794, -0.001618819, -0.047467284, 0.013097769, 0.041831706, -0.057198945, -0.018376768, 0.010801871, 0.03766436, -0.0043337476, 0.09011223, -0.035701662, -0.025400069, 0.022665087},
    {-0.015542649, 0.026539342, 0.021329034, 0.057494104, 0.039897252, -0.028811295, -0.036835045, -0.017980073, -0.008171539, -0.029302571, 0.016655315, -0.019843264, 0.03633151, -0.0065438394, 0.10174426, 0.016366486},
    {-0.020901797, -0.0062696547, 0.0049262894, -0.031128595, -0.060401455, -0.024853192, -0.0015792854, 0.034577634, 0.010052298, -0.03880154, 0.022620317, 0.020547092, -0.07316975, -0.0036046945, 0.022732537, -0.007772771},
    {0.0038694285, -0.018985033, -0.0059545534, 0.0027834594, -0.042187188, 0.02907593, 0.023379412, 0.031798806, 0.010343162, -0.07839525, -0.038337436, -0.017471949, -0.030160153, 0.053414945, -0.012753163, -0.015769636},
    {0.017009027, -0.0041737724, 0.007966141, 0.052853793, -0.033791084, -0.037496928, -0.021495707, -0.017566968, 0.0062618237, -0.018397748, 0.0006326944, -0.03580873, 0.04005059, -0.012785067, 0.014235596, 0.018017933},
    {0.048541743, 0.0628255, -0.03323156, -0.02373798, 0.029126462, -0.036853995, -0.025709076, -0.0015936806, -0.05889366, 0.019205261, -0.01969715, 0.008855214, -0.062968366, 0.056129623, -0.036199722, 0.008017548},
    {0.03204849, -0.019798199, -0.015758203, -0.025450278, -0.046735156, -0.023549063, -0.001014592, -0.031012198, 0.009072214, 0.02237134, 0.016352737, -0.029182738, 0.026497288, 0.0148646645, -0.012957037, -0.059021965},
    {0.015698358, 0.0026426795, 0.0424311, 0.006182522, -0.050504845, 0.019150397, -0.012331435, 0.020141223, 0.006330763, 0.029994657, 0.00816992, 0.023871455, 0.004526546, 0.04827052, -0.0076169865, -0.014890937},
    {0.024031809, -0.008284872, -0.02231599, -0.013133465, -0.04644522, -0.01882897, -0.0043561514, -0.03375561, -0.03945672, 0.03956909, 0.046930943, -0.014496206, 0.036574937, -0.015153205, -0.03452513, -0.053867463},
    {0.041654248, 0.010908926, 0.00934104, -0.013774714, -0.007918944, 0.028715316, 0.02869248, 0.023049934, 0.024757119, 0.026785124, -0.0039037545, -0.03803771, 0.0013892977, -0.02033138, 0.021610854, 0.003623985},
    {-0.009595539, 0.028194068, 0.030810991, -0.012022362, 0.0060374606, -0.035305016, 0.001895543, -0.049715463, 0.00032417476, 0.025992984, 0.021729492, 0.0096076485, 0.015990917, 0.019849839, -0.028017875, -0.044673793},
    {0.008216651, 0.0058649657, -0.0066865585, -0.022756629, -0.016043007, 0.030398902, 0.035431772, 0.006794017, -0.030725362, 0.03116673, -0.026829246, 0.017509937, 0.038402345, 0.012472939, -0.017187329, 0.015660636},
    {0.0021690077, 0.019791124, -0.005737268, 0.0035551372, -0.018157333, 0.029070659, 0.024887659, 0.006511067, -0.01774713, 0.0018857345, 0.01884735, -0.0015270204, 0.02223556, 0.0072258753, 0.0062662475, 0.008705779},
    {0.017888034, 0.0036109174, -0.019853858, 0.00287246, -0.034761626, 0.006423627, 0.01053658, -0.016173046, -0.0153976055, 0.010023939, 0.026349803, 0.006526766, 0.047112335, -0.0022090897, -0.005023333, -0.0005082434},
    {-0.0045577944, 0.011929634, 0.013100216, 0.0042950357, 0.009389104, -0.0035085604, 0.024446156, 0.031155668, 0.027577303, -0.02471337, 0.01932513, 0.021785056, 0.016228491, -0.010716241, 0.047741674, -0.027319083},
    {-0.004482209, 0.023198577, 0.02046248, 0.01910573, 0.03254658, -0.062490106, 0.0121396305, 0.03373004, 0.008911806, -0.032250218, 0.02049107, 0.020336349, 0.004758901, 0.0060618212, 0.046663903, 0.013037186},
    {-0.012774299, 0.0038169697, -0.011408926, 0.005314486, -0.046592105, 0.0302527, 0.03531178, 0.0050831544, -0.04141408, 0.0030961724, -0.025813907, -0.017818239, 0.0251846, 0.002704056, -0.06603404, -0.008774814},
    {0.047547903, -0.034709588, 0.06822667, 0.029789533, 0.013880666, -0.04312113, -0.0108883465, -0.007232721, 0.010714295, -0.021473126, 0.019385388, 6.043243e-05, 0.0057414365, -0.005020223, 0.0052370774, -0.013747866},
    {-0.038580135, -0.011435644, 0.0053030206, -0.012359385, -0.023059709, -0.005261693, -0.0039974577, 0.0050509274, 0.023279142, -0.037451815, -0.015428104, 0.04984546, -0.0654086, -0.014802239, -0.0052273325, 0.010106695},
    {0.008084318, 0.012633479, -0.021174934, 0.015092253, -0.06736321, -0.021189095, 0.020969056, 0.0049630026, 0.035072293, -0.023187116, -0.020623535, 0.017898485, -0.025332794, -0.010425654, -0.010707509, 0.008132881},
    {0.030966518, -0.029861229, -0.0056021903, 0.06599915, -0.005578608, -0.034978937, -0.016426986, -0.03587964, -0.0012975184, -0.029015366, 0.008439669, -0.011183634, 0.06672061, -0.0010866696, -0.0053242138, -0.029333694},
    {0.057506178, 0.056652468, -0.023489473, -0.03230979, 0.023501312, -0.0073939036, -0.008988792, -0.024144502, -0.0482369, 0.05834797, 0.011876732, 0.014235671, 0.07439369, 0.02880136, -0.032237966, -0.0002504123},
    {0.01784737, -0.012381967, -0.025437737, -0.038723968, -0.021621102, -0.023434969, -0.002281082, -0.041273985, -0.036108322, -0.013065349, -0.009180397, -0.0022816043, -0.04594489, -0.006102067, -0.028404195, -0.010076881},
    {-0.008067957, 0.0032892409, -0.015279654, 0.012313183, 0.0010136378, -0.044039194, -0.0023850224, 0.020956201, 0.036497638, 0.01328988, -0.0103791645, 0.029166756, -0.0062960284, 0.006339536, 0.015302059, -0.01592003},
    {0.04375535, -0.008403114, -0.02585877, -0.0334244, 0.0023088332, -0.010655429, -0.013518746, -0.03231947, -0.0017915546, 0.044847265, 0.021157878, -0.012206749, 0.019935383, 0.025731612, -0.0048833503, -0.04015447},
    {0.044683237, 0.0042969296, -0.0031502256, 0.008561729, -0.002555783, 0.033165853, 0.019589981, -0.030054606, -0.024770144, -0.032102544, -0.0011073477, -0.025022356, -0.013372172, -0.03239532, -0.0061133336, 0.0044393935},
    {-0.028721243, 0.0126045495, -0.001098813, -0.016709745, 0.015802423, -0.06341186, -0.038362574, -0.05632965, -0.043570295, -0.0032184636, 0.040598135, 0.0066354703, 0.0006082411, 0.0048994943, -0.0056439345, -0.021538673},
    {0.015496239, 0.0071678483, 0.0049388795, -0.003955915, 0.017715143, 0.032577515, 0.015943332, 0.005784558, -0.009882399, 0.039000392, -0.021906316, 0.013461888, 0.03564565, 0.0068567405, -0.020082606, 0.007308747},
    {-0.00047237845, 0.008363492, 0.009016231, 0.0011464278, -0.016497696, 0.03646787, 0.0034168558, 0.01877774, -0.0119772535, -0.0056653237, -0.009493825, -0.005100715, 0.013885064, 0.002281192, -0.0063976627, 0.011472725},
    {0.004199071, -0.017561035, 0.0010486079, 0.007278084, -0.027013782, -0.0142221395, 0.0029889368, -0.023243688, -0.026293788, 0.003093721, -0.028088044, -0.010335595, 0.014158799, 0.0012165438, -0.014510441, 0.018482642},
    {-0.01623666, -0.012653157, 0.016910786, -0.008817985, -0.021902978, -0.034079447, -0.0029248544, 0.018562589, 0.04664245, -0.00856534, -0.010246684, 0.00545855, -0.038112786, 0.011398334, 0.027158264, -0.015970621},
    {0.035762165, -0.011887243, -0.0005538762, 0.0008490536, -0.00027093408, -0.032611176, 0.03365391, -0.014403936, -0.003957428, 0.025299007, 0.0024930944, -0.019271951, -0.004315678, -0.016410075, -0.018260622, -0.008549609},
    {-0.00022144036, -0.012814345, 0.002936707, -0.009838199, -0.02343211, 0.022131447, -0.005306388, -0.001903205, -0.028660655, 0.0048066285, -0.05427777, -0.015840251, -0.017507829, 0.01706054, -0.045769252, -0.036997024},
    {-0.010325573, -0.013610156, 0.006329735, 0.017398782, 0.010774325, -0.007441359, -0.027265044, 0.004678336, 0.0097539425, -0.030670715, 0.0060575814, 0.010903518, -0.005006916, -0.010372225, 0.066636324, 0.014323162},
    {-0.019582136, -0.0023927782, -0.025690204, 0.027927823, 0.0058278395, -0.015954997, -0.039619263, -0.002155602, 0.03618185, -0.042333383, 0.006649296, 0.010820825, -0.03769484, -0.0059064464, -0.02321088, -0.015919905},
    {-0.013395709, -0.0037083286, -0.025572585, 0.03854476, -0.03603314, 0.033612862, 0.0036888958, 0.00961643, 0.0063401726, -0.08214808, 0.03390308, -0.005282567, -0.013319196, -0.006763425, -0.0075203837, -0.010459447},
    {-0.0052095954, 0.0046884115, -0.0054377243, 0.03242072, -0.023146275, -0.030929007, -0.024795461, -0.013588355, -0.00035475186, -0.001536619, 0.0070362384, -0.008711112, 0.021089522, 0.0049053207, 0.005001912, 0.00045168572},
    {0.037794974, 0.011357303, -0.040076423, -0.019159291, -0.025582312, -0.025748316, 0.0025173037, -0.07062217, -0.018096952, 0.030581634, -0.017358785, -0.03397696, -0.004982719, -0.016397532, -0.021790197, 0.036878914},
    {0.013625575, -0.007217488, 0.010666704, -0.0026613285, -0.036802743, -0.022264361, -0.039421752, -0.057339624, -0.017681953, -0.014652314, 0.023913652, 0.007341723, -0.027220791, 0.025059814, -0.011839154, -0.027208084},
    {0.008163317, 0.016578944, -0.008415567, 0.043088, 0.02360058, 0.014187971, 0.007104443, 0.0030237453, -0.0022644303, 0.0066617043, -0.000439032, -0.0077731633, -0.0065628183, -0.0024309808, 0.018929461, 0.014612145},
    {0.013766714, 0.0073788525, -0.009930536, -0.01155623, -0.012197407, -0.026174083, -0.012626781, -0.07413985, -0.036564227, 0.0037433975, 0.0053795013, -0.00046107767, -0.024873357, 0.007145386, -0.011343433, -0.0072829765},
    {-0.020956254, -0.010980008, -0.008888737, 0.00798201, -0.0050410805, 0.038029004, -0.024129022, -0.039534304, -0.004978111, -0.029333198, 0.028826939, -0.028355911, 0.02984259, -0.018628882, 0.038957678, -0.0048048133},
    {-0.03202718, 0.0024497346, 0.022623098, 0.011971429, 0.021143535, -0.038392827, -0.049842216, -0.045095973, -0.014292631, -0.0008896295, 0.0039221104, 0.019847477, -0.0016597937, -0.0022840837, 0.011545666, -0.012989673},
    {-0.0038920452, -0.002341526, 0.0033127014, -0.014424687, 0.002026119, 0.018230231, 0.0052329665, 0.011936949, -0.012043855, 0.036095686, -0.026901787, -0.016894108, 0.03461637, 0.014046001, 0.01623636, 0.0007060087},
    {-0.011353253, -0.0056938753, -0.0014421814, -0.0035789816, -0.0061738086, 0.023770869, 0.008934489, 0.01170297, -0.00025025738, 0.008766663, -0.004209353, -0.012741039, 0.035763238, 0.014064174, 0.011981417, -0.0006748281},
    {0.008560208, -0.02022857, -0.008222093, -0.023027217, -0.045276918, -0.00094499334, 0.013397048, -0.028093545, -0.010946385, 0.01985612, 0.0076561696, 0.00061536545, -0.002648546, 0.0021936875, -0.008698263, -0.010166389},
    {-0.0036076736, -0.010610994, -0.002449887, 0.016893864, 0.0151493335, 0.001651856, -0.009688374, 0.0013255931, -0.02889863, 0.013738757, -0.0072934926, -0.014532886, -0.0027963878, 0.015096327, 0.010000645, 0.018952262},
    {0.05062459, 0.008146062, -0.029658657, -0.024347773, -0.0028554657, -0.011434599, -0.016528325, -0.011182277, 0.013865016, -0.0133141745, -0.0060349065, 0.01682319, -0.035729956, 0.0026275343, -0.0075756093, -0.018504435},
    {-0.016478576, -0.008510693, -0.0005720859, -0.0324058, -0.016886333, 0.0023663219, 0.0012040469, 0.009311755, -0.0124281095, 0.01488146, -0.055839445, -0.03798835, -0.0031412437, 0.0064864503, 0.007287125, -0.004739029},
    {0.040439595, -0.0048946566, -0.00067024597, 0.021829175, -0.00900176, -0.0038941032, 0.0032313026, -0.023364402, 0.038063984, -0.030753925, 0.03834492, 0.003110796, 0.015981898, -0.009673204, -0.00846413, -0.008951838},
    {-0.017241227, -0.0077974577, -0.007882908, 0.0047280155, 0.015737914, -0.014359112, 0.008824647, 0.0041425303, -0.0032431174, -0.011120154, -0.025875896, 0.04124575, -0.07061655, 0.03149539, 0.013930881, 0.016962713},
    {-0.0018141983, -0.016299283, -0.002509314, 0.048471257, -0.028935455, -0.0073967935, -0.024997331, -0.011911933, -0.0005816311, 0.006372374, -0.013866768, 0.032374274, 0.0001920085, 0.05238008, 0.020864628, 0.033107497},
    {0.020876793, 0.018058116, -0.013304465, 0.008016092, 0.0011060423, -0.030317498, -0.002804898, -0.02260911, 0.0020662902, -0.019341994, 0.047992107, -0.008437306, -0.008992536, -0.016042681, -0.027806502, -0.02324657},
    {0.02464456, 0.010060661, -0.012901018, -0.025836928, -0.04345977, -0.014886253, -0.032476444, -0.031160844, -0.03367519, 0.03581825, -0.03659161, -0.06111099, 0.008868589, 0.041009326, -0.024905547, 0.0035327573},
    {0.011112295, -0.008065196, -0.0024655547, -0.020262212, -0.033919822, -0.023325583, -0.0025787463, -0.016973225, -0.031668134, -0.016201766, 0.03051731, 0.000107704196, -0.03145405, 0.011723759, -0.003205112, -0.046974186},
    {-0.014736162, -0.011621986, -0.004457072, 0.027848175, -0.014728094, 0.0054352432, 0.015164997, 0.019016199, 0.0011797849, 0.033764508, 0.005868168, 0.031490743, 0.024846163, -0.0060017062, -0.01489884, 0.00070389925},
    {0.013335824, -3.1171163e-05, -0.00994125, -0.00042083446, -0.037097957, -0.038041685, -0.018578138, -0.05710003, -0.031613734, -0.008434078, 0.033861317, 0.011994235, -0.02934305, 0.015446926, -0.012333685, -0.021560542},
    {-0.00055338047, -0.0063322345, -0.035793215, 0.0051681544, -0.027559152, 0.037677083, -0.0038057182, -0.015382951, -0.0017348563, -0.026661528, 0.039149523, -0.040734287, -0.0009472954, -0.019904498, 0.0028988076, -0.015082831},
    {-0.012575253, -0.0137558505, 0.003122986, 0.024827188, 0.0058855196, -0.034182247, -0.0068490654, -0.030453557, -0.010483236, -0.021263788, 0.0296035, 0.012309303, -0.0033975183, 0.018051794, 0.0020236946, -0.020382255},
    {-0.013415076, 0.014168583, 0.005019931, 0.002645693, 0.015363399, 0.011187431, 0.0026893166, 0.012098794, -0.031490617, 0.047806386, -0.030746507, -0.035401594, 0.0383937, -0.005562643, -0.0075221746, 0.024820836},
    {-0.028515173, -0.00818701, -0.0025612337, 0.008747043, 0.0022416702, 0.024052652, 0.0054091685, 0.020283928, -0.02226596, 0.034175396, -0.032564692, -0.034571502, 0.040176883, -0.003290076, 0.005369115, 0.011790227},
    {-0.016275343, -0.019625444, 0.0013819609, -0.0018770113, -0.020152103, -0.0034907663, -0.0054278364, -0.0016186299, -0.042324103, 0.021445865, -0.031053193, -0.03213954, 0.02891968, 0.004475045, -0.00041942016, -0.00877951},
    {-0.026577814, -0.02580715, -0.0076403897, 0.013206654, -0.013892008, 0.007166806, -0.0021260546, 0.00780425, -0.011768816, 0.016304528, -0.012553429, 0.01496651, 0.0085714115, 0.027519071, 0.0057382635, -0.0068822308},
    {0.02829782, 0.00057563296, -0.01660024, -0.04464321, -0.009100187, 0.021654796, -0.047543153, 0.033282705, -0.029257614, 0.00084707385, -0.008682001, -0.017601028, -0.012433449, 0.05288384, -0.0013256479, -0.02949244},
    {-0.028823256, -0.0020253893, 0.0143652735, -0.0008027536, 0.0021070547, 0.017741662, -0.018196769, -8.90065e-06, -0.035059664, 0.034500126, -0.04048008, -0.067170784, 0.05256008, 0.0041618473, -0.028067455, 0.0029304824},
    {0.0025564698, -0.017015092, -0.0060051368, 0.017151197, 0.015458134, -0.021219134, 0.010542015, 0.007099477, -0.016198926, -0.006385445, 0.0017693349, -0.0010310322, -0.012965817, 0.0064913323, 0.011726185, -0.014207855},
    {-0.06352055, -0.018293459, 0.00660489, 0.023412606, -0.012605318, -0.018145617, -0.016568534, 0.009418811, -0.020964053, -0.004390795, -0.022088876, -0.015625697, 0.028862523, 0.019815087, 0.030865991, 0.008744397},
    {-0.038876094, -0.0100852735, -0.011534132, 0.020367282, -0.044264186, -0.048019968, 0.028824612, 0.009569092, -0.039126005, 0.025602128, -0.0028849621, -0.019874416, 0.00023086235, 0.0148124155, 0.018212222, 0.0012543644},
    {-0.00092301087, -0.0148228165, -0.0041932613, 0.028265974, -0.0021949504, -0.026927594, -0.009529533, 0.010137018, -0.0007807368, -0.03929973, -0.0034260342, -0.0001402821, 0.0052740355, 0.0029832707, 0.042810734, -0.0035613999},
    {0.011880855, -0.0001058816, -0.0069329403, 0.0019356168, -0.029540619, 0.007880325, -0.034891404, 0.018891737, -0.033255376, 0.033296913, -0.02777721, -0.038527247, 0.012628224, 0.03922657, -0.0023045004, 0.017554266},
    {-0.011470084, 0.0050102053, -0.0052100183, -0.001123005, -0.047610685, -0.018425168, 0.0021695134, 0.012007094, -0.018403761, -0.010072014, 0.015318119, -0.020218337, -0.03773829, -0.00335789, -0.0018325474, -0.015641265},
    {0.014203405, -0.025308864, -0.001952865, 0.023990506, -0.009009583, -0.029718254, 0.013310293, 0.0060843118, 0.00083192263, -0.016183576, 0.011612166, -0.0018419342, -0.00088848366, -0.0063884896, 0.019797644, 0.010889935},
    {0.006809717, 0.0038833092, 0.000838308, -0.014806379, -0.051053, -0.02039523, -0.0010993641, 0.0005743488, -0.02282871, -0.03519911, 0.024676997, -0.018656902, -0.047636252, -0.003993109, 0.011545587, -0.029807998},
    {-0.00657918, 0.007235776, 0.0013638972, -0.0036660065, -0.0013707969, -0.0019494966, -0.007859025, -0.00093122665, -0.0016097503, -0.007840472, 0.0046596983, -0.003377803, -0.009933552, 0.006097649, 0.00067696464, -0.009094591},
    {-0.0152865695, 0.008570944, -0.014510573, -0.008740358, -0.027224217, -0.009066945, 0.010187115, 0.015226148, -0.014220339, -0.021713622, -0.0011062187, -0.0132460855, -0.05693269, 0.0010477706, 0.0033733712, -0.019907901},
    {0.012809715, 0.01880341, -0.005368344, 0.010928914, 0.016788177, 0.013657512, 0.008965908, 0.009101808, -0.025160337, 0.044667657, -0.021377817, -0.014176822, 0.017767234, -0.005869161, -0.022355992, 0.020901343},
    {-0.002204596, -0.0004456429, -0.00017485637, 0.0084875645, 0.015697753, 0.010373613, 0.0048089954, 0.005413882, -0.016118592, 0.036509473, -0.033281203, -0.00570166, 0.030096833, 0.0036941117, -0.008234511, 0.026488172},
    {0.00961281, -0.014690243, -0.010164137, -0.00017930732, -0.018341338, -0.0067993114, 0.003072391, 0.00025093363, -0.015779423, 0.02987583, -0.02436306, -0.008361157, 0.0061005615, -0.001922075, -0.019195573, 0.0088321995},
    {0.039677043, -0.014651939, -0.011580784, -0.023305632, -0.0058809877, -0.013301137, 0.0040717553, -0.008499251, -0.0075011514, -0.017739072, -0.0023548955, -0.009488853, -0.031284, -0.030670136, 0.0019032612, -0.0134471655},
    {0.0026246682, -0.0032065385, -0.004836394, -0.014156033, -0.014963754, 0.0053493874, -0.012513614, 0.016032763, -0.0027071293, 0.010641916, -0.008018203, -0.009326604, -0.0144715505, 0.035689328, -0.0072615277, -0.010146728},
    {0.037927363, 0.00948368, -0.030966345, -0.010903678, 0.008325641, 0.02012842, 8.3191524e-05, 0.0042678392, -0.038969513, 0.030562386, -0.026626877, -0.030272381, 0.002327734, 0.0011072789, -0.035301585, -0.007785196},
    {0.0035809472, -0.004806264, -0.010788816, -0.014054718, 0.0022980082, -0.0016083752, -0.017747473, 0.02263007, -0.0032598516, -0.02388183, -0.0028113376, -0.0003820079, -0.011741392, 0.022775773, 0.03093295, -0.0032112263},
    {0.04293843, -0.03178664, -0.016671665, -0.019294746, -0.030477298, -0.0013347063, 0.020249104, 0.009610664, -0.021374052, 0.002624009, -0.032202326, -0.011051239, -0.017244983, -0.016073504, -0.009020655, -0.033978466},
    {-0.00021646677, -0.008820964, -0.0072620744, 0.018888436, -0.023412297, 0.007899513, 0.046792876, 0.029834682, -0.022299727, 0.019549465, -0.051214978, -0.009218126, -0.010271079, -0.01868735, -0.009789433, 0.01751013},
    {0.0046460447, 0.0019966445, -0.00060421985, -0.0019619951, -0.0043863244, -0.008396123, -0.0010392877, -0.0051067756, -0.0009598051, -0.0027278906, -0.008928483, -0.0014262771, -0.0042827865, -0.0011078481, -0.0058120764, -0.0005546111},
    {0.055921998, -0.004566759, -0.02433239, -0.015485632, -0.017478503, 0.001705384, -0.026189337, 0.007038975, -0.017534206, 0.005338157, -0.006642118, -0.020953178, -0.0001570193, 0.034337446, -0.013908954, -0.030150644},
    {0.012570067, 0.002443694, 0.009236428, -0.028208923, -0.019772584, -0.024566336, -0.02641468, -0.015342848, -0.0123408185, -0.007956701, 0.024563132, -0.010060913, -0.036202807, -0.009375427, -0.007190813, -0.02531892},
    {0.0065316423, -0.0020351512, -0.00019255442, 0.001393046, -0.0014314863, -0.006675586, 0.00047376938, -0.010247239, -0.00042106738, -0.0025364442, -0.02202991, 0.0034636022, 0.0012610046, 0.0070495126, -0.009017435, 0.029758967},
    {0.015929988, 0.007517704, 0.0028253766, -0.0164966, -0.04380615, -0.014560822, -0.026856821, -0.0045489026, -0.010430585, -0.01899455, 0.021441324, -0.016671289, -0.026716776, -0.00760198, -0.009138108, -0.02629209},
    {0.010227064, 0.0035421352, 0.004387151, -0.0008003034, -0.0011995491, -0.004436306, -0.0053591253, -0.006913155, -0.0016060785, 0.003982043, -0.011557323, -0.0013083976, -0.004315993, -0.0023395338, -0.0031227227, -0.0075331037},
    {0.00954199, -0.00024131675, 0.0111625735, -0.03379495, -0.016666126, -0.0065382184, -0.03299237, -0.009908187, -0.008917093, -0.014284844, 0.0063177925, -0.012561609, -0.025241626, -0.0033605855, -0.004937816, -0.017463237},
    {0.034112457, 0.023215903, -0.011862731, -0.008204332, 0.026240677, 0.026303805, -0.006657337, 0.013901331, -0.021969566, 0.016463796, -0.025752913, -0.01062344, 0.002847923, -0.00068484194, -0.008276977, -0.00855048},
    {0.026308067, 0.014593237, -0.01231548, 0.008041132, 0.023064539, 0.015826456, 0.011221342, -0.00060051895, -0.011859178, 0.009820179, -0.029488573, -0.004359453, 0.008413879, -0.0074340054, -0.010837588, 6.166588e-05},
    {0.02874701, 0.0010912997, -0.016226957, -0.010966699, -0.00095008756, 0.009393111, -0.0065998514, -0.008956015, -0.016451867, 0.004351238, -0.019220272, -0.011695829, -0.011997862, -0.0034310378, -0.016048832, -0.022783734},
    {-0.009367963, -0.004170994, -0.0014855446, 0.005992639, 0.00011631062, -0.005920103, -0.0029106555, -0.015728105, -0.00612892, -0.00062987005, -0.03881889, -0.0021085204, -0.0061017014, -0.0005294846, -0.0012583152, 0.016669478},
    {0.023387635, 0.00025665038, -0.010691866, -0.008813856, -0.0042461595, 0.004054283, -0.011579189, 0.002957811, -0.007203102, -0.00062287704, 0.0021494604, -0.0105154365, -0.00025338194, 0.02166877, -0.0040548607, -0.025241377},
    {0.009526977, 0.0057284907, -0.015126014, -0.013226585, 0.012846705, 0.026442524, -0.013673115, -0.0034292245, -0.034756646, 0.014247793, -0.03806023, -0.020502532, -0.0093279695, 0.009785248, -0.014921139, -0.008236958},
    {0.06998749, -0.00041981184, -0.001497367, -0.050341353, -0.004888529, -0.011153906, 0.00812205, 0.0009312571, -0.0004390165, -0.01607044, 0.009643546, -0.0066890316, -0.029139046, -0.015264016, -0.0067237765, -0.0037128632},
    {0.012303665, -0.006610491, -0.0032307534, -0.0043015294, 0.0014406636, 0.00052316964, 0.008377122, -0.0026137717, -0.019010838, -0.005217892, -0.039255682, -0.005049451, -0.028053446, 0.012356718, -0.016295144, -0.012789522},
    {0.04632932, 0.013496803, 0.008939512, -0.009144927, 0.012793163, 0.004064296, -0.012028938, -0.0074546947, -0.01096374, -0.008946915, -0.008830354, -0.012484367, -0.007982133, -0.021558274, -0.015021501, -0.010969025},
    {-0.0024448805, 0.0026734585, -0.0012279067, -0.0016643192, -0.0022902465, -0.0025939627, -0.006639176, -0.0058657327, -0.0015204316, -0.0014439864, -0.0017080021, -0.0024631713, -0.0043443055, -0.0012854561, -0.0007851894, -0.005902049},
    {0.023937114, -0.010159535, -0.012723122, -0.012131325, -0.002406145, 0.019307883, -0.023278946, -0.006993292, -0.019441083, 0.004104395, -0.020992579, -0.00832966, 0.008999757, 0.010333412, -0.010251658, -0.015197976},
    {-0.032483656, 0.012171713, 0.007912353, -0.027256444, -0.022404963, -0.008120771, -0.021293707, -0.0060836417, -0.018519117, -0.0022782136, 0.0026952254, -0.007034804, -0.058449198, 0.006923852, -0.011640227, -0.029788887},
    {0.001388029, -0.0006998851, -0.0004753688, 0.010103471, 0.0010803016, -0.010080951, 0.017198334, 0.01066181, -8.607813e-05, 0.009817653, -0.011547275, -7.5891956e-05, -0.024523724, -0.0016467036, -7.960147e-05, 0.0049913214},
    {-0.014707827, -0.0003926438, 0.0055355714, -0.017706623, -0.021344064, -0.009250721, -0.017447883, -0.002912216, -0.013218335, -0.006912687, 0.0104209455, -0.0033641232, -0.03702925, 0.002223516, -0.008608955, -0.029646695},
    {0.00038237203, 0.003983458, 0.0012532435, -2.5796482e-05, -0.0010674649, -0.0048614996, -0.0054307296, -0.007668407, -0.0016024611, -0.0005339677, -0.0067135924, -0.0014860684, -0.0048167314, -0.0002521694, -0.002145461, -0.007607415},
    {-0.019066438, 0.004939834, 0.0006107342, -0.010577021, -0.022515368, -0.0070849475, -0.0022084457, -0.0026448376, -0.010530492, 0.0011104224, -0.008492781, -0.005220401, -0.047461826, 0.0018405867, -0.007141046, -0.019048877},
    {0.0097198775, 0.010542722, -0.003553392, -0.002333693, 0.009800906, 0.0066798553, 0.0022756562, 0.01618715, -0.016767634, 0.013673268, -0.030543702, -0.013171757, 0.009775368, 0.009995596, 0.0023920515, 0.0076448433},
    {0.01303336, 0.0006215156, -0.008890195, 0.018387035, 0.013071038, 0.0052536745, -0.0030505438, 0.0015031727, -0.012388042, 0.0073322933, -0.032127675, -0.01589735, 0.040784586, 0.0071960436, 0.0017306947, 0.010701024},
    {-0.0056770374, -0.0023571616, -0.004933814, -0.0026429635, -0.005230092, 0.0029764515, -0.021245802, -0.00712943, -0.016692104, -0.0002982639, -0.028785318, -0.0143335955, -0.00071146595, 0.0121667655, -0.005674906, -0.01003948},
    {-0.0115226535, 0.010127746, -0.009973462, 0.013478543, -0.0043778485, -0.009346692, 0.0153302485, -0.0051324302, -0.0044301157, 0.011756351, -0.0133991465, -0.0018764423, -0.011929657, -0.010605827, -0.004471778, 0.0029855575},
    {-0.004323286, 0.0003174818, -0.016152764, -0.0015191021, -0.0014661326, 0.0034393356, -0.010572475, 0.0027494843, -0.002776127, 0.010037087, -0.011899816, -0.0007477004, 0.008153664, -0.0017321765, -0.0018927838, 0.0068098647},
    {-0.014639849, 0.008761858, -0.0056832307, 0.002925432, -0.019174244, -0.011238703, -0.0030771603, -0.011222835, -0.01875852, 0.0004706672, -0.02433338, -0.020884944, -0.0027796272, -0.0018045229, -0.014529268, 0.012618898},
    {-0.0041997805, -0.00063321844, 0.0016036249, 0.008432124, 0.003946617, 0.0039444054, -0.00046032888, 0.0052292445, -0.004746406, 0.0011906103, -0.019936439, -0.00086709973, 0.0030551013, 0.008645844, -0.00026275084, 0.0040093563},
    {-0.008716935, 0.0097555695, 0.0021118496, -0.00023506326, -0.023449825, -0.0031943396, 0.008430004, -0.018001553, -0.016582858, 0.0017021903, -0.014725449, -0.013124283, -0.013546491, -0.008285729, -0.020731788, 0.005874865},
    {-0.0018651691, 0.01411464, -0.0045904415, 0.015185392, -0.018528868, 0.013583408, 0.008270043, 0.019026477, -0.037425783, 0.019187594, -0.059341807, -0.012304624, -0.012885504, 0.0028457379, -0.01210617, -0.0054514194},
    {-0.0067995996, 0.0030109284, -0.00053472526, -0.000622173, -0.0022560926, -0.0021242916, -0.0057047284, -0.0060965763, -0.000993567, -0.00088493794, -0.0021547184, -0.0017149779, -0.0044990554, -0.0012820966, -0.00042226387, -0.005982836},
    {-0.0008450475, 0.011804531, -0.022718392, -0.003749055, -0.0017451445, -0.005521176, 0.0054496154, -0.011775468, -0.0011165448, 0.021585284, -0.0053640483, -0.0055022445, 0.013848018, -0.012725963, -0.0052643884, 0.009757083},
    {-0.026138674, -0.0039731464, 0.010652981, -0.029825766, -0.015576605, -0.009858448, -0.014752106, -0.020619668, -0.012285585, -0.009535108, 0.0021194648, -0.0034528426, -0.03515855, -0.0068007703, -0.009038153, -0.021151327},
    {0.00152889, -0.0019757075, -0.0009802931, -0.00017062096, 0.0010902801, -0.00024128762, 0.0013660089, 0.0022126043, 0.00051273993, 0.0018313418, 0.0010093506, -0.0018083504, 0.0073523954, -0.0024697378, -0.0015858775, 0.0046735923},
    {-0.02624535, 0.0086306045, 0.015649382, -0.038774997, -0.021138165, -0.0039512464, -0.017678874, -0.012014212, -0.012551597, -0.0083504245, 0.01774871, -0.0034649484, -0.063365996, 0.0006984245, -0.014158594, -0.026379207},
    {-0.005542601, 0.002285893, -0.0019544389, -0.0006317686, -0.00092298695, -0.0029508548, -0.006042879, -0.0075454554, -0.0016078905, -0.0013025928, -0.0025601618, -0.0015758387, -0.0041530225, -0.0014979797, -0.0019936075, -0.007535206},
    {-0.02208172, -0.0029997078, -0.00022971065, -0.0179222, -0.014682455, -0.01056572, -0.016499817, -0.018703142, -0.007908851, -0.010131531, -0.0016634463, -0.009785415, -0.020513473, -0.0072625144, -0.004020732, -0.01785993},
    {-0.0024128421, 0.012017635, -0.015434813, 0.0065203486, 0.005603359, -0.01230237, 0.03308486, 0.015274046, -0.0068270755, 0.01776009, -0.009873992, -0.005641992, -0.0027984118, -0.002874041, -0.00016372403, 0.0196866},
    {0.005433217, 0.0057553854, -0.016345125, 0.015701946, -0.00037171872, -0.005129523, 0.030553818, 0.008353837, -0.003731606, 0.015541578, -0.008171708, -0.008828815, 0.0120266015, -0.0031182042, -0.0008374107, 0.019872515},
    {-0.01239005, 0.006218987, -0.0042083203, -0.00041980777, -0.0073559335, -0.0074752276, 0.004591523, -0.013878377, -0.006841936, 0.0050193593, -0.008921463, -0.0043542716, -0.007950826, -0.00833722, -0.0063419337, -0.0021082924},
    {-0.011193913, 0.004711286, -0.0033738518, 0.005624275, -0.00232192, -0.0015882022, -0.0034686835, -0.01013086, -0.007754192, 0.0041779415, -0.013434101, -0.0012088392, -0.003943658, -0.0010106476, -0.0034034485, -0.0028064814},
    {-0.0021007867, 0.0072102114, -0.016590217, 6.831418e-05, -0.001292848, -0.006064249, 0.0030216135, -0.0056404527, 0.00038478823, 0.013570573, -0.0017620191, 0.00041335443, 0.0095392885, -0.008936372, -0.0033076373, 0.0029077185},
    {-0.013325103, 0.010745048, -0.015091647, 0.005610678, -0.0070334896, -0.021300869, 0.0006608567, -0.003555864, -0.014686058, 0.0071728644, -0.020496093, -0.010240402, 0.012586061, -0.0098678, -0.008667505, 0.0066937245},
    {0.0006606215, -0.0003357433, -0.00041312855, 0.0004513678, 0.0032347308, 0.00011251371, 0.0010205641, 0.0015790488, -8.4037274e-05, 0.0014280425, 4.1055107e-05, -0.0008629972, 0.0036536274, -0.0012432034, -0.0012965769, 0.007229748},
    {-0.011312264, 0.009213208, 0.00020067596, -0.010976459, -0.008504863, -0.0015681457, -0.0076827486, -0.011338542, -0.0061095334, 0.006134545, -0.0037984448, -0.0047791833, -0.012284739, -0.008914975, -0.0057586767, -0.0036155682},
    {0.002058685, 5.309542e-05, -0.0049003926, -0.011211638, -0.010681292, 0.0031677396, 0.025626538, -0.0011058461, -0.012797114, 0.015009881, -0.01606999, -0.0064315875, -0.017169053, -0.007894037, -0.012676411, 0.010802669},
    {-0.0067148414, 0.0030847911, -0.00051950855, -0.0005266643, -0.0022569434, -0.0020494864, -0.005725092, -0.0065305433, -0.0010282053, -0.0010953505, -0.0021561466, -0.0016201804, -0.0045089982, -0.0012154095, -0.000416104, -0.006042689},
    {-0.010182442, 0.009638166, -0.017249918, 0.009897813, -0.0013400785, -0.0078008347, -0.0023261511, -0.013199008, -0.0019155816, 0.015781544, -0.0041115093, -0.00036840103, 0.00704837, -0.012931878, -0.009557413, 0.0043035187},
    {-0.026703192, -0.010320766, 0.0013916888, -0.019671585, -0.005865723, -0.015363696, -0.01663081, -0.018467339, -0.01130168, -0.013494852, -0.0130972, 0.0012075423, -0.025887141, -0.009568482, -0.0056482023, -0.01983971},
    {0.0011633458, -0.0023695198, -0.0012116517, -0.00058030925, 0.0010809278, -0.00033301546, 0.001085801, 0.0024115073, 0.00051135523, 0.0018287537, 0.0012992392, -0.0018041581, 0.0073046805, -0.0037711184, -0.0016341127, 0.0044629625},
    {-0.027326278, -0.005111388, 0.009951405, -0.020528551, -0.010059888, -0.0072040297, -0.018877432, -0.019505516, -0.007824376, -0.0121447, 0.0025745013, 0.0012323248, -0.03270433, -0.008633312, -0.0054588616, -0.019791668},
    {-0.005542546, 0.0022877697, -0.0019540635, -0.00062974496, -0.00092284544, -0.0029499342, -0.006043067, -0.007548148, -0.0016078851, -0.0013026067, -0.002561021, -0.0015758898, -0.0041532633, -0.001497682, -0.0019936268, -0.00753527},
    {-0.020427713, -0.0056590163, -0.005449131, -0.015044594, -0.0101271765, -0.013462363, -0.016732931, -0.015740499, -0.0071704695, -0.0100808935, -0.0025227675, -0.009568102, -0.016393226, -0.007975465, -0.0033348761, -0.016660329},
    {-0.0060599064, 0.011172478, -0.026538134, 0.0028795497, 0.0041875266, -0.015364312, 0.013755131, 0.01652728, -0.0072495644, 0.01659408, -0.009944877, -0.011098526, 0.010164384, -0.0023829835, 0.0037337844, 0.011945548},
    {8.91626e-05, 0.0059249112, -0.021141933, 0.0076438277, -0.00060457445, -0.005919373, 0.015193621, 0.009030967, -0.0058077853, 0.015032729, -0.0052486593, -0.011128418, 0.018566111, 0.00032416906, 0.0026509487, 0.013303542},
    {-0.01679644, 0.0014130953, -0.0064098113, -0.0041210395, -0.0068969796, -0.017726967, -0.010037086, -0.010015526, -0.0088377595, -0.00022768357, -0.012818476, -0.008800165, -0.0035198755, -0.0072026676, -0.0008696925, -0.0047559845},
    {-0.008015294, 0.00350919, -0.00062117144, -0.00016673341, -0.0020714605, -0.0026794716, -0.0066109113, -0.007957649, -0.0018820339, -0.00085032487, -0.0028082572, -0.002037363, -0.005687878, -0.0028626695, 0.00015724916, -0.006356286},
    {-0.004399484, 0.0034056185, -0.0066929706, 0.0012331854, -0.0012949399, -0.0018790587, -0.003047206, -0.010545679, 0.00013939201, 0.0052953674, -0.001718338, 0.0004662836, 0.001346653, -0.0022330412, -0.0038166293, 0.0025830567},
    {-0.021681, 0.0053625572, -0.020288857, -0.012186731, -0.015327538, -0.021007763, -0.007651586, -0.0026206435, -0.01301963, 0.006288914, -0.012145335, -0.018651629, 0.0029208646, -0.007442666, -0.006645054, -0.0021365013},
    {0.0006389058, -0.0003899259, -0.0006528316, 0.0002529205, 0.003289352, -1.5027652e-05, 0.0008627314, 0.0014991455, -8.0317e-05, 0.0021231743, 0.00013491123, -0.0008828734, 0.004011149, -0.0021128103, -0.0012705182, 0.0021198348},
    {-0.012930111, 0.0021965213, -0.0027857232, -0.007112637, -0.007350543, -0.010182073, -0.011608884, -0.008913213, -0.014180581, -0.0053109834, -0.017117789, -0.009491092, -0.0073395297, -0.007010046, -0.000620098, -0.007929933},
    {-0.01811898, 0.0033524272, -0.00781907, 0.008590783, -0.0027304413, -0.010564717, 0.0055392976, 0.004685527, -0.017408082, 0.005688649, -0.020779625, -0.0002648744, 0.0021695413, 0.0031302734, -0.002188849, -0.0015047077},
    {-0.0067358953, 0.0031145525, -0.0005150379, -0.00051455654, -0.002256076, -0.0020460265, -0.005732254, -0.006543992, -0.0010273997, -0.0010943394, -0.0021586076, -0.0016196072, -0.0045110374, -0.0012102257, -0.0004161471, -0.0060581574},
    {-0.008528924, 0.011083085, -0.009307126, 0.0011617583, -0.0014473588, -0.004937972, -0.0040063816, -0.007949189, -0.0012526016, 0.0059429603, -0.00284976, -0.00078349566, 0.0016608472, -0.008476955, -0.00049695745, -0.0062665213},
    {-0.02076519, -0.010674782, -0.0007014519, -0.018042268, -0.0055938885, -0.019067476, -0.020804463, -0.021898523, -0.0069588004, -0.014116897, -0.011207398, -0.0022707302, -0.016241785, -0.00773456, -0.0012860032, -0.019149603},
    {0.001206985, -0.0020686584, -0.0012175081, 0.00040414697, 0.0010860263, -0.00026776502, 0.0056071216, 0.018340537, 0.0004720313, 0.0020380353, 0.0012985901, -0.001806497, 0.0073369625, 0.019466627, -0.0005220604, 0.004969197},
    {-0.021128539, -0.009605099, 0.003529665, -0.01933039, -0.0031574983, -0.017533852, -0.018641062, -0.0158068, -0.0080675185, -0.015207363, -0.014896873, 0.0015383521, -0.023873098, -0.0070795245, 0.0008668493, -0.018080704},
    {-0.0055434294, 0.0022903911, -0.0019539283, -0.00062778126, -0.0009227302, -0.002949891, -0.006043258, -0.007548584, -0.0016077594, -0.0013026663, -0.0025612183, -0.0015758298, -0.0041535445, -0.0014972956, -0.0019936343, -0.007535198},
    {-0.018571045, -0.0056921, -0.00526261, -0.01201868, -0.009637885, -0.009009158, -0.01767716, -0.01859208, -0.006102862, -0.010343745, -0.0049348087, -0.009184806, -0.013068169, -0.0057196976, -0.0029784357, -0.016829317},
    {-0.0015237229, 0.0140291825, -0.031087646, -0.0032335653, 0.003336834, -0.015935674, 0.016877152, 0.022330895, -0.00052138517, 0.019474654, 0.0018761277, -0.009729572, 0.012591979, 0.011110814, 0.004689022, 0.008455933},
    {0.005732606, 0.0066025103, -0.022076217, 0.00025062094, -0.003027022, -0.0051142927, 0.016611988, 0.012500815, -0.0014791761, 0.018081676, 0.004396538, -0.011736582, 0.014264971, 0.0006463937, 0.001824745, 0.010986911},
    {-0.0136724245, 0.0028984002, -0.005039282, -0.0038731154, -0.006894963, -0.008119177, -0.012323517, -0.01289571, -0.004729065, -0.0016369274, -0.0034055908, -0.0054306905, -0.005101379, -0.006449814, -0.0026112446, -0.014229822},
    {-0.0061742146, 0.0040125907, -0.0006427486, -0.0010735606, -0.0021811118, -0.0061149066, 0.00819359, 0.023630364, -0.0011302693, -0.0011665567, -0.004482238, -0.0023863988, -0.0046173623, 0.026680443, 0.009121841, -0.0030081582},
    {-0.0044055446, 0.0045742798, 0.0008317669, 0.0010244708, -0.0012950203, 0.00016525999, -0.0029882712, -0.0052709086, 0.00015043133, -0.0019416541, -0.0016830132, 0.00046847045, -0.002675199, -0.0009992443, 0.00022902674, -0.0011697834},
    {-0.01966896, 0.0076252245, -0.021463083, -0.009459118, -0.013880878, -0.01908466, -0.002348018, 0.010198252, -0.0064184354, 0.00923853, -4.2975924e-05, -0.016451025, 0.0018176623, 0.014399367, -0.005450507, -0.0018931673},
    {0.0006127247, -0.00038725047, -0.0006699115, 0.00023968556, 0.0032985255, -1.809539e-05, 0.0008549665, 0.0014990437, -7.848985e-05, 0.002132597, 0.00014924342, -0.0008846677, 0.0040221307, -0.0021642037, -0.0012704775, 0.0021243186},
    {-0.013953325, 0.0009796483, -0.0030198772, -0.005122003, -0.0064306324, -0.0071025915, -0.012263346, -0.010388514, -0.005140402, -0.0045692427, -0.0032935424, -0.005687604, -0.009607425, -0.0046891384, -0.0024183486, -0.013067041},
    {-0.00895153, 0.0032759784, -0.005433553, -0.0117494995, 0.0018676562, -0.025462385, 0.0033655423, 0.023436772, -0.0040558074, 0.0023715303, -0.00437978, -0.007307123, -0.005274931, 0.014837138, 0.017104598, 0.007925091},
    {-0.006739235, 0.0031138868, -0.00051413284, -0.0005147972, -0.0022559026, -0.002048082, -0.005730996, -0.0065424554, -0.0010275036, -0.0010946674, -0.0021591391, -0.0016192398, -0.004513087, -0.001210072, -0.00041611723, -0.006056638},
    {-0.005726387, 0.011295774, -0.014325808, -0.00044478214, -0.0014594283, -0.0065593496, 0.011923592, 0.02349527, -0.0005947899, 0.010647964, -0.0028424768, -0.00072301575, 0.0072458317, 0.024601592, 0.00036615098, -0.003921346},
    {-0.020039296, -0.0087124985, -0.005906425, -0.011985983, -0.01482524, -0.0059984694, -0.02049427, -0.025048781, -0.006801292, -0.014465951, -0.0038435757, -0.011570496, -0.012659183, -0.004975778, -0.0055702636, -0.020916864},
    {0.0011624442, -0.0022989027, -0.0012155657, -0.00041511323, 0.0010781894, -0.00025268094, 0.0011951422, 0.0022014298, 0.000506484, 0.0018486405, 0.0012817028, -0.0017428334, 0.0073432648, -0.003540874, -0.0015696103, 0.0044914363},
    {-0.018092992, -0.009728036, 0.000616774, -0.0124346865, -0.006117505, -0.010459792, -0.02187501, -0.027212702, -0.006768428, -0.014678605, -0.009030501, -0.00094686216, -0.013497156, -0.009445453, -0.004430334, -0.021682596},
    {-0.005543302, 0.0022907567, -0.0019539292, -0.0006282133, -0.00092271867, -0.0029496984, -0.006043344, -0.0075487057, -0.0016077651, -0.0013025488, -0.0025611666, -0.001575798, -0.004153324, -0.0014972591, -0.0019936364, -0.0075352825},
    {-0.0184146, -0.0056149163, -0.0061245654, -0.010230716, -0.0108729, -0.008744927, -0.018246876, -0.02032428, -0.00605885, -0.010486842, -0.0037547941, -0.010473303, -0.010429391, -0.00533284, -0.0034576, -0.016860064},
    {-0.00037341157, 0.009952754, -0.030531885, -0.007328417, 0.0054594334, -0.02484145, 0.019968051, 0.03186004, -0.0014236589, 0.016855953, 0.0003608895, -0.013927944, 0.008809091, 0.01820693, 0.015100424, 0.016446931},
    {0.0033040585, 0.0067987065, -0.02154925, -0.0038904175, 0.004289058, -0.016608177, 0.022363935, 0.027073432, -0.0008143523, 0.017402645, 0.0017648145, -0.0069470056, 0.010500606, 0.017915558, 0.01144994, 0.01543883},
    {-0.01324007, 0.005478994, -0.0072407364, -0.0030638147, -0.0068866177, -0.008210729, -0.0028743476, 0.0078064995, -0.0033899304, -0.00052652654, -0.004297283, -0.0044271797, -0.002347935, 0.017831596, 0.0008384089, -0.011465441},
    {-0.007740955, -0.0028417225, 0.00029156727, -0.005839946, -0.0021871664, -0.016369492, -0.0067566754, 0.0037732907, -0.0050161607, -0.0013326205, -0.0019505441, -0.009396259, -0.009191566, -0.0017152359, 0.009904636, 0.0034967624},
    {-0.0027399545, 0.0034800055, 0.00076930266, 0.00046248766, -0.0012939734, -1.5140441e-05, 0.013231556, 0.026176233, 0.00082098803, -0.001702839, -0.0021005427, 0.0008063653, -0.00091512303, 0.027281106, 0.0044190623, -0.00092928123},
    {-0.01881669, 0.0024414316, -0.019866956, -0.014069406, -0.010106711, -0.038530838, 0.0008682133, 0.026131496, -0.006704362, 0.0030728048, -0.0036147507, -0.019688187, -0.00014885084, 0.019560264, 0.013731861, 0.011380402},
    {0.000540221, -0.0005156486, -0.0006692356, 0.00041267485, 0.0032984987, 9.703257e-05, 0.005543084, 0.01706824, 0.00068062847, 0.0020772188, -0.00050505024, -0.00047965255, 0.003269204, 0.016337762, 0.0015602503, 0.0019830673},
    {-0.011102244, 0.0004622738, -0.002482461, -0.0029179088, -0.0055683195, -0.010997498, 0.0018628084, 0.020311333, -0.0032573103, -0.00483625, -0.004687121, -0.0047305543, -0.0060767364, 0.027561678, 0.012086396, -0.0067501795},
    {-0.0053363037, 0.0064541865, -0.0077953413, 0.0007785488, -0.00056714576, -0.0052403244, 0.011868307, 0.02537596, -0.0019647984, 0.00514221, -0.0018429486, -0.00058918324, -0.0010231921, 0.025019992, 0.006097592, -0.0064654956},
    {-0.0067365454, 0.003075091, -0.0005141041, -0.000520851, -0.0022563396, -0.0020465027, -0.005719755, -0.0065250685, -0.0010288364, -0.0010992852, -0.002157201, -0.0016194315, -0.004504184, -0.0012319337, -0.0004173638, -0.0060554976},
    {-0.0060197334, 0.0006074861, -0.01648482, -0.010793492, -0.0014148562, -0.030161718, 0.011554096, 0.035478946, -0.003946837, 0.0051524155, -0.0036371516, -0.015147344, 0.0004503366, 0.02286542, 0.028014991, 0.016505547},
    {0.07135613, -0.04887486, 0.27405995, -0.17629606, 0.09169291, -0.037407137, 0.03244314, 0.025284925, -0.15103309, 0.053278442, -0.0819737, -0.114149794, -0.059995066, -0.009915474, 0.046180997, 0.0049382844},
    {0.0004720533, 0.010890037, 0.008295475, 0.009419778, 0.019858269, 0.0057507567, 0.0018492516, 0.0014850069, 0.0066147973, -0.00657207, 0.010612176, 0.022803249, 3.899124e-05, -0.004788404, -0.018375948, -0.012109793},
    {0.035672486, -0.027866473, 0.09524731, -0.066342965, 0.03539107, -0.007170707, -0.015308247, 0.001966783, -0.038286854, 0.000837975, -0.03817617, -0.044127412, -0.0047298498, 0.00467106, 0.015046677, -0.03428281},
    {-0.0048652166, 0.0025470878, -0.020589164, 0.0022520428, 0.03620334, 0.034213018, -0.02918256, 0.046228167, 0.0005135704, 0.040349644, -0.0017831707, 0.010804893, 0.0024461746, -0.014948059, 0.032061808, -0.008458139},
    {0.07899631, -0.064406164, 0.20716776, -0.12404494, 0.005409884, -0.05012842, 0.0036354917, 0.054042585, -0.09881056, 0.035902582, -0.09863359, -0.0718778, 0.06377935, 0.06495351, -0.043439526, -0.047480043},
    {0.032555565, 0.012660573, -0.025525276, 0.03429355, 0.023513623, 0.00034290447, -0.05558878, 0.016803166, 0.06099365, 0.019482415, 0.026296554, 0.06604824, 0.044263184, 0.04699933, 0.016331846, -0.00052200595},
    {0.01973538, -0.0066210735, 0.0062010554, 0.008186086, 0.029002545, 0.0062106415, -0.025219008, 0.021295004, 0.027437551, 0.02133604, 0.013730151, 0.03922097, 0.024942437, 0.030110769, 0.012118287, -0.0032311736},
    {0.0030900931, 0.004276554, -0.008558, 0.0004565686, 0.006620175, -0.025546491, -0.03306226, 0.015070691, 0.0073083127, 0.023468496, -0.0029109404, 0.010509456, 0.028781496, 0.040062387, -0.026330125, -0.013498348},
    {0.073727205, 0.037146673, 0.03848773, -0.02268292, 0.07371015, -0.032669008, 0.01985413, -0.023164492, -0.040932406, 0.010945925, 0.00176529, 0.04741014, -0.03608927, 0.007965281, 0.06899757, 0.07007887},
    {-0.0039712028, -0.00038472263, 0.0016980966, -0.00817757, -0.001241627, -0.01997076, -0.0036550323, 0.009243225, -0.0033966447, -0.00240362, -0.0014552785, -0.014150356, -0.006849591, 0.00066337985, 0.015474435, 0.014703322},
    {0.081104994, -0.019742392, 0.0012809162, 0.05208543, 0.097949155, 0.03964915, -0.21766853, 0.002815113, 0.1444943, 0.031948358, 0.046941463, 0.19118378, 0.12200653, 0.13321021, 0.030144496, -0.061436772},
    {-0.002612126, -0.006013978, -0.020755067, 0.052113283, -0.009117721, -0.0115735745, -0.0010370342, 0.05906068, -0.011408791, 0.010473916, -0.014396134, 0.01735882, 0.07406744, 0.06042919, -0.031856228, -0.004234834},
    {0.092264764, -0.00052394485, -1.4240661e-05, -0.0053644385, 0.1028538, 0.0390982, -0.12776166, 0.0425707, 0.03913521, 0.076247044, 0.01771548, 0.12288054, 0.0837206, 0.13592386, -0.00055213243, -0.07366293},
    {0.11445237, -0.036396645, 0.22972924, -0.14895692, 0.14249836, 0.018024458, -0.034104772, 0.08238224, -0.05016325, 0.057974, -0.07653183, -0.06251318, 0.033641532, 0.06687924, 0.092329055, -0.04162429},
    {-0.009005648, -0.0031149837, -0.031661965, 0.0047936784, 0.023148231, 0.045938384, -0.03333481, 0.030588066, 0.010753445, 0.027312689, 0.016232273, -0.0015721045, -0.0023895246, -0.019486053, 0.016813787, -0.013046071},
    {0.07805365, 0.010981276, 0.03610816, 0.026919411, 0.09277953, -0.005388036, -0.02062163, -0.093760535, -0.0019836249, -0.0043244953, 0.023153147, 0.10298976, 0.005475248, 0.074229635, 0.08924772, 0.09140494},
    {0.018856864, -0.03107488, 0.016501274, 0.032798145, -0.017288798, -0.014339929, 0.0077738105, 0.00244743, 0.02416449, 0.060291763, 0.011037378, 0.05243127, -0.0687725, -0.020869019, -0.10538414, 0.054230735},
    {0.09091388, -0.06663201, -0.06601669, 0.01989826, -0.017983217, 0.029901432, 0.010975423, -0.017456949, 0.016201016, 0.018133333, -0.0040290444, 0.11164883, -0.015762154, 0.047516853, -0.1184212, -0.060437374},
    {0.029512085, 0.00280972, 0.14332268, -0.07854794, 0.05632913, -0.023651509, 0.054987505, -0.024169115, -0.1275665, 0.02927795, -0.04054502, -0.017461006, -0.07203311, 0.030171882, -0.0050967145, 0.055823207},
    {-0.012347117, -0.026681805, -0.015395125, 0.10992944, 0.027877066, -0.057228696, -0.08260132, 0.030875077, -0.027830757, 0.008840123, 0.035737544, 0.0038034355, 0.0067347162, -0.042707033, 0.037373446, 0.013184018},
    {0.069684185, -0.04104674, -0.004071317, 0.074054256, -0.028155092, -0.049180593, 0.024703486, -0.038493622, 0.018857189, -0.0018174704, 0.0070930296, 0.033960886, -0.023100918, 0.01585481, -0.1516187, 0.031695567},
    {0.027825084, 0.049588848, 0.019926026, 0.0405103, 0.05603905, -0.03557997, -0.040547214, 0.03337313, 0.06148594, 0.036423925, 0.022602385, 0.009660887, 0.017322332, -0.036032304, 0.06422865, 0.021924887},
    {-0.02623275, 0.045078717, -0.078151055, 0.07501068, 0.037058774, 0.03741548, -0.03856701, 0.021592848, 0.07995223, -0.020715244, 0.037500888, 0.07122297, 0.03827384, 0.022679714, 0.029036991, 0.0053174538},
    {-0.011410704, 0.059312712, -0.0655845, 0.010067666, 0.01322123, 0.039215308, 0.0077042556, -0.01003097, -0.007831968, 0.013302273, 0.012795697, -0.026456933, 0.06385241, 0.058776487, 0.00462036, 0.017631296},
    {-0.0651687, 0.010027652, -0.014206271, -0.022416165, -0.026028186, -0.08559646, 0.06498885, -0.040541973, -0.040739153, -0.0072917785, -0.040723167, -0.0014838108, -0.05870405, 0.013183852, -0.061527926, 0.010608303},
    {0.03474585, 0.01983391, 0.02343568, 0.0072857575, 0.02424996, -0.023187092, 0.0081143165, -0.054885652, -0.03809571, 0.029932266, 0.009673436, 0.0055574444, -0.030218575, 0.0051758885, -0.050733678, 0.014905266},
    {0.013170515, 0.08183864, -0.011653467, -0.012687586, 0.049672604, -0.04434363, -0.014319745, -0.020218264, 0.04336143, 0.021899689, 0.02519135, -0.027522849, 0.0175632, -0.05254623, 0.04655147, 0.040078446},
    {-0.08553064, 0.06653857, -0.062660344, 0.035582665, 0.005546394, 0.015194184, 0.027142068, -0.0077818353, 0.0049316045, -0.08009166, 0.05626984, -0.038367312, 0.04208827, -0.0078619635, 0.0059486693, 0.043178413},
    {-0.031231888, 0.040607054, 0.038428344, -0.06670736, -0.013582919, 0.0054808846, 0.06032489, -0.113017805, -0.08664136, -0.011997792, -0.003930304, -0.067300804, 0.004606214, 0.01565269, -0.029466819, 0.021295346},
    {-0.0010587648, 0.0049475534, -0.05342617, 0.031202832, -0.043088943, 0.1052143, -0.09954057, -0.008411709, 0.05641398, 0.030927451, 0.05205454, 0.043579116, 0.010623276, 0.046025455, -0.054906465, -0.03917441},
    {-0.019517018, 0.00954773, 0.005527868, -0.00735661, -0.009088456, -0.0151191875, 0.0109156165, 0.031523585, -0.002359206, -0.06047488, -0.03760117, -0.05487903, 0.027494706, -0.00643331, 0.034200024, 0.0023664474},
    {0.013391279, -0.0050294367, -0.012567324, 0.0457443, -0.0253023, -0.015664421, 0.019231869, 0.0053072944, -0.023284178, 0.004022072, -0.025320845, -0.023850227, -0.057088435, 0.06044766, -0.056440417, 0.030285906},
    {0.02584635, -0.016970947, -0.03161411, 0.009668952, -0.024622306, -0.011359036, 0.034048125, -0.009700686, -0.006407495, -0.0039470387, -0.02204396, 0.024458563, -0.01653684, -0.0071491655, -0.040034004, 0.0056385384},
    {0.0471814, -0.10367736, -0.06669373, 0.074787095, -0.00077911554, 0.036459833, -0.014757345, 0.021604579, 9.479892e-05, 0.025143012, 0.022703975, 0.048328485, 0.020238558, 0.00082508114, -0.14350963, -0.06151696},
    {0.05203737, -0.056737095, 0.0017880697, 0.056209844, 0.01659355, 0.0014777329, 0.024732798, -0.00022753706, -0.039492704, 0.04543446, -0.055175465, 0.05754006, -0.035822522, 0.023918105, -0.13682248, 0.038108695},
    {-0.05903926, 0.019452631, -0.040037885, 0.040552545, 0.008801831, -0.045287285, -0.026597193, -0.011555464, 0.05420995, 0.015281299, 0.06205336, 0.022303844, 0.0010275147, -0.10682333, -0.0057262518, 0.027600108},
    {0.006885392, -0.017830636, 0.022521302, 0.028692354, -0.015279833, -0.05084437, 0.0014026094, -0.021829573, 0.014484998, -0.03726011, -0.01684934, 0.042534005, -0.064607725, -0.015256192, -0.050321966, -0.027427554},
    {-0.0024317773, 0.024739193, 0.033603474, 0.0033790017, 0.005939419, -0.03668239, 0.05804682, 0.020710634, 0.030225031, -0.02190033, -0.014257345, 0.003906859, -0.014649801, -0.030773116, 0.04134814, 0.070206635},
    {-0.054189295, 0.058305178, 0.008293756, 0.017557425, 0.014456743, -0.011478112, 0.0011013565, -0.038091015, 0.003276385, -0.064396754, 0.0295764, -0.025641987, 0.012537907, -0.020228056, 0.06457864, 0.0089881},
    {-0.012139424, 0.041371807, -0.00047870478, -0.011377938, -0.0031266687, 0.03303127, 0.014002191, -0.024626877, -0.011682194, -0.008305509, 0.009535566, -0.02043235, 0.013353148, -0.033991203, 0.02240908, -0.004787593},
    {0.050660852, -0.0051102024, -0.07151306, -0.0091774985, -0.012617006, -0.0024434456, 0.010092316, -0.010950253, -0.026294569, 0.044039194, -0.00658291, 0.03909229, 0.04714695, 0.04010866, -0.09731133, 0.008015032},
    {0.030052265, -0.013373548, -0.012005222, -0.02162113, 0.009439471, 0.020720389, -0.026796494, 0.087073855, -0.011945564, 0.021760885, -0.07594716, 0.0044958126, -0.03186322, 0.057996385, -0.009023629, -0.0490915},
    {-0.0037897858, 0.02626909, 0.015758505, -0.0012459849, -0.01369102, -0.052678443, 0.015440981, -0.004827479, 0.08655133, -0.039582662, 0.01592495, 0.02984623, -0.0068020094, -0.04574375, 0.05207794, 0.035284813},
    {-0.046810012, 0.027910184, -0.0015211646, 0.028995365, 0.072323814, -0.0118378615, 0.013209806, -0.069252, 0.056539036, -0.062855236, -0.030534415, 0.012779926, 0.038405225, 0.070004255, 0.10455404, -0.002062777},
    {-0.0183233, -0.008049776, 0.038034208, -0.009962599, 0.0034803462, 0.007293508, -0.0056021153, -0.042175416, 0.023662452, 0.06368004, 0.022542195, -0.021400228, 0.011182252, 0.015280494, 0.013897148, 0.022003306},
    {-0.020512927, 0.007925174, 0.025247823, -0.0026914713, 0.01922575, 0.012541532, -0.03475876, 0.022155685, 0.03255925, 0.0009822478, 0.018860709, 0.026178839, 0.037136413, 0.025525536, 0.037647426, -0.02477082},
    {-0.008632523, 0.016993402, 0.022075817, -0.03879178, 0.015645476, -0.019179698, -0.023712927, 0.00030738863, -0.058246426, -0.037215225, -0.034885984, -0.002018618, -0.0012545568, 0.06143596, 0.06311481, -0.023589894},
    {0.031119183, -0.016830048, -0.04670599, 0.013453513, -0.014082406, -0.0050295754, -0.0062822998, -0.009608227, -0.09001205, 0.015792768, -0.056305606, -0.024095666, -0.012915474, 0.008600374, -0.03937954, 0.012115291},
    {0.014719771, -0.0029616673, -0.051418904, 0.00887777, -0.024695264, 0.016407538, -0.0063248225, -0.047295894, -0.025913866, -0.05689159, -0.031081967, -0.027524928, -0.02896448, 0.050925523, 0.03159739, -0.005452238},
    {0.047007203, -0.11489184, -0.012056485, 0.0701189, 0.03217776, 0.049181286, -0.053032078, -0.036130473, -0.018439002, -0.00536368, 0.084467165, 0.01719404, 0.09617442, -0.019398773, -0.055697422, 0.01383009},
    {0.042721603, -0.0040222704, -0.027218891, 0.03689686, 0.03385614, 0.006356891, 0.025070807, 0.0033896354, -0.048370488, 0.0031433816, -0.022627542, 0.006261293, 0.018280076, 0.042528823, -0.009098208, -0.0079038},
    {-0.10490338, -0.049278524, 0.0018771495, 0.001429157, -0.0044030687, -0.004225715, 0.012655325, -0.017092692, -0.003788235, 0.025714789, 0.058745097, 0.052563593, 0.008194951, -0.11222946, -0.020029482, -0.009110555},
    {-0.021591999, -0.04979325, -0.0076848986, 0.02365084, 0.006046777, -0.031479523, -0.019505635, -0.031280663, 0.0028758512, -0.05221551, -0.0065360777, 0.019265011, 0.035837594, 0.1020723, -0.0036868355, -0.025726538},
    {-0.008264619, -0.0044556265, 0.03415717, -0.015228849, -0.026010195, -0.025300527, 0.036212098, 0.017286241, 0.022103235, -0.030649351, 0.011396393, -0.0040691285, -0.0010459775, 0.0017948522, 0.05254405, 0.007895131},
    {-0.016930876, 0.007750621, 0.007962182, 0.018198723, 0.009327203, -0.04754964, -0.017939918, -0.029576687, 0.020428829, -0.029787121, 0.016038679, 0.047517512, 0.036242984, 0.06402847, 0.037966516, 0.039415266},
    {-0.006327541, 0.00010428773, 0.034054853, -0.025687106, -0.034059662, -0.05353735, 0.015679503, -0.029502774, 0.024596946, -0.02488051, 0.0076504904, -0.00011384982, 0.043504752, 0.037831668, 0.010798966, 0.019507714},
    {0.037635446, -0.0141873155, -0.04914519, -0.017393168, -0.009152146, -0.0046387576, -0.007047916, -0.07481148, -0.042171743, 0.008213689, 0.017083678, 0.0388635, 0.025007864, 0.030352967, -0.03991941, -0.0009816284},
    {-0.00038514106, -0.00597208, -0.042360254, -0.050056387, 0.012396097, 0.007380793, 0.03871861, 0.033235744, -0.028383538, -0.020403951, -0.09174281, -0.022227429, -0.021834088, 0.015778085, 0.0003100455, 0.0027001968},
    {-0.012092376, -0.03371157, -0.010535345, 0.034097593, -0.029901376, -0.036100995, 0.00570288, -0.044298623, 0.0220374, -0.04177111, 0.037421223, 0.060018472, 0.0003512891, 0.008627422, 0.01982566, 0.005561198},
    {0.010415259, -0.002517951, 0.005497182, -0.021274114, 0.008555553, 0.0050739343, -0.029843876, -0.021007136, 0.0114838835, -0.009782085, -0.025679784, -0.007428489, -0.0043963613, 0.08404522, 0.02415208, -0.022009272},
    {-0.03158988, -0.041934375, 0.011069186, -0.023035074, -0.020217834, 0.0038946164, -0.045044858, -0.036246344, 0.04064763, 0.03944953, 0.031453103, 0.0259534, -0.001464735, 0.028120307, -0.036130376, -0.017964873},
    {-0.049771104, -0.00074046955, 0.06918109, -0.040171046, 0.0126214605, -0.0017533153, 0.009375545, 0.05941789, 0.026344499, 0.028735073, 0.029093016, -0.011204093, 0.013673086, -0.011206878, -0.012095153, -0.012618066},
    {-0.028718637, 0.026521191, 0.027030565, -0.0585788, 0.016156089, -0.026550861, -0.061886504, 0.055164196, -0.008538646, -0.0056078336, -0.042145506, -0.026390698, -0.056685746, -0.0060134474, 0.024780793, -0.07574117},
    {0.053571157, 0.0015841317, -0.0408881, -0.0013495842, 0.023263536, 0.017998945, 0.025530519, 0.028283559, -0.0276868, 0.0061275368, -0.04904349, -0.009627925, 0.008432797, 0.04113496, 0.011307655, -0.0015181142},
    {0.064779, 0.0377045, -0.064227544, -0.03363542, -0.0538958, 0.04648818, -0.004598463, 0.0059718597, -0.0062306738, -0.043817192, -0.047138143, -0.012374213, 0.0014740826, 0.04805465, -0.028088717, -0.061819673},
    {0.010271237, -0.077270776, 0.031963468, 0.070876904, 0.041242573, -0.012326717, -0.0608497, -0.078355685, 0.0017332664, -0.004059446, 0.05336131, 0.056629233, 0.08032215, -0.014266579, 0.09266091, 0.074162595},
    {0.026822105, -0.013894262, -0.06453855, 0.008128935, -0.011435877, 0.007530863, 0.027778912, -0.036765024, -0.021036845, -0.062274765, -0.03436598, -0.007715935, 0.022053525, 0.06782325, 0.038021866, 0.0058009834},
    {-0.106436394, -0.06332259, 0.043228567, 0.05080298, 0.042245142, 0.012708842, -0.008409692, -0.024978409, -0.055782195, 0.040151842, 0.05929304, 0.030582177, 0.06967022, -0.029895388, 0.051204246, 0.035275526},
    {-0.019019686, 0.030705828, -0.012368465, -0.017729336, -0.016822701, 0.030110914, -0.066941746, 0.0062121716, -0.01921707, -0.054206572, -0.012039754, -0.010459676, -0.05175106, 0.045176137, 0.02337114, -0.0416604},
    {-0.041284073, 0.0035360723, 0.0059510064, 0.010539058, -0.012204505, -0.004175556, 0.008619023, 0.011540779, -0.009607949, -0.0059806914, 0.032664716, -0.053723525, 0.011576018, 0.0018055905, 0.032547094, -0.009954605},
    {-0.016148878, -0.0056336685, 0.011477067, -0.003194145, -0.043368086, -0.008513187, -0.019560896, -0.02281962, -0.006285078, -0.0040155966, 0.047770012, -0.022755263, 0.047953326, 0.032949816, 0.028115641, 0.007931671},
    {0.00015013028, -0.013807958, 0.0062368545, -0.009647122, -0.056222513, 0.013138716, 0.011104141, -0.039471857, 0.056449883, 0.009613163, 0.006616434, -0.031878646, 0.008096775, 0.03390891, -0.049181834, -0.06892986},
    {0.07910734, -0.023199715, -0.048699208, 0.009377916, -0.03901227, 0.026081102, -0.0011777019, -0.09489934, -0.028679516, 0.020968957, 0.038507923, 0.027489174, 0.078545965, -0.009654241, -0.038869943, 0.0076221544},
    {0.024402991, 0.06664326, -0.035774417, -0.037804324, 0.010206417, -0.02576525, 0.035918683, 0.04999718, -0.02750318, -0.0009167787, -0.07677057, 0.01617437, -0.03564753, 0.0024708703, -0.040110465, -0.032564662},
    {-0.019931138, -0.033637255, -0.021920191, 0.010845826, -0.00010833703, 0.033474926, -0.036380913, -0.029033529, -0.0055364687, 0.023923444, 0.025547607, -0.035948947, 0.012815531, 0.046263028, 0.037611324, -0.02609818},
    {-0.051935643, 0.0065214587, 0.010700428, -0.043626934, -0.011319323, 0.0031494834, -0.057733923, 0.008832518, -0.014385987, -0.021796795, -0.03714845, -0.04338598, -0.047696076, 0.01314011, -0.0473303, -0.078331694},
    {-0.0041318554, -0.025003737, 0.06584859, -0.0046361447, -0.025022296, -0.024397118, -0.023536421, 0.0074959947, 0.027056288, 0.029044837, 0.06422205, -0.027198028, 0.025396287, 0.008455504, -0.028273063, -0.041013338},
    {-0.042155333, 0.0011187806, 0.069333255, -0.017604299, 0.02463828, -0.023870593, -0.031601053, 0.039783496, 0.031166362, -0.02428916, 0.033794057, 0.018447453, -0.014256261, 0.02670064, 0.006821035, 0.0032597645},
    {-0.045834385, 0.019692583, 0.048485022, -0.00833455, 0.024061367, -0.033623632, -0.02584748, 0.018791875, 0.0011402189, -0.042098425, -0.04069072, -0.0032476562, -0.065189786, -0.01971247, -0.019511791, -0.049575012},
    {0.06130038, 0.020516155, -0.05204698, -0.040605996, -0.047331654, 0.020457208, 0.056478903, 0.0005028506, -0.008186834, -0.013168864, -0.05336201, -0.014658713, -0.0060394662, 0.00023954478, -0.020059312, 0.0307974},
    {0.03697869, 0.012490534, -0.028975945, -0.0492922, -0.08962932, 0.009064698, 0.010661259, -0.016458178, 0.048504964, -0.04736858, 0.0041960105, -0.011984746, 0.0117829, 0.008370819, -0.014310432, -0.048383},
    {0.043510083, -0.07294021, 0.02019953, 0.06735751, 0.039486855, -0.007834804, -0.029493937, -0.08764192, -0.021915566, 0.07207253, 0.04221523, 0.05234451, 0.03987276, 0.056354232, 0.095319316, 0.098611414},
    {0.06596771, 0.030890703, -0.03368074, -0.009216505, -0.046113275, 0.033013314, 0.034464557, -0.023832656, 0.023122784, -0.070988715, -0.04124934, -0.025792824, -0.002067993, 0.0276073, 0.009041716, -0.059027955},
    {-0.06407124, -0.045747627, 0.04609628, 0.08222198, 0.10875267, -0.02285051, -0.066548206, -0.006356044, -0.045923628, 0.013985658, -0.004656769, 0.04059909, 0.057823412, 0.02567828, 0.09510313, 0.07642568},
    {0.014970871, 0.018275734, -0.012987545, -0.022807322, -0.008056468, 0.023291562, 0.019335862, 0.030068155, 0.01698385, -0.048842695, -0.02173017, 0.00905686, -0.0086244475, -0.032515507, -0.025104567, -0.08053755},
    {0.008599148, 0.0113290185, 0.010223977, 0.039507277, 0.016192676, 0.0024144624, -0.005523051, 0.029990567, 0.0013742971, 0.009890705, 0.010668244, -0.0013971127, 0.041416556, -0.022799188, 0.017811436, 0.009040388},
    {-0.017922396, -0.002571807, 0.008644591, 0.03102653, -0.0057599433, 0.025230438, -0.03741434, -0.047604438, 0.02041917, 0.014824607, 0.037957944, -0.05209581, 0.009238811, 0.0060341377, 0.039561987, 0.025757415},
    {-0.02089805, -0.00833113, 0.005107042, -0.036824834, -0.045534484, 0.010701935, 0.00019894302, -0.037251007, 0.058684655, -0.02944037, 0.0061528953, -0.044728044, -0.006865267, 0.017450774, -0.048339013, -0.01332037},
    {0.08692913, -0.015017715, -0.047184076, 0.042472124, -0.04268135, -0.0073644235, -0.007428521, -0.13025473, 0.006852788, 0.020049509, 0.009622392, -0.028172111, 0.02187723, 0.05877189, -0.02179101, 0.041017417},
    {0.0236054, 0.043891177, -0.07374082, -0.011059008, 0.048732325, 0.022940205, 0.023360865, 0.065913536, -0.0072774286, -0.035532475, -0.038724776, 0.010912672, -0.054261588, -0.015173332, -0.060463995, -0.02401823},
    {0.048737448, -0.0051564714, 0.020725807, -0.022235658, -0.00027917663, 0.054675687, 0.0034043198, -0.0091913, -0.0019742276, 0.05874491, 0.017673837, -0.055105865, 0.02541208, -0.018342078, -0.041788213, -0.024442649},
    {-0.04085592, 0.0060111396, 0.009710639, 0.0077404273, 0.011171672, 0.025370846, -0.01107937, 0.03688739, 0.0057629505, -0.024504622, -0.0049764044, -0.09823939, -0.048736367, -0.012382732, -0.057676513, -0.058612566},
    {0.014393628, 0.0074297604, 0.04451283, -0.026106648, -0.013508164, -0.028990684, -0.024488615, 0.015795315, -0.030968843, 0.025063151, 0.015222706, -0.0109220585, 0.015032001, 0.04915662, 0.06974576, 0.026508078},
    {-0.04833946, 0.029435076, 0.06912947, -0.01508946, 0.03504215, -0.03668466, -0.036498416, 0.012063364, 0.014902542, 0.062243998, 0.011410174, 0.0056352825, -0.00014678456, 0.020781547, 0.07276077, -0.004181275},
    {-0.044442482, 0.049758084, 0.00796229, 0.00029872754, 0.024648096, -0.020809613, -0.023135897, 0.05376842, 0.014724824, -0.030415628, -0.025186183, 0.014737128, -0.060474105, -0.05528325, -0.02787115, -0.004289437},
    {-0.008508204, 0.03941148, -0.042271156, -0.01515167, 0.008317963, -0.053352408, 0.038640007, 0.035266493, 0.02296056, 0.024684733, 0.011752916, -0.016719718, -0.008238845, -0.049369395, -0.0183737, -0.013204796},
    {0.031874925, 0.038937192, -0.008729798, -0.03724482, -0.060020216, 0.009407003, 0.0019381803, -0.036389247, 0.056694496, -0.02632228, 0.072525375, -0.049354207, 0.050041433, -0.032068126, -0.010716547, -0.010654569},
    {0.028495671, -0.037825026, 0.038094223, 0.00081194914, 0.03395553, 0.05349246, -0.05536037, -0.05355742, -0.02564527, 0.036148995, -0.0031256268, 0.021309413, -0.0003111809, 0.07947284, 0.07400555, 0.08183432},
    {0.033291504, 0.004113676, -0.049569014, -0.036585625, -0.05864524, 0.0072286297, 0.039143145, -0.02281231, 0.044603873, -0.0112352995, 0.024101073, -0.011229895, 0.030470368, -0.032319292, 0.011753259, -0.03285412},
    {-0.019381888, -0.00313589, -0.03030309, 0.025304453, 0.042338304, 0.07516329, -0.02048797, 0.013189849, -0.022619618, -0.03470451, -0.039888557, 0.019409385, -0.017628718, 0.09077601, 0.07922761, 0.024615776},
    {-0.018612787, -0.011373212, 0.02101028, -0.030675815, -0.0074782735, 0.0072588045, -0.01139791, -0.033680853, -0.037057955, -0.0278306, 0.006725966, 0.005284097, -0.03840093, -0.008312961, -0.03568993, -0.030800497},
    {0.021909753, -0.0142141, 0.0043571168, 0.02085608, -0.004675279, -0.0025776266, 0.012593161, -0.017733581, 0.004715023, -0.00478085, -0.006851898, 0.0127192065, -0.0026396653, -0.022427738, 0.015929166, 0.02334931},
    {-0.009231948, -0.015134065, 0.00688225, 0.022824677, -0.023488656, 0.0080098435, 0.011579022, -0.04118374, -0.056754738, 0.0031790293, 0.00089590444, -0.032578412, 0.01920085, 0.033732604, 0.03579832, 0.03140916},
    {-0.00038411948, 0.008996074, 0.0004438029, -0.006781959, -0.012885539, 0.014489894, -0.0010104233, -0.02627348, 0.02451174, -0.030633537, 0.0402601, -0.044963464, -0.0009098327, -0.012842742, -0.041344855, -0.04290178},
    {0.05907756, 0.003676332, -0.02572088, -0.0011795994, -0.06992422, 0.029821156, 0.02316507, -0.083947994, -0.0077512106, -0.005858957, 0.008954515, 5.381269e-06, 0.06939418, 0.07809014, 0.057485286, -0.005927428},
    {-0.013670526, 0.032248903, -0.037939906, -0.06850766, 0.013222164, 0.01870644, 0.0014597678, 0.051173348, 0.026570845, 0.02007356, 0.040926125, -0.037556756, 0.021073153, -0.03700729, -0.052404035, -0.060934573},
    {0.04889562, -0.017269373, 0.033015832, -0.005188945, -0.037816476, 0.04201331, 0.055552524, -0.05414103, -0.064791426, -0.013854498, 0.017289208, -0.02482553, 0.046610534, -0.010228576, -0.04716866, -0.031509086},
    {-0.008790745, -0.001022098, 0.00452868, 0.0075567747, 0.01243741, 0.011043293, 0.020487446, 0.021754362, -0.05108801, -0.04975872, -0.046259213, -0.06575555, -0.010779453, 0.0029943075, -0.030353276, -0.036448006},
    {0.02496241, -0.021396944, 0.012315392, -0.011698844, 0.020237798, -0.0024008835, -0.008590488, 0.0057939696, -0.009609246, 0.038521558, 0.014647898, 0.028462881, 0.06271641, 0.047139578, 0.074626945, 0.01883229},
    {-0.046201196, 0.0018205411, 0.05079871, 0.0060129976, 0.026484543, -0.010901254, -0.007969545, 0.017716829, 0.016516345, -0.0040567634, 0.017853536, -0.006942908, -0.017897278, 0.03461181, 0.017402625, 0.017840356},
    {0.0051727626, -0.010663553, -0.010547591, -0.020992141, 0.034473494, 0.008302106, -0.013490721, 0.01905793, 0.036629763, 0.017325634, 0.03028147, 0.038566016, -0.058042906, -0.01652957, -0.10289349, -0.07203198},
    {-0.00650144, 0.019227473, -0.021823434, -0.01342985, -0.031874985, -0.004871851, 0.0277699, 0.010087654, 0.06840558, 0.04892329, 0.0382437, -0.025148848, -0.035009645, -0.03822363, -0.005647288, 0.013444955},
    {0.01600265, 0.042365626, -0.045011103, -0.0018718195, -0.07358439, 0.001144779, -0.017569218, -0.012585802, 0.070139594, 0.03252159, 0.068564385, -0.005018823, 0.07452743, 0.033214994, 0.009050144, -0.013031934},
    {0.050561547, -0.034117907, 0.044443864, 0.0032532022, -0.012213325, 0.0018549525, -0.044535253, -0.0349949, -0.015834652, 0.08136182, 0.007501993, 0.041222766, -0.008334383, 0.06627172, -0.021595696, 0.0642546},
    {0.031605028, 0.060584273, -0.014202194, -0.029884158, -0.04419657, 0.008251237, 0.02560062, -0.0016919847, 0.026322272, -0.020649888, 0.03669444, -0.03808882, 0.03714689, -0.01054551, -0.011944119, 0.002180703},
    {-0.01942094, -0.06218712, 0.012500922, -0.03059205, 0.022694662, 0.111659944, -0.027057718, 0.008684083, -0.015559658, -0.08686591, -0.07060051, 0.05600407, -0.10923162, 0.099939026, 0.077731565, 0.017350845},
    {0.012203261, 0.05780231, -0.0037896424, 0.04424057, -0.016073406, 0.0011152847, 0.052516397, -0.0046873204, 0.023280023, -0.023517435, -0.0013586747, -0.020907406, 0.03316268, -0.09329042, -0.0022914775, -0.017159017},
    {0.009471664, -0.008064677, 0.028605094, 0.040843066, 0.03240825, 0.010018087, 0.032984704, -0.049766567, 0.0056591304, -0.02749516, -0.021038968, 0.036675967, -0.019425686, -0.021222474, -0.010067748, 0.011700629},
    {0.023880322, -0.029191751, 0.01632337, 0.02523733, 0.0008709986, 0.030461702, 0.026836375, -0.036850818, -0.048919365, -0.002126309, -0.00038745897, -0.014039644, 0.029022476, 0.04513666, -0.0021516648, -0.016687008},
    {0.0015435788, 0.03710741, -0.0006783044, 0.0018686936, -0.03495017, 0.011234841, 0.007627002, -0.033445142, -0.0266678, 0.013658751, 0.040037233, -0.06511776, 0.0054564807, 0.0053803963, -0.026897868, -0.046027537},
    {0.08095386, -0.012680519, 0.0075513795, -0.067823134, -0.061291724, 0.07900285, 0.01837714, 0.0024420128, -0.054259732, -0.013396379, 0.006917859, -0.013530642, 0.015020993, 0.062126126, -0.04125382, -0.008179503},
    {-0.048310943, 0.0511485, -0.023328694, 0.005148928, -0.0064806435, 0.003210717, -0.0127025, -0.017736014, 0.052710894, 0.011014105, 0.009439182, -0.043982476, -0.032567326, -0.0713349, 0.011635471, -0.0038460589},
    {0.021696813, -0.037531737, 0.043923926, 0.016284997, -0.020178018, 0.00022623471, 0.05694795, -0.07117864, -0.043597393, -0.052264597, -0.0043527745, -0.020117005, -0.0011718549, -0.011831844, -0.018922167, -0.00091332},
    {0.0053740293, 0.06434268, 0.0033412566, -0.05008894, 0.029580267, 0.0066895448, 0.0062851934, 0.044678178, -0.025228154, -0.0015383998, 0.022751551, 0.017950619, 0.003175458, -0.053534247, 0.0018101289, -0.022913424},
    {0.016612997, -0.007701439, 0.06757768, -0.028995506, 0.041312166, 0.00030740967, -0.035456624, 0.034733005, 0.029623961, 0.020599475, -0.016807139, 0.017222606, 0.019201279, 0.04204248, 0.016687071, -0.020327393},
    {-0.021917127, 0.013874781, 0.036772605, 0.037169732, 0.011638823, -0.019019807, -0.057072844, 0.038196024, 0.003664005, 0.0581191, -0.003344816, 0.0069312225, -0.006341028, 0.036560006, 0.006456658, -0.028636295},
    {0.03728074, -0.0010200603, -0.003360744, 0.029372385, 0.042893324, -0.015678877, 0.014121813, 0.003375202, -0.020074552, 0.0024363792, -0.04210104, 0.0061675482, 0.026396945, -0.015643982, -0.041089673, -0.050647434},
    {0.005455108, 0.049534816, -0.06248416, -0.0016862757, -0.059033025, -0.029410612, 0.028153028, -0.0025030782, 0.05454527, 0.025827091, 0.07577469, -0.008118086, 0.022424316, -0.035595976, -0.019951556, -0.0067811618},
    {0.000589784, 0.022013813, -0.046702757, -0.048015505, -0.044036396, 0.0027968988, -0.02529873, 0.0033262698, 0.028249957, 0.013021998, 0.04476315, -0.022527827, 0.039286766, 0.021155799, 0.0013517253, -0.04768438},
    {-0.012750013, -0.033909768, 0.033707257, -0.021030419, -0.005981559, -0.023912827, 0.01308936, -0.034342784, -0.037422482, -0.013344882, 0.009436109, 0.04701172, 0.015007187, 0.025023602, 0.0111094015, 0.033423863},
    {0.00872375, 0.012125007, -0.020130148, -0.010100249, -0.044532742, -0.031963076, -0.015567227, 0.004267907, 0.03096491, 0.015519755, 0.039418478, -0.008812451, 0.056450497, 0.03949296, -0.017216941, -0.019773783},
    {-0.008054736, -0.005244799, 0.044605557, -0.06689358, 0.053496033, 0.0984687, -0.01999695, 0.06515502, 0.042595245, -0.091297, -0.03138563, 0.053265132, -0.07383509, 0.051896587, 0.020400256, -0.028631259},
    {-0.05026649, 0.018883461, -0.008205589, -0.011313832, -0.011849503, -0.0044100997, 0.03303118, -0.037475284, 0.0050399075, -0.011274086, -0.0008632028, -0.021460067, 0.046119057, -0.123955965, 0.0015073036, 0.01217583},
    {-0.012067469, 0.014589936, 0.02985658, 0.027959859, 0.02726871, 0.032757625, 0.037748914, -0.029320624, -0.04186473, -0.03692333, 0.006551023, -0.014060039, 0.0038784957, -0.0037544484, 0.016180139, 0.011280148},
