//Numpy array shape [64]
//Min -0.095648437738
//Max 0.087441794574
//Number of zeros 0

#ifndef B11_H_
#define B11_H_

#ifndef __SYNTHESIS__
dense_bias_t b11[64];
#else
dense_bias_t b11[64] = {0.0047328859, 0.0791613385, 0.0179932825, -0.0588467084, 0.0854095519, 0.0054225051, 0.0480527915, 0.0209382381, -0.0111687733, -0.0232774876, 0.0096686287, 0.0866177380, -0.0419886187, -0.0182112046, 0.0228265747, -0.0129679060, 0.0031864175, 0.0874417946, -0.0269430988, 0.0569277778, -0.0372657292, -0.0174144972, 0.0067201816, 0.0404185988, -0.0235452689, -0.0597794876, 0.0693394393, 0.0664683729, -0.0240900759, -0.0294956341, 0.0384166539, 0.0412157476, 0.0859646350, -0.0151832812, 0.0385287032, 0.0153879588, 0.0774663687, -0.0461441278, -0.0109520173, -0.0038052113, -0.0117377406, -0.0366628021, -0.0346690193, 0.0075755715, 0.0088621313, 0.0184535496, 0.0102474736, -0.0640702918, 0.0095944386, -0.0251349080, 0.0690741017, 0.0118214302, 0.0746809319, -0.0294394419, -0.0447200760, 0.0091095995, 0.0235267654, 0.0643530041, 0.0241033025, 0.0751135498, -0.0956484377, 0.0218590815, -0.0090002837, 0.0139467325};
#endif

#endif
