//Numpy array shape [896, 64]
//Min -0.117661342025
//Max 0.129922091961
//Number of zeros 0

#ifndef W11_H_
#define W11_H_

#ifndef __SYNTHESIS__
dense_weight_t w11[57344];
#else
dense_weight_t w11[57344] = {-0.0358964801, 0.0420472957, -0.0098644430, -0.0000372657, 0.0397613235, 0.0043036947, 0.0241681896, -0.0251823422, -0.0221680906, -0.0049021021, 0.0451246351, 0.0286796596, -0.0012662126, -0.0201436896, 0.0139867170, 0.0301755574, 0.0143854897, -0.0268920809, -0.0023766097, 0.0233212318, -0.0000012501, -0.0057659647, -0.0257195774, 0.0089011388, 0.0046314695, -0.0114718666, -0.0278158896, 0.0173385814, -0.0214564875, 0.0246732272, -0.0017163862, -0.0606721863, 0.0269069243, -0.0266679563, -0.0272468086, -0.0124123869, -0.0019890361, 0.0150647089, -0.0065945545, 0.0054901647, -0.0072346241, -0.0561032109, -0.0011046068, 0.0467022769, 0.0165700447, -0.0234782584, 0.0099436333, -0.0268913005, 0.0022286526, -0.0161636379, 0.0069935778, 0.0318846181, 0.0297763553, 0.0014203888, 0.0196603015, 0.0089104334, 0.0014825789, 0.0211965144, 0.0157360639, -0.0436479300, 0.0192102883, 0.0308066178, -0.0155636212, -0.0069464725, -0.0067360774, -0.0206832979, -0.0159674082, 0.0001976024, -0.0136151742, 0.0125055360, 0.0053781681, 0.0098485574, 0.0021825507, 0.0037023956, 0.0316214301, 0.0203565247, -0.0006066280, -0.0031335109, 0.0422012582, 0.0077029057, 0.0412752777, -0.0002108767, -0.0075188372, -0.0348256752, -0.0001023706, 0.0142155886, -0.0109920995, 0.0067912815, -0.0168879014, -0.0295608286, -0.0274772737, -0.0016378264, -0.0023911563, -0.0020421455, -0.0394086242, -0.0073995572, 0.0248193648, 0.0086956564, -0.0407624133, -0.0138406102, 0.0081689591, 0.0004774997, -0.0050827535, 0.0087614041, -0.0389714651, -0.0431169458, -0.0005133308, 0.0219859052, 0.0101389997, 0.0317142494, -0.0056418050, 0.0027533737, 0.0017588177, -0.0036195244, -0.0075368043, 0.0105010252, 0.0192371290, -0.0042849360, 0.0288236104, 0.0044569094, 0.0028660165, -0.0187868178, 0.0159517433, 0.0079553481, 0.0002460338, 0.0156784840, -0.0086822025, 0.0087425411, 0.0459804274, 0.0162591599, 0.0115965055, -0.0003038193, 0.0118568642, -0.0338838771, 0.0275962073, 0.0041041556, 0.0164393503, 0.0005879899, -0.0083383108, -0.0584118143, 0.0006015745, -0.0120322555, -0.0310222264, -0.0423816442, -0.0282812063, 0.0192632563, 0.0041101286, -0.0332973488, 0.0000000262, 0.0120985527, -0.0001672719, 0.0066302726, -0.0005500351, -0.0175307039, 0.0625386462, 0.0072656246, 0.0032638209, -0.0167092513, 0.0188210197, -0.0055134087, 0.0100523764, 0.0032399937, 0.0828076452, 0.0335875861, -0.0141006811, -0.0141433151, -0.0205700602, 0.0087760119, -0.0187154505, 0.0572962798, -0.0000453472, -0.0783141777, -0.0469071455, -0.0645183325, 0.0397204980, 0.0014435031, -0.0148044992, -0.0107831899, 0.0517895035, -0.0635287613, -0.0051372945, -0.0043873978, 0.0130691063, 0.0646720901, 0.0954047740, -0.0191695541, 0.0212027151, 0.0047058654, -0.0523330458, 0.0071494761, -0.0143130226, -0.0107887285, -0.0005449013, 0.0115576312, 0.0225049760, -0.0000082196, -0.0085358964, -0.0039197025, -0.0593564920, -0.0165580940, -0.0377622806, -0.0072848331, 0.0205424018, -0.0113681974, -0.0002683223, 0.0527218916, 0.0088351639, -0.0612951852, -0.0376674980, 0.0229371618, 0.0031296508, 0.0107391402, -0.0000001333, 0.0070361253, -0.0174032319, -0.0183767173, -0.0037112648, 0.0058709779, 0.0032486944, -0.0035514210, 0.0368172042, -0.0081043337, -0.0217412729, -0.0517588966, 0.0612807274, -0.0018295823, 0.0404340737, 0.0153937610, 0.0111773796, 0.0221083239, 0.0342296213, 0.0032313094, -0.0259367861, -0.0350392945, -0.0000740051, 0.0053595714, 0.0651784688, -0.0106937531, 0.0177067649, -0.0002731609, -0.0022943867, -0.0154093578, 0.0021391250, 0.0472126603, 0.0229082275, 0.0036575759, -0.0135801909, -0.0011219897, 0.0197023228, -0.0241258275, 0.0301605966, -0.0125139132, -0.0168970805, -0.0619805828, -0.0303958356, 0.0148843452, 0.0348789245, -0.0099951895, -0.0325785503, -0.0006445564, 0.0461889692, 0.0044417838, 0.0497390591, 0.0079410803, 0.0022788825, 0.0412454233, -0.0328453481, -0.0017421676, 0.0014070249, -0.0584964827, 0.0055682929, 0.0006585428, 0.0352428332, 0.0055322535, -0.0181740224, -0.0415322669, -0.0000007483, -0.0291524772, 0.0447258428, 0.0052754944, -0.0002489660, -0.0294155031, 0.0350028425, 0.0143923694, 0.0095888972, -0.0217898116, 0.0245561916, 0.0344086662, -0.0711953342, -0.0786363706, -0.0347186103, -0.0453065112, -0.0438149162, -0.0817577690, 0.0210937448, 0.0332472324, 0.0049164556, 0.0548834912, -0.0002148824, -0.0352873094, -0.0752119869, -0.0057800319, 0.0209514424, -0.0016591004, 0.0396735631, -0.0042366213, -0.0219783559, -0.1176613420, -0.0041180872, -0.0042339368, 0.0491092019, 0.0374103375, 0.0229643490, -0.0208599716, -0.0395646431, 0.0143014481, -0.0157118775, 0.1077314839, 0.0096036429, 0.0317523815, -0.0018945206, -0.0534576625, 0.0138436928, -0.0002714738, 0.0203507002, 0.0294961501, -0.0306518078, -0.0038959021, -0.0312929489, -0.0157983415, 0.0092810681, 0.0084308116, -0.0012286366, -0.0070846048, -0.0114660077, 0.0197622441, -0.0266859271, 0.0103313122, 0.0016515411, -0.0313154496, -0.0000039156, -0.0012384781, 0.0086745117, 0.0160720777, -0.0024474273, 0.0062537631, -0.0118772658, -0.0301052667, 0.0016090288, 0.0021955995, -0.0167776141, 0.0219475105, 0.0489108711, -0.0073298630, 0.0397926383, -0.0368628763, 0.0524993688, 0.0284454469, -0.0200161058, 0.0124442130, -0.0564097539, 0.0459936820, -0.0000854613, 0.0194133669, 0.0062935464, -0.0200229101, -0.0215029735, -0.0022763547, -0.0223261807, 0.0116024138, -0.0120339105, 0.0191625748, -0.0251847468, -0.0100645414, 0.0184031967, -0.0010705977, -0.0624459200, 0.0662584230, 0.0204914436, 0.0028233132, 0.0137779033, -0.0292754695, 0.0151058575, 0.0560828559, -0.0306246206, 0.0443993099, -0.0023286096, -0.0000085742, 0.0003985748, -0.0239398796, -0.0026697884, -0.0109647866, -0.0037394778, 0.0011987215, 0.0206322297, 0.0088675255, -0.0000001380, 0.0109635154, -0.0107807685, 0.0147203701, -0.0121824713, -0.0182024129, -0.0057913191, 0.0284816604, 0.0000000341, -0.0013472952, -0.0192520563, 0.0050034551, 0.0000517808, 0.0146505898, -0.0095926141, 0.0088786939, -0.0032391846, -0.0159838852, -0.0173277725, -0.0215363633, 0.0018864892, 0.0064422460, 0.0109557072, 0.0152448267, -0.0230764989, -0.0015911539, 0.0173602849, -0.0082277488, 0.0140347211, -0.0081636254, -0.0000638828, 0.0118475147, -0.0014491606, 0.0128226727, 0.0245232210, -0.0012639369, -0.0014604860, -0.0151443919, 0.0081772655, 0.0168069061, 0.0197070558, 0.0009450520, 0.0043014144, 0.0231894646, 0.0306358337, 0.0218684822, 0.0028145085, -0.0492694490, 0.0455867499, 0.0053752074, -0.0007835689, 0.0020897475, 0.0043744328, 0.0517527908, -0.0023711431, 0.0002610949, 0.0324229971, -0.0062791994, 0.0407915339, -0.0408208482, -0.0047553019, 0.0395919904, -0.0081018498, 0.0442372002, -0.0000028452, -0.0245007500, -0.0003826256, -0.0245577469, 0.0418053642, -0.0341605768, -0.0112491995, 0.0244284198, -0.0000001952, -0.0002746292, 0.0433611386, 0.0411628745, 0.0000039407, -0.0000336711, -0.0702139288, -0.0199623089, 0.0243665464, -0.0010779379, 0.0201817248, 0.0542081632, -0.0318928920, -0.0089507168, -0.0664260015, -0.0252857469, 0.0075958320, -0.0101709254, -0.0145541551, 0.0035847635, -0.0073116869, 0.0276009161, -0.0002086825, -0.0095378291, 0.0018227885, 0.0060690562, -0.0086474046, 0.0002950460, 0.0324838273, 0.0005202750, -0.0474459827, -0.0014352056, 0.0219882652, -0.0042088367, 0.0388760306, -0.0107754124, 0.0407992676, -0.0311948098, 0.0059920531, -0.0208645854, 0.0006007659, 0.0951927006, -0.0276198369, 0.0070334547, -0.0305844080, -0.0150029706, -0.0011059066, -0.0000674097, 0.0004614159, -0.0002722259, -0.0217067637, -0.0402179100, 0.0132054631, -0.0090928786, 0.0523002110, 0.0121999308, -0.0052106609, 0.0023705207, -0.0198320299, 0.0166527554, 0.0198463723, 0.0144460732, -0.0082084769, 0.0105281994, -0.0000042695, -0.0166514236, -0.0172477476, -0.0362497270, -0.0036300705, 0.0099851815, 0.0153973224, -0.0073067630, -0.0263526440, 0.0210724920, 0.0326765738, -0.0406346582, -0.0298874099, 0.0242399741, -0.0061172931, 0.0505340733, -0.0154636167, -0.0130708329, 0.0121314321, 0.0311031826, 0.0261157490, -0.0366794877, -0.0003566999, 0.0679515526, -0.0126806954, 0.0297314115, -0.0008414102, -0.0043988903, -0.0123976907, -0.0183731131, -0.0125349192, 0.0010413683, 0.0176314041, 0.0054929256, 0.0056307390, -0.0378869846, 0.0001193104, 0.0414712206, -0.0098355273, 0.0332154334, 0.0651964992, -0.0267504621, -0.0357902907, -0.0245925393, -0.0018845118, -0.0043210112, 0.0113112805, 0.0000039561, -0.0387756601, -0.0115566701, -0.0851056650, -0.0107860332, 0.0047868961, 0.0058847643, 0.0205350127, -0.0221808441, 0.0000282450, 0.0007223351, 0.0199377816, 0.0255996082, 0.0458607823, 0.0108270524, 0.0030052236, 0.0001540085, 0.0000004382, -0.0032258835, 0.0093765594, -0.0165207069, -0.0004041950, 0.0274659190, 0.0087682158, -0.0077363080, -0.0145930545, -0.0067995563, 0.0067642936, -0.0040717633, 0.0022447065, 0.0076520848, 0.0017544971, 0.0028645811, 0.0057683652, 0.0133290570, 0.0047221440, 0.0033748280, -0.0008475063, -0.0225618761, 0.0000037345, -0.0010121542, -0.0134335840, -0.0163594820, -0.0114173600, 0.0027019773, 0.0070416983, -0.0075215520, 0.0061204806, 0.0172192175, 0.0141329672, 0.0003088877, 0.0137284212, -0.0012893183, 0.0072680330, 0.0016453059, 0.0127188098, -0.0488750376, 0.0116031226, -0.0316769332, 0.0018609042, 0.0078286612, -0.0062888414, -0.0203540120, 0.0128536578, -0.0000849546, -0.0084521202, 0.0395882316, -0.0285408851, -0.0409932844, 0.0019947328, -0.0157808401, 0.0184794329, 0.0191828590, -0.0010255328, 0.0012706009, -0.0235472713, -0.0209527314, -0.0068435417, -0.0147239640, -0.0064379675, -0.0091212299, 0.0001149055, 0.0073828562, -0.0149939368, 0.0220003761, 0.0046779448, -0.0173904244, -0.0013590785, 0.0082638757, -0.0185527075, 0.0052329837, -0.0324139558, -0.0413053185, 0.0412720405, 0.0051772860, -0.0403025076, 0.0274749696, 0.0107755791, 0.0132940328, -0.0084762303, -0.0104276948, 0.0090568950, -0.0446637273, 0.0000251712, 0.0427976064, 0.0126699535, 0.0020070400, -0.0229242239, -0.0266673528, 0.0078587821, -0.0159886796, 0.0160911605, -0.0018238841, 0.0025872015, -0.0010254981, -0.0008768048, 0.0025169258, -0.0016767825, -0.0032047315, -0.0021504415, 0.0310994647, -0.0108698001, -0.0354562402, 0.0079021389, 0.0033203827, 0.0003546574, 0.0098707136, -0.0332893804, -0.0000031922, -0.0239723735, -0.0043213246, -0.0176921338, -0.0037369004, -0.0051510558, -0.0030595977, -0.0018940530, -0.0090753073, 0.0000652884, 0.0029814809, -0.0007211390, 0.0414055921, 0.0083939368, -0.0035545668, 0.0062912703, 0.0013832054, 0.0000002075, 0.0030137291, -0.0169614702, -0.0194837321, 0.0006393182, 0.0129488036, -0.0043090358, 0.0033073635, 0.0155685060, 0.0063890317, 0.0166052245, -0.0058484692, -0.0082240580, 0.0010493465, 0.0250147972, -0.0229915492, 0.0075770728, 0.0004728759, -0.0054712091, -0.0092426185, 0.0247998312, -0.0155671993, 0.0000021192, 0.0073296595, 0.0204347055, -0.0166875161, 0.0021311943, 0.0040820614, -0.0115009928, 0.0002557754, -0.0068829753, -0.0032240406, -0.0187414903, -0.0001725426, 0.0164156742, -0.0054430538, -0.0187111869, 0.0032300306, -0.0180557650, 0.0021934742, 0.0179986451, -0.0146108977, 0.0071330369, 0.0000678234, -0.0155235445, 0.0165593289, -0.0198595244, 0.0013747878, 0.0131830983, -0.0173605494, 0.0108314073, 0.0216070637, 0.0160685256, 0.0195496045, 0.0023747000, 0.0160869025, -0.0050794338, 0.0137998136, 0.0033155873, 0.0348489583, 0.0426868759, 0.0041820048, -0.0131194871, -0.0010359883, -0.0001083421, -0.0288777929, 0.0018296741, -0.0137428744, -0.0154390000, -0.0179374386, 0.0107903387, 0.0306229834, -0.0366441309, -0.0174362119, -0.0161846634, -0.0283796377, -0.0146167567, -0.0168503374, -0.0351914018, -0.0070532612, -0.0398698449, -0.0133202849, 0.0105079934, 0.0298483856, 0.0088652745, -0.0098714232, -0.0002026901, 0.0284339599, -0.0530726276, 0.0460014157, 0.0264971778, -0.0034985410, 0.0161090754, -0.0243041702, 0.0036787686, -0.0277099051, 0.0205294751, -0.0032432636, 0.0186623354, -0.0146392845, -0.0060701622, -0.0133860102, -0.0192463547, 0.0071416637, 0.0365056694, 0.0410208218, 0.0069312095, 0.0144137116, -0.0133113898, 0.0139492182, 0.0002621010, -0.0002260994, 0.0374588631, 0.0103240749, -0.0262554456, 0.0310910139, -0.0129047511, -0.0033032133, -0.0560874119, -0.0116036981, 0.0004954610, -0.0013079485, -0.0098815002, 0.0270818248, -0.0386536643, -0.0128516993, -0.0014732324, 0.0117779355, 0.0000000205, -0.0173135903, 0.0222121216, 0.0093469415, -0.0042595617, -0.0376369618, 0.0533340946, 0.0124861477, -0.0119623151, -0.0063494500, 0.0228643492, 0.0273423009, -0.0135177858, -0.0345307402, 0.0215499923, 0.0031537237, -0.0069572525, -0.0516759381, 0.0239072517, 0.0254967716, 0.0644189045, 0.0364397913, -0.0001679638, 0.0605575442, 0.0131945387, 0.0049460032, 0.0639750510, -0.0063609672, -0.0049653826, -0.0181659609, 0.0366862193, -0.0817645565, -0.0095927855, -0.0012999070, 0.0307545755, -0.0519720167, -0.0015566670, 0.0168438181, 0.0128760608, -0.0136583094, -0.0060105128, -0.0196369272, 0.0261793304, 0.0554689690, -0.0253258236, -0.0207160041, -0.0103990044, 0.0000160758, -0.0306124408, -0.0095915059, -0.0217124224, -0.0091381809, -0.0096188337, -0.0026439836, 0.0016753046, -0.0284377728, 0.0000010260, 0.0085975220, 0.0210216846, -0.0035622912, -0.0274039935, 0.0123116216, 0.0089629646, -0.0210226607, 0.0000004393, 0.0035865051, -0.0380567461, 0.0052651307, 0.0024970088, 0.0118991649, -0.0018304220, 0.0083362041, 0.0063926922, -0.0022495990, -0.0094423555, -0.0367921814, 0.0072095930, 0.0057153259, 0.0137666985, -0.0079068141, -0.0190228317, 0.0201161150, -0.0092546428, -0.0017761193, -0.0021743816, -0.0045783282, 0.0001613626, 0.0013134765, -0.0013550672, 0.0053529814, 0.0421108827, 0.0027297484, -0.0158102587, 0.0025283326, 0.0283304546, 0.0104510924, 0.0037474055, 0.0012170236, -0.0007517694, 0.0189574361, 0.0518357828, -0.0303775072, 0.0000863152, 0.0099318409, 0.0304062068, -0.0396827981, -0.0108406357, 0.0228512678, -0.0185675230, 0.0122413915, -0.0158872530, -0.0000084805, 0.0047823070, -0.0183807872, -0.0488078743, -0.0079072211, 0.0006222753, -0.0252353456, 0.0253315456, -0.0089948205, -0.0002090050, 0.0047603780, -0.0239000116, -0.0043589226, 0.0080903908, -0.0050184214, 0.0068868184, 0.0149883693, -0.0000006418, -0.0229905136, -0.0085994909, -0.0278088227, -0.0030526202, 0.0215862524, 0.0006352530, 0.0129064536, -0.0269210730, 0.0357702635, 0.0047168368, -0.0262350440, 0.0298689920, -0.0107511571, 0.0303066391, 0.0225469247, -0.0150209144, -0.0220733006, -0.0263878368, -0.0116376393, 0.0103792483, -0.0275362283, -0.0000184267, 0.0078354487, 0.0418957174, -0.0027912098, -0.0063234181, -0.0017355925, -0.0062282942, -0.0153798759, 0.0045879497, 0.0350768976, 0.0239616632, 0.0066364352, -0.0096824514, 0.0220814571, -0.0377461836, 0.0414165072, 0.0087773679, 0.0077578719, 0.0120119946, -0.0371264480, -0.0217328537, 0.0081526441, -0.0125388857, -0.0180806033, 0.0004311291, -0.0000497526, 0.0157391522, -0.0010651166, 0.0119330911, -0.0162452217, -0.0070250710, -0.0048663737, -0.0142693790, 0.0010206515, 0.0000402989, -0.0086482828, 0.0043656207, -0.0129777109, -0.0261946749, -0.0187767372, 0.0091330716, -0.0469941422, 0.0000000127, -0.0039370274, -0.0009215191, -0.0242368318, 0.0000985274, 0.0032957334, -0.0023055936, 0.0278236251, 0.0239265971, -0.0086855534, 0.0029584866, 0.0085962787, 0.0098871402, -0.0101643959, -0.0152104022, -0.0215094294, -0.0016900646, -0.0042515607, -0.0218372103, -0.0176558550, 0.0065416037, 0.0504944474, -0.0001787125, -0.0111922277, -0.0106258383, -0.0106718009, 0.0011441556, 0.0005888611, 0.0023818649, 0.0126385409, 0.0466589853, -0.0063406648, -0.0144240502, -0.0070384671, -0.0048840954, 0.0291930754, 0.0255876109, -0.0170067269, 0.0017618232, -0.0094067873, -0.0322624743, -0.0047608158, -0.0141703151, 0.0177176967, -0.0337696932, 0.0190039910, -0.0222480856, -0.0000023043, -0.0010573030, -0.0355081297, -0.0061231945, -0.0047334665, 0.0157791041, -0.0046533234, 0.0227751918, 0.0393971242, -0.0004496293, 0.0643098056, -0.0110536460, 0.0136703243, 0.0493790470, 0.0152706206, -0.0092744399, -0.0030956990, -0.0000021155, -0.0052959872, -0.0258932449, -0.0158963259, -0.0110477293, 0.0121950665, -0.0069491141, 0.0436901227, -0.0158614498, 0.0108492970, -0.0260480084, -0.0191872828, 0.0382741615, 0.0350750051, -0.0368934833, -0.0030782404, -0.0124961780, 0.0394765325, -0.0243747886, 0.0111579122, -0.0422700085, -0.0582245998, -0.0001364394, 0.0592690781, 0.0062317490, 0.0651022345, -0.0257689636, -0.0161526632, -0.0024263922, -0.0164576620, -0.0118681630, 0.0366977416, 0.0477768965, -0.0018030099, 0.0076241829, -0.0285247862, -0.0531018376, 0.0171719790, -0.0116524640, -0.0041352669, 0.0471690036, -0.0048391707, -0.0016727058, -0.0084586786, -0.0362391509, 0.0455742814, 0.0297114849, 0.0000242269, 0.0614096187, 0.0150892781, 0.0454228409, 0.0392831191, -0.0016807693, 0.0592419542, -0.0573032871, 0.0180988666, 0.0002708662, -0.0292347018, 0.0843262374, 0.0198510699, 0.0418050773, 0.0125042703, -0.0184476394, 0.0356179364, -0.0000069828, -0.0144061251, 0.0193385184, -0.0044510029, 0.0000212989, -0.0154023813, -0.0324059390, 0.0372503027, -0.0085374610, -0.0330971181, 0.0415479504, 0.0028028339, -0.0855309889, -0.0489075966, -0.0631942526, -0.0386241749, 0.0252426751, -0.0498289876, 0.0065430822, 0.0500285402, 0.0058100461, 0.0244092885, 0.0001824105, 0.0113096535, -0.0220218115, 0.0737969577, 0.0291236229, 0.0013307782, 0.0704676285, -0.0098547153, -0.0712966323, -0.0506006405, 0.0035671711, 0.0003285461, 0.0239160638, -0.0344743766, -0.0162758715, -0.0401163921, 0.0005662784, -0.0821016058, 0.0349126793, 0.1139949560, 0.0139235118, 0.0166214034, 0.0462121740, 0.0548849702, -0.0036504054, 0.0000021806, -0.0725413114, -0.0635715574, -0.0359532237, 0.0430537201, 0.0393190272, -0.0005043437, -0.0498369597, -0.0257248618, 0.0000374824, 0.0173651613, 0.0286171082, -0.0434861891, 0.0259996932, 0.0315362215, 0.0049975505, 0.0279201865, 0.0000000087, 0.0150949601, 0.0107899401, -0.0374023430, -0.0003079028, 0.0190732386, -0.0086748637, 0.0401037522, 0.0014212998, -0.0129376650, -0.0255014971, 0.0161348917, 0.0397315919, 0.0405962318, -0.0240320489, -0.0286582056, 0.0058639301, 0.0392684005, 0.0069818101, 0.0093314918, -0.0176284164, -0.0353980623, 0.0000012608, -0.0251447186, -0.0135768065, -0.0027371743, -0.0287972372, 0.0130631262, -0.0229160190, 0.0064846650, 0.0006634075, 0.0413448326, 0.0112769688, -0.0067646764, -0.0010989243, 0.0041407016, -0.0139469123, -0.0251881499, -0.0005558690, 0.0051128273, 0.0234034974, -0.0028718445, 0.0297189914, -0.0356213190, -0.0214057583, 0.0293908548, -0.0416982993, -0.0001476156, 0.0268138293, -0.0416420400, -0.0039204140, -0.0410356075, 0.0148435608, 0.0054766010, 0.0004078261, 0.0401152335, -0.0000250747, 0.0156505108, -0.0432365090, 0.0039817477, 0.0600819103, -0.0567766428, -0.0090081301, 0.0286786407, -0.0000005012, -0.0069818739, 0.0254516844, 0.0257612746, 0.0000135780, 0.0037963358, -0.0542411841, -0.0066190343, -0.0104922680, 0.0236373264, 0.0084900334, 0.0444731377, -0.0325082354, 0.0063325209, -0.0298319235, 0.0039813640, 0.0057790973, 0.0054871934, -0.0079613067, -0.0010380652, 0.0435304008, -0.0197596010, -0.0000529676, 0.0167207271, 0.0033618561, 0.0278413724, -0.0114918994, -0.0015641747, 0.0009760302, -0.0089660119, -0.0296341330, -0.0085254107, 0.0072209937, -0.0010182894, 0.0241218302, -0.0340745784, -0.0020789667, 0.0305417478, -0.0161241405, -0.0300243180, 0.0390375555, 0.0391777828, -0.0119482577, 0.0418062173, 0.0138065256, 0.0103182970, 0.0029516544, -0.0005767886, -0.0351378955, 0.0242834315, -0.0331994630, 0.0021170264, -0.0010559245, -0.0124254832, 0.0162395537, -0.0126625039, 0.0003134914, -0.0121595738, 0.0080995150, -0.0120690968, 0.0121969385, -0.0142996833, -0.0086721973, 0.0271347072, -0.0002700827, 0.0006842940, -0.0234232657, 0.0187641326, -0.0101462286, -0.0077562896, -0.0152055155, -0.0447478406, -0.0343618058, -0.0019473674, -0.0158441868, -0.0380110331, 0.0369294323, 0.0533970557, 0.0013397069, 0.0193248205, 0.0030168395, 0.0303404387, 0.0004682853, -0.0134096220, 0.0334836021, -0.0272803400, -0.0000946946, 0.0315741599, 0.0098004192, 0.0171853341, -0.0057711098, -0.0066811969, 0.0162910335, -0.0070655602, 0.0321740508, 0.0311209131, 0.0102025168, -0.0005037163, -0.0390125513, -0.0138649363, 0.0006231457, -0.0096288128, 0.0318874493, 0.0208883081, 0.0001223256, -0.0109249251, -0.0008428637, -0.0035535041, 0.0476766154, 0.0439845063, -0.0294785742, -0.0000652735, -0.0171027351, -0.0058921315, -0.0241232701, 0.0166265424, 0.0030704422, 0.0070275837, -0.0199030917, 0.0185007695, -0.0001039959, -0.0342120901, 0.0114305671, 0.0352759659, 0.0658681989, -0.0029664696, 0.0000228151, 0.0272306092, 0.0000000781, -0.0066478793, 0.0017022470, 0.0304053761, -0.0031523772, -0.0121447351, -0.0317208245, -0.0176551621, 0.0058837002, -0.0153318746, 0.0201083217, 0.0408789143, -0.0152822277, 0.0204083398, -0.0226954408, -0.0203947071, -0.0110506192, -0.0049248310, 0.0012409175, 0.0157231856, 0.0304795261, -0.0070335199, -0.0000201650, -0.0418161564, -0.0186250433, 0.0278667286, 0.0193170365, -0.0031159637, 0.0017163819, -0.0125490827, -0.0384689569, -0.0185727533, 0.0038144400, -0.0024919745, 0.0122607565, -0.0265517309, -0.0006108861, -0.0268295165, -0.0181532521, -0.0128384139, 0.0184563808, 0.0484002419, 0.0119586689, 0.0176853389, -0.0433715731, 0.0546671376, -0.0026622240, 0.0000089631, 0.0559656061, -0.0560669936, -0.0201491602, -0.0036585932, 0.0284212735, -0.0215261467, -0.0105510196, 0.0077266614, -0.0000065169, 0.0418384895, -0.0815771818, 0.0234898236, 0.0080027049, -0.0352735780, 0.0036413996, 0.0256282277, 0.0000001231, -0.0065383608, -0.0231770109, -0.0252264030, -0.0029902912, 0.0118711768, -0.0016648296, 0.0442101285, -0.0099565377, -0.0174024664, -0.0221901760, -0.0069931573, 0.0393177494, 0.0058966726, 0.0390456170, 0.0154256765, -0.0058006337, 0.0166627821, -0.0526038110, -0.0227220301, 0.0131090898, -0.0021908758, -0.0001196232, 0.0460119471, 0.0208842941, -0.0503173172, -0.0223603602, -0.0070765796, -0.0185329374, -0.0244695656, 0.0577542409, 0.0380046293, 0.0053022583, 0.0054735253, 0.0309908167, 0.0063803038, -0.0129211321, 0.0759100989, 0.0281796549, -0.0649487004, 0.0268879849, -0.0261921752, -0.0171247292, 0.0325320251, 0.0235667638, 0.0046034604, -0.0110317776, 0.0003067811, 0.0242727306, 0.0123603921, 0.0376918614, -0.0057700649, 0.0050106118, -0.0028697990, -0.0201071929, -0.0038611612, 0.0015970090, -0.0595552810, -0.0377426744, 0.0144912982, 0.0493661612, 0.0193607416, 0.0003886881, -0.0390955582, 0.0000000493, -0.0150700873, -0.0085511720, -0.0435360856, 0.0003499268, -0.0096907541, 0.0468720980, 0.0368922539, 0.0191370379, -0.0401069298, 0.0443515889, 0.0057951235, -0.0151678221, -0.0632488802, -0.0063845855, -0.0337342806, -0.0707830563, -0.0945834965, 0.0237094536, 0.0155055560, 0.0054754619, 0.0760439411, -0.0000997694, -0.0592378899, -0.0549932644, 0.0156767815, 0.0177900158, -0.0032263170, 0.0020610634, -0.0075998576, -0.0084116627, -0.1028811932, 0.0255437754, -0.0009681892, 0.0509369262, 0.0459322184, 0.0320762880, -0.0216791648, -0.0190951917, -0.0210711993, -0.0142672248, 0.1064106822, -0.0116702095, -0.0206105299, -0.0178073458, -0.0053407671, -0.0143286707, -0.0000213258, 0.0201519281, 0.0337329954, -0.0663321167, -0.0213281959, -0.0168230701, -0.0164571777, -0.0186950639, -0.0314332470, -0.0041415459, -0.0106176389, 0.0126865692, 0.0637629852, 0.0002785341, -0.0118091870, 0.0082058236, 0.0120590292, -0.0000026392, -0.0256677736, -0.0151938265, 0.0282594226, 0.0016778632, -0.0251942649, 0.0138984993, 0.0133166090, -0.0061141495, 0.0073474441, 0.0363858305, 0.0306260996, -0.0239860024, -0.0184809566, 0.0178952366, -0.0108865183, 0.0149512989, -0.0271031316, 0.0154726068, 0.0020830443, 0.0532381982, 0.0110058393, -0.0004143156, 0.0237745829, 0.0041602417, -0.0032813963, 0.0345606282, -0.0053495434, -0.0098202284, -0.0023939849, 0.0269945133, -0.0586013533, -0.0369670019, 0.0016442356, -0.0187518895, -0.0350834727, -0.0054667499, 0.0099636521, 0.0018694766, -0.0141108232, 0.0168493502, -0.0217773262, -0.0179766696, 0.0382615216, 0.0242394302, -0.0442813560, -0.0327552706, 0.0000818891, 0.0189358424, -0.0076709883, 0.0825033411, 0.0287986752, -0.0091871759, 0.0288148485, -0.0335721895, 0.0234366581, -0.0000414624, -0.0396169610, -0.0272587892, -0.0121568339, -0.0480672643, -0.0365351290, -0.0067735408, -0.0097858272, -0.0000007526, -0.0315685868, 0.0553543381, 0.0465455838, 0.0002250104, -0.0071379337, -0.0076912669, -0.0072832955, -0.0105953868, 0.0153190093, -0.0015537892, 0.0467629842, -0.0454925373, -0.0229227468, -0.0348308273, -0.0262051951, 0.0030886005, -0.0082235625, -0.0315612070, -0.0147120859, 0.0347785354, 0.0077437893, -0.0000010715, -0.0186744742, -0.0332045406, 0.0077731293, -0.0113080153, -0.0033490187, 0.0073007043, 0.0168647133, 0.0132348360, -0.0314479731, -0.0375172123, -0.0123608215, -0.0465428419, -0.0186045356, 0.0011942377, 0.0175008010, -0.0364080556, 0.0272587594, -0.0401459485, 0.0384859778, 0.0434851274, 0.0194111932, -0.0021170715, 0.0598737895, -0.0172356609, -0.0000334235, 0.0280613303, -0.0223655086, -0.0170486737, -0.0234508049, 0.0113184471, -0.0134676360, -0.0182947498, 0.0120193437, 0.0030075531, 0.0195046067, -0.0348292850, 0.0485170744, 0.0617095158, 0.0057450901, -0.0036856197, 0.0335325599, 0.0000003596, -0.0086071221, -0.0154246306, -0.0060023507, -0.0061355024, 0.0035401734, 0.0341229960, 0.0059722909, -0.0168789495, -0.0162349455, 0.0275042057, -0.0026516749, -0.0354330838, 0.0216913167, 0.0132881030, 0.0220445786, -0.0043100379, -0.0382199474, -0.0029172320, 0.0088254269, 0.0529499687, 0.0022051656, -0.0000267034, 0.0182372015, -0.0216460507, -0.0026398662, 0.0221873485, -0.0010236797, -0.0149436360, -0.0131065827, -0.0132543668, -0.0193061791, -0.0188486204, -0.0010621280, 0.0298523810, -0.0116804931, -0.0118434923, 0.0205946825, -0.0034591532, -0.0245784875, 0.0601085201, 0.0648698732, -0.0324733071, -0.0414773151, -0.0561923012, -0.0072036884, 0.0195227433, -0.0020280376, -0.0580431782, -0.0612886548, -0.0405988880, 0.0175323933, 0.0103546083, -0.0012653770, 0.0147848492, -0.0133576607, 0.0003754363, 0.0415588133, -0.0081056021, -0.0108541008, -0.0023596836, 0.0157382246, -0.0063816002, 0.0200530309, 0.0000053560, -0.0201955847, 0.0043818261, -0.0191722065, -0.0091949776, -0.0098266480, 0.0120950015, 0.0241781175, -0.0223592483, -0.0285996012, -0.0400084481, -0.0538012795, 0.0322316736, 0.0026742253, 0.0088976845, 0.0178917404, -0.0178962592, -0.0296425484, -0.0116815390, 0.0109740794, 0.0207367819, -0.0510298572, -0.0003583945, 0.0296273101, 0.0145951947, -0.0307631455, 0.0364533402, -0.0102762142, 0.0247083772, -0.0120293843, 0.0788777024, 0.0105555160, 0.0251628011, 0.0055537284, 0.0081728958, 0.0020560278, 0.0414774604, -0.0310932249, -0.0161043294, -0.0206183754, 0.0246706717, -0.0571012534, 0.0270692147, 0.0270532910, -0.0138733750, 0.0073930109, -0.0116274999, 0.0000010754, -0.0206167884, -0.0364183486, -0.0191486627, 0.0056928317, 0.0150659233, -0.0013281434, -0.0148238419, -0.0122443130, 0.0000516557, 0.0127923721, -0.0057290667, -0.0245962311, -0.0024387066, -0.0037660089, 0.0067486144, -0.0006945623, 0.0000000330, 0.0057038264, -0.0074646189, -0.0130251022, 0.0002968527, 0.0152720576, 0.0089722592, 0.0059054024, 0.0186173879, -0.0005447494, 0.0104434015, -0.0132054752, 0.0148815019, 0.0339518860, 0.0061066193, 0.0178877078, -0.0155379856, -0.0033619364, -0.0002489625, 0.0006743674, 0.0059565427, 0.0164553840, 0.0000033821, -0.0087116929, 0.0096509717, 0.0182709619, 0.0003512832, 0.0046462016, -0.0069715814, -0.0055874516, 0.0048097465, -0.0172124337, 0.0143455686, 0.0005417813, -0.0183959287, -0.0105441082, 0.0039172526, -0.0167240575, 0.0001910956, -0.0004950855, -0.0090832869, -0.0093010440, 0.0041773962, -0.0104624145, 0.0249106456, 0.0135328341, -0.0279072374, -0.0001523449, -0.0350065082, -0.0602394752, -0.0134318238, -0.0117630605, 0.0042739720, -0.0012994087, -0.0108148707, -0.0024719732, -0.0005932389, -0.0068720151, -0.0401377380, -0.0103906225, 0.0034900974, 0.0049800538, 0.0007527543, -0.0140955634, -0.0000058833, 0.0035337701, 0.0040894579, 0.0166401900, -0.0013900122, 0.0044219298, 0.0247053616, 0.0119019896, -0.0141285686, -0.0292284247, -0.0369476154, -0.0199803337, 0.0122136073, 0.0118937548, 0.0131904026, -0.0148200346, -0.0400281437, -0.0168931521, 0.0220964551, 0.0111505250, -0.0210004747, 0.0111934189, -0.0001159043, -0.0069190995, -0.0192330182, 0.0041113053, 0.0162354708, 0.0003278569, -0.0142379981, -0.0209298879, 0.0271508340, -0.0336061120, 0.0137527110, -0.0034697356, 0.0421372727, 0.0332100578, 0.0411384143, 0.0272535942, -0.0195001923, -0.0066995700, 0.0237774234, -0.0114934864, 0.0104179708, 0.0432940908, 0.0059455261, 0.0141643407, -0.0236448273, -0.0000008442, 0.0064628362, -0.0071943011, 0.0309958011, -0.0086163618, -0.0196673889, 0.0285819974, -0.0195818935, 0.0157028269, 0.0000058985, -0.0209600609, -0.0014390837, -0.0022371768, 0.0107019236, -0.0063499752, -0.0038564370, 0.0402245782, -0.0000000659, -0.0073817968, 0.0249618385, 0.0230102986, 0.0008233726, 0.0056381160, -0.0372099318, -0.0125695942, 0.0091903349, -0.0122041618, -0.0019450738, 0.0236569904, -0.0331008025, -0.0121221971, -0.0197149087, -0.0374118164, 0.0090808934, -0.0063061593, -0.0129017010, 0.0049404963, 0.0081615392, -0.0582594648, 0.0000013987, -0.0053208033, 0.0161025934, 0.0129138008, -0.0101536550, 0.0033646424, 0.0279244818, 0.0056410008, -0.0551184081, -0.0202839617, 0.0011187186, -0.0001499790, 0.0153721105, -0.0192210339, 0.0114362249, 0.0005363054, -0.0376130901, -0.0222891606, 0.0115791121, 0.0236533843, 0.0149941389, 0.0423246995, 0.0034010296, -0.0009506505, 0.0235475078, -0.0008326158, -0.0119159641, 0.0623793192, -0.0364315100, 0.0158945173, -0.0088211047, -0.0137966005, 0.0385018028, 0.0154594211, -0.0029552784, -0.0339006893, 0.0216193087, 0.0120038893, -0.0349224955, -0.0090605700, -0.0063794744, -0.0085458867, -0.0000217619, 0.0086337179, -0.0075931102, -0.0002652734, -0.0027161762, -0.0294243526, 0.0114702377, 0.0093510626, 0.0000404197, -0.0118133798, -0.0097435545, -0.0364893936, 0.0156103568, -0.0046809027, 0.0048916121, 0.0094589731, 0.0326216482, 0.0082780905, 0.0376430824, -0.0117651075, -0.0207314305, -0.0124385953, -0.0002511642, 0.0194871519, -0.0113881445, -0.0187630653, 0.0227114875, -0.0132045969, 0.0257120617, 0.0003344784, 0.0332966149, 0.0067720180, -0.0083309812, -0.0004408079, 0.0294845980, 0.0216674395, 0.0171025917, 0.0092149219, 0.0413749069, -0.0252889339, -0.0158284623, -0.0585935414, 0.0164698549, 0.0215838440, 0.0174756665, 0.0063347062, 0.0226943325, -0.0008107768, 0.0106062694, -0.0093882214, 0.0171887223, 0.0155958440, 0.0105997035, -0.0096344110, -0.0341506451, 0.0152059169, -0.0025395935, -0.0399555899, 0.0038816773, -0.0148977712, 0.0009807736, -0.0149874287, -0.0115477350, -0.0101180226, -0.0000569615, 0.0145438574, 0.0211200230, 0.0128250942, -0.0012638222, -0.0432957411, -0.0053946762, 0.0200022832, -0.0198917799, -0.0350949205, -0.0020429234, 0.0166487787, -0.0074118739, 0.0083154356, -0.0212173983, -0.0302242618, -0.0019590207, -0.0112602729, 0.0002421177, 0.0060089263, 0.0304930732, 0.0470845476, -0.0005125316, 0.0018663789, -0.0152066844, -0.0014513277, 0.0042408365, -0.0027918047, 0.0271996651, -0.0173184164, 0.0376102217, -0.0098319724, -0.0300745312, -0.0046227057, 0.0113915354, 0.0136239165, 0.0126943188, -0.0329511203, 0.0163138565, 0.0038416465, -0.0093569979, -0.0013590480, 0.0433009043, 0.0233006142, -0.0294383429, 0.0071176975, 0.0192797426, -0.0003178386, 0.0106878420, -0.0268656313, -0.0020378001, -0.0382772237, 0.0220969766, -0.0060402155, 0.0027572061, 0.0399540961, -0.0001066087, 0.0362024494, -0.0701409727, -0.0343532301, -0.0081046959, 0.0338868722, 0.0045752926, -0.0019412978, -0.0000009075, -0.0137692271, -0.0227789562, 0.0165976845, 0.0000156967, 0.0163410716, 0.0517738871, 0.0120230075, -0.0226007532, 0.0020301987, -0.0111480020, -0.0114520350, 0.0159290750, -0.0124105448, 0.0250273924, 0.0191399343, -0.0075538321, -0.0164694302, -0.0256939791, 0.0214853343, 0.0064802389, -0.0087194517, 0.0002294307, 0.0111694522, 0.0104539739, -0.0119791338, -0.0431797057, -0.0009149754, -0.0362334251, -0.0288960226, -0.0330626853, 0.0064085135, -0.0104286047, -0.0051210066, 0.0181472059, 0.0098437490, -0.0149549367, 0.0453814045, -0.0155040780, 0.0037255196, 0.0312652811, -0.0083092237, -0.0101141967, -0.0193801057, -0.0023709992, 0.0401077382, 0.0122630307, -0.0000042355, -0.0066115106, -0.0326040611, -0.0369389988, 0.0024262997, 0.0266448427, -0.0009627149, -0.0170598198, -0.0076189013, 0.0004918659, 0.0375837199, 0.0186708551, -0.0015314565, 0.0204788595, 0.0276988316, -0.0007924262, -0.0017416666, -0.0000009667, 0.0010686427, -0.0203916207, -0.0001722303, -0.0000592367, 0.0069166711, 0.0421640314, 0.0269670933, -0.0081416424, 0.0002332512, 0.0239616316, -0.0076329042, -0.0034180083, 0.0081206812, 0.0144477757, 0.0285692941, 0.0064867325, 0.0302363411, -0.0174308885, 0.0017123352, -0.0223898329, -0.0235420428, -0.0000234948, -0.0007756843, 0.0038320560, -0.0257080458, -0.0030592657, -0.0077026938, -0.0007481484, -0.0032710833, 0.0046646791, -0.0017309843, 0.0102881091, -0.0033421230, 0.0113665815, -0.0303756967, -0.0029590661, -0.0161077734, 0.0046582380, -0.0057814457, 0.0256419070, -0.0208565984, 0.0018900206, -0.0317473859, 0.0172897391, -0.0342970341, 0.0014410195, -0.0000541887, 0.0137257567, 0.0067457906, 0.0206759926, 0.0057211518, -0.0174698569, 0.0064344816, 0.0193989314, -0.0004405956, -0.0000550114, -0.0163463373, -0.0024795132, -0.0298988465, -0.0325561203, 0.0012506023, -0.0004232384, -0.0332727283, -0.0000043079, -0.0114687709, -0.0203484166, 0.0154412305, 0.0010436199, -0.0314244032, 0.0106074130, -0.0136803258, 0.0127668092, 0.0041538202, -0.0106945867, -0.0059520248, 0.0048624952, 0.0051543685, 0.0132329408, 0.0043480671, -0.0111742225, -0.0254711695, -0.0029599147, -0.0176325385, 0.0005566763, 0.0338209271, -0.0003543991, -0.0119251488, -0.0024254189, -0.0242407601, 0.0279797316, -0.0054312181, -0.0026812516, 0.0079412377, 0.0334479883, 0.0044343933, 0.0005547792, 0.0002752579, -0.0003382976, 0.0240564290, 0.0510162935, 0.0143875023, 0.0061915726, 0.0275004972, -0.0476522632, -0.0088801188, -0.0090884790, 0.0281230733, -0.0077169128, -0.0101808691, 0.0394321047, -0.0000020054, 0.0246141218, -0.0052630282, 0.0358294584, -0.0322417654, 0.0091524785, 0.0003806794, 0.0483853370, 0.0126087433, -0.0002102223, -0.0056540864, -0.0575299487, -0.0362847224, -0.0329967588, -0.0035276846, -0.0013590869, 0.0023605190, -0.0000001087, -0.0042899502, -0.0178548079, -0.0148016326, -0.0016005109, 0.0208620187, 0.0030886319, -0.0180690903, -0.0117547642, -0.0045336061, -0.0270243324, 0.0097747203, 0.0330291130, -0.0058300416, 0.0294687003, -0.0054857852, 0.0320686884, -0.0036239291, -0.0085793417, -0.0004791493, -0.0298422184, -0.0060723997, -0.0000102008, 0.0102842739, 0.0549400784, -0.0384293646, -0.0203935802, -0.0081252242, -0.0003292027, 0.0096921129, 0.0193150863, -0.0105353734, 0.0009967573, 0.0007671379, -0.0140048964, 0.0024600378, 0.0221751295, 0.0347493701, -0.0074807121, 0.0001478285, -0.0375544317, -0.0246060733, -0.0019037545, 0.0280316938, -0.0374391675, -0.0307891127, 0.0273135062, 0.0000029242, 0.0006987303, 0.0266598761, 0.0002219087, 0.0127794510, -0.0098292856, 0.0045358380, 0.0426967889, 0.0138935978, -0.0005744236, 0.0044962289, 0.0054514538, 0.0086691724, 0.0058477367, 0.0072389077, 0.0019811487, -0.0123910680, -0.0000005214, -0.0139692696, -0.0160541404, -0.0105952583, -0.0046044323, -0.0028145139, 0.0069610942, 0.0046433788, -0.0036633546, -0.0055086268, -0.0179113131, -0.0242275503, 0.0074020335, 0.0009996658, -0.0008652179, 0.0189907793, 0.0047914167, 0.0197138675, -0.0370931067, 0.0072170445, -0.0041201706, -0.0364024602, 0.0000810627, 0.0248275902, 0.0329207070, -0.0033961583, 0.0248561464, -0.0082018590, 0.0116045764, -0.0073245480, 0.0022619511, 0.0268941857, 0.0082787378, 0.0027182815, -0.0065727863, 0.0062925140, -0.0111388797, -0.0115407472, 0.0172681492, -0.0060734968, 0.0094199963, -0.0159786455, -0.0210806876, 0.0075981463, 0.0169230010, 0.0304771904, 0.0021182036, -0.0000821454, 0.0253346711, 0.0105768936, -0.0289044306, -0.0298702829, -0.0309268348, 0.0057725678, 0.0210037343, 0.0082015553, -0.0005639340, -0.0336761363, 0.0334374867, 0.0084194401, -0.0228968710, -0.0041904524, -0.0128810387, 0.0143336514, -0.0000029693, -0.0054564299, 0.0206532776, 0.0255994312, 0.0017105266, -0.0217703655, -0.0135192322, -0.0195193328, 0.0172395464, -0.0095813610, 0.0220151432, -0.0129714366, 0.0098924432, 0.0023506696, -0.0004188462, -0.0073435064, 0.0071112639, 0.0015400158, 0.0145073561, -0.0071700774, -0.0066519952, -0.0013770099, 0.0000184225, 0.0178825371, 0.0190046001, -0.0263417363, 0.0273073297, 0.0018584119, 0.0110067343, 0.0108761862, 0.0121215982, 0.0337316617, 0.0088401288, 0.0027109256, 0.0544983856, 0.0063241781, 0.0422508195, -0.0209476463, 0.0358576961, -0.0371400751, 0.0079587176, 0.0203272440, -0.0127030341, 0.0020199337, -0.0141106285, -0.0080898954, -0.0032399774, 0.0000177241, -0.0170331765, -0.0443024859, -0.0360122062, 0.0035500091, -0.0068920958, -0.0093150120, -0.0057935342, -0.0251455568, -0.0000541911, -0.0004605256, 0.0353623144, 0.0112181129, -0.0045417580, 0.0074164062, 0.0021195661, -0.0058769123, -0.0000007568, 0.0054494939, -0.0436986014, -0.0149009582, -0.0047669550, -0.0087234331, 0.0387412310, 0.0018680817, -0.0228974819, -0.0027582012, 0.0149608422, -0.0217383336, 0.0098119285, -0.0135193812, -0.0012364332, 0.0338539630, 0.0050448752, 0.0228018202, 0.0150981648, 0.0063569676, 0.0156055326, -0.0197147168, -0.0000683266, -0.0006359398, -0.0303971265, -0.0045133191, -0.0140452627, -0.0128955794, 0.0076456121, -0.0077954009, 0.0505405739, -0.0136753675, 0.0234933216, 0.0002363857, -0.0211175699, 0.0216549113, 0.0143458676, -0.0305943321, 0.0159354545, 0.0100838318, 0.0006862798, -0.0342118666, -0.0053488165, -0.0230349973, 0.0286263712, 0.0417576656, -0.0230113696, 0.0000030109, -0.0413473770, -0.0222021546, -0.0378709622, -0.0078591565, 0.0180115793, -0.0218762103, -0.0410251804, -0.0004008461, 0.0004179763, -0.0051874090, 0.0336805582, -0.0117030311, 0.0428457297, -0.0277780015, 0.0007296654, 0.0444217734, 0.0000000396, 0.0231912658, -0.0056935470, 0.0001544769, -0.0002383466, -0.0097949095, -0.0345098153, -0.0362778157, -0.0122327888, 0.0188938770, 0.0040514283, 0.0273016505, 0.0034176384, -0.0022067721, -0.0320220329, 0.0425715819, -0.0206892323, 0.0080536837, -0.0181246065, 0.0135179153, 0.0432488248, 0.0057910145, 0.0000128105, -0.0146101937, -0.0016258701, 0.0234606620, 0.0317255929, 0.0049268105, -0.0155484434, 0.0001447932, -0.0000804932, -0.0168737024, 0.0158469789, 0.0000244777, 0.0267572552, -0.0055313483, 0.0322146863, -0.0477199219, 0.0195634943, 0.0001460894, 0.0174072273, 0.0485072844, 0.0128751127, -0.0228994191, 0.0363350436, -0.0037524377, 0.0100806151, -0.0021059830, -0.0154428622, 0.0276282653, -0.0033593881, 0.0057249861, 0.0091468841, -0.0142687820, -0.0322616249, 0.0158274714, -0.0032127160, -0.0237461589, 0.0307199787, -0.0340141356, -0.0104014492, -0.0068243565, -0.0048593362, -0.0028297671, -0.0000001390, 0.0145948594, 0.0047860336, 0.0036209333, 0.0001369975, -0.0101352176, -0.0077172020, 0.0046955678, -0.0133896181, 0.0008783262, 0.0047182082, 0.0299730916, -0.0015317545, -0.0056343949, -0.0118328696, -0.0178083368, 0.0001255032, 0.0131766135, -0.0123276571, -0.0029146106, 0.0028652053, 0.0337584876, -0.0003617434, -0.0254167560, -0.0173036736, 0.0023179855, -0.0028792531, 0.0039064889, 0.0140426857, -0.0091669476, 0.0076494147, 0.0015183151, 0.0034995617, -0.0016008398, -0.0042709997, 0.0324970931, 0.0024070546, -0.0258664414, -0.0009278324, 0.0077275806, -0.0196332783, 0.0131295063, 0.0087741120, 0.0150498161, -0.0336113609, -0.0373361930, 0.0256676152, 0.0000039129, -0.0052358983, 0.0314627439, 0.0254358556, -0.0111752506, -0.0028828296, -0.0008167484, -0.0165928528, -0.0212679412, 0.0000084793, -0.0371779874, 0.0254322384, 0.0349423699, 0.0093655288, 0.0018315844, 0.0019214872, -0.0273284502, 0.0000001008, 0.0084738610, -0.0043776440, -0.0370224863, 0.0029223161, -0.0008032743, 0.0065656928, -0.0181898829, -0.0057166619, 0.0039005631, 0.0270317812, -0.0150353312, -0.0072938395, -0.0178453326, 0.0082384944, 0.0030093298, 0.0090744225, -0.0025910446, -0.0316803642, 0.0126754222, 0.0094778445, 0.0076504536, 0.0000029531, 0.0121149365, 0.0208423734, 0.0110371271, -0.0219808668, 0.0020607971, 0.0008848592, -0.0066625425, 0.0168744884, -0.0088829268, 0.0188879557, 0.0014803398, 0.0186399259, -0.0027994097, -0.0136612887, -0.0290601980, -0.0111037707, -0.0030194665, -0.0293236263, 0.0255135465, -0.0074482402, -0.0287225340, 0.0087079918, -0.0102236345, -0.0012861455, 0.0010456641, 0.0169654042, 0.0077532507, 0.0241446495, -0.0047291443, 0.0010838872, 0.0106677292, 0.0033395896, -0.0031652634, 0.0001203274, -0.0212098416, -0.0313454047, -0.0213525929, -0.0125880605, -0.0004902008, -0.0057801297, -0.0189062580, -0.0000130831, -0.0012395207, -0.0200024918, 0.0067762989, -0.0000930096, -0.0096476981, 0.0382900015, 0.0247271340, 0.0024311657, -0.0092469975, 0.0063071549, -0.0071232389, 0.0090266569, 0.0010672457, 0.0002378860, -0.0079546617, -0.0001912058, -0.0237681363, -0.0067622950, -0.0096212616, 0.0160670653, 0.0512280874, -0.0002011241, -0.0042756186, -0.0206477512, 0.0010191450, 0.0019469331, -0.0035462214, 0.0248540081, -0.0183176994, 0.0205753837, -0.0165822096, -0.0119872242, -0.0150643149, -0.0008009749, 0.0259995628, 0.0306551624, 0.0005867377, -0.0270734783, 0.0288734771, -0.0255352221, -0.0162955243, 0.0072905575, 0.0282228887, -0.0127734672, -0.0291411839, -0.0170863699, -0.0000252665, -0.0001939400, -0.0021742275, 0.0347191431, -0.0003492029, 0.0115315989, 0.0097101638, -0.0084732249, -0.0048260964, -0.0000025157, -0.0212091431, -0.0018143358, 0.0057520228, 0.0101540564, -0.0006720203, -0.0032788343, -0.0153589118, 0.0000000073, -0.0195949133, -0.0158694871, -0.0142811313, 0.0000103548, 0.0072259088, 0.0285746660, 0.0252781287, -0.0176813956, -0.0162102673, 0.0098833367, 0.0078124302, -0.0166097619, 0.0006615935, 0.0071024299, -0.0322762616, 0.0143906726, -0.0251666028, -0.0128468070, -0.0150286332, 0.0018594355, 0.0062026465, 0.0000043484, -0.0042113597, 0.0094891721, -0.0103273205, -0.0036109341, -0.0091842609, 0.0016486603, -0.0086113568, 0.0149447611, -0.0269664489, -0.0327698626, -0.0093920808, -0.0384154096, 0.0107158870, -0.0160898026, 0.0151692210, -0.0263559688, 0.0450142883, 0.0115014808, -0.0031735047, 0.0094232634, 0.0455207080, 0.0104644168, 0.0101647405, 0.0172212701, 0.0000042438, -0.0273256414, -0.0081502143, -0.0334532000, 0.0012618443, 0.0082441829, 0.0068868194, 0.0358767696, -0.0100041861, -0.0003037787, -0.0057493513, 0.0134501411, 0.0046355310, 0.0174892079, -0.0007121338, 0.0022113365, -0.0069993436, -0.0000149362, 0.0053470461, -0.0112187006, 0.0210021306, 0.0014329287, -0.0210814457, 0.0102209430, -0.0229775570, 0.0060640043, 0.0104793841, -0.0082834819, -0.0296965726, 0.0005069235, 0.0202126484, 0.0062092729, 0.0148715796, -0.0097760689, 0.0324091054, -0.0140503626, 0.0006760010, -0.0226138067, -0.0284464136, -0.0000034604, -0.0055740294, 0.0087920045, -0.0072262860, 0.0249353461, -0.0108732227, 0.0042134146, 0.0052982569, 0.0031647088, -0.0089195026, 0.0302476455, 0.0025274197, -0.0055813622, -0.0170284156, 0.0312892385, -0.0288531911, 0.0129940314, 0.0088516390, 0.0157123525, -0.0035361068, -0.0155828679, -0.0331823565, -0.0251524337, 0.0226283483, -0.0058578346, -0.0000821549, -0.0007817330, -0.0640736595, -0.0037480895, -0.0365779921, 0.0195772722, -0.0258053187, 0.0010259209, 0.0256711189, 0.0003523476, 0.0494052060, -0.0363163799, -0.0078017060, -0.0192960687, 0.0161927342, -0.0087908786, 0.0116582951, -0.0000001303, -0.0111022936, -0.0342695005, -0.0153021123, -0.0039663860, -0.0000764549, 0.0274686459, 0.0155757833, -0.0100419680, -0.0082827760, -0.0110532995, -0.0227746479, 0.0312573463, -0.0004135516, 0.0014646508, 0.0278700292, 0.0184021406, 0.0126132127, 0.0267769527, 0.0203995816, -0.0102251479, -0.0088186022, -0.0000111744, 0.0304167364, 0.0215271506, 0.0424904488, -0.0189376306, -0.0039983769, -0.0012378751, -0.0165843144, 0.0223793294, 0.0091758091, 0.0130549828, -0.0097063603, 0.0207249448, 0.0089610722, -0.0134960636, 0.0143229710, 0.0141128749, -0.0132365618, 0.0173688121, -0.0171644147, 0.0007883419, -0.0007826482, 0.0262933429, 0.0157739557, -0.0027475201, 0.0000004760, 0.0030310906, 0.0104725696, 0.0025376000, 0.0083804354, 0.0089254342, -0.0002349010, 0.0033850423, -0.0103198718, -0.0000002157, -0.0032675175, 0.0098298872, -0.0066922442, 0.0076818727, 0.0142918695, -0.0023715387, 0.0032998521, -0.0000000184, -0.0018099841, -0.0146662910, -0.0231869034, 0.0008118025, 0.0006726909, 0.0332830548, 0.0133610675, -0.0107199783, 0.0175161399, 0.0044755265, 0.0054153749, 0.0042332616, 0.0033073192, 0.0216976386, 0.0032075867, -0.0033710327, -0.0213055108, -0.0018013307, 0.0018664439, -0.0059389672, -0.0086200805, -0.0000077704, -0.0292221084, -0.0099434434, -0.0154938828, 0.0171196777, -0.0006692188, -0.0082539339, -0.0025204211, 0.0234116670, -0.0196260028, -0.0052771596, 0.0000445729, -0.0127282590, 0.0034959316, 0.0208876859, -0.0023080111, -0.0024674956, -0.0004930428, -0.0060798838, -0.0132125169, 0.0151559534, -0.0165224057, -0.0016890257, -0.0012537905, 0.0340698138, -0.0016121141, 0.0056634354, -0.0219949316, 0.0102377115, -0.0054874951, 0.0162897706, 0.0173669886, -0.0212408472, 0.0048090005, 0.0001861213, 0.0134229390, -0.0322768576, -0.0276267454, 0.0378054120, -0.0043178112, -0.0108051654, -0.0197975114, -0.0000365823, -0.0150175197, -0.0021122047, 0.0470172986, -0.0089170253, -0.0321494229, 0.0105913887, -0.0059746387, -0.0402424522, 0.0001782160, -0.0182722099, -0.0020639272, -0.0071048238, 0.0095109418, -0.0165349469, 0.0161732677, -0.0054601138, -0.0181872938, -0.0563737005, 0.0365514830, -0.0120348055, 0.0223955605, -0.0002088000, 0.0232251752, -0.0089511322, -0.0051932144, -0.0083447341, 0.0013717066, 0.0131695997, -0.0048702871, 0.0129568363, -0.0238781013, -0.0205981769, -0.0043217246, 0.0033202665, 0.0121457763, 0.0073389318, -0.0203671847, 0.0251897611, 0.0504077971, 0.0316669159, 0.0553594865, -0.0211788323, -0.0087091401, 0.0099460594, 0.0269804243, -0.0056466754, 0.0002641235, 0.0319605023, -0.0194730386, 0.0133925015, -0.0124316178, -0.0157617591, 0.0204493925, -0.0083027389, 0.0160124246, 0.0002385923, -0.0438707843, 0.0235831253, 0.0018681828, 0.0131829847, 0.0010117742, -0.0100116981, -0.0080077965, -0.0000001036, -0.0109413620, -0.0156690255, -0.0175216049, 0.0005548758, 0.0118149640, 0.0050397548, 0.0017463169, 0.0140725868, 0.0101259816, 0.0215620026, -0.0248829853, -0.0250203423, 0.0031842748, -0.0225803796, -0.0328742452, 0.0076743453, -0.0240276344, 0.0004063535, -0.0023891518, 0.0173551850, -0.0039075930, -0.0000717474, 0.0105801830, -0.0125747556, -0.0214587785, 0.0306200776, 0.0006091584, 0.0343163870, 0.0109941149, 0.0068930029, -0.0118130390, 0.0286567304, 0.0009744687, 0.0237691905, 0.0291159898, 0.0112728886, 0.0027811981, -0.0186338369, -0.0247074105, 0.0080153896, 0.0544110686, 0.0170456897, -0.0122802677, 0.0185928512, 0.0420658439, 0.0233860128, 0.0000126099, -0.0269216858, -0.0151492143, -0.0371180736, -0.0097638564, -0.0126965204, 0.0222025774, -0.0600478277, -0.0319780521, 0.0000710695, -0.0173866805, 0.0152402120, -0.0252434891, 0.0176441632, 0.0095353713, -0.0032564187, 0.0389734320, 0.0000000677, 0.0235616155, 0.0280054454, 0.0249189176, 0.0009420178, 0.0037696916, -0.0398388915, 0.0141383354, -0.0109040998, -0.0301377662, -0.0020713534, 0.0162072070, 0.0111487908, -0.0026642159, -0.0205752663, -0.0035166682, 0.0352429077, -0.0277381912, -0.0051526190, 0.0164354276, 0.0430133715, 0.0045258082, 0.0000064632, 0.0258425679, 0.0674244091, -0.0043335888, 0.0061297761, 0.0048537222, -0.0025346687, -0.0033079886, 0.0034233544, -0.0094301356, -0.0046347594, -0.0010193805, 0.0070177568, -0.0070387712, -0.0045193001, -0.0465298854, 0.0124858171, 0.0037081628, 0.0252081286, 0.0288028084, 0.0162243247, 0.0148772933, -0.0240276717, -0.0084716640, -0.0023272624, -0.0001118793, 0.0327155851, -0.0086171431, 0.0026504253, -0.0681926906, 0.0024134412, 0.0029450841, 0.0015291828, 0.0194786489, -0.0000001816, 0.0028307962, -0.0170167014, -0.0105836764, -0.0122351758, -0.0393009894, -0.0087428009, -0.0236638803, -0.0000001602, -0.0065167649, -0.0197558682, 0.0100662466, 0.0016155723, -0.0055177510, -0.0050099194, 0.0039611529, -0.0161278974, 0.0075703668, -0.0029518448, -0.0164414998, -0.0073622293, 0.0103576295, -0.0223525017, 0.0190295037, -0.0111804195, 0.0271426514, -0.0040478618, -0.0084687360, 0.0087124566, -0.0223862492, -0.0000895272, 0.0164128542, -0.0167880636, 0.0032766126, -0.0019321938, -0.0040700827, 0.0074084559, -0.0106026940, 0.0074199303, -0.0037517676, 0.0092121325, -0.0028471148, 0.0211802796, 0.0218700320, 0.0243478399, 0.0082617952, -0.0136753414, -0.0137274386, 0.0118217710, 0.0158189777, -0.0274886582, 0.0181469284, 0.0296909306, -0.0118625639, 0.0076672821, -0.0000485873, -0.0614751391, 0.0172064137, 0.0420053229, 0.0059986692, 0.0055466192, -0.0136383446, -0.0377654471, 0.0205148645, -0.0005132774, -0.0303212889, 0.0232100282, -0.0121449279, 0.0038746807, 0.0024168198, -0.0020378805, 0.0460189842, -0.0000001089, 0.0091767358, 0.0113916332, -0.0403251499, -0.0051275631, -0.0087565146, 0.0136713870, -0.0235891044, -0.0093140211, 0.0152093600, 0.0217695963, 0.0105815129, -0.0175309498, 0.0014474672, -0.0251289271, 0.0532634556, 0.0060190614, -0.0341047682, -0.0021402414, 0.0261971448, 0.0236109458, -0.0341379419, 0.0000858483, -0.0122337835, -0.0031222401, 0.0474249348, 0.0019627202, 0.0060866713, -0.0142683452, -0.0126946736, -0.0135907400, 0.0093606766, 0.0436965898, -0.0036553468, 0.0064615412, 0.0016345325, 0.0086261537, -0.0329307951, -0.0166870598, -0.0188787710, -0.0116112633, 0.0379017182, 0.0134130158, -0.0322065726, -0.0019607083, 0.0384761952, -0.0103993248, -0.0004390494, -0.0240126401, -0.0648055077, 0.0223123208, -0.0360984690, 0.0171341356, 0.0110469498, 0.0116719939, 0.0029870819, -0.0000866548, 0.0184831806, -0.0359095335, -0.0571565628, 0.0044084145, -0.0081777479, -0.0088551892, 0.0207630973, 0.0000002793, -0.0026424439, 0.0083020469, 0.0059655891, -0.0002555943, -0.0004906861, 0.0025157912, 0.0014920924, -0.0035843751, 0.0077073285, 0.0021557650, 0.0172471181, -0.0046276501, 0.0052691605, -0.0037068238, 0.0109852487, -0.0036480296, -0.0187000073, -0.0266032536, 0.0085151326, -0.0134700499, 0.0267805923, 0.0000675009, -0.0069453013, 0.0152316689, -0.0101044280, 0.0137558775, 0.0015753090, 0.0041861036, -0.0144008836, 0.0144324601, -0.0233332533, -0.0023082478, -0.0033038920, 0.0007104311, -0.0009658301, 0.0296745114, -0.0147150075, -0.0106633417, 0.0118675688, 0.0245049130, 0.0492654331, -0.0091779940, 0.0002709411, 0.0041143424, 0.0273938756, -0.0101637924, -0.0000036839, 0.0206472855, -0.0035585065, -0.0260702949, -0.0192898922, 0.0118672810, -0.0006384582, 0.0065144650, 0.0105010411, -0.0007430443, 0.0160276219, -0.0286227576, -0.0374452882, -0.0078662364, -0.0167681985, 0.0045223520, -0.0024233458, 0.0000000393, -0.0066538770, -0.0158464443, 0.0042100428, -0.0103070624, 0.0022877424, 0.0293785408, 0.0321296491, 0.0265173484, -0.0475736596, 0.0108126868, -0.0210970715, 0.0038151196, 0.0060395706, 0.0217317790, 0.0210882165, 0.0066686613, -0.0273789335, 0.0040785754, 0.0106264018, 0.0159259960, 0.0405687392, -0.0001149129, -0.0018633766, 0.0089229094, -0.0532028675, -0.0080507984, -0.0170302317, 0.0025825039, -0.0234984253, -0.0079016378, -0.0201279055, -0.0246528555, -0.0027040099, 0.0120300939, 0.0211464074, -0.0249757282, 0.0416874960, 0.0063877013, -0.0207945593, 0.0093065780, 0.0037272114, -0.0295740906, 0.0484084599, 0.0018193665, 0.0254123453, 0.0164058618, -0.0004272122, 0.0351207554, -0.0057436316, 0.0308971070, 0.0095679220, 0.0032938533, -0.0067892782, -0.0174992196, -0.0016072475, -0.0000008028, -0.0164928790, -0.0099201761, -0.0182635970, -0.0225211121, 0.0004904553, -0.0027236580, -0.0010644773, 0.0000005771, 0.0024607363, -0.0207125898, 0.0357148796, 0.0000359763, -0.0050080619, 0.0309631228, -0.0145565392, 0.0048929187, 0.0140371202, 0.0069061392, -0.0225833934, 0.0039321887, -0.0267255902, 0.0619092882, 0.0340740606, 0.0207051728, -0.0043343771, -0.0279656686, -0.0020001507, 0.0075244061, 0.0150116682, -0.0004495946, -0.0147502143, 0.0069141095, -0.0571667366, 0.0025501458, -0.0044102431, 0.0140121775, -0.0145885050, 0.0256844722, -0.0038469590, 0.0056654178, -0.0018438041, 0.0316788405, 0.0640522167, 0.0560048074, 0.0464051738, 0.0253613684, -0.0382678658, 0.0128410533, 0.0049692886, 0.0068998514, -0.0170980208, 0.0085618328, 0.0298481509, -0.0027046197, -0.0000008563, 0.0239913445, -0.0277148541, 0.0031931500, -0.0201875810, 0.0139357159, -0.0111563271, -0.0077207419, -0.0116363056, 0.0000101079, -0.0158766415, -0.0106877908, 0.0075191259, 0.0429595895, 0.0045964937, -0.0068852459, -0.0010328167, 0.0000001244, -0.0047885752, -0.0231418330, -0.0398459062, 0.0002733381, 0.0270968322, 0.0246964507, -0.0018812323, 0.0106636761, -0.0078880806, 0.0145060336, -0.0163043942, 0.0288239345, 0.0018065942, 0.0285603460, -0.0458299257, 0.0220196452, 0.0093132816, -0.0283499733, -0.0151260626, -0.0201656763, 0.0303437952, -0.0000064627, 0.0075503155, 0.0242744330, -0.0327353887, -0.0320552886, -0.0074620401, 0.0110097006, -0.0224383064, 0.0111244144, -0.0134378020, 0.0056040771, 0.0010133015, 0.0273424536, 0.0432467982, -0.0098258629, 0.0240920186, 0.0084789926, -0.0469334871, 0.0294928700, -0.0130683864, -0.0085982624, -0.0030066380, -0.0270730779, -0.0536555313, -0.0442081653, 0.0000558795, -0.0206333790, -0.0409261137, 0.0204836857, -0.0298718028, 0.0004444600, -0.0062886067, 0.0011174558, -0.0112311775, 0.0000889095, 0.0257704854, -0.0111226263, 0.0101125995, -0.0229801480, -0.0180595256, 0.0051130536, -0.0023080593, -0.0000009197, -0.0021608770, 0.0204803105, 0.0052684383, 0.0004303545, -0.0001370650, -0.0417262316, -0.0050591226, -0.0058977483, 0.0183158237, -0.0505696721, 0.0222846754, 0.0026716620, 0.0179917626, -0.0320485719, -0.0136345178, -0.0187704880, 0.0218754578, 0.0255288891, -0.0140575254, -0.0025789274, -0.0299197212, 0.0000120420, 0.0084788408, -0.0072741956, 0.0746038184, 0.0000933685, 0.0035502943, -0.0094856219, 0.0329945534, 0.0205930304, -0.0014744995, 0.0152737359, 0.0038463904, -0.0434942618, -0.0470257737, 0.0158786718, 0.0176653825, -0.0192573257, 0.0673069581, -0.0087651927, -0.0336845778, -0.0108315740, 0.0678066537, 0.0025058535, 0.0341085196, 0.0228272565, -0.0000250214, 0.0134769911, -0.0017864172, -0.0215298347, 0.0082474556, 0.0128158163, -0.0007922591, -0.0384551249, -0.0147453649, -0.0000239379, -0.0315302387, 0.0103012677, 0.0140071008, 0.0029455321, 0.0080863088, -0.0057476563, 0.0122511443, 0.0000007231, -0.0031257842, -0.0207130052, -0.0057804864, -0.0001579649, 0.0104323691, 0.0224721842, 0.0016494669, -0.0052851308, -0.0204439908, 0.0272236187, -0.0063813413, 0.0105871269, -0.0069493935, 0.0203082561, -0.0022298344, 0.0274253227, -0.0140276896, -0.0178263076, 0.0116940755, 0.0138357561, 0.0389514901, -0.0000064262, 0.0325259753, 0.0107573746, -0.0243988186, -0.0013912792, -0.0070039104, 0.0128428694, -0.0209544599, 0.0094222873, -0.0262265503, -0.0161164775, -0.0070939399, 0.0064656115, 0.0202441402, -0.0218283776, 0.0160876457, 0.0068218713, -0.0236076638, 0.0358143859, 0.0135347024, 0.0044389470, -0.0008441068, 0.0162981078, 0.0102671478, -0.0773912072, -0.0015174467, -0.0457349159, -0.0101059042, 0.0259356741, -0.0270960815, -0.0120617356, -0.0086021842, 0.0254619457, 0.0047491244, -0.0003410048, 0.0261709373, -0.0294551942, -0.0197011754, 0.0216028597, -0.0056258249, -0.0024072775, 0.0167357195, 0.0000000157, 0.0104205217, -0.0373905748, -0.0559296682, -0.0000549036, 0.0149203558, 0.0162097625, 0.0040562921, 0.0131786782, 0.0095194373, 0.0239431467, 0.0027017558, 0.0191482473, 0.0114550693, -0.0022532274, -0.0153523199, -0.0303936470, -0.0315241255, 0.0135086263, 0.0150419697, 0.0092429845, -0.0188561659, -0.0001436359, -0.0303421970, 0.0037382422, 0.0224873815, 0.0042572282, 0.0005747179, -0.0076723509, 0.0054501169, -0.0283494610, -0.0082432842, 0.0067366045, -0.0048979633, 0.0343078114, 0.0186113715, 0.0213857666, -0.0022110727, -0.0512116104, -0.0048258989, -0.0116243027, 0.0213598944, -0.0302733760, -0.0335755497, -0.0468141697, 0.0168056507, 0.0262430143, 0.0000014881, -0.0092599839, -0.0144415051, -0.0088278595, -0.0074267415, 0.0308299344, 0.0104469601, -0.0284406673, 0.0091032796, -0.0004528108, -0.0090903407, -0.0038703706, 0.0142163588, -0.0075986153, -0.0187047198, 0.0062107830, 0.0083002634, 0.0000001133, 0.0071561481, 0.0104705691, 0.0582081787, 0.0006680884, 0.0039939322, 0.0009825904, -0.0053156791, 0.0046471027, -0.0117272185, -0.0030113717, 0.0007392621, -0.0364016220, -0.0020845467, -0.0103298966, 0.0460974760, -0.0110662859, -0.0120075643, -0.0039521437, -0.0009036538, 0.0470260307, -0.0185204335, 0.0000077150, 0.0115354639, 0.0265832171, -0.0143039441, 0.0045129326, 0.0031356248, -0.0031944402, 0.0029291811, 0.0010933457, -0.0234498046, -0.0009456112, 0.0022667896, 0.0147223538, 0.0046904087, 0.0308674537, -0.0258304104, 0.0088456590, -0.0102425572, 0.0402816199, 0.0248703863, -0.0136569384, -0.0136093013, -0.0274928473, -0.0189451464, -0.0022844635, 0.0000802380, -0.0177179594, -0.0203279685, 0.0226512682, -0.0192394666, 0.0118369209, 0.0032515537, -0.0009575781, -0.0021014069, 0.0000798157, 0.0343590938, -0.0329113677, -0.0467811525, 0.0135346483, 0.0182928797, 0.0074650198, -0.0178854577, -0.0000002859, 0.0050522098, -0.0301690288, -0.0373100974, -0.0009753063, 0.0034431047, 0.0240877643, 0.0344165675, 0.0000325839, -0.0157920197, -0.0186934359, 0.0026371903, 0.0157690123, 0.0005135919, 0.0264047757, 0.0077626510, -0.0076668714, 0.0137987090, -0.0099697066, 0.0208997652, -0.0104452977, 0.0258894935, -0.0001264709, -0.0227992628, 0.0400925539, -0.0246401653, -0.0208464991, 0.0005896249, -0.0160437524, -0.0172497239, -0.0073196474, 0.0055602225, -0.0137761934, -0.0059847832, 0.0170363858, -0.0083752451, -0.0141086988, 0.0213361979, -0.0147102010, 0.0239862483, -0.0017264838, 0.0059918850, -0.0031496000, 0.0286956672, -0.0119857509, 0.0000579172, -0.0445442833, 0.0000030869, -0.0054185884, -0.0131051829, -0.0210793708, -0.0207079537, -0.0087034795, 0.0180247482, -0.0019656480, -0.0030025549, 0.0000135643, -0.0099666798, -0.0269260313, 0.0210312791, -0.0257697720, -0.0481835343, 0.0049440195, -0.0190432668, 0.0000000800, -0.0002916564, 0.0193888005, -0.0116119552, 0.0017318706, 0.0179974511, -0.0652284920, -0.0138447369, 0.0125641497, 0.0296705645, -0.0197292697, -0.0006487216, 0.0063001709, 0.0023239893, -0.0597069785, -0.0261431355, 0.0104651824, 0.0239289086, 0.0061735446, -0.0126334652, 0.0075921007, -0.0368636027, -0.0000000727, -0.0120847803, -0.0038681228, 0.0449219383, 0.0330515653, -0.0010587621, 0.0153077226, 0.0010915628, -0.0064951587, -0.0226036832, 0.0501879975, 0.0021050570, 0.0033307422, 0.0327996463, 0.0426310562, -0.0132243680, -0.0601523444, -0.0254220068, -0.0051571107, 0.0202563759, -0.0123119326, 0.0917032808, 0.0286632068, -0.0018716981, 0.0023504416, -0.0001881339, 0.0040692082, 0.0186789893, -0.0070676701, 0.0418626182, -0.0077449558, -0.0161797572, -0.0048706830, -0.0224508978, -0.0003739155, -0.0330621824, 0.0520870984, 0.0213106703, -0.0139155453, 0.0462833680, -0.0137616228, -0.0044319858, -0.0000005100, -0.0140374685, -0.0046638227, -0.0587766059, -0.0034426819, -0.0018023112, 0.0563777946, 0.0234156344, -0.0094629098, 0.0116725629, 0.0180404298, -0.0212804209, 0.0063785068, 0.0005881025, 0.0196030345, -0.0277220625, 0.0048439899, 0.0043560611, 0.0053872080, 0.0224676449, -0.0170040056, 0.0052859117, -0.0000512782, -0.0162122343, -0.0271376353, -0.0111547634, 0.0054082256, -0.0008778722, 0.0063990303, 0.0069451253, 0.0302347075, -0.0045905700, 0.0138237961, 0.0016731548, 0.0375745781, -0.0000941568, -0.0111815175, 0.0000619146, -0.0084277065, -0.0155740203, 0.0052332687, -0.0338190868, 0.0437699892, -0.0047724498, 0.0347736552, 0.0126951374, 0.0046041091, -0.0001340364, 0.0012771965, 0.0030578759, -0.0051250462, 0.0072480505, -0.0145532740, -0.0042461166, 0.0018285768, 0.0188611932, -0.0015577219, -0.0080401395, 0.0176476780, -0.0398300663, -0.0094366083, 0.0065940078, -0.0130579779, 0.0068942560, -0.0000031961, 0.0254654344, 0.0415808037, 0.0202859212, 0.0000311167, -0.0208853371, 0.0208598971, -0.0052048001, 0.0016964113, -0.0085242996, 0.0144677423, 0.0334231667, 0.0070848828, -0.0044506863, -0.0041112551, -0.0116914622, -0.0067136395, -0.0190573931, 0.0243230015, -0.0040128366, 0.0245174374, 0.0361529514, -0.0004882574, -0.0354211070, -0.0035503814, -0.0238132663, -0.0186997205, -0.0003121718, 0.0073956135, 0.0017961445, 0.0034661957, -0.0040157121, -0.0100558978, 0.0025602588, 0.0126794502, -0.0107512036, 0.0199391320, 0.0002332133, 0.0328393541, 0.0071858289, -0.0375776626, -0.0241656769, 0.0152963521, 0.0232289881, -0.0260247234, 0.0087709073, 0.0329818986, -0.0000002161, -0.0095842201, -0.0243736096, -0.0056960024, -0.0651166588, 0.0231456403, -0.0265206732, -0.0032615846, 0.0269779675, -0.0002028280, 0.0162927266, -0.0752563626, 0.0030288394, 0.0265796278, 0.0189370923, -0.0007037638, -0.0097851921, -0.0000000551, 0.0032550928, -0.0512064733, 0.0336240791, 0.0003822603, -0.0058357175, 0.0097734034, -0.0074633728, 0.0161134191, -0.0081796572, 0.0072996900, -0.0377970785, 0.0087639131, 0.0156564526, 0.0043183300, 0.0160153657, -0.0199076887, -0.0074103423, -0.0132829361, 0.0072266995, 0.0178025384, -0.0118016256, -0.0000258589, 0.0094140116, 0.0341525599, -0.0353889354, 0.0065772813, -0.0006129342, -0.0071500153, -0.0126173636, 0.0130286980, -0.0143137882, 0.0043363082, -0.0032702330, 0.0082570519, -0.0185177121, 0.0490851402, -0.0083587272, 0.0040526926, 0.0192907713, 0.0129198274, 0.0099532912, -0.0391472839, -0.0336074047, -0.0035588907, -0.0029267613, 0.0184953175, -0.0000124009, -0.0072303419, -0.0157152843, -0.0076364162, -0.0159768816, 0.0255469698, -0.0066987076, -0.0030979307, -0.0092250602, -0.0000170360, -0.0133708036, -0.0187170431, -0.0235347711, 0.0278831888, 0.0192527268, 0.0009578804, -0.0116279796, 0.0000002470, -0.0107377898, -0.0095120128, 0.0054275389, -0.0006625972, 0.0036103269, 0.0076816697, 0.0077295261, -0.0073866262, -0.0177867562, -0.0060658725, -0.0050267247, 0.0021678938, 0.0243078806, 0.0185578708, -0.0270807967, 0.0051302388, -0.0320306495, -0.0276439153, -0.0001430056, -0.0148602426, 0.0226486605, 0.0000006307, 0.0135223242, 0.0082284175, -0.0253428500, -0.0081725232, 0.0007735540, 0.0018612914, -0.0061950055, 0.0170854684, 0.0000763609, -0.0275211744, 0.0002241672, 0.0024671967, -0.0076178377, 0.0081771575, -0.0135016413, -0.0118967239, 0.0321502686, 0.0230862126, 0.0003759864, -0.0180642717, 0.0038616662, 0.0420541503, -0.0237043351, -0.0139304446, 0.0000079429, -0.0184001960, 0.0182523299, -0.0405696742, 0.0113999490, -0.0206548832, 0.0052468097, 0.0103560528, -0.0317715444, -0.0021633655, -0.0206728000, 0.0208010189, 0.0120163551, -0.0192044079, 0.0314889178, 0.0080691138, 0.0178054329, -0.0000009163, -0.0005762906, 0.0042345207, 0.0251949485, -0.0029443661, -0.0104741612, 0.0187886991, -0.0251703057, 0.0078655444, -0.0030532724, -0.0072818589, 0.0070702150, -0.0064735189, 0.0041321572, 0.0405950248, -0.0039791451, 0.0123789916, 0.0086851744, 0.0147135202, -0.0104987100, -0.0178306922, -0.0132266348, -0.0000383811, -0.0248022936, 0.0299808085, -0.0227165651, 0.0244737621, -0.0096238982, 0.0068126805, 0.0119853336, 0.0032356610, -0.0202972051, -0.0297626164, 0.0057376148, -0.0220364183, -0.0025502651, 0.0155315883, 0.0002817257, 0.0163947754, 0.0222584140, -0.0213061403, -0.0401578806, 0.0013227090, 0.0317738503, -0.0020502410, -0.0176909566, -0.0060398574, 0.0000010563, -0.0166419614, 0.0267823674, -0.0070935064, -0.0027304101, 0.0001051867, 0.0034903181, -0.0080814883, -0.0162348226, -0.0000004517, 0.0053456621, 0.0108152069, 0.0037820239, 0.0090135867, -0.0193550289, 0.0021184552, 0.0039959010, -0.0000004484, -0.0157474317, -0.0023588305, 0.0339156911, -0.0035642451, 0.0122977896, -0.0215379428, -0.0154789481, 0.0265907440, -0.0019480820, 0.0142852878, 0.0176549237, 0.0014193227, -0.0001500208, 0.0096472166, -0.0303662159, 0.0073657599, 0.0011860969, 0.0205492266, -0.0056634634, 0.0090845423, -0.0011644927, -0.0000102156, 0.0262146275, -0.0043283575, 0.0302096326, 0.0040877918, 0.0012147118, -0.0130477250, -0.0082351519, -0.0143635683, -0.0066968482, -0.0166339241, 0.0008927713, -0.0405679271, -0.0269309934, -0.0241691545, 0.0133516779, -0.0221664924, 0.0284537505, 0.0290377438, -0.0085638613, -0.0318917260, 0.0322287008, 0.0002288854, -0.0064369603, 0.0236965902, 0.0000075161, 0.0131711010, -0.0055846511, -0.0015848759, 0.0085284896, 0.0218372550, -0.0137251308, -0.0056265225, -0.0030015195, -0.0001052540, 0.0047725947, 0.0047618472, 0.0113625359, 0.0018444781, 0.0109702535, -0.0012687254, -0.0250047408, -0.0000000268, -0.0154826120, -0.0276497472, -0.0030836363, -0.0010493187, 0.0034448116, 0.0375495963, 0.0146121904, -0.0096624875, -0.0064405403, -0.0141059775, -0.0330375955, 0.0016823435, -0.0025211384, -0.0004568914, -0.0062912083, 0.0144009041, 0.0082992520, -0.0171544440, 0.0031983992, -0.0436169952, -0.0131356576, -0.0000010067, 0.0105746090, -0.0110614663, -0.0037074527, -0.0106235323, -0.0075043053, -0.0024953419, -0.0026424788, 0.0008929094, -0.0184013508, 0.0160014816, -0.0109253218, 0.0062202001, 0.0146768568, 0.0116823670, 0.0057938001, -0.0184309930, 0.0091350423, 0.0195177160, -0.0147303566, 0.0109697478, -0.0143394973, 0.0201744083, 0.0092265233, 0.0000517854, 0.0000009991, -0.0121413833, 0.0112363501, -0.0284230448, 0.0225191340, -0.0165539682, -0.0024314704, 0.0037860675, -0.0319316573, -0.0001399310, -0.0130031137, 0.0430013277, 0.0457028262, -0.0103012146, 0.0379143059, -0.0026466807, 0.0057440656, -0.0000007634, -0.0082337065, -0.0132552357, -0.0118720671, -0.0098344721, -0.0067090690, 0.0241342783, 0.0184138846, -0.0012263518, -0.0017189591, 0.0009373254, -0.0116506871, -0.0078204805, -0.0091517065, 0.0298901182, -0.0202910472, 0.0126262223, 0.0224640965, -0.0007059146, 0.0061469777, -0.0291262306, -0.0420744196, -0.0000725825, 0.0229236875, 0.0175914764, -0.0089169210, 0.0271219984, -0.0097195813, 0.0185210556, 0.0175554752, 0.0095363166, 0.0080063688, -0.0033047213, 0.0001864729, 0.0174452402, -0.0189425293, 0.0226443969, -0.0047301129, 0.0106498329, -0.0034601158, 0.0429429375, -0.0528176166, 0.0041541606, 0.0046255770, 0.0131172230, 0.0305669419, -0.0126362480, -0.0000425566, -0.0080825603, 0.0130609991, 0.0200881045, 0.0097339433, -0.0043289424, -0.0158589613, -0.0039375070, -0.0062676603, -0.0001367869, 0.0097671291, 0.0226446278, -0.0103000188, 0.0063892026, 0.0215248968, 0.0004697109, 0.0104428120, 0.0000000058, 0.0044903210, -0.0429710671, -0.0770948902, -0.0009727477, -0.0091713099, 0.0173315685, 0.0254275333, 0.0294561125, -0.0090570170, 0.0308492854, -0.0429459587, 0.0344573781, -0.0053237388, 0.0146496566, 0.0155961914, -0.0187515114, -0.0005827618, 0.0299991407, 0.0084121907, -0.0071723973, 0.0344657078, -0.0000075725, -0.0096851336, -0.0006549377, 0.0259688329, 0.0070117647, -0.0015842984, 0.0126322899, -0.0173156727, -0.0034762344, 0.0123464409, 0.0419859625, -0.0000789615, 0.0098505318, 0.0002924517, -0.0194236282, -0.0021827784, 0.0115784202, -0.0428674333, -0.0216065720, 0.0169706792, 0.0068194494, -0.0429557785, 0.0170390531, 0.0552612022, 0.0094866026, -0.0000554105, 0.0148414578, -0.0039913864, -0.0598012544, -0.0284073800, 0.0134956082, -0.0014546519, -0.0292058606, -0.0149915190, 0.0000048426, 0.0050712498, 0.0301455855, 0.0365025327, -0.0059450441, -0.0649391189, -0.0029131032, 0.0307633542, 0.0000003979, 0.0321265347, 0.0137924785, 0.0153644932, 0.0005537353, -0.0229247902, -0.0022577927, -0.0407582298, -0.0120214242, 0.0011891820, 0.0033476609, -0.0067748460, -0.0118372990, 0.0157642886, 0.0016482279, 0.0793045238, -0.0073521957, 0.0169125069, 0.0220540930, -0.0271702446, 0.0698692277, 0.0608785599, 0.0000218849, -0.0279172584, -0.0178380050, -0.0027387957, -0.0247648936, 0.0024455281, -0.0010738291, -0.0133176493, 0.0297385789, -0.0103897955, 0.0103595555, 0.0067403060, 0.0046644001, 0.0056886077, 0.0112364795, 0.0043307752, 0.0665291399, -0.0464867502, -0.0079961708, 0.0252537411, -0.0322977826, -0.0299341455, -0.0081363330, -0.0130418735, -0.0071346411, 0.0002564477, -0.0090147844, 0.0043679634, -0.0173155107, 0.0291684456, -0.0111451112, 0.0095375767, -0.0369660817, -0.0106839826, -0.0007199786, -0.0254413895, 0.0360582955, -0.0173654873, -0.0520902351, -0.0198096558, -0.0060475832, 0.0038687547, -0.0000007269, 0.0429911315, 0.0139529575, 0.0141719645, 0.0001304074, -0.0043611345, -0.0029836991, 0.0019546011, -0.0091015790, -0.0065858411, -0.0271548573, 0.0131811872, -0.0042863307, 0.0022366799, 0.0051961793, 0.0157197714, 0.0304035544, 0.0024112479, 0.0228091553, 0.0002058200, 0.0322911367, -0.0020262324, 0.0000565246, -0.0346976556, -0.0034116374, -0.0190879423, -0.0058160969, 0.0020756337, -0.0007626261, -0.0012898236, 0.0342925675, -0.0243861508, 0.0078951009, 0.0021286809, 0.0011522061, 0.0257689711, -0.0115681393, 0.0188660100, 0.0111564994, -0.0243478306, -0.0328663550, -0.0263248179, 0.0313171558, 0.0563520826, -0.0062404461, -0.0688677952, 0.0651445240, 0.0000138108, 0.0295314826, 0.0390696377, 0.0302728955, 0.0086836778, 0.0111172246, -0.0072350856, -0.0443299077, 0.0057232822, 0.0000194556, -0.0452178903, 0.0202906318, 0.0197781567, -0.0106016127, 0.0113776773, -0.0044358610, -0.0790142119, 0.0000002498, 0.0050114212, -0.0307643395, -0.0107904095, 0.0055316314, -0.0076025869, 0.0227396451, 0.0095528867, -0.0294328071, -0.0308407396, -0.0003022736, -0.0225819852, -0.0308769196, -0.0031722251, -0.0390317813, -0.0221085083, -0.0258589722, -0.0032704701, -0.0021315245, -0.0035414773, 0.0114080170, -0.0029974857, -0.0000317802, -0.0433167517, -0.0181018803, 0.0132859936, -0.0100639127, 0.0041251387, -0.0039307424, -0.0061473050, 0.0287941806, -0.0080633899, 0.0289071500, 0.0006925194, -0.0448461734, -0.0205444451, 0.0310300346, -0.0116725946, -0.0145764481, 0.0139543936, -0.0261707772, 0.0093173450, -0.0180458203, -0.0509699881, 0.0235680323, 0.0203839540, -0.0116999391, 0.0000263703, -0.0070426213, -0.0044111232, 0.0299864653, -0.0075386944, -0.0165798478, -0.0236135107, -0.0055506672, 0.0150594097, 0.0002806987, 0.0111202672, -0.0289144125, -0.0329725631, -0.0140705453, 0.0256086215, 0.0063290931, 0.0092149433, -0.0000024757, 0.0055664834, 0.0168944076, -0.0005554994, 0.0000497210, -0.0137556354, 0.0356425792, 0.0110190604, 0.0325867943, -0.0068778368, 0.0075498405, 0.0064249723, 0.0048681586, -0.0000329869, 0.0065332069, -0.0012880710, -0.0151899047, -0.0303942524, 0.0130448360, -0.0015575410, -0.0064256005, 0.0222242232, -0.0002009123, -0.0336172879, 0.0117665948, -0.0385346785, -0.0061141783, 0.0019337283, 0.0015204106, 0.0139863016, -0.0028639555, -0.0262188297, -0.0032804480, 0.0025426408, 0.0194073860, 0.0223585386, 0.0258217212, 0.0231266376, -0.0023326471, -0.0189481881, -0.0198464803, 0.0019447217, -0.0026548530, -0.0177031141, 0.0099804970, 0.0067433501, -0.0117515242, -0.0000008291, -0.0309556890, -0.0277197417, 0.0075960346, -0.0266196113, -0.0147213647, 0.0054221232, -0.0023810600, 0.0160842501, 0.0000250613, 0.0390036330, -0.0170530397, -0.0003085535, 0.0028162536, 0.0270538293, -0.0059559401, 0.0174395591, -0.0000000833, 0.0006146987, 0.0054731579, -0.0368158557, -0.0000535988, 0.0113652591, 0.0078762416, 0.0179159157, 0.0147294318, 0.0081055043, 0.0362697616, 0.0116403289, -0.0147235235, 0.0038374632, -0.0136614162, 0.0183015577, -0.0081369234, -0.0072412211, 0.0343214832, -0.0108509939, 0.0136872195, -0.0196247958, 0.0000023540, -0.0130297551, 0.0115138022, 0.0054648370, -0.0176913869, 0.0013536781, 0.0063853031, 0.0100053949, 0.0103997411, -0.0158893447, -0.0125696734, 0.0016825114, -0.0383573920, -0.0276146103, -0.0210889541, -0.0505634360, -0.0394272432, 0.0503139347, -0.0193670001, 0.0091789048, -0.0114911171, -0.0484832264, -0.0070855254, 0.0006560782, 0.0278670602, -0.0000086980, -0.0004379217, -0.0191203076, -0.0228293911, 0.0158951003, 0.0252681319, -0.0032421877, 0.0090708444, -0.0093808528, -0.0000996359, -0.0084818443, 0.0045987326, 0.0043748957, -0.0031946013, 0.0062585250, 0.0022084229, -0.0000575085, 0.0000010442, -0.0129820220, 0.0251474157, 0.0019158706, 0.0004779292, -0.0023936215, 0.0223926585, -0.0120368134, -0.0326642394, 0.0294339824, -0.0068474617, -0.0084379204, 0.0084861191, 0.0302260350, 0.0074131601, -0.0185233224, 0.0020009468, -0.0378682055, -0.0070973341, 0.0037559788, -0.0153439268, -0.0056873485, 0.0000178563, -0.0139943957, -0.0279404353, 0.0176570266, -0.0080945892, 0.0041021015, 0.0005683313, -0.0015801480, 0.0123230340, 0.0140960040, 0.0020284906, -0.0029332861, 0.0077034314, 0.0212395787, 0.0198709927, -0.0040973653, 0.0231329799, -0.0160260983, -0.0206893347, -0.0034181352, 0.0043213144, -0.0244747940, 0.0047537899, 0.0149314543, -0.0079299388, -0.0000405617, -0.0102026230, 0.0047008200, -0.0320032761, -0.0063193473, 0.0005713566, -0.0105367117, -0.0063864589, -0.0162353963, -0.0000196494, -0.0084012896, 0.0006421434, -0.0205281470, 0.0005096681, 0.0101988744, -0.0030907728, -0.0044690240, -0.0000000184, 0.0005186325, -0.0303652566, -0.0111359758, -0.0012446229, 0.0018764099, 0.0139622502, 0.0023225143, 0.0096915588, -0.0273563974, 0.0124073131, -0.0068650432, 0.0151752541, 0.0021154732, 0.0250396449, -0.0088194115, 0.0262418371, -0.0226204805, 0.0058926344, 0.0214411784, 0.0045364513, 0.0053690840, -0.0000116840, -0.0035990635, 0.0236948561, -0.0331638902, 0.0301847924, -0.0145488633, 0.0119884182, -0.0108658755, 0.0031005151, -0.0133918934, 0.0102410670, -0.0008438159, 0.0381359346, 0.0449490324, 0.0160820521, 0.0143336728, 0.0017218794, -0.0200356189, 0.0059543648, 0.0128998486, -0.0068093315, 0.0055042105, -0.0040529990, 0.0031135534, 0.0224127490, -0.0000000543, 0.0014209492, -0.0171177741, 0.0071895197, -0.0026380823, 0.0090145590, -0.0039327187, -0.0261252038, -0.0207985044, -0.0000028067, -0.0008366582, 0.0199396033, 0.0106100254, -0.0020867495, -0.0026485103, -0.0012250682, -0.0041031395, 0.0000000204, 0.0007099858, 0.0026425205, 0.0239466410, -0.0029890861, 0.0025580167, -0.0071184984, 0.0195457954, 0.0116644707, 0.0031716332, -0.0102505209, 0.0021478841, -0.0084807407, 0.0153994244, -0.0026155219, -0.0121937227, 0.0092837680, -0.0107999239, -0.0137667023, 0.0043456941, -0.0046278439, 0.0008128195, -0.0000007690, 0.0044594076, -0.0110928779, 0.0050675012, -0.0072458880, 0.0000899804, 0.0031346676, -0.0064511728, 0.0262348522, -0.0346139334, -0.0157828778, 0.0000680650, -0.0235360228, 0.0247587431, 0.0316000916, -0.0243844036, -0.0042717438, 0.0155997239, 0.0116708558, 0.0140341874, -0.0221247673, -0.0059214369, 0.0388421305, 0.0141195720, 0.0204971600, 0.0001221389, -0.0056412467, -0.0016361295, -0.0279547665, -0.0291026551, 0.0016292869, 0.0135775656, -0.0220153369, -0.0007388104, -0.0014324111, -0.0177892968, -0.0035605030, -0.0335734561, 0.0147698727, 0.0080192760, 0.0017046966, -0.0087290555, -0.0000001475, 0.0059533985, 0.0075991373, 0.0315543450, 0.0001123696, -0.0076728356, 0.0106791202, -0.0079895994, 0.0055432115, -0.0066568367, 0.0198302697, 0.0230349191, 0.0169622879, -0.0073355390, 0.0158085842, -0.0083546340, 0.0065592565, -0.0331143178, 0.0082739433, -0.0034979584, -0.0078785066, 0.0697528049, -0.0000732347, -0.0173082184, 0.0183979087, -0.0062114703, 0.0094150649, -0.0022760627, -0.0052336119, -0.0115274899, -0.0012100656, -0.0172358453, -0.0037908815, -0.0023867844, 0.0295425095, 0.0079943109, 0.0289947614, 0.0147800166, 0.0211574007, -0.0008241476, -0.0071190032, 0.0011188249, -0.0153710516, 0.0172396861, -0.0195233636, -0.0147672920, -0.0000591091, 0.0000025417, -0.0169681124, 0.0036348198, 0.0242707841, 0.0165667273, -0.0226082765, -0.0022602952, -0.0026798854, -0.0107499352, 0.0005562679, 0.0053925891, 0.0376296118, 0.0310717747, -0.0280864742, 0.0433255434, -0.0013775001, -0.0153068919, -0.0000024182, -0.0027911875, 0.0256051980, -0.0082747554, -0.0003788059, -0.0034018846, 0.0167227946, 0.0128279077, 0.0124287922, -0.0104583083, 0.0098881982, 0.0147854164, -0.0295609627, -0.0214325078, -0.0005347446, -0.0008273115, 0.0174150299, 0.0007696214, -0.0081345998, 0.0012771770, -0.0119040739, -0.0183630958, 0.0001665290, 0.0218146443, -0.0131373638, -0.0237568412, 0.0007181583, 0.0024767609, 0.0246463027, 0.0244169403, 0.0082880668, 0.0055785226, 0.0228953585, 0.0017185538, 0.0277276691, 0.0375573970, 0.0078754025, -0.0091862641, 0.0208414607, -0.0191809256, 0.0444946252, -0.0084025348, -0.0164568722, -0.0551522784, 0.0208480302, 0.0197440144, -0.0153364642, -0.0000800267, -0.0169349536, -0.0334780365, -0.0574370883, -0.0452436693, 0.0161911231, 0.0244063791, 0.0045102355, -0.0301790349, 0.0002231336, -0.0171408560, 0.0061863940, -0.0008477453, 0.0378836095, -0.0063152402, -0.0021330952, 0.0157077760, -0.0000001133, 0.0336214043, 0.0360335596, 0.0417054258, 0.0005198477, 0.0053870208, -0.0190746728, -0.0099049881, 0.0049408153, -0.0275379308, 0.0151292626, 0.0479293056, 0.0032259712, -0.0127476929, 0.0153961778, -0.0352269076, 0.0455845892, -0.0153794484, 0.0278151538, -0.0168160740, -0.0084132925, 0.0464624688, 0.0000361852, 0.0063737449, -0.0018418125, -0.0083497958, -0.0209084898, -0.0013758760, 0.0007601086, -0.0188879240, 0.0053621507, -0.0370676816, 0.0074283085, 0.0034564463, -0.0100161666, 0.0232902430, 0.0008633314, 0.0151157156, 0.0065842145, 0.0228448939, -0.0030311213, -0.0042907121, -0.0276066586, 0.0242852252, 0.0074683526, 0.0066211270, 0.0126211764, 0.0000029882, 0.0170071926, 0.0048758467, -0.0048066787, -0.0222027265, 0.0047901403, -0.0171502810, 0.0098134605, 0.0075274687, -0.0000021033, 0.0075494652, -0.0102184033, 0.0353639573, 0.0079553807, 0.0082170572, -0.0028061322, -0.0237041637, -0.0000000095, -0.0031248899, -0.0306879114, -0.0016908880, -0.0015937311, -0.0015734371, 0.0224396959, 0.0014607399, -0.0146227805, -0.0192131121, 0.0076465416, -0.0268938914, -0.0142049519, 0.0063723815, -0.0110923834, -0.0006999298, -0.0031292022, 0.0387657285, 0.0204803888, -0.0081299217, -0.0134314178, -0.0106355809, -0.0000402024, 0.0105544813, -0.0098639298, 0.0019230236, 0.0117757339, -0.0087164398, 0.0113322437, -0.0047298139, -0.0095652798, 0.0200385936, 0.0054418603, -0.0003502432, 0.0083729224, -0.0182277057, 0.0166397672, -0.0013774208, 0.0133448727, -0.0020486314, 0.0375194326, -0.0176645350, -0.0317354575, -0.0284720138, 0.0104522267, 0.0173351318, -0.0259497333, -0.0002771588, 0.0096607693, -0.0092411619, 0.0307974629, 0.0223931689, -0.0014466806, 0.0009122065, -0.0609644391, 0.0057647941, 0.0001210550, -0.0103015788, 0.0191665404, 0.0123327598, -0.0257573538, -0.0124041578, -0.0039793295, 0.0253871102, -0.0000004905, 0.0140183317, -0.0010993994, -0.0016149952, 0.0000447860, 0.0008715994, -0.0143784452, 0.0129436320, -0.0019476602, -0.0176230874, -0.0188355837, 0.0063751196, -0.0034125189, -0.0104407966, -0.0098916590, -0.0051917802, 0.0296522602, -0.0040363511, 0.0326891541, 0.0055361320, 0.0297448859, 0.0134518426, -0.0000884083, -0.0172708277, 0.0161742307, 0.0072981627, 0.0097885691, 0.0024510061, -0.0009579838, -0.0230020471, -0.0123632727, -0.0302637760, 0.0030681454, -0.0088260313, 0.0272638332, 0.0130395684, 0.0088976268, 0.0290677790, -0.0045663617, -0.0478279777, -0.0073303101, 0.0088573862, 0.0381805114, 0.0455039144, 0.0047989856, 0.0078562703, 0.0045946641, -0.0001051481, -0.0148403579, -0.0114115505, -0.0060433135, -0.0232369918, -0.0033391076, -0.0085160341, 0.0078216465, -0.0008074001, -0.0003017129, 0.0118832625, -0.0110382345, 0.0201655384, -0.0098479064, 0.0023849104, -0.0032211910, -0.0076882960, -0.0000001893, 0.0124101425, 0.0127573870, 0.0107826553, 0.0005110134, -0.0064210510, 0.0279463157, 0.0118082445, -0.0001652660, -0.0192602649, 0.0389655381, 0.0217635334, -0.0153372586, 0.0119774062, 0.0035458973, 0.0110073201, 0.0019836272, -0.0184483416, 0.0238339491, -0.0159324389, 0.0140158320, 0.0172829702, -0.0000145970, 0.0125094950, 0.0180282053, -0.0055658231, -0.0055036023, -0.0000990411, -0.0004678278, -0.0041097729, 0.0080758911, 0.0048317588, -0.0271528438, 0.0027820223, -0.0128534809, 0.0085211499, -0.0084239943, 0.0099157309, 0.0213065241, 0.0229547080, 0.0054827863, -0.0371976756, -0.0262726601, -0.0390678421, 0.0183685161, 0.0273418464, 0.0203703586, 0.0000121603, -0.0028722798, 0.0005534941, -0.0106687471, -0.0249457546, 0.0091761500, -0.0150868548, -0.0041477326, 0.0116494941, -0.0000011864, -0.0075583919, -0.0549749956, -0.0045413813, 0.0248014200, 0.0199738834, -0.0067109130, 0.0153025044, -0.0000000053, -0.0022304661, -0.0243347157, 0.0251144804, 0.0001567572, -0.0047421078, 0.0429156534, -0.0273565743, -0.0043354970, -0.0097344331, 0.0159737431, -0.0003392204, -0.0168000069, -0.0007490861, 0.0284401216, 0.0050407946, 0.0150820743, -0.0066619823, -0.0017446050, -0.0100590764, 0.0085838316, 0.0129670547, 0.0000094562, 0.0193666499, 0.0105682118, -0.0235116594, 0.0154876877, -0.0013469618, -0.0028611813, -0.0219818763, -0.0189625565, -0.0182898566, -0.0149335582, -0.0108823152, -0.0112989061, -0.0012805732, 0.0068513765, 0.0262544099, -0.0336955525, 0.0221198797, 0.0345153883, 0.0059196712, -0.0118598025, -0.0224085636, -0.0061878818, -0.0164329838, -0.0019150114, -0.0001436840, -0.0153971715, -0.0158493780, 0.0161488187, -0.0317586213, -0.0093986411, -0.0074983002, 0.0234419331, -0.0222643949, 0.0012651687, -0.0082260808, 0.0055192220, 0.0097739734, -0.0203460194, -0.0001411777, -0.0019540826, 0.0228088666, -0.0000000310, -0.0040171645, 0.0048634908, 0.0028273731, 0.0007861271, -0.0098259216, 0.0089193452, -0.0101344250, -0.0074454355, -0.0040948330, 0.0154373618, -0.0266181640, 0.0301584173, 0.0096696345, 0.0534238294, 0.0191802792, 0.0100160781, -0.0182975382, 0.0202594306, 0.0065337461, 0.0067656967, 0.0174338575, -0.0001617191, 0.0038160023, 0.0190185122, -0.0340132378, -0.0135956630, -0.0040010633, 0.0013774984, 0.0176544469, 0.0230989233, 0.0017547329, 0.0293170437, 0.0027297370, 0.0054222909, 0.0712723657, 0.0285609830, 0.0211994927, 0.0314582027, -0.0545176230, -0.0245437473, -0.0030526407, -0.0203584135, -0.0078629237, 0.0078353481, 0.0012041633, -0.0019068311, 0.0000003557, 0.0107102543, -0.0236385837, 0.0050531034, -0.0360145271, -0.0109655829, 0.0063847508, 0.0225047898, 0.0178606790, 0.0000060829, -0.0111374641, -0.0113831097, 0.0029973511, 0.0244602412, 0.0227679461, -0.0131277256, -0.0015876796, 0.0000000274, 0.0008306910, -0.0008511794, -0.0106539028, 0.0000474080, 0.0187060833, 0.0055267513, -0.0054784021, -0.0116883721, 0.0102456445, 0.0354063287, 0.0229031574, 0.0105903940, -0.0152870277, 0.0374774188, -0.0222890880, 0.0196621474, -0.0204354282, -0.0206503626, 0.0125827193, -0.0329070240, 0.0099190250, 0.0000031885, 0.0181213971, -0.0273669939, -0.0243653953, -0.0360736810, 0.0013866398, 0.0082929786, 0.0193689428, -0.0373434648, 0.0012701228, 0.0026630454, 0.0012140288, 0.0419172831, 0.0260657798, -0.0279851593, 0.0080695208, -0.0112117212, -0.0258414466, 0.0326098576, 0.0280887708, -0.0174243376, -0.0286632348, -0.0206823722, -0.0293299370, -0.0274328664, 0.0000172534, -0.0219570827, 0.0003056857, 0.0049093105, 0.0280848462, 0.0033516553, 0.0052994657, 0.0142647484, 0.0100815278, -0.0000210891, 0.0161982719, -0.0188958775, -0.0120657450, -0.0140282493, -0.0547865070, 0.0130710788, 0.0126482295, -0.0000023658, -0.0045254175, -0.0083401604, -0.0117768319, -0.0066376883, 0.0005394188, -0.0453845076, -0.0270795077, 0.0020906918, 0.0251129288, -0.0262660813, 0.0048107444, 0.0129487915, 0.0208057873, -0.0346884504, 0.0180454571, -0.0384800732, -0.0031446505, 0.0263006799, -0.0173797235, 0.0184716880, -0.0501542464, -0.0000421967, -0.0116077671, -0.0092766434, 0.0556754246, 0.0115569374, -0.0040544965, -0.0012514814, 0.0037246307, 0.0384938195, 0.0015557256, 0.0221715085, 0.0024536939, -0.0541142486, -0.0260457955, 0.0151864700, -0.0110677108, 0.0034687463, 0.0166728180, -0.0384603478, -0.0139482077, -0.0105763916, 0.0243618693, 0.0088587096, 0.0221240465, 0.0070830015, 0.0000005532, -0.0230695345, -0.0080441106, -0.0374558270, -0.0058253957, 0.0151723949, -0.0131884236, 0.0090185422, -0.0347114429, 0.0000037226, -0.0168187562, 0.0068401503, 0.0139731122, 0.0231018271, 0.0147338193, -0.0106203584, 0.0155720264, -0.0000000041, -0.0070744455, -0.0180404559, 0.0152092502, 0.0001778141, -0.0093782376, 0.0252852272, -0.0043222024, -0.0275365915, -0.0311749317, 0.0243655723, -0.0184822064, -0.0092083281, -0.0128611168, 0.0314677805, 0.0018117469, 0.0171776209, -0.0335756689, 0.0297091771, 0.0021362056, 0.0213538297, -0.0052955826, -0.0000190099, 0.0209448002, 0.0208251234, -0.0202600807, 0.0088233352, 0.0015685136, -0.0055723786, -0.0223502535, 0.0133749386, -0.0148339095, -0.0011889730, 0.0024203679, -0.0177405328, 0.0026729011, -0.0035369368, 0.0138100442, -0.0025387327, 0.0082606263, 0.0209749937, 0.0138489753, -0.0135089643, -0.0169549882, 0.0283191949, 0.0313565396, -0.0425002947, -0.0001657958, -0.0289407969, -0.0201752931, 0.0302993581, -0.0016345418, -0.0250775479, -0.0138216661, -0.0227519888, -0.0074416301, -0.0000440690, 0.0039235093, 0.0168440305, -0.0289241057, 0.0266946815, 0.0241203438, -0.0044951541, 0.0376810357, -0.0000000601, 0.0095158108, 0.0015002869, -0.0493699871, 0.0000170810, -0.0066662477, 0.0086791031, -0.0116377398, 0.0149817504, 0.0178382918, 0.0319077931, 0.0260044020, -0.0334139653, 0.0196606629, -0.0270861387, -0.0007845847, -0.0121612912, -0.0136962552, 0.0018355133, -0.0019127108, 0.0119697638, -0.0021953408, -0.0000389607, -0.0589172654, -0.0052507874, -0.0366910398, -0.0008981517, 0.0023694045, 0.0071423631, -0.0074442369, -0.0105270408, -0.0013853241, -0.0052110599, -0.0009956650, 0.0107591962, -0.0013528921, 0.0234714411, -0.0408880003, -0.0236041732, -0.0122899367, 0.0076246373, 0.0541282333, -0.0101098474, -0.0270742234, 0.0056728702, 0.0063701123, -0.0105898660, -0.0000146855, -0.0109708887, 0.0118058175, -0.0438014902, -0.0408661328, 0.0146672800, 0.0154364295, -0.0326227769, -0.0445681736, 0.0000235849, -0.0337365903, -0.0055401651, 0.0208313670, -0.0173439514, -0.0429534540, 0.0016172384, -0.0007806663, 0.0000000957, 0.0046003861, 0.0145174088, 0.0774981081, 0.0011876386, -0.0240536630, -0.0043741954, -0.0500917360, 0.0138898715, -0.0055133738, -0.0283768531, 0.0131762754, -0.0119883595, 0.0064344746, 0.0089563671, 0.0288435072, 0.0248708129, -0.0268640276, 0.0306442715, -0.0248123296, 0.0721572414, 0.0028746752, 0.0000066846, -0.0014326436, 0.0281642824, -0.0148256719, 0.0063900398, 0.0006206502, -0.0123675922, -0.0118752494, 0.0322142877, -0.0575509183, 0.0149249593, 0.0015311686, -0.0555237271, 0.0306517258, 0.0404194407, 0.0180816222, 0.0203318913, 0.0041452441, -0.0064773061, 0.0018273250, -0.0377340131, 0.0391680002, 0.0022139119, -0.0029797577, 0.0106134424, 0.0000058696, 0.0056120194, -0.0167828519, 0.0067434642, -0.0571833998, 0.0135865854, -0.0099012544, -0.0107995784, 0.0069817645, -0.0001694983, 0.0326630771, -0.0425647125, -0.0176094659, -0.0079230759, 0.0126705170, -0.0001940340, -0.0216129646, -0.0000000292, 0.0131658027, -0.0084128417, -0.0135208536, -0.0000016824, -0.0000184796, 0.0391100124, 0.0032016118, 0.0186521932, -0.0120937824, 0.0156706702, -0.0025318523, -0.0163952205, -0.0059289029, -0.0011218707, 0.0339156948, -0.0053342045, -0.0081236586, -0.0005096919, -0.0094714109, -0.0001513406, 0.0101886978, -0.0000781117, -0.0087037664, 0.0160223413, 0.0003767972, -0.0068791909, 0.0027035042, -0.0124044772, -0.0186719354, -0.0013574716, -0.0219857655, -0.0198110454, -0.0051251594, -0.0088048102, -0.0000491405, 0.0032323226, -0.0070871650, -0.0238609277, 0.0499997623, 0.0068409848, -0.0010358852, -0.0365971774, -0.0138154440, -0.0305732898, -0.0423944145, 0.0269102566, 0.0000080253, 0.0152358608, 0.0577144548, 0.0119412653, -0.0224180259, -0.0018641766, 0.0001481794, -0.0118079167, -0.0314311385, 0.0000049302, -0.0313745514, 0.0836715475, 0.0620176569, -0.0379174054, -0.0531934388, -0.0070242225, -0.0549770184, 0.0000001470, 0.0034485913, -0.0057707601, -0.0198191945, 0.0069240504, -0.0249733068, -0.0366702229, -0.0057427166, -0.0086026648, -0.0225009285, -0.0280645397, -0.0015052011, -0.0344206914, 0.0064978930, -0.0452057533, 0.0168646779, 0.0013349897, 0.0541652851, -0.0027638439, -0.0207357053, 0.0222822633, 0.0169934053, -0.0000025835, 0.0346817374, -0.0078688748, 0.0258766990, 0.0157824960, -0.0037821427, 0.0070926985, 0.0095660035, 0.0222790744, 0.0159400403, 0.0128157791, 0.0015622602, -0.0005114013, 0.0025174716, 0.0263970215, -0.0195080079, -0.0112567293, -0.0107637290, 0.0029642754, -0.0171737485, -0.0269641075, 0.0371819884, 0.0008968207, -0.0094266776, -0.0060368613, -0.0000012918, -0.0261593834, -0.0107242214, 0.0250376258, 0.0276175458, -0.0023215283, -0.0206565503, -0.0142026143, -0.0107980529, 0.0000477354, -0.0197325535, 0.0364144556, -0.0034020096, 0.0002611119, 0.0249827784, 0.0012175803, 0.0159030333, -0.0000001297, 0.0000936162, 0.0062912339, 0.0070601981, 0.0000013532, -0.0086515862, 0.0000768643, 0.0252742600, -0.0077576912, 0.0079560969, -0.0175561327, -0.0115844775, -0.0096148811, 0.0076360805, 0.0075623398, -0.0220270976, -0.0125867920, -0.0470896997, 0.0014573956, 0.0045440281, 0.0217643715, -0.0052697682, -0.0000068151, -0.0209972207, -0.0242175367, -0.0288566872, -0.0050393008, -0.0004634749, 0.0034842435, 0.0294549894, 0.0279954765, -0.0082327109, -0.0188282691, -0.0007179578, -0.0018587474, 0.0169877056, 0.0087316195, -0.0060478253, -0.0108371386, 0.0014836241, -0.0057952600, -0.0005536365, 0.0285589173, 0.0004088155, 0.0147754382, 0.0170454439, -0.0078983679, 0.0001897598, 0.0129432408, -0.0067226985, 0.0078990627, -0.0040676561, -0.0224339887, -0.0252960213, -0.0066268402, 0.0210277494, 0.0001356947, -0.0223408733, 0.0013115518, 0.0009207807, 0.0217414070, 0.0064844219, -0.0101233749, 0.0190320555, -0.0000039539, 0.0018424059, 0.0257608984, 0.0113091376, -0.0007934413, -0.0119529404, 0.0217363071, 0.0136413602, 0.0001688605, -0.0010250870, 0.0233402159, 0.0233452283, -0.0220781844, -0.0211126730, -0.0018386199, -0.0161352456, -0.0170526151, -0.0318970159, -0.0031739820, -0.0090497984, 0.0204740837, 0.0415420271, 0.0000535921, -0.0116955554, -0.0152572710, -0.0385208838, -0.0212628432, 0.0030926659, 0.0154135330, 0.0212708209, 0.0125809815, -0.0427809060, -0.0129898498, -0.0011367123, 0.0062053963, -0.0238325708, 0.0106244497, 0.0188591629, -0.0021197514, -0.0023496870, 0.0122845573, 0.0160563178, -0.0030795233, -0.0075100362, -0.0000270319, -0.0029559738, 0.0165295228, 0.0000004572, -0.0121156182, 0.0043147295, -0.0030304485, -0.0297928676, 0.0171034839, 0.0054881931, -0.0106171863, 0.0085225655, -0.0000006595, 0.0197027512, -0.0480115786, -0.0095264986, 0.0197920203, 0.0402126499, 0.0068091089, 0.0003290084, 0.0000000113, -0.0061658546, -0.0100181773, 0.0195726752, -0.0003467237, -0.0033500753, 0.0159651618, -0.0018410571, 0.0035785008, 0.0079177720, 0.0154115167, -0.0077551189, -0.0079460340, -0.0149681345, 0.0276958235, -0.0137022855, 0.0081904037, -0.0057295985, -0.0164966099, 0.0073976726, -0.0180655103, -0.0308994204, 0.0000004400, 0.0180622004, 0.0482815243, -0.0269332007, -0.0118100373, 0.0000398018, -0.0079516964, -0.0160800163, -0.0232982505, 0.0088260537, -0.0174249820, 0.0003733135, -0.0135371536, -0.0067892829, -0.0151685737, 0.0016538724, -0.0059399158, 0.0462657027, 0.0323232524, 0.0209008697, -0.0199353062, -0.0246665236, -0.0049557216, 0.0153615912, -0.0025601843, 0.0000010057, -0.0217208005, -0.0153085208, -0.0273458678, -0.0156848561, 0.0039312961, -0.0061825649, -0.0052209287, -0.0023797415, -0.0000014290, 0.0141706103, -0.0100629469, -0.0001998467, 0.0158978663, 0.0203317441, 0.0032862665, 0.0083422223, 0.0000000010, 0.0219433233, 0.0065513011, 0.0010493079, 0.0000117644, -0.0070727328, 0.0017281234, 0.0053748391, 0.0125482390, -0.0036216124, 0.0062341220, 0.0105798151, -0.0060160370, 0.0016140894, 0.0121543184, -0.0108819697, 0.0029323448, -0.0105619766, 0.0069364747, -0.0048961551, -0.0004531643, 0.0092115663, 0.0000000169, -0.0015068110, 0.0093145100, -0.0232690368, 0.0028345222, 0.0001587214, -0.0023380267, 0.0011731267, 0.0013833431, 0.0032850644, -0.0256891549, 0.0003921652, 0.0149404434, -0.0130204130, -0.0086049810, -0.0002595114, 0.0096684815, 0.0215235464, 0.0135935051, -0.0092524271, -0.0054493663, -0.0094609829, 0.0130841108, -0.0067463098, -0.0005922729, 0.0000000480, -0.0179456398, -0.0131230596, -0.0454409011, 0.0229103137, 0.0050581265, -0.0056600100, 0.0043937666, -0.0402534008, -0.0000393117, 0.0107880533, 0.0089293169, 0.0143384328, 0.0122974226, 0.0123368828, 0.0026476667, 0.0128864823, -0.0000009982, -0.0151440315, 0.0070570353, -0.0232531894, -0.0027247490, -0.0032486664, 0.0102220755, -0.0045078560, 0.0031668122, 0.0166376159, 0.0010417965, 0.0056802123, 0.0030421496, -0.0175907705, 0.0222166181, -0.0071574608, 0.0123889176, -0.0164508130, -0.0043002800, -0.0035816173, 0.0064189574, -0.0210084748, -0.0000260612, 0.0056204535, 0.0302213747, -0.0002497013, 0.0086690504, -0.0061799362, -0.0186558086, 0.0208079871, 0.0423647575, -0.0237988625, -0.0016759051, -0.0126287779, -0.0226311516, -0.0121507375, 0.0134653822, -0.0131048411, 0.0015508411, 0.0301676486, -0.0147438189, -0.0176784452, 0.0094296532, -0.0003944332, -0.0119992448, -0.0156650767, -0.0080173463, 0.0000000979, -0.0047002370, 0.0156342164, -0.0398232676, 0.0262156855, -0.0068581770, 0.0004954913, 0.0063669533, 0.0071423366, -0.0000358868, 0.0056661959, -0.0020419410, -0.0042287190, 0.0042153392, -0.0132826539, 0.0020779993, 0.0104958508, 0.0000006659, 0.0075654271, 0.0068930499, -0.0122365728, -0.0000516764, 0.0043426142, 0.0115359500, -0.0275388993, -0.0070961183, -0.0034011309, -0.0028958998, 0.0049646688, 0.0043534772, 0.0236455407, -0.0132549917, 0.0165444184, -0.0038501481, 0.0109673766, 0.0097064730, 0.0029556535, -0.0032447290, -0.0078401333, -0.0000029328, -0.0031259423, -0.0036828853, 0.0354688838, 0.0051523112, -0.0052391370, -0.0086587425, 0.0057266848, 0.0036927289, 0.0097824419, 0.0046044961, 0.0000226821, -0.0105200596, -0.0519032218, -0.0178881977, 0.0180008188, 0.0127871074, 0.0112934206, 0.0171975587, -0.0135349864, 0.0126314918, 0.0152809396, -0.0036095711, 0.0138102695, -0.0201538950, 0.0000015309, -0.0117055839, -0.0015549824, -0.0246955547, -0.0084353816, 0.0070679854, -0.0124132568, -0.0003136586, -0.0096997935, 0.0000012341, 0.0233160984, 0.0068449387, 0.0021844681, 0.0141477492, 0.0104240756, 0.0031794813, -0.0027512379, 0.0000000472, -0.0081522893, -0.0151413120, -0.0206081737, 0.0000312484, 0.0055155694, -0.0044920691, 0.0161045454, 0.0221815500, -0.0061875274, 0.0152896028, -0.0125682997, -0.0021826131, 0.0079336455, 0.0117328083, -0.0144059164, -0.0077949776, -0.0120253759, 0.0062741176, -0.0039479425, 0.0059672678, -0.0002515776, -0.0000001881, 0.0081690624, -0.0077543971, -0.0078059109, 0.0245950520, -0.0010588790, 0.0004184805, 0.0081762634, -0.0110730873, 0.0012016183, -0.0118486909, 0.0003808424, 0.0237137284, 0.0181674734, -0.0118572889, 0.0017831934, -0.0106286341, 0.0129731987, 0.0299030133, 0.0090874834, -0.0026302682, 0.0163364243, 0.0240192357, -0.0005941541, 0.0283662211, 0.0000050954, -0.0319033079, 0.0092624826, -0.0311071817, 0.0517464466, 0.0132554071, -0.0040683923, -0.0193909220, -0.0415450446, -0.0000045112, -0.0266381484, 0.0416318327, 0.0093839662, 0.0183098372, 0.0241828039, -0.0011795805, 0.0132072661, -0.0000117653, -0.0267158505, 0.0068866955, -0.0052901311, -0.0050931708, 0.0023962455, 0.0118957730, 0.0056587821, -0.0033818197, -0.0067995242, 0.0036607175, -0.0111787412, 0.0018496859, 0.0095862439, 0.0133690154, -0.0184073634, 0.0056036320, -0.0290979352, -0.0086623877, 0.0144636733, -0.0071734167, -0.0082408171, -0.0000154775, -0.0013606716, 0.0149232401, -0.0042511909, 0.0041344264, -0.0006375985, -0.0088276491, 0.0201272350, 0.0474229492, -0.0173896961, -0.0091530615, -0.0001858992, 0.0094713559, -0.0035965203, 0.0161659010, -0.0387371704, -0.0053542117, 0.0244587772, 0.0145951994, -0.0056147641, 0.0239492953, -0.0046404134, -0.0075654276, 0.0031366290, -0.0117277037, 0.0000001156, -0.0075471750, -0.0124110971, 0.0000309765, 0.0140245035, -0.0005060121, -0.0092782369, -0.0030097594, -0.0042784782, 0.0000000493, 0.0067973249, 0.0032496140, 0.0151903611, 0.0030344054, 0.0128232352, -0.0005060425, -0.0041251522, -0.0000000768, 0.0071110888, -0.0201463141, -0.0111273425, 0.0000195567, 0.0025256448, 0.0204368997, 0.0055187093, -0.0083074514, -0.0171483476, 0.0089779729, -0.0180955324, -0.0242880676, 0.0026699596, 0.0084958700, 0.0018650872, 0.0142320124, 0.0134913968, -0.0074367695, -0.0037401065, -0.0277866013, -0.0314233676, -0.0000004201, -0.0137003046, 0.0088915862, 0.0075573488, 0.0154823130, 0.0002473973, 0.0046141455, -0.0076626521, -0.0041298829, -0.0084060803, -0.0042155432, -0.0008032937, 0.0073840031, 0.0256743636, 0.0131012630, 0.0021546534, -0.0053807427, -0.0119549250, 0.0239270627, 0.0105229495, -0.0017160256, 0.0038131936, 0.0218992885, 0.0240698028, -0.0053826626, -0.0000422202, 0.0036451765, 0.0148116928, -0.0079835448, 0.0102622826, -0.0213110205, -0.0010812843, -0.0092776110, -0.0314077660, 0.0004992590, -0.0027425759, 0.0192199852, 0.0360254310, -0.0166214071, -0.0330580287, -0.0028520073, 0.0269751456, 0.0000002867, 0.0003299991, 0.0204760563, 0.0236992929, 0.0005196389, -0.0138875246, 0.0091613252, -0.0320297368, -0.0053584445, -0.0277833343, 0.0306249652, 0.0296944510, -0.0204935484, 0.0078149047, -0.0047622314, 0.0238213744, 0.0411783382, -0.0244321581, 0.0636710748, -0.0274306908, 0.0456552245, 0.0512870364, -0.0000323383, -0.0044951816, -0.0128308153, 0.0106388805, 0.0093386713, -0.0000678082, -0.0143727669, 0.0061148554, 0.0057779201, -0.0163010620, 0.0121151758, -0.0000235575, -0.0618222356, -0.0043119779, 0.0508422330, -0.0249613896, 0.0348869264, -0.0104262354, -0.0211724583, 0.0135596823, -0.0373376980, -0.0431091525, -0.0001928701, 0.0087680407, -0.0204276815, -0.0001805987, -0.0041377447, -0.0042659901, 0.0038639735, -0.0087951301, -0.0196486842, -0.0141730169, -0.0048371013, -0.0045417752, 0.0000441012, 0.0050617559, 0.0146536324, -0.0043790252, -0.0337846875, -0.0131892329, -0.0006599826, 0.0232068282, -0.0000107553, 0.0024100828, 0.0345383435, 0.0348303579, -0.0000891351, -0.0041201920, -0.0092817526, -0.0175755844, -0.0041370853, -0.0079953270, -0.0107488949, 0.0261799339, -0.0131560834, -0.0036276153, 0.0205230843, 0.0129692061, 0.0146104908, 0.0050120680, 0.0325474143, -0.0296637863, 0.0576142184, 0.0118988035, 0.0001135140, 0.0081867455, -0.0042088018, 0.0110075865, -0.0003353088, 0.0029330060, -0.0109604485, 0.0307316724, -0.0039057152, -0.0319264233, -0.0068178298, -0.0001980359, -0.0350032821, -0.0234384891, 0.0308573879, 0.0007366918, 0.0080028949, 0.0094516044, -0.0230806153, -0.0016853921, -0.0086578010, 0.0113453502, -0.0028606346, -0.0042123375, 0.0337967314, 0.0000233104, -0.0046380982, 0.0236057211, 0.0308408141, 0.0204303376, 0.0172246173, 0.0149378041, -0.0374721773, 0.0058870227, 0.0001059466, -0.0109904949, 0.0204321984, 0.0365477353, -0.0309645869, -0.0166103076, -0.0002272454, -0.0124752512, 0.0000003384, -0.0036484990, -0.0228852201, -0.0257238615, 0.0022994208, 0.0288427584, 0.0017829071, 0.0178228896, -0.0106120314, 