//Numpy array shape [64, 32]
//Min -0.123919308186
//Max 0.119853958488
//Number of zeros 0

#ifndef W14_H_
#define W14_H_

#ifndef __SYNTHESIS__
dense_1_weight_t w14[2048];
#else
dense_1_weight_t w14[2048] = {0.0248945653, -0.0383470953, -0.0161468871, -0.0602505989, -0.0458377749, -0.0814889669, 0.0104143359, -0.0197988283, -0.0207348093, 0.0097593609, 0.0137399705, -0.0442282893, -0.0322954133, -0.0122557310, -0.0517134964, -0.0532558002, -0.0462484807, -0.0209898055, 0.0400287062, 0.0267757829, 0.0150829600, -0.0762174726, -0.0952323452, 0.0290321186, -0.0766248479, 0.0071897414, 0.0126231480, -0.0437874086, -0.0257457979, -0.0191471558, 0.0042096940, -0.0319667943, 0.0534933470, -0.0403832942, 0.0387391746, -0.0592738092, -0.0405157171, -0.0081716888, 0.0100759575, -0.0444116704, 0.0264244154, 0.0047733495, -0.0179329123, 0.0581643507, 0.0781372935, -0.0086821523, -0.0468419269, -0.0212517828, 0.0429698341, -0.0053518545, -0.0624623448, 0.0617304258, 0.0049926355, 0.0187828038, -0.0766449273, 0.0241275523, -0.0351572819, 0.0456681326, -0.0495183095, -0.0616771020, -0.0498198345, 0.0422787741, -0.0363279916, 0.0742309839, 0.0272298530, 0.0200616885, -0.0484315604, -0.0200658645, -0.0064179604, 0.0194562487, 0.0482913032, -0.0228719842, 0.0297909211, 0.0419792309, -0.0341703258, 0.0129631208, 0.0012327059, -0.0169194546, -0.0154343443, 0.0472524539, -0.0066709286, -0.0595482625, -0.0087335603, -0.0610349253, 0.0587323532, 0.0045451038, 0.0041250722, -0.0873713493, 0.0391075760, 0.0146404197, 0.0177905206, 0.0433849245, 0.0735369325, -0.0282967705, 0.0103627853, -0.0744601563, -0.0000460222, 0.0001329832, -0.0000627451, 0.0001049484, -0.0018162689, -0.0004456139, -0.0001057880, -0.0012286558, 0.0019154794, -0.0004487865, -0.0004846589, -0.0032345350, 0.0000367727, -0.0002078311, 0.0019517816, 0.0010633641, 0.0000705503, 0.0002904020, 0.0009705603, -0.0016783368, 0.0002217044, -0.0006342045, -0.0000857086, 0.0006161049, -0.0005617631, 0.0003493305, 0.0002250270, 0.0004865883, -0.0015686215, 0.0005104131, 0.0002435874, 0.0000293407, -0.0032674544, -0.0023749790, -0.0257450640, -0.0178077053, -0.0016914904, 0.0434871726, -0.0392331667, 0.0343550406, 0.0020859265, 0.0381399691, 0.0069656288, 0.0152107514, -0.0042877109, -0.0171648972, -0.0985349268, 0.0525205508, -0.0163862482, -0.0216579437, -0.0542637482, -0.0140872998, 0.0541096292, 0.1003780738, -0.0453741699, 0.0158067569, -0.0544123836, 0.0199953243, 0.0268762819, 0.0210332572, 0.0604907535, 0.0371175893, -0.0171104632, 0.0429452509, 0.0187338665, -0.0221380647, -0.0683158115, 0.0408517793, -0.0259320699, 0.0227041766, -0.0441425070, 0.0550873429, 0.0249013621, 0.0356232002, 0.0388864726, -0.0389880277, 0.0034238615, -0.0273956303, -0.0256814808, -0.0028394067, 0.0087453881, -0.0097885858, -0.0128638744, -0.0200454593, -0.0153863532, -0.0204761624, -0.0646767914, 0.0445226207, -0.0500578992, 0.0114503279, 0.0282722879, 0.0412332714, 0.0225840621, -0.0179781709, 0.0131344413, -0.0180390254, 0.0121870916, 0.0807975307, -0.0135394931, -0.1239193082, 0.0075497245, -0.0366742350, 0.0300001744, 0.0264739376, 0.0060198093, 0.0136843072, 0.0696094111, -0.0773505270, 0.0036531556, -0.0948450118, 0.0124383811, -0.0011995388, 0.0174635686, 0.0433179326, -0.0146259023, -0.0497666486, -0.0636042207, 0.0675406680, 0.0646375194, 0.0144049078, 0.0730908439, 0.0725742802, 0.0428747870, 0.0524140112, -0.0812053308, 0.0863207132, 0.0598075911, -0.0472424552, 0.0079371165, 0.0527818650, -0.0352642648, 0.1198539585, 0.0230324268, -0.0406471193, -0.0071725519, -0.0101743191, 0.0508800559, 0.0109480452, 0.0014005714, -0.0132716177, -0.0339123383, -0.0750487447, -0.0577583499, -0.0213767327, -0.0212736260, -0.0334070437, -0.0718884617, -0.0202183034, -0.0518021472, 0.0109462542, -0.0179922562, -0.0588820130, -0.0226707570, 0.0311311092, 0.0314629078, 0.0163089298, 0.0024103473, -0.0601692982, 0.0976847336, 0.0106690917, -0.0143521838, 0.0096835745, -0.0073970603, 0.0019943621, 0.0134333838, 0.0037115882, 0.0045071985, 0.0166243576, -0.0027904080, -0.0389654078, 0.0078553809, 0.0708970279, 0.0271458533, 0.0225172825, -0.0024421837, 0.0366816670, 0.0010185821, 0.0004841383, 0.0015506712, -0.0043492070, 0.0478867963, -0.0091555472, 0.0277947411, 0.0286521651, 0.0281867273, -0.0040945485, 0.0151450941, 0.0132876989, 0.0311844256, 0.0081527326, -0.0351775177, 0.0102397930, 0.0002355712, 0.0000621007, 0.0045700041, 0.0057976190, 0.0108742677, -0.0009161353, 0.0009569781, -0.0202686805, -0.0165463500, 0.0053698127, -0.0096008945, 0.0142274201, -0.0316710882, 0.0100850761, 0.0080038132, -0.0086085629, 0.0080115357, -0.0260832030, -0.0378972031, -0.0261134151, 0.0088827517, -0.0191559549, 0.0146647235, -0.0139245521, -0.0313124433, -0.0132923042, -0.0039479011, 0.0327215120, -0.0202165376, 0.0275116134, -0.0121201500, -0.0243116952, -0.0189482104, -0.0855436027, 0.0284725148, -0.0037584249, 0.0240651816, 0.0597722642, -0.0354032405, -0.0039933249, -0.0372290462, -0.0019108560, 0.0273530241, -0.0439334735, 0.0420403108, 0.0055698897, -0.0424654037, 0.0292236973, 0.0063349595, -0.0337184966, 0.0368611440, -0.0264882930, -0.0071284985, 0.0655587018, 0.0627334192, 0.0424342118, 0.0593813919, 0.0083373878, 0.0438215733, 0.0138649903, 0.0097817527, -0.0352402776, -0.0183783416, -0.0109945573, 0.0321262740, -0.0219564624, -0.0320724063, -0.0714678615, 0.0134209581, 0.0134510603, 0.0171149522, 0.0086057121, 0.0028037196, -0.0235709455, -0.0115724532, -0.0420911387, -0.0017478581, 0.0033343285, 0.0198549256, 0.0821324661, 0.0145880561, -0.0004312223, -0.0083970241, 0.0620170534, 0.0045232475, 0.0296209343, 0.0221436918, -0.0836811736, 0.0144070955, 0.0194723308, 0.0458787642, 0.0103978375, 0.0111472672, 0.0543893762, 0.0446460433, 0.0151181780, -0.0033691493, 0.0057265302, -0.0000442083, 0.0053286841, -0.0079111056, -0.0093325684, -0.0110257491, -0.0056821345, -0.0024317554, -0.0076443609, -0.0076565025, -0.0162492320, -0.0031760973, -0.0053321728, 0.0032473169, 0.0002164088, -0.0039631431, -0.0038955696, -0.0076159579, -0.0077398526, -0.0022178122, -0.0099024037, -0.0028905293, 0.0095921084, -0.0041665672, -0.0049081836, -0.0018107856, 0.0006316903, -0.0103684124, -0.0082954587, 0.0029144101, -0.0000472836, -0.0609138124, 0.0234787371, 0.0982403085, -0.0351761281, -0.0232853033, 0.0580756590, 0.0430842675, 0.0050465353, 0.0337836146, -0.0492032282, -0.0578161739, -0.0334829316, 0.0647189692, 0.0600603595, 0.0217322502, 0.0409782380, 0.0206774231, -0.0226606652, -0.0381233133, 0.0217886958, 0.0109906485, 0.0184568763, 0.0451396666, -0.0171950404, -0.0067911572, -0.0355655998, -0.0444310047, 0.0148358289, 0.0208729282, 0.0563146360, 0.0127635607, 0.0510254353, -0.0131953359, 0.0452486239, -0.0279689822, 0.0676296726, 0.0182008408, 0.0076630707, -0.0925315917, -0.0285038464, 0.1052256972, -0.0041869245, 0.0046363221, 0.1037954539, -0.0288109649, -0.0018272415, -0.0195065998, -0.0734796748, -0.0103441952, -0.0263948683, 0.0451963246, 0.0272902492, -0.0017432657, -0.0549447127, -0.0000862299, -0.0068970523, -0.0885087997, 0.0387829803, -0.0159935895, -0.0057806093, -0.0021378254, -0.0833992064, 0.0403079242, -0.0417896584, 0.0263729505, -0.0078371717, -0.0672329888, 0.0489288978, -0.0001104528, -0.0097944541, -0.0661504641, 0.0040544178, 0.0558417961, -0.0642151609, 0.0677390844, 0.0872722939, -0.0007028801, 0.0035824850, 0.0227378085, 0.0495396331, -0.0128473891, 0.0011518107, 0.0668900609, 0.0057289535, 0.0182224791, 0.0202958006, 0.0184181128, 0.0747694224, -0.0072156829, 0.0623189919, 0.0102201328, -0.0293809474, -0.0040413286, -0.0965552554, -0.0077993823, -0.0018875096, -0.0529815815, -0.0192658156, -0.0070020109, -0.0147102755, 0.0494173393, -0.0483571626, -0.0595925935, 0.0099026747, -0.0328664035, -0.0504518896, -0.0590783209, 0.0245448779, -0.0540308356, -0.0063677528, 0.0159521382, -0.0118688624, 0.0089346906, 0.1035534069, 0.0068643847, 0.0324243419, 0.0572679974, 0.0343444087, -0.0342990980, 0.0196641982, 0.0286710802, 0.0358108245, -0.0530742891, -0.0452506281, -0.0753047615, -0.0580643006, -0.0439264290, -0.0187646020, 0.0074240323, 0.0136481961, 0.0180843603, 0.0136964824, 0.0356318429, -0.0386359207, 0.0229492076, -0.0184764508, -0.0084672263, -0.0501383990, -0.1134219095, 0.0117209209, -0.0255433042, 0.0526543856, -0.0481448211, 0.0132722473, 0.0489239246, -0.0603996404, -0.0026532304, 0.0027068492, -0.0226835068, -0.0323546454, -0.0213695187, -0.0477640107, -0.0125147421, 0.0467022881, -0.0004968282, -0.0050386391, -0.0314351320, -0.0353931934, 0.0034568296, -0.0481715724, -0.0026441088, -0.0123551441, 0.0004209590, 0.0068973964, -0.0141375586, 0.0130634671, -0.0175691508, 0.0031412116, -0.0113081252, -0.0010032241, -0.0104415743, -0.0077679921, -0.0126108536, -0.0256807785, 0.0074162544, 0.0000486213, -0.0164055191, -0.0059741898, -0.0038869812, 0.0169579294, -0.0000696013, -0.0100384438, -0.0266820546, 0.0046934290, -0.0009883246, -0.0070982855, 0.0028561517, 0.0146443211, -0.0035153052, -0.0031065657, -0.0026909304, 0.0014457584, 0.0715016797, -0.0445511751, -0.0017154157, -0.0219405945, 0.0361231714, -0.0412067585, 0.0057495199, -0.0380772091, -0.0044325199, 0.0561694466, 0.0355543569, -0.0133334501, 0.0478379130, -0.0160893332, -0.0040202686, -0.0224938616, 0.0707189292, -0.0011904807, -0.0065917252, 0.0365478955, -0.0550855808, 0.0397297703, 0.0159729552, -0.0478045791, -0.0194313116, -0.0153177092, -0.1027325466, -0.0438025184, -0.0789598972, 0.0092275068, 0.0424109101, 0.0264421646, -0.0000115596, 0.0000379827, 0.0001540379, 0.0003364545, -0.0002181951, -0.0001978974, -0.0004127249, -0.0001852768, 0.0001293472, -0.0002316138, -0.0004911806, -0.0002530141, 0.0000579686, -0.0001022772, 0.0002652958, 0.0001154675, -0.0000220068, -0.0001115360, -0.0002549751, -0.0002891948, 0.0000350942, -0.0005914731, -0.0001315103, 0.0004997907, -0.0003917956, -0.0000319005, -0.0000173025, 0.0001196176, -0.0002794314, -0.0002094432, 0.0000730511, 0.0002362115, 0.0130133601, -0.0173950512, 0.0325483754, 0.0040561561, -0.0380500592, 0.0239308625, -0.0025493391, -0.0122850267, -0.0015177866, -0.0208371803, 0.0023391801, 0.0103598246, 0.0229846686, 0.0104307970, -0.0068513975, 0.0013628398, 0.0055653253, -0.0031639754, -0.0284514818, 0.0026345991, 0.0185541343, 0.0263596848, 0.0185775533, -0.0038618427, -0.0294872876, -0.0293867290, 0.0183964223, -0.0107229576, -0.0206309911, -0.0265121926, 0.0100032790, -0.0257280059, 0.0373500027, -0.0404852368, -0.0526977703, 0.0169265121, 0.0280390847, 0.0026352466, 0.0717118233, -0.0582925379, 0.0647765100, 0.0407302566, 0.0031393263, 0.0248690303, -0.0152427088, -0.0154111991, 0.0000391361, 0.0294945184, 0.0194691289, -0.0241509322, 0.0384461321, 0.0889605731, 0.0206523258, -0.0330733582, 0.0236420892, -0.0346114114, -0.0347313397, -0.0261188112, 0.0193558075, 0.0404529758, 0.0613302253, 0.0305517856, -0.0476266108, 0.0025699802, 0.0714333802, -0.0292613525, -0.0819387510, -0.0656032711, 0.0021814781, -0.0509156287, 0.0168384314, -0.1056218967, -0.0229113381, 0.0484904833, 0.0004294977, 0.0816907957, -0.0263705496, -0.0588847473, 0.0818719342, -0.0240351111, -0.0009461225, -0.0458645411, 0.0485638157, 0.0037023909, 0.0543184206, -0.0446592271, -0.0339518711, 0.0147590553, 0.0116872108, -0.0245651528, -0.0446993299, 0.0296682287, 0.0527463071, 0.0497343689, -0.0364207625, -0.0340360589, 0.0067089158, -0.0057564597, -0.0229405276, 0.0207386874, 0.0068318220, 0.0162856746, 0.0029965134, 0.0066016796, 0.0008659658, 0.0179695897, -0.0109623615, 0.0068226457, 0.0133321267, -0.0017069606, -0.0075540296, 0.0173133761, 0.0054714074, -0.0001255148, 0.0041557746, 0.0237945449, -0.0033865445, 0.0044133696, -0.0122869546, 0.0089931050, 0.0038803187, 0.0115799475, 0.0280783754, 0.0007220440, 0.0146632651, 0.0177616533, 0.0079974094, 0.0013194208, -0.0165820904, -0.0174965058, 0.0450028442, -0.0362406559, -0.0025504888, -0.0019014508, -0.0619619377, -0.0475435816, -0.0282583162, 0.0024757613, -0.0225882679, -0.0051235342, 0.0069208397, -0.0183950569, -0.0034916799, -0.0254016332, -0.0068091345, 0.0123270974, 0.0013571433, -0.0042841407, 0.0146992980, -0.0311202090, 0.0031452633, -0.0089819757, 0.0101474896, 0.0286273062, -0.0240461044, -0.0364704542, -0.0192372072, 0.0113195842, 0.0001111820, 0.0170162935, 0.0213368256, -0.0100027863, 0.0100941062, -0.0124617592, 0.0275092814, -0.0684960410, 0.0288407449, 0.0144502698, -0.0167922489, -0.0077691348, -0.0387197211, 0.0005304207, 0.0352617875, 0.0307007954, -0.0667285323, 0.0603267215, -0.0245244522, -0.0566862710, -0.0420528464, -0.0570081435, 0.0142428763, 0.0028645683, -0.0607990697, 0.0060121096, 0.0514802150, -0.0615295544, 0.0148344012, -0.0200403221, 0.0376841724, -0.0402462669, 0.0172148682, 0.0080759227, -0.0326837003, 0.0434159860, 0.0718749315, 0.0577252321, -0.0070050503, -0.0181328468, -0.0364571661, 0.0360077135, -0.0469734520, -0.0916143134, -0.0520664342, 0.0583530851, 0.0084107919, -0.0157602411, -0.1054625735, 0.0178447347, 0.0127471555, 0.0391697586, -0.0665550232, 0.0004405819, -0.0010731104, -0.0353713408, -0.0209661666, 0.0109745404, -0.0148372585, 0.0730258450, -0.0353953652, 0.0368968695, 0.0293081086, 0.0940074399, 0.0524471290, 0.0599710718, -0.0236900263, -0.0396164544, 0.0482382402, -0.0354185142, -0.0056401393, 0.0400309712, 0.0283143278, 0.0626203045, 0.0431469157, 0.0032088819, -0.0193872973, -0.0328047536, -0.0330830812, 0.0403852984, -0.0563003570, -0.0270217545, 0.0465687439, 0.0377985016, 0.0163936317, 0.0421604775, 0.0396565199, -0.0346783213, -0.0467045233, -0.0050599431, -0.0586804077, -0.0410434343, 0.0213860646, -0.0067163394, 0.0394243151, 0.0400062092, 0.0053487113, 0.0076500657, 0.0090912981, -0.0315045044, 0.0498858839, -0.0139437132, -0.0001569985, 0.0005320056, 0.0125997122, -0.0029020079, 0.0559051707, 0.0254124198, 0.0070811948, -0.0440297201, 0.0085519953, 0.0485685878, 0.0012462562, -0.0287810806, 0.0157884732, 0.0399883054, 0.0150852399, 0.0219246652, 0.0068240678, 0.0183659289, 0.0417006835, -0.0177493673, -0.0198068712, -0.0445228517, -0.0021098913, 0.0053101154, -0.0173147209, 0.0082473038, 0.0151265804, -0.0370669886, -0.0163526293, -0.0078679901, -0.0032524830, -0.0175396651, 0.0464769229, -0.0459312312, 0.0173227582, 0.0497806892, 0.0276341364, 0.0020791786, 0.0142869027, -0.0260105841, 0.0246217474, -0.0156024434, -0.0594942570, 0.0572113432, -0.0172581952, 0.0124354195, -0.0361477360, -0.0663879067, 0.0345305018, 0.0369815566, -0.0089431452, -0.0269068275, -0.0214326829, -0.0232846476, -0.0015232034, -0.0513461754, -0.0322785415, -0.0373011157, -0.0589150116, -0.0046360204, -0.0508690365, -0.0345852263, -0.0613050461, -0.0161791779, 0.0466073528, 0.0005434414, 0.0721877217, 0.0009739459, 0.0107593164, 0.0289344043, 0.0802009553, 0.0050199423, -0.0298947543, -0.0477906764, -0.0213601366, -0.0207111817, -0.0258682873, -0.0021887203, 0.0353347249, 0.0598799661, 0.0705888122, 0.0288247764, 0.0527984723, -0.0087866979, -0.0105280383, -0.0268653110, -0.0435064249, 0.0319264531, -0.0231028143, 0.0686703697, -0.0547153987, 0.0489370376, -0.0129891355, 0.0308860876, 0.0457537621, 0.0350547358, -0.0666470751, 0.0462511443, 0.0028821956, -0.0046912641, -0.0663638413, 0.0149108423, -0.0236647353, -0.0597525649, -0.0132376291, -0.0008266242, 0.0040148175, -0.0019804637, -0.0039614192, 0.0500840880, -0.0081308531, 0.0155878803, 0.0088068163, 0.0080132596, -0.0411285609, -0.0425099246, 0.0145464679, 0.0467417464, -0.0368051007, -0.0490455367, 0.0527452044, -0.0067175017, -0.0087777851, 0.0163979586, -0.0436870754, -0.0193828344, 0.0042108726, -0.0243425630, -0.0478683859, 0.0039820485, -0.0590376668, -0.0738813877, -0.0151939411, -0.0197092928, 0.0459367037, 0.0172820296, 0.0012847539, -0.0388545133, 0.0553194731, 0.0387150533, -0.0692992061, 0.0028545964, -0.0420688614, 0.0551412106, 0.0217591077, -0.0729981735, 0.0583643802, -0.0542659797, -0.0232804995, -0.0260887016, 0.0595226586, -0.0367522687, -0.0062874272, 0.0172614045, 0.0349397510, 0.0411890335, 0.0295344237, -0.0523791388, 0.0201659445, 0.0462072343, 0.0777879879, -0.0138655156, -0.0226283185, -0.0184756964, -0.0163467452, 0.0490235202, -0.0120485900, -0.0290700886, 0.0496714599, 0.0023813341, 0.0257290192, -0.0641498119, -0.0082886973, -0.1152989939, -0.0431840979, -0.1051707715, -0.0415527187, 0.0139382845, -0.0179174338, 0.0139826210, 0.0002769629, 0.0481339097, -0.0521818809, -0.0664317980, 0.0132784080, -0.0512831807, -0.0124078309, 0.0237032454, 0.0060951211, 0.0322262459, 0.0122677078, -0.0310711209, -0.0259445086, 0.0147412941, 0.0065175914, -0.0342179090, 0.0842922777, 0.0093387850, 0.0345464125, 0.0130410539, 0.0969780609, 0.0629620180, 0.0198370386, 0.0075391135, -0.0005415796, -0.0256166440, -0.0803372264, 0.0089281462, 0.0552429967, 0.0128513584, -0.0046357736, -0.0133223394, -0.0382821448, -0.0428773798, 0.0037282263, -0.0055275415, 0.0823383257, -0.0322739296, 0.0117236534, 0.0409269743, -0.0002165979, 0.0804886147, -0.0277646165, 0.0111070480, 0.0688504577, 0.0309395287, -0.0068750540, -0.0074701440, 0.0468842611, 0.0490743481, 0.0766558349, 0.0079713939, 0.0392862596, 0.0397429466, -0.0326226577, -0.0837200433, -0.0050768629, -0.0254766475, -0.0243055467, -0.0710715353, -0.0280941594, -0.0193458926, 0.0591483414, -0.0511684380, 0.0331549756, 0.0006718914, -0.0273341592, -0.0484605245, 0.0187861100, 0.0288187563, -0.0554806329, -0.0273403265, -0.0443364941, 0.0423738919, 0.0556425191, 0.0286675636, -0.0786134005, 0.0561444871, -0.0353449211, -0.0263431687, 0.0717596859, 0.0356620029, 0.0253594909, -0.0621682890, -0.0023468197, -0.0542270727, -0.0193407927, -0.0268674418, -0.0401104018, 0.0472850315, 0.0715706348, 0.0518044122, 0.0103495484, -0.1045848057, -0.0132425930, 0.0018229928, -0.0916144177, 0.0042810887, 0.0445391759, -0.0278251804, 0.0430158116, 0.0935117826, -0.0419540517, 0.0209779516, 0.0292205997, -0.0421503261, 0.0895175114, 0.0094551742, 0.0027501727, -0.0911587253, 0.0235961638, 0.0078771701, 0.0255245268, -0.0001382133, 0.0377433114, 0.0268079825, -0.0077400999, 0.0554013029, -0.0065548900, -0.0270539895, -0.0283577759, 0.0561581813, -0.0003662116, 0.0043806145, -0.0118106361, 0.0274079777, 0.0053795925, -0.0185502488, -0.0421475619, -0.0983240828, -0.0333728977, -0.0187033098, -0.0607816838, -0.0356247723, -0.0524243489, 0.0198881701, 0.0348932371, 0.0400054455, -0.0094010606, -0.0002949593, 0.0526379123, -0.0113515742, 0.0375301763, 0.0037533692, 0.0169717334, 0.0037367709, -0.0566476658, 0.0122734858, -0.0219522137, 0.0257763192, -0.0004076345, 0.0242413376, -0.0066095721, -0.0089250952, -0.0362457484, -0.0292733219, -0.0051183216, 0.0138186179, 0.0250615142, -0.0425185002, -0.0014054447, -0.0103449589, 0.0012458720, -0.0065844776, -0.0048422720, 0.0207181703, -0.0074337292, -0.0614096373, 0.0281120390, -0.0125084212, -0.0365708582, 0.0218168888, 0.0199306440, -0.0645647496, 0.0504717231, 0.0458096638, 0.0038014301, -0.0283215381, 0.0898196399, 0.0161163528, 0.0141574489, -0.0593940206, 0.0277172457, -0.0235122368, 0.0109018357, -0.0178531688, -0.0540028252, 0.0150808077, -0.0068553113, 0.0776529238, 0.0006516509, 0.0252914745, -0.0290528443, -0.0969105288, -0.0553145334, -0.0266298465, -0.0401479825, 0.0143445553, 0.0590893254, 0.0482859761, -0.0862312466, -0.0128797749, 0.0005079862, -0.0794147849, 0.0201454051, 0.0382870026, 0.0149186654, 0.0116942804, -0.0184258632, 0.0075562536, 0.0198256429, -0.0288819075, -0.0345940627, -0.0595295988, -0.0550468005, 0.0056837481, -0.0732919127, -0.0179404933, -0.0178165436, -0.0011851909, 0.0646276623, -0.0089086052, -0.0374854356, -0.0177022014, -0.0599235035, 0.0110616349, 0.0495384298, -0.0016849717, 0.0530939326, -0.0284127351, -0.0185435601, 0.0176964421, 0.0017653246, -0.0000896671, 0.0072407690, 0.0014501612, -0.0002407256, -0.0001249201, 0.0017020832, 0.0001202690, 0.0005947616, -0.0002102030, -0.0002840367, -0.0019529340, 0.0006147271, -0.0005266006, 0.0022689670, -0.0003905168, -0.0000062758, -0.0012317228, -0.0000685895, -0.0028102025, -0.0004695464, 0.0010666432, 0.0004349836, -0.0009431234, -0.0003640391, 0.0003792611, -0.0005499048, 0.0000694159, -0.0025442836, -0.0010748879, 0.0002034153, 0.0010876323, -0.0140591916, 0.0179531034, -0.0525376871, 0.0756824091, 0.0419004411, 0.0383298360, 0.0393150039, 0.0290295277, -0.0065855640, -0.0162636265, 0.0465911776, -0.0103463996, 0.0363016799, 0.0518075712, 0.0250913352, 0.0407657921, 0.0434951223, 0.0154009303, 0.0707254708, -0.0036856362, -0.0154497493, 0.0158903170, -0.0022850428, 0.0053204359, 0.0521330498, 0.0529951528, -0.0717140362, -0.0045789191, 0.0178837255, 0.0297516584, -0.0541305989, 0.0154075641, -0.0077676089, 0.0425649174, -0.0919301808, 0.0771631896, -0.0141265104, 0.0556770042, 0.0751322806, 0.0536032505, 0.0238590501, 0.0426411033, -0.0182034820, -0.0451345220, 0.0081932154, -0.0088720480, 0.0198757164, -0.1151684895, 0.0907738432, -0.0285285376, -0.0046321750, 0.0208632033, -0.0175010525, -0.0533124395, 0.0014036405, -0.0643569827, 0.0345070735, -0.0302529372, -0.0808304325, -0.0413636342, -0.0434123166, -0.0015192395, 0.0326636583, -0.0457583442, -0.0066025686, 0.0501417220, -0.0423781425, -0.0304338299, -0.0420169719, 0.0221932437, -0.0270112362, 0.0481240749, 0.0922127068, -0.0213081781, -0.0010323767, -0.0236385278, -0.0134232454, 0.0657243207, 0.0238702204, -0.0598280653, -0.0491537526, 0.0593199469, -0.0069391015, -0.0275599919, -0.0619606562, 0.0428184867, 0.0560880117, -0.0574055277, -0.0549091958, -0.0449230820, -0.0256781541, 0.0418161154, -0.0111558251, 0.0528780892, -0.0182996131, -0.0619560145, 0.0713286623, 0.0018081600, -0.0059273425, -0.0160156470, 0.0266376697, 0.0280522518, -0.0462107733, -0.0004493216, 0.0692225024, -0.0276170932, -0.0247518532, -0.0255269259, 0.0244283006, 0.0358052999, 0.0852711201, -0.0346946046, -0.0217607841, -0.0851293504, -0.0925241783, -0.0163407568, -0.0439432636, -0.0199140906, 0.0026790998, 0.0613097772, -0.0569996089, -0.0024106547, 0.0037510765, -0.0002488600, -0.0468970425, -0.0264631268, 0.0560583696, 0.0335039310, -0.0138732335, 0.0066752629, 0.0138700968, 0.0058087115, -0.0019186822, -0.0279320069, -0.0101756901, -0.0038438733, -0.0075991717, -0.0127875842, -0.0182750225, -0.0318941399, -0.0155513426, -0.0100547727, -0.0145942168, -0.0131171383, -0.0107020410, -0.0137352627, -0.0118878316, -0.0063381847, 0.0005376328, -0.0273501836, -0.0056393119, -0.0041867932, -0.0124842459, 0.0003355341, -0.0111330347, -0.0136397528, -0.0201513730, -0.0261807423, 0.0162449032, -0.0027179199, -0.0410742573, 0.0244000219, -0.0085082753, -0.0313245580, -0.0226547047, 0.0185831618, -0.0427903049, 0.0048904098, 0.0170107894, -0.0602839142, -0.0199206509, 0.0268393401, -0.0107086012, -0.0004215059, -0.0466356501, 0.0270597413, -0.0371013544, -0.0124500031, 0.0032064340, -0.0068351077, -0.0061636684, 0.0230548047, -0.0122384820, -0.0170549601, -0.0484457612, 0.0222275853, 0.0101112425, 0.0156244915, -0.0017182094, -0.0033789589, 0.0008405116, -0.0011667071, 0.0036117432, 0.0038778842, -0.0138729308, -0.0135488594, 0.0026168085, -0.0055614561, 0.0216128230, 0.0234127846, -0.0108649489, 0.0118019097, -0.0117438296, -0.0657161325, -0.0320019051, -0.0369929262, -0.0147354491, -0.0054730470, -0.0100270147, -0.0228524264, 0.0067554312, 0.0257122125, 0.0208769571, -0.0371338129, -0.0264187437, -0.0315664485, -0.0208827592, -0.0361994430, 0.0043568360, 0.0014011452, 0.0121827852, -0.0076863556, -0.0163168181, -0.0028633443, -0.0270105284, 0.0492428355, 0.0000854693, 0.0208912771, -0.0513366759, -0.0144276610, 0.0270805340, 0.0467775092, -0.0808205232, -0.0470582843, 0.0102682728, 0.0604980700, -0.0289013740, -0.0003542759, -0.0164393056, -0.0234256368, 0.0018992269, 0.0332633220, -0.0422900505, 0.0021556881, -0.0103575140, 0.0199070238, -0.0419990830, -0.0011539689, 0.0432774089, -0.0463807210, -0.0586659163, -0.0139366277, 0.0208260324, -0.0590004921, 0.0245447401, 0.0380815268, -0.0525793880, -0.0033636605, -0.0167866983, 0.0042146151, -0.0805848017, 0.0506732501, -0.0254102144, -0.1025790125, 0.0207216591, 0.0101981461, -0.0416161343, -0.0716150478, 0.0089648431, -0.0561632775, -0.0176501609, 0.0304755047, -0.0255178660, 0.0118698487, 0.0339564532, 0.0534586310, -0.0068124831, 0.0079929326, 0.0601423122, -0.0766898021, 0.0417911075, 0.0836435109, -0.0479999445, -0.0475041009, 0.0468782336, -0.0403763130, 0.0237137359, 0.0598400496, 0.0158201829, 0.0502891317, 0.0465330034, 0.0076394221, -0.0825322196, 0.0054733520, 0.0114347246, 0.0184208751, 0.0454185829, 0.0305957347, -0.0494227260, 0.0305693876, 0.0158601776, 0.0573556200, 0.0234119520, 0.0096655013, 0.0408308506, 0.0644162297, 0.0172702391, 0.0152991284, 0.0114775263, 0.0612100735, 0.0209816508, -0.0242769979, 0.0221187808, -0.0344929770, 0.0562231466, -0.0072206277, 0.0418432765, -0.0403032452, -0.0354127102, -0.0652189255, 0.0001862268, -0.0096141938, -0.0027594634, 0.0037719309, -0.0237776078, 0.0056442092, -0.0027097501, -0.0068595065, -0.0196927339, -0.0119937081, -0.0175432656, 0.0208535176, 0.0056397105, -0.0116249025, -0.0228202660, 0.0011033356, 0.0042601442, -0.0197589230, 0.0066624475, -0.0125161679, -0.0094399331, -0.0119676786, -0.0058546276, 0.0122667030, 0.0124782203, -0.0255359821, -0.0212329216, 0.0055359975, -0.0106547493, -0.0348019600, 0.0034210191, 0.0113344342, 0.0622636639, -0.0128961401, -0.0432703272, 0.0407974981, -0.0206189342, 0.0194932576, -0.0319116674, -0.0178886950, 0.0727088004, -0.0100332629, -0.0711854100, -0.0462628268, 0.0045042881, 0.0179649573, -0.0344194174, 0.0731198788, 0.0785370469, -0.0094884969, -0.0213310104, 0.0541061871, 0.0221211556, 0.0115836635, -0.0625467226, 0.0535109751, 0.0500904880, 0.0239140037, 0.0416042469, -0.0542828292, 0.0063788155, 0.0128923682, -0.0381811969, -0.0903873593, -0.0027982097, 0.0422271639, 0.0466635749, -0.0652663708, -0.0107688960, 0.0078645023, -0.0785300583, -0.0686068237, -0.0320181027, 0.0343560539, 0.0663586780, 0.0033223073, 0.0099058691, -0.0179458689, -0.0733078495, -0.0309066195, -0.0340718515, -0.0235464927, 0.0135584725, -0.0501235314, -0.0446982160, -0.0259472076, -0.0017121370, 0.0781132281, 0.0171727370, 0.0092647905, 0.0552515388, -0.0496394224, 0.0745909512, 0.0163149610, -0.0186717808, -0.0408957377, 0.0748561323, 0.0176637657, -0.0049664918, -0.0581512898, -0.0692442879, -0.0348604098, -0.0131814200, -0.0203531068, 0.0308497120, 0.0221322756, -0.0447755791, 0.0299693123, 0.0165508520, 0.0175754670, 0.0216895342, -0.0719225556, 0.0592625625, 0.0291631874, -0.0992696583, -0.0169270281, 0.0153537104, -0.0395373851, -0.0125738857, 0.0749825686, 0.0364684761, -0.0627786145, 0.0360882767, 0.0612209924, -0.0058167228, 0.0453487895, 0.0234493092, -0.0574933439, 0.0071640909, -0.0580396950, 0.0103601031, 0.0508462973, 0.0018583264, 0.0285898410, -0.0240228232, -0.0193411652, -0.0417674184, 0.0068384595, 0.0251602624, -0.0461597294, 0.0090858033, 0.0009475573, 0.0307965148, 0.0555718094, -0.0364958793, -0.0331296250, 0.0661037862, -0.0336427130, -0.0343062952, 0.0530319922, -0.0281137805, 0.0349214002, -0.0041828332, 0.0002666832, -0.0228141304, -0.0542863235, 0.0290545523, 0.0014790847, -0.0688810050, 0.0124253882, 0.0013403911, -0.0322996750, -0.0567666478, 0.0169011317, -0.0213800054, 0.0081874477, -0.0106841372, -0.0595493205, 0.0112520494, 0.0196875539, -0.0020687338, -0.0321900062, 0.0502288043, -0.0262287427, 0.0122126006, -0.0364023410, -0.0091603091, -0.0218922347, -0.0345081799, -0.0252485927, 0.0592894964, -0.0039603035, -0.0108329635, -0.0582006276, -0.0275680274, 0.0214070156, -0.0362670831, -0.0369345993, 0.0295719765, -0.0455560870, -0.0463455841, 0.0209235046, -0.0879635662, 0.0079367701, 0.0001513025, 0.0267833676, 0.0349486843, -0.0343411453, 0.1064901501, 0.0485220850, -0.0573784672, -0.0581661388, -0.0341745615, -0.0309941377, -0.0073990505, 0.0053214622, 0.0823086053, -0.0591402613, -0.0068780631, 0.0104883267, 0.0543569587, -0.0286872704, 0.0414843336, -0.1023795679, -0.0077432231, 0.0756377354, 0.0291522406, -0.0403979011, -0.0576862097, 0.0592437759, -0.0638744086, -0.0224924963, 0.0084419083, 0.0044226428, 0.0043656561, 0.0578997917, -0.0226346850, -0.0635456592, 0.0523757786, -0.0368587859, -0.0617670193, -0.0473765843, 0.0376970395, -0.0521042906, 0.0271165166, 0.0944330394, 0.0384175666, 0.0303227007, 0.0279155560, 0.0384664051, 0.0224900134, 0.0011780678, 0.0468620546, 0.0077986801, 0.0675855204, -0.0192776006, -0.0134092681, 0.0008929316, 0.0399398357, 0.0427001044, -0.0382629447, -0.0722704008, -0.0331870988, 0.0354756266, -0.0562910847, 0.0164410118, 0.0175732616, 0.0196149871, -0.0366400778, -0.1227747723, 0.0337932296, -0.0179177765, -0.0557386205, 0.0517410785, 0.0600466952, 0.0366081297, 0.0386121050, 0.0175292324, -0.0177699588, -0.0514772758, 0.0341802314, -0.0485252813, 0.0279209856, 0.0608437322, -0.0451162308, -0.0231305677, 0.0521947294, 0.0485627949, -0.0184473880, 0.0160325859, -0.0039010770, 0.0774268582, 0.0224035680, -0.0039993008, -0.1087456718, -0.0044471053, -0.0421089791, -0.0365803950, 0.0364850871, 0.0192142334, 0.0068134102, 0.0776500106, 0.0434172004, -0.0408582576, 0.0194418691, -0.0003500095, -0.0023773296, 0.0082185064, -0.0092744026, -0.0217963457, -0.0410810784, -0.0045101065, -0.0119363992, 0.0574450642, -0.0113288313, -0.0292582605, -0.0145148924, 0.0252449922, -0.0500666685, -0.0429830290, -0.0152119128, -0.0195782278, -0.0410394035, 0.0256365798, 0.0113125648, 0.0208171643, 0.0036524080, 0.0043859980, 0.0444288924, 0.0064391172, 0.0192120913, -0.0321415626, -0.0930505991, 0.0322133489, 0.0556309856, 0.1107027754, -0.0691293254, 0.0172478557, 0.0016260116, 0.0223733634, -0.0362632126, 0.0279219504, -0.1020871997, -0.0337255560, 0.0529388562, -0.0052250582, -0.0442357697, -0.0487447344, 0.0081203412, 0.0057463255, -0.0254105777, -0.0435103960, 0.0026759813, 0.0533179343, -0.0383712240, -0.0505294949, -0.0262220781, 0.0303743910, 0.0445362218, 0.0604056306, -0.0005719676, -0.0047489689};
#endif

#endif
