typedef float fixed_p;

#define INPUT_SIZE_CONV1D 120
#define KERNEL_SIZE_CONV1D 3
#define NUM_FILTERS_CONV1D 16
#define CHANNELS_CONV1D 1
#define FLATTEN_SIZE_FLATTEN 1888
#define DENSE_SIZE_DENSE 16
#define DENSE_SIZE_DENSE_1 20

fixed_p conv1d_biases[16] = { -1.184953e+00, 9.103678e-02, -3.943808e-01, -1.015139e-01, -1.086741e+00, 1.366358e-01, -2.869093e-01, 1.408013e-01, -1.840156e-01, -1.238367e-03, -1.020612e+00, -3.099465e-01, 1.820360e-01, -4.802002e-02, 1.781281e-01, -3.439514e-03 };

fixed_p dense_biases[16] = { -7.269622e-03, -6.133988e-02, 1.992257e-02, -1.333778e-02, 5.912841e-02, 2.155267e-01, 2.270603e-02, 1.546000e-01, -4.537431e-02, -3.464264e-02, 3.338022e-02, 2.568550e-02, 1.136929e-02, -9.091923e-02, -1.393836e-02, 1.993049e-01 };

fixed_p dense_1_biases[20] = { 4.453368e-01, -1.802691e-01, -6.451911e-02, 5.613348e-02, -1.972702e-01, -6.218303e-01, 5.254917e-01, 3.599363e-01, -3.017715e-01, 1.841080e-01, 4.193130e-01, 2.109679e-01, 6.303747e-02, 1.192941e-01, 1.617829e-01, -7.083936e-02, -6.952404e-01, -3.575740e-03, 2.464801e-02, -5.295200e-01 };

fixed_p conv1d_weights[3][1][16] = { { { -2.481387e+00, -3.261479e+00, -2.192791e+00, 2.478613e+00, -2.519246e+00, 3.839070e+00, 2.215533e+00, 2.848493e+00, -2.810849e+00, -3.809955e+00, -2.440616e+00, 1.335207e+00, 2.272999e+00, 2.420944e+00, 3.024671e+00, 4.815683e+00 } }, { { -2.791357e+00, -3.601819e+00, -2.752999e+00, 1.371781e+00, -1.943522e+00, 1.881795e+00, 2.452678e+00, 1.686359e+00, -3.336672e+00, -1.558977e+00, -1.658090e+00, 2.281049e+00, 2.390203e+00, 1.032989e+00, 1.889368e+00, -1.017590e+00 } }, { { -1.130176e+00, -2.024528e+00, -8.359792e-01, 1.466455e+00, -8.850470e-01, -7.870786e-01, 4.855030e-01, 4.928353e-01, -4.108382e-01, 5.313816e+00, -1.168834e+00, 1.572164e+00, 1.792683e+00, 1.644167e+00, 5.326850e-01, -3.829321e+00 } } };

fixed_p dense_weights[1888][16] = { { -1.292897e-35, 1.216391e-01, -4.450940e-02, 5.419430e-34, -2.157063e-03, -4.465470e-02, -8.007463e-02, 5.256280e-02, -6.722075e-02, -6.626815e-02, 7.299867e-02, 8.783066e-02, -1.084317e-02, 9.027605e-03, 3.999935e-02, -2.680957e-02 }, { -2.687488e-34, 3.018576e-01, -5.121624e-02, -1.675041e-34, 1.216235e-02, -4.117058e-02, 4.847085e-02, 2.005170e-01, 1.954935e-02, -2.238418e-01, -1.317146e-01, 1.333906e-01, 6.302655e-02, -6.546965e-02, 1.340142e-02, 2.278099e-02 }, { -2.849900e-34, 2.064096e-01, -6.960423e-02, 4.624373e-34, 1.190192e-02, -3.758242e-02, -6.532417e-03, 1.279709e-01, -1.564935e-02, -1.212649e-01, -7.176748e-02, 9.878879e-02, 5.246921e-02, -6.149143e-02, 8.497411e-03, 2.580485e-02 }, { 6.430721e-35, 3.830206e-02, -7.338290e-02, 3.063501e-34, 3.965386e-02, 3.928616e-02, -2.752408e-02, -8.411328e-02, -9.548564e-02, 6.898179e-02, 9.753396e-02, -1.268456e-02, -5.796246e-02, -8.699687e-02, 6.138728e-02, 5.677681e-02 }, { -1.042125e-34, 9.177294e-02, -2.487726e-02, -4.893319e-34, 3.264822e-03, -4.009501e-02, -7.900314e-02, 3.984079e-02, -4.819795e-02, -5.280169e-02, 8.367106e-02, 6.900739e-02, -1.391061e-02, 1.799537e-02, 2.853789e-02, -3.063289e-02 }, { 5.820066e-34, 9.103353e-02, -7.105816e-02, -7.889027e-35, 4.420017e-02, 7.719373e-02, -4.836163e-02, -1.257361e-01, -1.945949e-01, 1.024107e-01, 1.520736e-01, -8.549413e-03, -1.101566e-01, -9.898969e-02, 6.560987e-02, 6.377067e-02 }, { 2.402681e-34, 7.083847e-02, -3.705812e-02, 4.298656e-34, 3.947502e-02, 3.393639e-02, -2.559344e-02, -7.510700e-02, -9.794834e-02, 3.192874e-02, 8.323363e-02, -1.776034e-02, -7.197408e-02, -6.494369e-02, 5.164531e-02, 3.712782e-02 }, { -6.010909e-35, 5.346264e-02, -9.006266e-02, 3.454700e-34, 3.880331e-02, 6.021923e-02, -4.355474e-02, -9.719227e-02, -1.416207e-01, 9.354001e-02, 1.289509e-01, -1.041253e-02, -7.684425e-02, -1.047342e-01, 5.930864e-02, 6.977964e-02 }, { -3.249473e-34, 2.869819e-01, -6.132166e-02, -2.548293e-34, 3.359606e-02, -3.750153e-02, -1.147771e-02, 1.581213e-01, 4.327581e-03, -1.930060e-01, -1.063892e-01, 1.141989e-01, 6.409351e-02, -7.249589e-02, -8.779589e-03, 1.050255e-02 }, { 3.011887e-34, 6.648254e-02, 6.470501e-02, -3.234798e-34, 6.044204e-02, -7.538026e-02, -8.900185e-02, 1.641459e-01, 1.746742e-01, -2.541689e-01, -1.819829e-01, 6.936458e-02, 1.733589e-01, 1.037973e-01, -1.655788e-01, -8.068497e-02 }, { 5.553407e-35, 9.322976e-02, -3.011180e-02, -4.326645e-34, -2.142510e-04, -3.653945e-02, -6.862713e-02, 4.055192e-02, -5.700296e-02, -5.398300e-02, 6.461320e-02, 7.028999e-02, -8.899269e-03, 1.024287e-02, 3.390728e-02, -2.734230e-02 }, { 6.635724e-35, 3.247772e-02, -3.910656e-02, 2.773120e-34, 3.559425e-02, 1.418225e-02, -2.268742e-02, -5.040017e-02, -4.593107e-02, 1.907695e-02, 5.476193e-02, -7.279674e-03, -3.416981e-02, -5.870713e-02, 4.571499e-02, 3.580612e-02 }, { 1.818886e-34, 3.184726e-02, -9.862898e-02, 2.062240e-34, 3.678788e-02, 4.721468e-02, -5.107553e-02, -9.149815e-02, -1.045618e-01, 8.358517e-02, 1.281572e-01, -1.275156e-02, -5.032981e-02, -1.094177e-01, 6.107321e-02, 7.821678e-02 }, { 3.782473e-34, 2.806684e-02, -7.653144e-02, 9.837694e-36, 3.617718e-02, 3.796489e-02, -2.716262e-02, -8.333454e-02, -9.033808e-02, 7.666376e-02, 9.843476e-02, -1.329653e-02, -5.124510e-02, -8.429634e-02, 6.221586e-02, 5.810713e-02 }, { 4.428896e-34, 4.830587e-02, -9.788913e-02, 4.914264e-34, 3.680532e-02, 6.349851e-02, -5.083273e-02, -1.029851e-01, -1.542888e-01, 1.045437e-01, 1.422528e-01, -9.676582e-03, -8.183801e-02, -1.119980e-01, 6.226547e-02, 7.791390e-02 }, { -7.977451e-35, -1.136532e-01, 6.239030e-02, -3.266265e-35, -4.209290e-02, 4.282688e-02, 1.119528e-01, -6.125817e-02, -5.902243e-02, 7.118580e-02, 6.958274e-02, -2.858954e-02, -5.265898e-02, 1.054476e-01, 2.594149e-02, 2.753005e-02 }, { -3.213665e-34, 1.141931e-02, -2.316467e-02, 4.738526e-34, -7.797992e-03, -3.812762e-02, 2.351448e-02, 2.963934e-02, -2.142158e-02, -4.352434e-02, 9.085950e-02, 4.514172e-02, -4.409675e-02, 2.706477e-02, 1.230084e-01, -3.944741e-03 }, { -1.327145e-34, 7.790702e-02, -6.111533e-02, -1.296056e-34, -5.684341e-02, 1.387020e-02, 1.301284e-01, 1.217371e-01, 5.801245e-03, -6.150290e-02, -3.514582e-02, 6.080811e-02, -4.190115e-03, -3.829843e-02, 1.136414e-01, 3.494872e-02 }, { 3.279162e-34, 4.004619e-02, -5.762583e-02, 4.999978e-35, -4.508836e-02, 4.145663e-03, 7.974099e-02, 7.405804e-02, -1.512941e-02, -2.891767e-02, 1.696164e-04, 3.724295e-02, 1.778625e-03, -2.199465e-02, 9.152929e-02, 4.070562e-02 }, { 2.105909e-34, 2.429407e-03, -5.239226e-02, 5.135684e-34, 2.055008e-02, 2.240769e-02, -3.497938e-02, -1.562881e-02, -3.912714e-03, 8.262217e-03, 4.289265e-02, -6.017739e-04, -1.898168e-02, -6.040568e-02, 3.163151e-02, 3.460881e-02 }, { -1.562322e-34, 1.469258e-02, -1.889376e-02, 1.328888e-34, 5.635825e-03, -4.152776e-02, 7.551221e-03, 2.628596e-02, -2.221246e-03, -3.803237e-02, 9.141253e-02, 3.878205e-02, -3.956009e-02, 2.000499e-02, 9.556647e-02, -1.381370e-02 }, { 1.506431e-34, 2.519013e-02, -5.016629e-02, 1.173279e-34, 3.439160e-02, 6.978038e-03, -4.104879e-02, -4.801352e-02, -1.529704e-02, -9.071668e-03, 5.101078e-02, -3.257451e-04, 2.133106e-02, -6.008665e-02, 1.689630e-02, 3.296812e-02 }, { -1.874738e-35, -2.367853e-03, -3.620730e-02, 8.817996e-35, 2.771286e-02, -3.601965e-03, -2.205224e-02, -1.546515e-02, 2.656797e-02, -2.459135e-03, 2.654691e-02, -3.089469e-03, 5.059304e-03, -4.926103e-02, 3.446556e-02, 2.854220e-02 }, { -1.776801e-34, 3.348761e-03, -6.477094e-02, 1.357606e-34, 2.395192e-02, 1.919287e-02, -4.552327e-02, -2.444216e-02, -1.077058e-02, 6.874918e-03, 6.190497e-02, -9.366946e-03, -4.770174e-03, -6.852785e-02, 2.432953e-02, 3.989960e-02 }, { 1.715779e-34, 6.486321e-02, -5.849156e-02, -4.746600e-34, -5.349948e-02, -5.028366e-03, 1.066052e-01, 8.500012e-02, 5.756595e-03, -3.509785e-02, -9.981100e-03, 3.045205e-02, 6.182119e-03, -2.235017e-02, 9.255353e-02, 4.448047e-02 }, { 1.875129e-34, 2.721876e-02, 2.077142e-03, 3.415719e-34, -1.111173e-02, -6.459109e-02, 5.323531e-02, 4.189283e-02, 1.072387e-01, -2.805712e-02, -3.550879e-02, -2.506184e-02, 7.640941e-02, 1.273322e-01, -2.507371e-02, -9.906558e-03 }, { -2.699643e-34, 1.920880e-02, -2.427240e-02, -2.834313e-34, 3.013805e-03, -3.797511e-02, 1.285037e-02, 3.062436e-02, -9.354251e-03, -4.035638e-02, 7.506300e-02, 4.189115e-02, -3.901277e-02, 1.179127e-02, 9.422687e-02, -9.333458e-03 }, { 3.345187e-34, -8.151200e-03, -3.643846e-02, 2.814680e-34, 1.501636e-02, 1.046461e-02, -2.315803e-02, -8.374220e-04, 2.841798e-02, 6.300821e-03, 2.251460e-02, -7.483279e-03, 1.223054e-03, -4.621880e-02, 3.586417e-02, 2.424786e-02 }, { 2.367248e-35, -3.107213e-03, -7.136238e-02, -3.507152e-34, 1.865473e-02, 3.350847e-02, -4.106250e-02, -1.207244e-02, 6.789918e-03, 1.558449e-02, 5.773619e-02, -7.281340e-03, -3.367549e-03, -7.157806e-02, 4.331390e-02, 5.587844e-02 }, { -2.179218e-34, 3.244776e-03, -5.255830e-02, -5.063613e-34, 1.634916e-02, 2.608781e-02, -3.381086e-02, -1.730501e-02, -1.222560e-02, 1.570135e-02, 4.379065e-02, 2.647952e-03, -2.241584e-02, -5.706230e-02, 2.965037e-02, 3.482318e-02 }, { 2.022936e-34, -7.150985e-04, -6.977195e-02, -3.757633e-34, 2.363023e-02, 2.173357e-02, -5.260831e-02, -2.702913e-02, -1.771453e-02, 9.684304e-03, 6.987344e-02, -9.618018e-03, -4.213425e-03, -7.161990e-02, 2.617606e-02, 4.379297e-02 }, { 7.764875e-36, -7.474983e-02, 4.375085e-02, -1.849498e-34, 6.024259e-03, -1.603306e-03, 1.189610e-02, -3.304503e-02, 2.983686e-02, -4.480347e-02, 6.600595e-03, -2.217406e-02, 6.680849e-02, 1.138627e-01, -3.103118e-02, -4.890170e-02 }, { -2.206991e-36, -3.322307e-02, -2.581623e-02, -3.363946e-34, -2.107368e-03, -3.319488e-02, 5.508948e-02, 2.129269e-02, 5.993518e-03, -3.023594e-02, 6.497435e-02, 4.909531e-03, -5.224973e-02, 8.452445e-03, 1.028918e-01, 1.067209e-02 }, { 5.543409e-34, 4.064606e-03, -3.912866e-02, -1.835774e-34, -7.377118e-02, 3.737834e-02, 9.528466e-02, 8.871473e-02, -9.424255e-02, -5.363377e-02, -3.460742e-02, 4.801762e-02, 5.662252e-03, -1.040127e-02, 1.175677e-01, 3.530422e-02 }, { 2.763258e-34, 9.730033e-04, -3.039839e-02, 5.335483e-34, -4.367873e-02, 1.321963e-02, 7.440403e-02, 5.095159e-02, -3.835777e-02, -4.099659e-02, -4.932159e-03, 2.013212e-02, -5.705963e-03, -4.039160e-03, 9.220898e-02, 2.582965e-02 }, { 3.128519e-34, -1.758933e-03, -4.557864e-02, 3.509798e-34, 1.353845e-02, 1.342827e-02, -2.376833e-02, 1.767942e-02, 1.499337e-02, -2.176066e-02, 8.027873e-03, 7.990221e-03, 9.564761e-03, -3.884451e-02, 3.958347e-02, 2.950905e-02 }, { 3.174532e-34, -2.638169e-02, -2.136981e-02, 1.159187e-34, 8.068229e-03, -3.305352e-02, 4.782503e-02, 1.676231e-02, 1.207574e-02, -2.311992e-02, 6.695043e-02, 4.357977e-03, -4.669241e-02, 5.647658e-03, 8.473659e-02, 4.091141e-03 }, { -3.367430e-34, -4.996765e-03, -3.083499e-02, -2.630186e-34, 1.166237e-02, 2.159379e-03, -6.064150e-03, 9.584979e-04, 7.242849e-02, 3.769064e-03, 1.942686e-02, -4.040051e-02, 3.274618e-02, -3.195369e-02, 4.137320e-02, 4.151252e-02 }, { 5.353368e-34, -3.394168e-03, -3.479059e-02, -1.395703e-34, 4.502181e-03, 5.897251e-03, -7.322204e-03, 1.801475e-02, 3.105743e-02, -1.191839e-03, -5.455323e-03, -2.712881e-03, 2.016025e-02, -2.886134e-02, 3.968648e-02, 4.053944e-02 }, { -4.485929e-36, 1.329220e-03, -4.581260e-02, -4.933427e-34, 1.200874e-02, 1.110667e-02, -1.649285e-02, 1.241746e-02, 4.189250e-02, -1.341399e-02, 1.847974e-02, -1.482326e-02, 1.684189e-02, -3.892346e-02, 4.163693e-02, 4.848102e-02 }, { 2.599181e-34, 2.508316e-03, -2.984899e-02, -5.314904e-35, -5.773261e-02, 2.135206e-02, 1.045555e-01, 5.921622e-02, -3.160683e-02, -3.268978e-02, -1.388206e-02, 2.555496e-02, 8.814135e-04, -7.044451e-03, 1.043795e-01, 3.302148e-02 }, { -4.654058e-34, -7.952859e-02, 1.115702e-02, 2.713674e-34, 1.684458e-02, -1.536235e-02, 1.002028e-01, -4.382581e-03, 1.088213e-01, 5.377277e-02, 2.988610e-02, 9.177051e-03, 7.191809e-02, 9.939576e-02, 8.329111e-02, -1.016831e-02 }, { 1.198588e-34, -2.392315e-02, -2.171312e-02, -3.965772e-34, 6.109494e-03, -3.067196e-02, 4.478118e-02, 1.723196e-02, 5.817477e-03, -2.270302e-02, 5.715042e-02, 2.008120e-03, -4.369378e-02, 5.169496e-03, 7.869099e-02, 8.923669e-03 }, { 3.554140e-34, 1.090109e-02, -3.523830e-02, -1.599739e-34, 1.019428e-02, 7.267245e-03, -7.288867e-03, 1.585450e-02, 2.863337e-03, -1.438764e-02, -8.028720e-03, 1.017059e-02, 1.408196e-02, -2.866146e-02, 3.631008e-02, 2.875065e-02 }, { -9.901598e-35, 9.190755e-03, -5.511423e-02, 2.947454e-34, 1.705504e-02, 1.957858e-02, -1.660498e-02, 2.157978e-02, 1.672082e-02, -2.591547e-02, 1.386093e-02, 5.781191e-03, 3.987079e-03, -4.380018e-02, 4.017141e-02, 4.623364e-02 }, { 1.479921e-34, -2.130665e-03, -4.445869e-02, -1.204763e-34, 1.741666e-02, 1.225035e-02, -2.697699e-02, 1.398498e-02, 1.256061e-02, -2.456689e-02, 9.036723e-03, 1.040058e-02, 8.043992e-03, -3.819433e-02, 3.927896e-02, 2.553446e-02 }, { 1.546029e-34, 2.795175e-03, -4.740322e-02, -1.889488e-34, 1.376247e-02, 1.167092e-02, -1.801753e-02, 1.121233e-02, 4.276461e-02, -1.531879e-02, 2.274788e-02, -1.738216e-02, 1.556455e-02, -3.920475e-02, 4.341213e-02, 5.258244e-02 }, { -4.968878e-34, -6.533621e-02, -9.681017e-03, 5.798520e-34, 5.279246e-02, -6.170982e-02, -7.981587e-02, -3.936287e-02, 9.963021e-02, 9.036239e-03, 1.198338e-02, -2.362787e-02, 1.311086e-01, 1.076202e-01, 2.154399e-02, -2.911075e-02 }, { -4.171377e-34, 8.367157e-03, -4.656271e-02, 5.352508e-34, -4.507293e-03, -3.020787e-02, 1.765270e-02, -1.545407e-02, -3.576130e-02, -3.648260e-03, 5.739158e-02, -3.610057e-02, -2.494380e-02, 2.606617e-02, 3.057714e-02, -1.149889e-02 }, { 1.767053e-34, 2.700482e-03, -4.014349e-02, -2.460760e-34, 2.013714e-02, -4.135381e-03, -1.862582e-02, 5.485265e-02, -1.189953e-01, -8.075853e-02, -8.087300e-02, 5.366787e-02, 3.964533e-02, -1.999497e-02, 3.374268e-02, 8.194719e-03 }, { -5.122001e-34, 7.709817e-03, -2.754269e-02, -1.188075e-34, -2.536813e-03, -9.334121e-03, -8.385119e-03, 2.135422e-02, -6.908315e-02, -3.788985e-02, -2.727028e-02, 3.680081e-03, 1.109103e-02, 1.948802e-03, 1.161965e-02, -2.078099e-04 }, { -2.367081e-34, -1.085605e-03, -3.180102e-02, -4.958900e-34, 1.725310e-03, -8.830572e-03, -6.708439e-03, 1.717255e-02, -1.814663e-02, -1.914306e-02, -1.924739e-02, 1.568499e-02, 7.383817e-03, -2.299379e-02, 1.878762e-02, 3.432430e-02 }, { 5.327765e-34, -6.383685e-03, -4.198884e-02, 5.379694e-34, 9.212883e-04, -2.932989e-02, 2.309306e-02, -1.520640e-02, -1.791218e-02, -1.574113e-03, 5.474540e-02, -3.049492e-02, -2.772895e-02, 1.891486e-02, 3.769404e-02, -8.552114e-03 }, { 3.309708e-34, 1.340011e-02, -2.935260e-02, 1.914645e-34, 1.114747e-02, 2.373003e-02, 2.518257e-02, -8.694788e-03, 6.666901e-03, 1.494434e-02, 1.969635e-02, -1.464236e-02, -5.452843e-03, -1.594815e-02, 3.124216e-02, 4.349294e-02 }, { 2.146767e-34, 2.212289e-03, -2.772682e-02, -2.444958e-34, 1.851837e-02, -5.259040e-06, -2.360743e-03, 1.180114e-02, -1.448252e-02, -1.712989e-02, -1.899946e-02, 1.462560e-02, 1.295233e-02, -2.078858e-02, 2.429716e-02, 3.046940e-02 }, { -1.523467e-34, 2.498247e-03, -3.261844e-02, -2.011969e-34, 2.952209e-03, 5.381383e-03, 4.208635e-03, 1.099919e-02, -6.897303e-03, -8.888979e-03, 4.423365e-03, -6.123182e-03, -4.688366e-03, -2.197144e-02, 1.908387e-02, 4.183905e-02 }, { -2.620923e-34, 1.308335e-02, -2.810663e-02, -2.547866e-34, -6.462453e-03, -1.169021e-03, -6.905484e-03, 3.551967e-02, -8.184057e-02, -5.752921e-02, -4.432812e-02, 1.807959e-02, 2.700897e-02, 4.542156e-04, 2.185344e-02, 1.009049e-02 }, { 4.097808e-34, -1.014652e-02, 2.843061e-02, -3.119073e-35, 9.368740e-02, 8.518426e-03, -1.581250e-02, -4.798318e-02, 5.257345e-02, -1.180510e-03, 4.537837e-02, 4.192236e-02, 9.579870e-02, 7.226454e-02, 7.000189e-02, 7.959792e-03 }, { -2.203501e-34, -4.719657e-03, -4.056860e-02, 1.563225e-35, 2.730527e-03, -2.638521e-02, 2.342851e-02, -1.129325e-02, -2.280117e-02, -1.258599e-03, 4.492746e-02, -2.964270e-02, -2.528978e-02, 1.366712e-02, 3.445911e-02, -1.031128e-02 }, { -5.408253e-34, 2.138908e-04, -2.041382e-02, -2.288605e-34, 2.973043e-02, -1.007532e-02, -2.593189e-03, 7.585529e-03, -2.383925e-02, -2.440383e-02, -2.379924e-02, 2.408848e-02, 1.388245e-02, -1.749080e-02, 1.513102e-02, 2.920222e-02 }, { 2.924253e-34, 2.470782e-03, -3.440175e-02, 4.087554e-35, 1.526070e-02, -1.608451e-03, 1.841455e-03, 8.267604e-03, -1.999134e-02, -9.372801e-03, 1.311908e-03, 9.431361e-03, -7.501416e-04, -2.724085e-02, 7.956253e-03, 3.187899e-02 }, { -5.710464e-34, -8.585793e-04, -3.041542e-02, -5.413968e-34, -3.405151e-03, -1.108358e-02, -6.946589e-03, 1.628605e-02, -1.880155e-02, -1.664942e-02, -1.828879e-02, 1.563295e-02, 6.189989e-03, -2.227908e-02, 1.607181e-02, 3.347649e-02 }, { -1.873891e-34, 1.512624e-03, -3.481160e-02, -1.610739e-34, 5.529189e-03, 6.086865e-03, 4.869146e-03, 9.194845e-03, -3.245583e-03, -8.618021e-03, 1.062148e-02, -9.831022e-03, -9.777177e-03, -2.267808e-02, 1.780738e-02, 4.406682e-02 }, { 1.850356e-34, 5.117361e-03, -1.576092e-04, -3.704825e-34, 1.358681e-01, 1.954662e-02, -1.797545e-02, -4.983045e-02, 7.463347e-02, 6.527162e-02, 5.502434e-02, -1.222024e-02, 6.197603e-02, 5.041200e-02, 3.711773e-02, 2.729315e-02 }, { -2.001798e-34, 1.581009e-02, -3.097487e-02, 2.226257e-34, -2.770989e-02, -4.877674e-03, 1.183868e-02, -3.916813e-02, -4.335178e-02, 1.938544e-02, 5.344438e-02, -1.154245e-02, 2.272383e-02, 4.422386e-02, 3.889535e-03, -1.404826e-02 }, { -2.677257e-34, 1.164091e-04, 5.829136e-04, 4.036299e-34, 4.462048e-02, -3.329833e-05, -4.806155e-02, 1.195563e-02, -1.111212e-01, -2.718367e-02, -4.788530e-02, 3.533593e-02, 2.620239e-02, 6.304746e-03, -1.997689e-02, 2.294187e-03 }, { 3.758847e-34, 2.736177e-02, -7.619307e-03, 3.799341e-34, 1.446316e-02, -1.495284e-03, -2.580307e-02, -1.882747e-02, -6.971879e-02, -1.022639e-02, -4.117674e-03, 1.825447e-02, 1.587636e-02, 1.766981e-02, -2.374408e-02, -7.078636e-03 }, { -3.955290e-34, -7.619333e-03, -2.120380e-02, 4.982819e-34, 2.467098e-02, 5.702743e-03, 1.829011e-02, 1.359379e-02, 7.812952e-03, -1.375394e-02, -4.970022e-03, 2.426439e-02, 1.216988e-03, -1.942767e-02, 4.044256e-03, 2.737524e-02 }, { -6.183475e-35, 4.495673e-03, -3.183235e-02, 1.068504e-34, -2.221853e-02, -7.514713e-03, 1.706462e-02, -3.099913e-02, -2.657855e-02, 2.279959e-02, 4.989559e-02, -2.400801e-02, 1.228800e-02, 3.723136e-02, 1.234686e-02, -1.398685e-02 }, { -4.306622e-34, 2.535200e-02, -3.766563e-03, 6.179506e-35, 3.178409e-02, 4.368536e-03, 4.648116e-03, -2.245701e-02, -2.749147e-02, -1.046380e-02, 2.633482e-02, 1.201470e-02, 1.555001e-02, 1.067257e-02, 8.510564e-03, 1.424404e-02 }, { -4.871133e-34, 1.628183e-02, -5.432985e-03, 1.585679e-34, 3.111114e-02, 5.393674e-03, -2.455510e-03, 5.442770e-04, -1.038262e-02, -2.767072e-02, -3.092760e-03, 2.567577e-02, 1.223047e-02, -9.717873e-03, 3.919618e-03, 2.153332e-02 }, { -7.592267e-35, 1.569359e-02, -1.859639e-02, -4.916709e-34, 2.075703e-02, 6.770916e-03, 1.770834e-02, -7.562524e-03, -2.744088e-03, -1.320423e-02, 1.637254e-02, 1.877535e-02, 7.278470e-03, -1.455475e-02, -2.158551e-03, 2.119934e-02 }, { 2.792387e-34, 3.965375e-02, -4.677048e-03, -1.599881e-34, 3.066661e-02, 5.674002e-03, -3.805846e-02, -1.104207e-02, -9.431861e-02, -1.996058e-02, -1.838185e-02, 2.541626e-02, 2.296796e-02, 1.396137e-02, -2.173735e-02, -7.109545e-04 }, { -2.926117e-34, 6.794935e-02, 8.227976e-02, 4.414457e-34, 7.026567e-02, 5.511650e-02, -7.213760e-02, -4.118731e-02, -2.621063e-02, 1.403902e-02, 4.383451e-02, 2.532205e-02, 8.465588e-02, 7.137954e-02, 2.470948e-02, 2.558995e-02 }, { -1.806553e-34, 3.811538e-03, -3.090565e-02, -3.753261e-34, -2.929932e-02, -8.303645e-03, 1.674769e-02, -2.538284e-02, -2.283723e-02, 1.807692e-02, 4.296210e-02, -2.277314e-02, 1.534864e-02, 3.602116e-02, 8.360722e-03, -7.519301e-03 }, { -1.557967e-34, -1.523925e-02, -1.060782e-03, -2.030010e-34, 2.443387e-02, 8.841969e-03, 6.959014e-03, 9.552890e-03, -4.530682e-03, -1.615805e-02, -8.247579e-03, 2.441540e-02, 5.031526e-04, -1.628442e-02, -2.613097e-03, 1.779135e-02 }, { -1.039942e-34, 3.631459e-03, -1.477927e-02, 1.067194e-34, 7.068283e-03, 1.571662e-02, 2.053967e-02, 3.223959e-03, -1.238737e-04, -1.530989e-02, 9.252034e-03, 2.798026e-02, 4.220590e-03, -1.960100e-02, -1.270558e-02, 2.528772e-02 }, { 9.173983e-35, -1.372380e-02, -2.425024e-02, 4.557620e-34, 1.911425e-02, 6.388187e-03, 2.302593e-02, 1.828455e-02, 1.036426e-02, -9.741914e-03, -6.164400e-03, 2.382980e-02, -1.041932e-03, -2.104443e-02, 4.344987e-03, 2.817881e-02 }, { -8.458273e-36, 1.632758e-02, -1.859470e-02, 5.290845e-34, 1.900079e-02, 9.219501e-03, 1.980973e-02, -1.143902e-02, -2.193805e-03, -1.301289e-02, 2.213888e-02, 1.698731e-02, 8.087757e-03, -1.320393e-02, -2.582102e-03, 2.164952e-02 }, { 3.540857e-34, 3.781576e-02, 8.266035e-02, 2.418201e-34, 1.123963e-01, 2.799109e-02, -6.130540e-02, -6.683134e-02, -8.010245e-04, 1.088987e-02, 5.882132e-02, 4.467641e-02, 7.031645e-02, 7.275287e-02, 1.617459e-02, -5.666234e-03 }, { 2.925992e-34, -1.580942e-02, -1.666797e-02, -2.836084e-34, -5.347572e-02, 1.411802e-03, -3.996083e-03, -4.218721e-02, -1.146964e-02, 3.755441e-02, 5.372835e-02, 1.292070e-02, 2.621167e-02, 4.457681e-02, -2.622293e-02, -3.612496e-02 }, { 2.591649e-34, 6.324961e-04, 3.611531e-02, -3.161242e-34, 6.485938e-02, -1.358168e-02, -4.418857e-02, 9.664683e-03, -9.297664e-02, 4.143639e-03, -3.800238e-02, 4.631898e-02, 7.120430e-03, -1.854657e-02, -2.281511e-02, -1.951613e-02 }, { -1.169579e-34, -7.594650e-03, 1.627776e-02, 5.275622e-34, 1.693674e-02, -1.229156e-02, -2.886187e-02, -7.030819e-03, -4.535436e-02, 5.066055e-03, -1.405189e-02, 3.344631e-02, 7.543712e-03, 1.472937e-02, -3.376493e-02, -3.177682e-02 }, { 5.350901e-34, -9.400728e-03, 3.618540e-03, -2.875067e-34, -5.673686e-04, -1.121564e-03, -1.191991e-03, 2.610014e-03, 1.027046e-02, -7.103652e-03, -8.875548e-03, 1.956312e-02, 1.626941e-03, -1.422592e-02, -1.106923e-03, 2.264009e-02 }, { 1.575293e-34, -1.232717e-02, -2.353941e-02, 1.093065e-34, -4.730196e-02, 7.848202e-03, 2.078726e-03, -3.757986e-02, -1.715307e-02, 2.997331e-02, 5.255383e-02, 8.042551e-03, 2.522244e-02, 3.570856e-02, -1.170308e-02, -2.759437e-02 }, { 3.897165e-34, 2.105719e-02, 1.237932e-02, -4.829851e-34, 1.597261e-02, 1.362608e-02, -1.391028e-02, -1.783797e-02, -3.923843e-02, -8.891199e-03, 1.450990e-02, 4.237627e-02, 6.788619e-03, -1.171487e-02, -2.907403e-02, 4.000108e-03 }, { 3.144694e-34, -4.662719e-03, 1.657048e-02, 5.305576e-34, 2.361669e-02, 5.076061e-03, 2.361102e-03, 7.292881e-03, -9.811073e-03, -3.957017e-03, -5.144886e-03, 2.407172e-02, 1.497119e-04, -1.508313e-02, -5.172381e-03, 1.941530e-02 }, { 1.710331e-35, -1.116557e-02, 3.738797e-03, -4.293454e-34, -2.064209e-03, 3.397939e-03, -2.833166e-03, -3.155974e-03, 1.226312e-03, -6.865482e-03, 5.421218e-03, 2.413697e-02, 1.572014e-03, -1.473546e-02, -1.913909e-02, 1.570400e-02 }, { 3.255834e-34, -1.003221e-02, 2.397888e-02, -1.003443e-34, 3.732495e-02, -1.301461e-02, -4.136809e-02, -4.840010e-03, -7.671709e-02, 5.571025e-03, -2.075673e-02, 4.062079e-02, 7.517340e-03, 1.084280e-02, -3.405214e-02, -3.227963e-02 }, { 4.378597e-34, -4.356486e-02, 5.301100e-02, -2.732872e-34, 6.435615e-02, 4.729628e-02, -1.110828e-01, -1.059220e-01, -8.800003e-02, 5.569733e-02, 5.145760e-02, 6.937227e-02, 3.741412e-02, 5.934379e-02, 3.026254e-02, -3.074724e-02 }, { 5.797571e-34, -1.094293e-02, -2.114759e-02, 4.048628e-34, -4.043695e-02, 4.065817e-03, 2.393843e-03, -3.465013e-02, -7.323665e-03, 2.343681e-02, 4.466556e-02, 2.436954e-03, 1.943796e-02, 2.840752e-02, -1.166503e-02, -2.206294e-02 }, { -1.383771e-34, -1.642758e-03, 2.107324e-02, -4.981220e-34, 1.127558e-02, 1.439032e-02, -2.825114e-04, 1.339380e-02, -2.368641e-02, -5.223510e-03, -1.751812e-02, 1.764326e-02, 7.721246e-03, -9.254682e-03, 4.040977e-03, 2.658042e-02 }, { 4.596735e-34, -5.857095e-03, 3.444876e-03, -3.398228e-34, -1.331878e-02, 1.323772e-02, 1.642805e-02, 5.079693e-03, 1.226038e-02, -8.252480e-03, -1.399531e-02, 2.269713e-02, 3.414571e-03, -1.182253e-02, -1.836341e-02, 1.584367e-02 }, { 5.727384e-34, -1.189950e-02, 8.505759e-04, -2.799798e-34, -8.270617e-03, -2.184558e-03, -2.876667e-03, -9.241454e-05, 1.253032e-02, -7.379273e-03, -1.010120e-02, 1.719697e-02, 2.911720e-03, -1.223576e-02, 6.901129e-04, 2.154782e-02 }, { -2.966090e-34, -8.439414e-03, 4.257694e-03, 4.104510e-34, -1.004083e-02, 7.195711e-03, -1.252454e-04, -4.040536e-03, 1.394465e-03, -7.524707e-03, 7.646796e-03, 2.418525e-02, 1.031404e-03, -1.327888e-02, -2.347656e-02, 1.589936e-02 }, { -5.101454e-34, 1.555443e-02, 6.963950e-02, 5.467442e-34, 7.849360e-02, 2.428639e-02, -1.038636e-01, -7.489369e-02, -1.300955e-02, 3.043343e-02, 5.204840e-02, 5.990421e-02, 5.891873e-02, 2.528341e-02, 4.748710e-02, 6.896636e-03 }, { -1.323086e-34, -7.351039e-03, 1.908327e-02, -5.087941e-34, -5.924265e-02, 3.369600e-03, -2.680338e-02, -5.891596e-02, 4.985458e-02, 2.783805e-02, 3.213505e-02, 8.862651e-03, 4.128576e-02, 5.808867e-02, 1.730341e-02, -3.711310e-02 }, { -5.419930e-34, -1.250930e-02, 6.575766e-02, 5.169046e-34, 5.482528e-02, -1.728936e-02, -1.631838e-02, 3.107194e-02, -6.468914e-02, 8.206134e-03, -2.394611e-02, 5.275559e-02, 1.313554e-02, -3.612790e-02, -2.687090e-02, 1.534162e-03 }, { 2.783104e-34, 7.874468e-03, 3.921597e-02, -1.356478e-34, 2.142757e-02, -2.634767e-03, -1.866367e-02, -7.912329e-03, -1.587377e-02, 1.113857e-02, -1.388768e-02, 2.785736e-02, 1.052745e-02, -9.461395e-03, -1.616625e-02, -1.681081e-02 }, { -8.538350e-35, -1.571697e-02, 2.950879e-03, -5.143366e-34, 4.924289e-03, 2.404738e-02, 2.662439e-02, 3.146177e-02, -2.337160e-02, 1.063970e-02, -2.237089e-02, 3.576888e-02, 2.356270e-02, -2.843348e-02, -1.164560e-02, 2.827902e-02 }, { 3.548417e-34, -1.487787e-02, 7.606973e-03, 2.805262e-34, -5.090585e-02, 2.828841e-03, -1.035103e-02, -4.924649e-02, 4.910214e-02, 2.744929e-02, 3.861374e-02, 7.144788e-03, 3.132166e-02, 5.676974e-02, 1.693666e-02, -2.819808e-02 }, { -6.546118e-35, 2.432371e-02, 2.236455e-02, -1.760876e-34, 3.189351e-02, 3.278879e-02, -1.622937e-02, 2.375906e-03, -2.537106e-02, -1.203029e-02, 3.608725e-03, 1.758567e-02, 7.972958e-03, 2.613564e-03, -1.336026e-02, 3.157059e-03 }, { -3.533713e-34, -1.921424e-03, 2.180546e-02, 7.395626e-35, 2.509356e-02, 2.987887e-02, 4.595553e-03, 2.031742e-02, -2.196770e-02, -9.774202e-03, -1.673548e-02, 2.383257e-02, 1.619370e-02, -1.633789e-02, 1.511801e-03, 2.309085e-02 }, { -4.073814e-34, 3.767025e-03, 8.628963e-03, -1.480377e-34, 1.130869e-02, 3.533322e-02, 7.330412e-03, 1.505461e-02, -2.081397e-02, 3.577620e-04, -1.778062e-02, 2.582895e-02, 2.121194e-02, -1.502424e-02, -1.569729e-02, 1.886117e-02 }, { -7.209675e-35, 1.822837e-02, 5.585657e-02, 5.144458e-34, 4.950443e-02, -2.583886e-03, -3.587898e-02, 4.606866e-03, -4.079735e-02, 2.267174e-03, -2.070324e-02, 3.416600e-02, 1.221553e-02, -1.092941e-02, -1.516044e-02, -1.765831e-02 }, { -4.029944e-34, 6.233469e-03, 8.394486e-02, -4.670891e-34, 1.060644e-01, 3.561833e-03, -1.207820e-01, -6.491748e-02, -3.297074e-02, 2.610041e-02, 4.232404e-02, 1.433901e-02, 3.804094e-02, 7.657057e-02, 1.277146e-02, -6.611058e-02 }, { 4.002106e-34, -1.544709e-02, 1.266268e-02, -3.636968e-34, -5.929537e-02, 3.780985e-03, -1.157387e-02, -4.114974e-02, 4.114229e-02, 2.482517e-02, 2.931799e-02, 7.410844e-03, 3.516658e-02, 5.403542e-02, 1.015777e-02, -2.292660e-02 }, { 3.402899e-34, -2.855153e-02, -9.829435e-04, 5.038060e-34, 3.447735e-02, 1.724157e-02, 1.624059e-02, 2.208169e-02, -7.891635e-03, -2.554008e-03, -1.500703e-02, 3.430261e-02, 5.496683e-03, -2.969507e-02, -2.232985e-03, 2.046557e-02 }, { -1.634015e-34, -1.581663e-02, -2.667528e-03, -1.485733e-34, -2.987797e-03, 4.078066e-02, 3.402624e-02, 1.165325e-02, -4.468600e-03, 9.612263e-03, -2.664796e-02, 3.365733e-02, 1.897824e-02, -3.064883e-02, -2.334229e-02, 2.189409e-02 }, { -3.935257e-34, -2.009818e-02, -6.802553e-05, -4.670003e-34, -1.491083e-03, 2.160390e-02, 2.980863e-02, 3.159808e-02, -2.263102e-02, 1.528726e-02, -2.250618e-02, 3.572025e-02, 2.528012e-02, -2.797490e-02, -1.433364e-02, 2.878350e-02 }, { 1.775031e-34, 3.441403e-03, 6.337956e-03, 4.127859e-35, 8.551480e-03, 3.903870e-02, 8.584963e-03, 1.182306e-02, -1.595642e-02, 9.931499e-05, -1.787059e-02, 2.635529e-02, 2.144049e-02, -1.415557e-02, -1.719358e-02, 1.701265e-02 }, { -3.522194e-34, -1.289384e-02, 9.248157e-02, -2.231052e-36, 8.666783e-02, 5.615384e-03, -7.893003e-02, -5.496014e-02, -1.230215e-03, 3.946583e-02, 4.874099e-02, 3.758210e-02, 2.995717e-02, 4.021687e-02, -1.521177e-03, -1.745388e-02 }, { -1.307737e-37, 2.046245e-02, 4.100515e-02, 4.683476e-34, -3.155195e-02, -6.848886e-03, -1.270201e-02, -4.342411e-02, 3.459062e-02, 1.693400e-02, 1.450142e-02, 2.580227e-02, 4.306424e-02, 5.923679e-02, 1.501920e-03, -3.312666e-02 }, { 4.044544e-35, -1.920666e-02, 3.944837e-02, -5.953768e-35, 2.129695e-02, -1.195552e-02, -9.814578e-03, 2.506766e-02, -4.091775e-02, -2.416389e-03, -7.056341e-03, 1.019301e-02, 1.105529e-02, -5.637483e-02, -3.080826e-02, 3.682543e-02 }, { -4.988714e-34, -2.258951e-03, 4.207621e-02, 3.441923e-34, 4.709876e-03, -1.124127e-02, -7.696291e-03, -2.710525e-03, -9.501063e-03, 1.292648e-03, -7.830688e-03, 1.512259e-02, 1.335123e-02, -9.357046e-03, -3.697917e-02, -7.860786e-03 }, { 3.850485e-34, -3.405993e-02, -8.333373e-03, -3.476318e-36, -1.434344e-02, 1.197066e-02, 8.013654e-03, 8.155622e-04, -9.920258e-03, 4.518169e-03, -1.033497e-02, -3.799087e-03, 1.672934e-02, -1.075158e-02, -1.404966e-02, 1.504606e-02 }, { 4.280137e-34, 1.193868e-02, 2.729290e-02, -6.444726e-35, -3.817391e-02, -2.229553e-03, -1.789059e-02, -3.906047e-02, 3.582357e-02, 2.047801e-02, 1.847799e-02, 2.396437e-02, 4.177207e-02, 5.330556e-02, 2.940424e-02, -2.433729e-02 }, { 1.068565e-34, -1.296976e-02, 4.002858e-03, -4.608643e-34, 1.858092e-02, 1.217852e-02, -2.940476e-02, -3.211893e-02, -5.302852e-03, 9.349718e-03, -5.538567e-03, 3.829998e-02, 1.442444e-02, -5.975386e-03, -1.711973e-02, -1.070766e-02 }, { -1.337728e-34, -2.205967e-02, -5.532795e-03, 2.928092e-34, -2.134669e-03, 1.407275e-02, 4.369963e-04, 2.023909e-03, -1.962841e-02, -9.387458e-03, -5.363248e-03, 5.068111e-03, 2.387841e-02, -1.176367e-02, -1.105831e-02, 1.702844e-02 }, { 3.623498e-34, -2.963450e-02, -3.386487e-03, 1.238727e-34, -2.430485e-03, 1.462925e-02, -2.940641e-03, -1.421377e-02, -5.610042e-03, 1.004858e-02, -6.941772e-03, 1.969727e-02, 2.018462e-02, -5.918599e-03, -2.478249e-02, -4.025171e-03 }, { -2.286394e-34, -3.866207e-03, 5.032651e-02, 4.550042e-34, 1.600370e-02, -1.389050e-02, -2.271288e-02, -3.653945e-03, -2.006582e-02, -3.978767e-03, -3.618753e-04, 1.591281e-02, 1.505523e-02, -2.270640e-02, -4.032755e-02, -3.018222e-03 }, { 3.359738e-34, 5.369840e-02, 1.235237e-01, -4.952006e-34, 8.016212e-02, -9.881161e-03, -1.652625e-01, -1.161497e-01, -8.227287e-04, -2.597873e-02, 3.704819e-02, -1.514883e-02, 2.786752e-02, 6.145254e-02, 1.325697e-02, -6.905510e-02 }, { -2.357735e-34, 1.266330e-02, 2.947387e-02, 4.992109e-34, -3.336941e-02, 3.243527e-04, -7.997581e-03, -3.240472e-02, 3.676169e-02, 1.552135e-02, 1.158359e-02, 1.825072e-02, 3.831390e-02, 4.728124e-02, 1.949276e-02, -2.000376e-02 }, { 1.933094e-34, -2.216957e-02, -9.990850e-03, -8.108008e-35, 6.519207e-03, 8.325142e-03, 4.049498e-03, 1.028681e-02, -1.362430e-02, -5.867647e-03, -1.001923e-02, -2.633148e-03, 2.081858e-02, -1.525161e-02, -1.344504e-02, 1.814313e-02 }, { -5.152486e-34, -1.547759e-02, -1.901028e-03, 1.092503e-34, -1.757649e-02, 2.154867e-02, 1.798118e-02, 4.169199e-04, -8.424499e-03, 1.671270e-03, -2.419983e-02, -4.960540e-04, 2.782240e-02, -3.325620e-03, -3.426440e-02, -8.416275e-04 }, { 4.937255e-34, -3.570025e-02, -8.494193e-03, 4.775175e-34, -1.538076e-02, 1.053915e-02, 8.812854e-03, -1.180171e-04, -5.260891e-03, 7.733101e-03, -1.130393e-02, -7.624848e-03, 1.565916e-02, -1.009174e-02, -1.453350e-02, 1.476391e-02 }, { 3.549803e-34, -2.811666e-02, -2.312785e-03, 1.397779e-34, -3.475653e-03, 1.777199e-02, -1.923732e-03, -1.781274e-02, -4.189755e-03, 1.176250e-02, -7.818527e-03, 2.289915e-02, 2.439453e-02, -2.065725e-03, -2.976779e-02, -7.814538e-03 }, { -4.047323e-34, 1.350307e-02, 9.664055e-02, -2.114409e-34, 6.052190e-02, 1.192827e-02, -1.306321e-01, -1.030620e-01, -1.577806e-02, -2.131954e-02, 3.001415e-02, -1.419787e-02, -1.286867e-03, 5.997520e-02, 4.016342e-02, -3.441177e-02 }, { -1.775180e-34, 4.007858e-02, 5.901803e-02, -2.987544e-34, 7.235528e-03, -1.662654e-03, -1.530863e-02, -3.857756e-02, 4.142587e-02, -1.066339e-02, 2.623602e-02, -9.425353e-03, -1.223716e-04, 5.498390e-02, 1.492079e-02, -4.280350e-02 }, { 7.200603e-36, -1.027206e-02, 3.465981e-02, 5.628938e-34, -3.757377e-04, -4.106728e-03, 2.595799e-02, 4.053817e-02, -2.670890e-02, 1.274457e-02, -3.085714e-02, 7.303157e-03, -2.221888e-02, -6.045925e-02, -5.090415e-02, 3.740585e-02 }, { -1.688250e-34, 1.653313e-02, 4.810663e-02, -1.986287e-36, 2.313356e-02, -1.446414e-02, -1.699775e-04, 2.137130e-03, 4.106882e-03, -7.577421e-03, -1.682871e-02, 3.183183e-03, -1.415620e-02, -5.925149e-03, -2.729926e-02, 1.416808e-03 }, { 9.017392e-35, -1.847379e-02, -1.176952e-03, 2.848317e-34, 2.248801e-03, 4.513983e-03, 3.010582e-02, 2.173650e-02, -1.431292e-02, 8.114216e-03, -2.492315e-02, 1.686941e-03, -1.148259e-02, -1.079866e-02, -2.017709e-02, -6.140700e-03 }, { -5.022200e-34, 2.335147e-02, 4.664184e-02, 5.576544e-34, -7.393512e-03, 4.138483e-03, -1.644963e-02, -3.023124e-02, 2.927605e-02, -8.181205e-03, 2.616704e-02, -3.027887e-03, 1.229955e-03, 4.769995e-02, 2.748864e-02, -3.375701e-02 }, { 3.986030e-34, 3.547674e-02, 2.723468e-03, -6.375063e-35, 3.600920e-02, 1.008414e-03, -2.479147e-02, -1.102947e-02, -2.939899e-03, -1.997228e-02, -1.112997e-02, 6.586042e-05, 2.068751e-02, 1.941964e-03, -3.311661e-02, -1.643486e-02 }, { 2.059923e-35, 5.314573e-03, -5.048879e-03, -1.559060e-34, 1.678755e-02, 1.121004e-02, 1.022944e-02, 5.747278e-03, -2.102037e-03, -1.855745e-03, -2.249445e-02, -8.684830e-03, 6.312463e-03, -1.794095e-02, -2.540773e-02, -8.564123e-05 }, { 1.401604e-34, 8.766503e-03, 5.516227e-03, -5.442363e-34, 2.195742e-02, 6.361115e-03, 7.645242e-03, 5.784689e-03, -3.206139e-03, -8.463736e-03, -1.853022e-02, 8.440365e-04, -5.340432e-04, -6.130044e-04, -2.467261e-02, -1.519181e-02 }, { 2.822282e-34, 1.277801e-02, 4.469714e-02, 4.028223e-34, 2.677402e-02, -1.320028e-02, -5.021995e-03, 6.994376e-03, -6.378273e-03, -9.599619e-03, -2.021847e-02, 4.057765e-03, -2.051910e-02, -2.280307e-02, -3.088066e-02, 1.574160e-02 }, { 2.071033e-34, 7.859992e-03, 8.100736e-02, -3.347683e-34, 2.327764e-02, -3.367071e-02, -9.840674e-02, -1.070088e-01, 1.300595e-02, -6.410799e-02, 3.227691e-02, -5.272111e-02, 2.550513e-02, 8.685583e-02, 2.552707e-02, -3.522263e-02 }, { -1.766436e-34, 2.215195e-02, 4.969886e-02, -5.699675e-34, -1.160914e-02, 5.754752e-04, -1.432049e-02, -2.621974e-02, 2.912066e-02, -5.722761e-03, 2.243145e-02, -6.030019e-03, 1.612144e-03, 4.481360e-02, 1.530305e-02, -3.306434e-02 }, { 4.778401e-34, -6.246136e-03, -4.840728e-03, 2.273114e-34, 1.320215e-03, 2.556665e-03, 3.121961e-02, 1.439762e-02, 2.547341e-03, 1.557699e-02, -3.065646e-02, -2.255303e-03, -5.667802e-03, -1.513109e-02, -3.232490e-02, -8.845017e-03 }, { -1.549915e-34, 5.430291e-03, 1.470545e-02, 2.379430e-34, 1.168903e-02, 5.675205e-03, 2.269540e-02, 4.913393e-03, 6.682354e-03, 6.728764e-04, -2.306514e-02, -2.242173e-03, -1.239617e-02, -1.521118e-03, -3.064343e-02, -2.667394e-02 }, { -3.237611e-34, -2.221374e-02, 1.291604e-03, -4.577401e-34, -1.805938e-03, 2.631488e-03, 3.355337e-02, 2.349784e-02, -1.501233e-02, 8.743316e-03, -2.365183e-02, 2.974052e-03, -1.444015e-02, -6.192385e-03, -1.746740e-02, -8.735691e-03 }, { 4.426674e-34, 1.256756e-02, 9.062785e-03, 2.976089e-34, 2.584644e-02, 7.798334e-03, 5.565291e-03, 2.607635e-03, -8.503700e-04, -1.085246e-02, -1.916292e-02, 1.609119e-03, -1.241108e-03, 4.231951e-03, -2.698831e-02, -2.044285e-02 }, { 1.733311e-34, 3.913122e-02, 3.880691e-02, -3.218703e-34, 6.133215e-02, 1.033703e-03, -8.073698e-02, -7.264812e-02, -1.075944e-02, -1.781114e-02, 5.677429e-03, -1.909724e-02, 5.679918e-02, 4.598587e-02, 1.104703e-02, -2.348832e-02 }, { 4.505646e-34, 4.784060e-02, 7.962402e-02, 1.995679e-34, 1.073634e-02, -4.424281e-03, -2.244799e-02, -5.360694e-02, 6.329099e-02, -2.207296e-02, 9.209521e-03, -1.290549e-02, -6.879959e-03, 5.097667e-02, -1.930672e-02, -5.350142e-02 }, { -5.369636e-34, 1.175182e-02, -9.869782e-03, 6.939678e-35, -8.772337e-03, 1.225266e-03, 4.733587e-02, 5.231609e-02, -1.093436e-02, 5.188187e-02, -2.931778e-02, 1.164303e-02, 9.318954e-04, -7.239956e-02, -6.582374e-02, 2.496348e-02 }, { -1.179114e-34, 3.347784e-02, 2.792001e-02, 4.652164e-34, 5.387969e-03, -6.527244e-03, 1.728868e-02, 8.926618e-03, 2.589113e-02, 2.095973e-02, -2.444706e-02, -4.066216e-03, -1.863869e-03, -1.814756e-02, -4.915031e-02, -1.682418e-02 }, { -2.418428e-34, 6.606557e-04, -1.109756e-02, -3.726454e-34, -1.328083e-02, -1.097815e-03, 2.142241e-02, 2.157771e-02, 5.442635e-03, 2.447381e-02, -1.112462e-02, -5.735433e-03, 4.576620e-03, -1.277757e-02, -4.461386e-02, -4.194490e-02 }, { 2.863811e-34, 3.506013e-02, 6.506681e-02, 2.831929e-35, 1.262396e-02, 3.150791e-03, -1.463060e-02, -4.581350e-02, 4.434340e-02, -2.415988e-02, 1.093770e-02, -2.022155e-03, -8.751313e-04, 3.952846e-02, -4.397055e-03, -3.834172e-02 }, { 4.404966e-34, 3.246652e-02, 2.109539e-02, -5.186048e-34, 2.145429e-02, -3.816180e-03, -3.510580e-03, -3.576845e-02, 3.155487e-02, 1.342124e-02, -2.001041e-02, -1.148257e-02, -1.583263e-03, -2.215054e-03, -3.831090e-02, -2.993105e-02 }, { 2.216468e-34, -1.126859e-03, -3.504273e-03, 6.337221e-35, -8.624271e-03, -6.137368e-03, 2.576690e-02, 1.470905e-02, 1.162639e-02, 2.740298e-02, -1.809440e-02, 4.618971e-03, 1.480380e-03, -1.352743e-02, -4.130274e-02, -2.444663e-02 }, { 4.036634e-34, 2.179314e-02, 6.317493e-03, -3.890875e-34, 6.809186e-03, -2.423934e-04, 1.320433e-02, -5.997781e-03, 1.769543e-02, 1.614068e-02, -1.298354e-02, -5.383767e-03, -6.211296e-04, -3.342333e-03, -4.133001e-02, -4.697895e-02 }, { 5.064204e-34, 2.740536e-02, 1.946880e-02, 2.784394e-34, 7.342429e-03, -7.690300e-03, 1.849408e-02, 1.993086e-02, 1.452403e-02, 3.614512e-02, -3.261549e-02, 1.049940e-02, -1.818901e-03, -4.063252e-02, -5.143993e-02, -2.587758e-03 }, { 8.074246e-35, 4.982283e-02, 5.947978e-02, -1.416148e-34, 5.072298e-02, -3.140293e-02, -6.003592e-02, -5.697301e-02, 6.998800e-02, -4.348785e-02, 2.485802e-02, -5.336158e-02, -1.104036e-02, 3.121649e-02, 4.100464e-02, -5.892497e-03 }, { 4.362917e-34, 3.603517e-02, 6.033573e-02, -3.158393e-34, 7.502910e-03, 1.500014e-04, -1.267637e-02, -4.076246e-02, 4.418646e-02, -2.321112e-02, 3.542678e-03, -2.459810e-03, -3.642080e-03, 3.927079e-02, -8.424539e-03, -3.644368e-02 }, { -2.432007e-34, -2.110727e-03, -6.362665e-03, 7.331609e-35, -2.645451e-02, -5.419606e-03, 3.138981e-02, 2.242536e-02, 3.212164e-03, 2.323501e-02, -1.276257e-02, -2.298698e-03, 1.583431e-03, -6.701848e-03, -3.366143e-02, -2.273630e-02 }, { -1.443612e-34, 2.111071e-02, 1.206315e-02, 2.211731e-34, -1.806764e-02, -2.824591e-03, 2.080666e-02, 8.652626e-03, 2.422668e-02, 1.315313e-02, -1.766751e-02, -1.167051e-02, -5.836921e-03, 7.118930e-03, -5.192451e-02, -6.335242e-02 }, { -3.905925e-34, 3.246229e-05, -1.053601e-02, 2.683854e-34, -1.708689e-02, -2.236864e-03, 1.613506e-02, 2.235285e-02, 5.128836e-03, 2.125475e-02, -9.613505e-03, -7.744144e-03, 3.782959e-03, -9.902141e-03, -4.178001e-02, -4.370255e-02 }, { -3.936859e-34, 2.859716e-02, 1.199446e-02, -1.898374e-34, 8.174634e-03, 3.882628e-05, 1.288777e-02, -9.514540e-03, 2.271589e-02, 1.258367e-02, -1.271231e-02, -6.290405e-03, -2.988715e-03, 2.524868e-03, -4.452525e-02, -5.284328e-02 }, { 2.658167e-34, 4.820000e-02, 4.605829e-02, -3.885101e-36, 6.040867e-02, 7.820733e-03, -6.627064e-02, -1.174422e-01, 8.892198e-02, -4.334122e-02, 4.318346e-02, -1.171623e-01, 2.550303e-02, 5.758151e-02, 3.699404e-02, 9.951917e-03 }, { 4.729296e-34, 4.242494e-02, 7.278126e-02, -4.644268e-35, -1.367784e-02, -2.590871e-02, -1.073155e-02, -3.259628e-02, 5.803939e-02, -8.632353e-03, 1.199612e-02, -2.424615e-02, -8.151234e-03, 7.960723e-02, -1.022816e-02, -4.875046e-02 }, { -1.417285e-34, -4.342054e-03, -4.046478e-02, 7.419004e-35, -7.648071e-03, 1.770021e-02, 4.137423e-02, 3.230733e-02, 2.690198e-02, 4.233130e-02, 4.465772e-03, -1.392327e-02, -9.920727e-03, -7.657505e-02, -5.656978e-02, 3.904498e-02 }, { 2.575118e-34, 1.807640e-02, 6.599490e-03, -1.618539e-34, 3.038710e-03, -1.556608e-02, 9.122614e-03, 8.112243e-04, 3.908488e-02, 3.470198e-02, -5.729937e-03, -1.688087e-02, -7.814084e-03, -7.968430e-03, -4.107347e-02, -6.737910e-03 }, { -9.809358e-35, -1.751551e-03, -2.712076e-03, 5.569857e-34, -1.916150e-02, 1.673173e-03, 2.181190e-02, 1.555550e-02, 2.440703e-02, 1.592328e-02, -6.602895e-03, 3.384737e-03, -1.244258e-02, -1.398897e-02, -3.028797e-02, -1.999873e-02 }, { 3.903717e-34, 2.754094e-02, 6.147743e-02, -1.778148e-34, -1.076537e-02, -1.130483e-02, -6.369343e-03, -3.001853e-02, 4.601124e-02, -1.361211e-02, 1.903064e-02, -2.103361e-02, -6.579661e-03, 6.280778e-02, -6.392918e-04, -3.832298e-02 }, { 3.923231e-34, 2.802663e-02, 3.451950e-02, 4.401745e-34, -8.654417e-03, -1.060868e-02, -4.295079e-03, -1.236094e-02, 2.117759e-02, -5.550309e-03, -1.948959e-02, -5.570801e-03, -1.389358e-02, 2.033843e-02, -1.640755e-02, -4.500716e-02 }, { 5.512588e-34, -2.947060e-03, -6.518337e-03, 1.909840e-34, -2.254437e-02, 7.776438e-03, 1.558492e-02, 7.079970e-03, 2.587858e-02, 1.558262e-02, -5.916144e-03, -5.004197e-03, -3.281140e-03, -1.444843e-02, -1.642621e-02, -2.215311e-02 }, { -3.786996e-34, 2.050173e-02, 1.672042e-02, 1.300938e-34, -1.091169e-02, -8.087883e-03, 4.465435e-03, -1.489018e-03, 2.499669e-02, 9.541669e-03, -1.352481e-02, -1.858690e-03, -1.474070e-02, 6.180002e-03, -2.495849e-02, -3.750126e-02 }, { -5.471486e-34, 1.317644e-02, 7.676730e-04, -4.733004e-34, -6.990488e-05, -8.610231e-03, 8.642469e-03, 9.071209e-04, 3.802863e-02, 3.495667e-02, -6.744953e-03, -2.594265e-02, -5.427702e-03, -2.617404e-02, -3.637709e-02, 6.158180e-03 }, { -5.637511e-34, 1.568205e-02, 8.977155e-02, 3.446452e-34, -2.309114e-03, -2.454265e-02, -6.403082e-02, -8.000058e-02, 5.674993e-03, -4.955614e-02, -7.864798e-03, -7.107524e-02, 2.212662e-02, 5.497865e-02, 6.787460e-02, -4.461358e-02 }, { 2.144371e-34, 3.499163e-02, 6.039220e-02, 5.015602e-34, -1.594167e-02, -1.140841e-02, -2.085110e-03, -2.400518e-02, 4.416363e-02, -5.362011e-03, 1.244346e-02, -1.708437e-02, -7.631440e-03, 6.195002e-02, -8.711274e-03, -3.684486e-02 }, { -1.827537e-34, -4.992751e-03, -1.024555e-02, 3.593029e-34, -2.157364e-02, 3.876507e-03, 2.776283e-02, 1.306108e-02, 2.397050e-02, 1.746150e-02, -3.056712e-03, 7.693538e-03, -1.108185e-02, -2.033203e-02, -2.621992e-02, -1.362225e-02 }, { -1.531918e-34, 1.442010e-02, 1.290057e-02, 2.610082e-34, -1.789301e-02, -1.206719e-02, 1.352465e-02, 7.033360e-03, 3.470803e-02, 2.374889e-02, -1.053999e-02, 8.358261e-03, -1.123698e-02, 1.100362e-03, -4.016183e-02, -4.608598e-02 }, { 5.072240e-34, 5.847057e-04, -1.055897e-03, 1.232387e-34, -2.045478e-02, -2.565457e-04, 2.341947e-02, 1.739763e-02, 2.425829e-02, 1.401803e-02, -6.374371e-03, 4.141183e-03, -1.604208e-02, -1.297960e-02, -3.205769e-02, -1.801995e-02 }, { 2.395397e-35, 2.782507e-02, 2.337108e-02, -8.506573e-35, -8.752117e-03, -9.975893e-03, 3.515408e-03, -3.746297e-03, 2.899403e-02, 6.517565e-03, -1.552372e-02, -2.371787e-03, -1.771754e-02, 1.158976e-02, -2.923027e-02, -4.424653e-02 }, { -5.252475e-34, -1.128295e-02, 3.074683e-02, 5.218746e-34, 3.507138e-02, -8.623477e-03, -3.040374e-02, -5.973672e-02, -2.349809e-02, -4.700973e-02, -7.207818e-03, -4.208916e-02, -2.021343e-02, 4.664025e-02, 4.963363e-02, -1.568307e-02 }, { -2.288108e-34, 4.685982e-02, 5.845622e-02, -3.176870e-34, -1.864763e-02, -1.902330e-02, -2.963736e-02, -1.713553e-02, 3.665336e-03, -1.616367e-02, 3.412940e-03, 1.237805e-03, -3.133154e-02, 6.480798e-02, -2.239984e-02, -6.209047e-02 }, { 1.191901e-34, -3.070545e-02, -6.536728e-02, -5.319144e-34, -1.109573e-02, 8.235282e-04, 5.351122e-02, 4.410971e-02, 7.526144e-03, 3.529310e-02, -4.470408e-05, -7.860217e-04, -6.015348e-03, -8.384445e-02, -5.605276e-02, 6.047041e-02 }, { 2.688058e-34, 1.018080e-02, -1.316590e-02, -4.305824e-34, 3.423106e-03, -1.456890e-02, 9.543875e-03, 1.750672e-02, 3.380502e-03, 1.539885e-02, -8.048150e-03, 1.623024e-03, -8.773251e-03, -1.284355e-02, -4.592294e-02, 4.788426e-04 }, { 1.178571e-34, -1.087743e-02, -1.201892e-02, 1.524589e-34, -4.418669e-02, -8.447680e-03, 1.076088e-02, 1.106356e-02, 5.939657e-03, 2.034964e-02, -8.863769e-03, 1.295132e-02, -4.674183e-03, -1.824938e-02, -2.279381e-02, -2.193199e-02 }, { -4.514519e-34, 3.831439e-02, 5.190092e-02, 6.487394e-35, -1.616057e-02, -1.567369e-02, -3.406494e-02, -1.629107e-02, 6.880021e-03, -1.934398e-02, 5.455955e-03, -6.986655e-03, -2.367924e-02, 5.997092e-02, -3.103857e-03, -4.534307e-02 }, { 4.510002e-35, 2.931353e-02, 2.817405e-02, 2.400881e-34, -6.309383e-03, -4.136993e-02, -1.570115e-02, 1.703803e-03, 3.426030e-02, 1.189339e-02, -2.168628e-02, 6.801862e-03, -6.497408e-03, 7.374708e-03, -3.418881e-02, -4.223498e-02 }, { 2.806845e-34, -7.214305e-03, -3.253304e-03, -3.166070e-34, -2.864048e-02, -1.801987e-02, 6.883343e-03, 3.805178e-03, 1.683098e-02, 1.311899e-02, -1.054467e-02, 1.760763e-02, -1.008989e-02, -2.560871e-02, -2.239406e-02, -1.005521e-02 }, { 5.205151e-34, 1.813091e-02, 1.351201e-02, -2.568485e-34, -2.404679e-02, -2.487830e-02, -1.032547e-02, 4.132513e-03, 1.483778e-02, 1.620926e-02, -1.774154e-02, 1.927374e-02, -6.305295e-04, 7.421593e-04, -2.696204e-02, -4.045426e-02 }, { 1.953455e-34, -1.181376e-04, -2.331358e-02, -2.581192e-35, 7.321673e-03, -1.357994e-02, 1.688650e-02, 1.955238e-02, 3.823722e-03, 2.359438e-02, -1.148325e-02, 9.025209e-03, -1.348167e-02, -3.074653e-02, -4.201455e-02, 2.313047e-02 }, { 5.040270e-34, 1.570470e-02, -1.072426e-02, -3.010684e-34, 2.269362e-02, -7.059929e-03, 8.694618e-03, -7.809365e-02, 8.854850e-03, -8.324903e-03, 7.027689e-02, -9.595066e-02, -2.238298e-02, 7.166823e-02, 2.823865e-02, -1.548043e-02 }, { 5.389558e-34, 3.755874e-02, 4.817003e-02, -5.025423e-34, -1.803509e-02, -1.742964e-02, -2.860740e-02, -1.338581e-02, 1.033415e-02, -1.660107e-02, 3.687092e-03, -2.551165e-03, -2.506364e-02, 5.482651e-02, -1.053393e-02, -4.739158e-02 }, { 4.591857e-35, -1.303866e-02, -1.354024e-02, 5.193631e-34, -3.394482e-02, -6.085281e-03, 1.932668e-02, -2.792456e-03, 2.145624e-03, 1.015859e-02, -3.831946e-03, 6.224503e-03, -1.398316e-03, -2.331038e-02, -1.770922e-02, -1.559241e-02 }, { 4.713587e-34, 6.026655e-03, 1.143848e-02, -5.248478e-34, -4.398967e-02, -1.673178e-02, -8.155786e-03, -4.330310e-03, 6.589619e-03, 1.580053e-02, -9.120884e-03, 1.197611e-02, 2.387576e-03, 3.906728e-03, -3.376302e-02, -5.423736e-02 }, { 2.508762e-34, -1.080253e-02, -1.303184e-02, -2.622205e-34, -4.654882e-02, -6.872218e-03, 9.749291e-03, 1.412352e-02, 2.442454e-03, 1.780324e-02, -7.546383e-03, 1.222986e-02, -5.160975e-03, -1.463268e-02, -2.079765e-02, -2.433127e-02 }, { 2.280278e-34, 2.639099e-02, 1.879226e-02, -2.150624e-34, -2.447567e-02, -2.574985e-02, -1.183778e-02, 3.612641e-03, 1.356509e-02, 1.304019e-02, -2.000559e-02, 2.073391e-02, -1.794706e-03, 3.825118e-03, -3.227418e-02, -4.605355e-02 }, { 4.775556e-34, 1.013187e-02, 8.777996e-03, 2.158338e-34, 9.944225e-03, -3.233945e-02, 1.089514e-02, -2.240991e-02, 2.882108e-02, 8.056762e-03, 5.256948e-02, -1.046625e-01, 2.046484e-02, 6.853019e-02, 1.280630e-02, -4.526925e-02 }, { 3.246714e-34, 1.314629e-02, 6.213877e-02, 5.201148e-34, -3.560883e-02, -6.951164e-03, -1.175523e-02, 7.714670e-04, -3.121763e-03, -1.482676e-02, -8.592503e-03, -1.156876e-02, -3.073508e-02, 5.430042e-02, -5.222863e-02, -6.275465e-02 }, { 5.734623e-34, -2.825239e-02, -7.513852e-02, -8.330237e-35, 1.896851e-02, 1.811197e-02, 6.624721e-02, 4.675511e-02, -1.258028e-02, 6.167135e-02, 3.784975e-03, -2.013124e-02, 1.898364e-02, -6.595536e-02, -3.760973e-02, 2.705510e-02 }, { -7.698440e-35, -4.546796e-03, -1.563342e-02, 1.390904e-34, 8.379305e-03, -1.399315e-02, 2.468168e-02, 1.760964e-02, 3.394538e-03, 4.157987e-02, 4.160101e-03, -1.211281e-02, 7.022762e-03, -3.721752e-03, -5.225994e-02, -1.980160e-02 }, { 2.953993e-34, 2.184889e-04, -8.614574e-03, -6.697191e-35, -2.061004e-02, -1.228719e-02, 1.508507e-02, -1.016800e-02, -3.479403e-03, 2.660688e-02, 4.092759e-03, 3.860329e-03, -3.829933e-03, -1.091437e-02, -1.882205e-02, -3.293711e-02 }, { -3.453941e-34, 1.209993e-02, 5.714788e-02, -3.574166e-35, -2.359955e-02, -8.461457e-03, -1.668334e-02, 2.891436e-03, -1.318755e-02, -2.254032e-02, -1.089435e-02, -7.374017e-03, -3.317833e-02, 5.453671e-02, -3.008846e-02, -5.499682e-02 }, { 4.872737e-34, 1.909590e-02, 3.015567e-02, 1.577927e-34, -1.262802e-02, -1.593065e-02, -1.434634e-02, -3.662009e-02, -7.565264e-03, -4.013736e-03, -7.609049e-03, 2.256017e-03, -3.423723e-03, 1.813772e-02, -2.415522e-02, -6.026714e-02 }, { 4.413819e-34, -1.869033e-04, -1.876550e-02, -3.277066e-34, -1.694769e-02, 1.586889e-03, 1.870498e-02, -1.966281e-02, -6.094138e-03, 1.635335e-02, 3.637028e-03, -4.076808e-03, -4.619852e-03, -1.658160e-02, -1.235401e-02, -4.006452e-02 }, { -2.949835e-34, 1.272122e-02, 1.456788e-02, -5.047077e-34, -2.034610e-02, -1.669893e-02, -8.939912e-03, -2.852433e-02, -1.637341e-03, 1.503065e-02, 4.900688e-03, 2.181543e-03, -1.812938e-04, 1.248585e-02, -2.325958e-02, -5.269962e-02 }, { -2.356582e-34, -5.234589e-03, -3.197684e-02, 4.487565e-34, 2.308885e-02, -1.140098e-02, 3.128185e-02, 2.158452e-02, 4.460499e-03, 4.273177e-02, 1.242615e-02, -1.683286e-02, 1.028742e-02, -1.568387e-02, -4.802557e-02, -1.598348e-02 }, { 2.128644e-34, -1.667238e-02, 2.011361e-02, -5.725546e-34, 2.929479e-02, -3.983029e-02, 2.087436e-02, -3.316491e-02, -2.723810e-03, -2.317482e-02, 4.880831e-02, -6.094253e-02, 5.031852e-04, 1.014467e-01, 6.408859e-03, -5.911363e-03 }, { -1.683708e-34, 9.724990e-03, 5.145510e-02, -5.635971e-34, -2.798427e-02, -6.118683e-03, -1.738336e-02, 3.649046e-03, -1.198398e-02, -1.511197e-02, -1.268118e-02, -4.884371e-03, -2.810906e-02, 4.706940e-02, -3.634952e-02, -4.976051e-02 }, { 3.692794e-34, -1.096743e-03, -1.907239e-02, 4.284821e-34, -1.868877e-02, 5.197708e-03, 2.656907e-02, -1.493846e-02, -6.832294e-03, 2.053268e-02, -5.756290e-03, -6.681519e-03, 2.190871e-03, -1.028773e-02, -8.343596e-03, -3.008253e-02 }, { 3.453112e-34, -6.115097e-04, 1.072024e-02, -1.982117e-34, -2.821732e-02, -1.849464e-02, 2.126104e-03, -3.004385e-02, -3.026688e-04, 3.781520e-02, 2.319906e-03, 4.373828e-03, 4.612224e-03, 2.261425e-02, -3.017557e-02, -5.643753e-02 }, { -3.562608e-34, -1.053882e-04, -4.344308e-03, -3.847132e-34, -2.158425e-02, -1.535986e-02, 1.044413e-02, -6.178465e-03, -4.357167e-03, 2.573589e-02, 2.966922e-03, 7.086896e-03, -4.749340e-03, -7.270408e-03, -2.037782e-02, -3.079922e-02 }, { 2.682410e-34, 1.725215e-02, 2.014136e-02, -2.835844e-34, -2.490798e-02, -1.684479e-02, -9.150267e-03, -2.976630e-02, -2.879066e-03, 1.372109e-02, 3.717105e-03, 3.323116e-03, -3.877479e-03, 1.497262e-02, -2.988868e-02, -5.787635e-02 }, { 5.166538e-34, -1.575395e-02, 3.480257e-02, -5.451283e-35, 5.881044e-03, -2.335937e-02, -9.895076e-03, -1.924925e-02, -1.601832e-03, -4.300937e-02, 2.241561e-03, -6.970003e-02, 3.277128e-02, 8.215819e-02, 3.648842e-02, 2.609035e-03 }, { -5.500360e-34, -2.208340e-02, 3.561246e-02, 1.505547e-34, -4.199001e-02, 4.323361e-03, -1.068098e-03, 1.964659e-02, 5.488450e-03, -3.174869e-03, -1.570499e-02, -2.003067e-02, -7.305650e-03, 2.499061e-02, -7.133000e-02, -1.660312e-02 }, { -5.628090e-34, -3.650030e-02, -6.524270e-02, 2.544684e-34, 1.837857e-02, 2.938578e-03, 4.829696e-02, 3.773819e-02, 2.463831e-02, 5.573098e-02, -2.343809e-02, 1.098264e-02, 3.012631e-02, -4.853569e-02, 1.931437e-03, 4.902031e-02 }, { 4.154142e-34, -1.215826e-02, -1.906045e-02, 5.679901e-34, -8.365068e-03, -7.099773e-03, 1.026374e-02, 2.662967e-02, 1.778531e-02, 3.470597e-02, -2.431081e-02, 3.367286e-03, 3.635044e-02, -3.539040e-04, -3.142399e-02, 2.010000e-02 }, { -2.086392e-34, 7.002582e-03, -2.058621e-02, 1.692551e-34, -6.895584e-03, -5.761871e-03, 2.027979e-02, -4.772560e-03, -5.254183e-03, 1.087190e-02, -4.465455e-03, 6.139811e-03, -7.404439e-03, -1.436569e-03, -5.528013e-03, -3.509823e-02 }, { 4.998943e-34, -1.228914e-02, 3.834993e-02, -5.104591e-34, -3.043516e-02, 7.596049e-05, -1.035737e-02, 1.392711e-02, 5.731974e-03, -9.755046e-03, -9.746235e-03, -2.334147e-02, -6.470101e-03, 2.990920e-02, -4.587713e-02, -1.581133e-02 }, { -2.953043e-34, 1.596381e-02, 1.421741e-02, -2.865832e-34, -9.616205e-03, -1.159810e-02, 2.011580e-03, -3.165492e-02, 1.454350e-02, 8.637427e-03, -1.571120e-02, 6.625906e-03, -7.820267e-04, 3.565821e-02, -2.405472e-02, -5.180588e-02 }, { -2.812606e-34, 8.382909e-03, -1.027537e-02, 3.481122e-34, -3.356816e-03, -4.970128e-03, 2.223469e-02, -1.202682e-02, 3.676173e-03, 8.900966e-03, -1.411379e-02, 1.249839e-02, -1.022595e-02, 2.357720e-03, -9.997397e-04, -2.827986e-02 }, { -1.901530e-35, 1.575103e-02, 4.796289e-04, -3.436964e-34, -1.071181e-02, -1.198588e-02, -2.361977e-03, -2.292820e-02, 5.422494e-03, 1.242643e-02, -1.078749e-02, 1.393353e-02, 8.812261e-03, 2.619523e-02, -1.868036e-02, -4.320137e-02 }, { 4.888437e-34, -1.403763e-02, -2.635149e-02, 4.446595e-34, 7.930472e-03, -8.637242e-03, 1.419277e-02, 2.443827e-02, 2.327137e-02, 4.032927e-02, -3.449313e-02, 2.958380e-03, 4.420971e-02, 7.722888e-04, -1.245235e-02, 1.931914e-02 }, { 3.078868e-34, -7.429395e-03, 6.523359e-03, -2.549718e-35, 2.463683e-02, -1.942655e-02, 2.800972e-02, 3.300852e-02, 1.204812e-02, -4.353857e-02, 5.186545e-03, -9.153186e-02, 9.919160e-03, 1.010142e-01, 1.065836e-02, -4.307725e-02 }, { -1.736924e-34, -1.621934e-02, 3.277753e-02, 5.746938e-34, -3.081261e-02, -7.788684e-04, -4.430906e-03, 1.362032e-02, 7.223753e-03, -5.071629e-03, -8.183247e-03, -1.687404e-02, -7.724038e-03, 2.434523e-02, -5.203682e-02, -1.744939e-02 }, { -1.238548e-34, 7.948469e-03, -1.367368e-02, 2.520486e-34, -8.525435e-04, -1.005702e-02, 2.922537e-02, 3.162514e-03, -2.061311e-03, 7.922577e-03, -9.013784e-03, 2.478328e-03, -4.799540e-03, 4.160678e-03, -2.881154e-03, -2.184814e-02 }, { -3.161633e-34, 1.642016e-02, 2.408168e-03, 1.411545e-34, -2.049428e-02, -2.092382e-02, -6.898157e-04, -7.893750e-03, -2.130521e-03, 1.215628e-02, -1.194739e-02, 1.223195e-02, 1.484952e-02, 3.662946e-02, -2.295014e-02, -3.920076e-02 }, { 3.003125e-34, 6.456279e-03, -2.133246e-02, 2.463579e-35, -9.308713e-03, -5.927415e-03, 1.775208e-02, -1.128487e-03, -7.417168e-03, 9.436511e-03, -2.122659e-03, 1.916389e-03, -5.670933e-03, -7.393947e-05, -6.572793e-03, -3.622628e-02 }, { 2.284148e-34, 1.996546e-02, 3.482788e-03, 9.098912e-35, -1.728397e-02, -1.178792e-02, 1.436425e-03, -2.133759e-02, 8.982109e-04, 1.104087e-02, -1.316362e-02, 1.541357e-02, 6.942712e-03, 2.554182e-02, -2.900491e-02, -4.379832e-02 }, { 3.441527e-34, -2.961059e-02, -3.653279e-03, -4.923970e-34, 1.001437e-02, -1.027473e-02, -2.723368e-02, -5.335377e-02, 3.064548e-02, -2.035609e-02, 3.873241e-02, -5.276982e-02, -1.178442e-02, 8.040588e-02, 5.061937e-02, -4.431328e-02 }, { 2.638660e-34, -3.355423e-02, 1.299217e-02, 7.199150e-35, -3.842675e-02, 1.059485e-03, -1.223586e-02, 2.563362e-02, -9.381426e-03, -8.004097e-03, -1.923706e-02, 2.932487e-03, -2.136537e-02, 1.208655e-03, -7.117348e-02, -2.290855e-02 }, { -1.105482e-34, -3.866277e-02, -4.372739e-02, 1.447456e-34, -1.491265e-04, 1.025241e-02, 4.047804e-02, 2.259675e-02, 2.959017e-02, 8.075386e-02, -4.330358e-03, 1.339999e-02, 3.396709e-03, -4.043858e-02, -2.153659e-04, 4.797208e-02 }, { -1.002947e-34, -2.800397e-02, -1.711047e-02, 4.755410e-35, -1.163235e-02, -9.234958e-03, 6.429326e-03, 1.988326e-02, 1.873486e-02, 4.160286e-02, -8.177078e-03, 1.793295e-02, 1.884698e-02, -5.288664e-03, -2.236287e-02, 1.860243e-02 }, { 1.966332e-34, 1.262308e-02, 1.162346e-02, -5.608721e-34, -1.073484e-02, -1.829520e-02, 1.106854e-02, 6.968681e-03, -3.657291e-03, 1.625643e-02, -1.014230e-02, 1.899528e-03, -6.898369e-03, 1.703618e-02, -1.461180e-02, -2.646813e-02 }, { -2.967164e-34, -2.055923e-02, 1.489414e-02, 2.130873e-34, -2.852492e-02, -1.443648e-03, -2.251503e-02, 2.003084e-02, -1.543392e-02, -1.557034e-02, -1.832448e-02, -4.309284e-03, -1.846504e-02, 6.163823e-03, -5.025927e-02, -1.989568e-02 }, { -6.226304e-35, 1.484866e-02, 2.390749e-02, -2.778099e-34, -7.053652e-03, -3.616185e-02, -1.495654e-03, 1.757106e-03, 7.931230e-03, 8.354012e-03, -1.127215e-02, -4.068301e-03, 1.500772e-02, 4.613812e-02, -2.445517e-02, -1.877149e-02 }, { -4.298891e-34, 1.190957e-03, 2.358690e-03, 1.207000e-34, -1.829861e-03, -1.542915e-02, 2.846155e-02, 1.179361e-02, -6.355577e-03, 1.543375e-02, -1.786191e-03, -1.346117e-02, -2.041993e-02, 1.398411e-02, -7.510537e-03, -2.990926e-02 }, { 6.225850e-35, 1.790245e-02, 2.119158e-02, 2.373187e-34, -1.299237e-02, -2.600190e-02, -2.295574e-03, 4.491639e-03, -1.205754e-03, 6.448255e-03, -1.119404e-02, 3.089587e-03, 1.276286e-02, 3.822113e-02, -2.072320e-02, -2.712849e-02 }, { 2.510788e-34, -3.245413e-02, -2.086201e-02, -3.844705e-34, -1.136220e-03, -6.575031e-03, 4.767512e-03, 1.605609e-02, 2.463399e-02, 5.059679e-02, -2.999242e-03, 9.976530e-03, 2.599352e-02, 1.309740e-03, -2.399611e-05, 2.275020e-02 }, { -3.628677e-34, -4.391501e-02, 1.276762e-03, -2.804297e-34, 2.839192e-02, 6.481571e-05, -3.327569e-02, 5.839853e-03, 5.220658e-03, -7.387025e-03, 1.247506e-02, -2.965800e-02, 2.737159e-02, 7.075408e-02, 2.276003e-02, 1.250316e-02 }, { 3.172325e-34, -2.232691e-02, 1.187978e-02, -2.331026e-34, -3.151511e-02, 1.464371e-03, -1.449559e-02, 2.096847e-02, -1.623348e-02, -1.142388e-02, -2.050973e-02, 2.341140e-03, -1.678157e-02, 1.055732e-03, -5.637250e-02, -1.709233e-02 }, { 4.121911e-34, -3.268214e-03, -1.700261e-04, -4.527094e-34, -8.958653e-03, -1.165386e-02, 2.861020e-02, 1.219508e-02, -4.970133e-03, 1.826377e-02, -3.049479e-03, -4.055875e-03, -2.294513e-02, 5.497450e-03, -4.707578e-03, -2.686869e-02 }, { 4.023128e-34, 2.199521e-02, 2.285175e-02, -5.011170e-36, -1.899925e-02, -2.852290e-02, -1.946571e-03, 8.849726e-03, -3.164665e-03, 2.805556e-03, -1.490131e-02, 8.863940e-03, 1.166459e-02, 3.903263e-02, -2.433865e-02, -4.050556e-02 }, { -4.603123e-34, 1.482919e-02, 1.409586e-02, 3.640866e-34, -1.234908e-02, -1.851274e-02, 5.555280e-03, 6.571772e-03, -2.286362e-03, 1.498695e-02, -1.156433e-02, 5.774205e-03, -2.971989e-03, 1.741156e-02, -1.503036e-02, -2.391350e-02 }, { -2.983363e-34, 1.671913e-02, 2.049019e-02, -5.848226e-34, -1.626230e-02, -2.703629e-02, 3.327930e-04, 8.713291e-03, -5.082526e-03, 4.889006e-03, -1.432289e-02, 7.864153e-03, 1.011943e-02, 3.441777e-02, -3.118237e-02, -2.800030e-02 }, { -5.297562e-34, -2.055297e-02, 3.261758e-02, 3.159285e-34, 4.170625e-03, -3.675476e-02, -3.442916e-03, -1.139308e-02, 3.419388e-02, 2.607369e-02, 2.947067e-02, -3.475637e-02, 1.612860e-02, 7.707045e-02, -7.482687e-03, 2.544332e-02 }, { 4.064268e-34, -5.222901e-02, 1.238479e-02, -1.911612e-34, -3.697231e-02, 4.089504e-03, 1.603913e-02, 2.126609e-02, 3.035486e-04, 9.976135e-03, -1.731528e-02, 5.377280e-03, -9.711863e-03, 6.263818e-03, -7.005370e-02, -3.276231e-03 }, { -2.438547e-34, -3.174964e-02, -1.854775e-02, -1.400851e-34, 7.038119e-03, -2.817145e-03, 4.632393e-02, 1.068080e-03, 5.438827e-02, 6.892020e-02, 9.755123e-03, 9.341801e-03, 5.193373e-04, -4.159430e-02, -1.263134e-02, 7.165260e-02 }, { -4.191818e-34, -2.406525e-02, -7.597389e-03, -5.814727e-34, -1.664722e-02, -1.594165e-02, 1.644642e-02, 1.605215e-02, 3.230073e-02, 3.921312e-02, -1.558326e-03, 1.496302e-02, 1.891464e-02, -6.723751e-03, -3.570738e-02, 3.718536e-02 }, { 4.013510e-35, 4.880182e-03, 1.252678e-03, 5.506782e-34, -1.594151e-02, -1.252324e-02, 1.608133e-02, 2.207960e-02, -5.777948e-03, 5.540552e-03, -1.520863e-03, -1.873303e-03, -1.194443e-02, -5.471307e-04, -1.030414e-02, -2.967102e-02 }, { 4.032745e-34, -3.297789e-02, 1.325667e-02, 1.931785e-35, -3.058239e-02, -1.415006e-03, 1.916689e-03, 1.721989e-02, -7.064448e-03, 6.013972e-03, -1.111746e-02, -5.245154e-03, -1.096157e-02, 1.398230e-02, -4.718810e-02, -9.983369e-03 }, { -2.961652e-34, 8.444319e-03, 1.355557e-02, -3.376122e-34, -2.231285e-02, -2.512957e-02, 8.602611e-03, 1.743837e-02, -9.105803e-03, -8.838749e-03, -8.987858e-03, -1.954761e-02, 7.069266e-03, 3.415367e-02, -1.572681e-02, -3.625456e-02 }, { 1.616943e-34, -1.450063e-03, 5.254455e-03, -5.341339e-34, -2.010175e-02, -1.246296e-02, 1.978532e-02, 1.534042e-02, -4.432488e-03, 1.983491e-02, 1.097712e-03, -4.609447e-03, -2.406931e-02, 1.080094e-03, -2.125408e-03, -2.712118e-02 }, { -6.164304e-35, 1.087038e-02, 7.735722e-03, -5.521862e-34, -2.641142e-02, -2.081489e-02, 2.011153e-03, 2.064394e-02, -8.127907e-03, -4.351649e-03, -4.197042e-03, -7.158225e-03, 1.229861e-02, 2.311686e-02, -1.636529e-02, -3.212460e-02 }, { -3.284584e-34, -1.504507e-02, -5.617792e-03, -1.762189e-34, -1.415102e-02, -2.222110e-02, 1.565444e-02, 9.786272e-03, 4.629179e-02, 5.410440e-02, 1.598306e-02, 4.127427e-03, 2.340329e-02, -7.760558e-03, -1.750447e-02, 4.070684e-02 }, { -1.197112e-35, -4.019140e-02, -8.199281e-03, 3.654754e-34, 1.223345e-02, -5.123020e-02, -5.911154e-02, 4.387356e-02, 4.293200e-02, 6.792771e-02, 8.047906e-02, -3.255973e-02, 1.958796e-02, 2.049439e-02, 6.658865e-03, -2.525693e-02 }, { 1.182883e-34, -3.840902e-02, 8.737534e-03, 1.802178e-34, -2.845221e-02, -6.226658e-04, 1.195798e-02, 1.564442e-02, -6.719414e-04, 8.484374e-03, -1.217532e-02, 1.927409e-03, -1.009553e-02, 1.059486e-02, -5.193753e-02, -7.733517e-03 }, { 5.608813e-34, -3.959911e-03, 1.652657e-03, 3.317624e-34, -2.217480e-02, -8.015041e-03, 1.185049e-02, 9.342750e-03, 1.530848e-03, 2.483750e-02, 3.989969e-03, 7.531064e-04, -1.721100e-02, -5.697887e-03, -1.956616e-03, -2.548823e-02 }, { 4.012170e-34, 1.048046e-02, 9.866297e-03, 5.476861e-34, -3.465088e-02, -2.304894e-02, -4.837564e-03, 2.347562e-02, -5.195469e-03, 2.506200e-03, -2.235969e-03, 5.742791e-03, 1.914340e-02, 1.838381e-02, -2.090764e-02, -3.513550e-02 }, { 2.245752e-34, 5.308295e-03, 2.344046e-04, 1.218640e-34, -1.428937e-02, -1.172725e-02, 1.426113e-02, 2.338552e-02, -6.277561e-03, 1.598826e-03, -2.620880e-03, -1.011074e-03, -7.305492e-03, 9.717031e-05, -1.117719e-02, -2.812178e-02 }, { 3.928837e-34, 8.255272e-03, 8.071145e-03, -5.240629e-34, -2.964948e-02, -2.033887e-02, 4.756439e-03, 2.641398e-02, -1.306653e-02, -6.554533e-03, -9.345440e-03, -4.279146e-03, 1.029780e-02, 2.103196e-02, -2.559937e-02, -3.331820e-02 }, { 4.413407e-34, -1.883202e-02, 2.921525e-04, -2.721178e-34, 4.854466e-02, -2.467945e-02, -2.648453e-02, 8.633010e-03, 6.331735e-03, -1.238299e-02, 1.135065e-02, -6.287459e-02, 2.181954e-02, 7.724858e-02, 1.302969e-02, 9.313220e-03 }, { 1.998140e-34, -4.850841e-02, 1.163964e-02, 2.392993e-34, -2.571811e-02, 1.357495e-02, 1.686159e-02, -2.549579e-03, 3.463909e-03, 1.172475e-02, -2.091510e-02, 9.331021e-03, 4.277621e-03, 1.830979e-02, -6.030453e-02, 9.045330e-03 }, { -5.725028e-34, -8.185980e-03, -2.259037e-02, -3.653322e-34, 9.472321e-03, 3.467337e-03, 4.118399e-02, -1.364078e-02, 5.257648e-02, 3.941716e-02, -9.870719e-03, -9.747924e-03, 1.180533e-02, -4.620938e-02, -2.068564e-02, 7.922827e-02 }, { -1.050146e-34, -2.556590e-02, -1.883358e-02, -4.562448e-34, -7.794467e-03, -5.061230e-03, 2.034745e-02, -1.270356e-03, 3.596255e-02, 2.872387e-02, -1.963932e-02, 2.073429e-02, 3.912454e-02, -8.764373e-03, -3.171114e-02, 5.200335e-02 }, { -1.711290e-34, 1.983286e-04, 6.155219e-03, -1.877726e-34, -2.627105e-02, -1.115119e-02, -1.331120e-03, 1.024051e-02, 1.725726e-03, 9.492284e-03, -1.195582e-03, -4.987016e-03, -6.419136e-03, -1.183948e-02, -2.031274e-02, -2.577465e-02 }, { -5.061126e-34, -3.367366e-02, 1.850883e-02, -3.534508e-34, -2.504182e-02, 6.320549e-03, -1.996252e-04, -2.623305e-03, -4.556105e-04, 6.463742e-03, -1.647004e-02, 5.124880e-04, -7.359259e-04, 2.434617e-02, -4.210663e-02, 1.367916e-03 }, { -5.702477e-34, -8.298102e-04, 8.731479e-03, 9.117093e-35, -3.161747e-02, -2.409413e-02, -2.055967e-02, 8.977982e-03, 8.084602e-03, 2.525852e-02, 2.912860e-03, 1.725196e-02, 2.457248e-02, 7.587917e-03, -1.888282e-02, -2.593314e-02 }, { -5.195134e-34, -8.961735e-03, 1.373767e-03, 2.198475e-34, -1.809867e-02, -8.995130e-03, 1.371145e-03, 1.028454e-02, 7.261767e-03, 2.297842e-02, 6.787868e-03, 1.225162e-03, -1.768457e-02, -1.175220e-02, -1.140271e-02, -2.413962e-02 }, { -2.560077e-34, 7.865597e-04, 6.038999e-03, -1.007422e-34, -3.421191e-02, -2.006192e-02, -1.958266e-02, 9.353819e-03, 5.592074e-03, 1.623257e-02, 7.736521e-04, 1.198443e-02, 2.508639e-02, 3.282981e-03, -2.277022e-02, -2.679974e-02 }, { 1.189924e-34, -1.026014e-02, -9.481112e-03, -1.987042e-35, 4.562422e-03, -1.015863e-02, 1.244022e-02, -1.463201e-02, 4.334085e-02, 2.956464e-02, -1.230840e-02, 1.012306e-02, 4.760731e-02, -1.967002e-03, -2.348162e-02, 6.047918e-02 }, { 5.643491e-34, -2.156066e-03, 2.398946e-02, -3.336168e-35, -7.813982e-03, 1.390424e-03, -4.271990e-03, 3.543475e-02, 5.897557e-03, 7.374730e-04, -5.111911e-03, 5.469822e-03, 3.876141e-02, 4.896317e-02, -1.437636e-02, 3.749619e-02 }, { -2.500306e-34, -3.604475e-02, 1.375570e-02, 1.115195e-34, -2.869875e-02, 7.288714e-03, 4.613418e-03, -2.911882e-03, -4.043372e-04, 1.003718e-02, -1.484939e-02, 2.923838e-03, 5.364647e-04, 1.783950e-02, -4.587101e-02, 1.574611e-03 }, { 2.586874e-34, -5.270831e-03, -6.019120e-04, -2.688703e-34, -2.139815e-02, -5.661886e-03, 4.836261e-04, 1.373998e-02, -5.773537e-04, 1.055904e-02, 4.722642e-03, -2.319118e-03, -2.020203e-02, -9.515218e-03, -1.366265e-02, -2.481760e-02 }, { -4.523947e-35, -1.509608e-03, 3.510113e-03, 1.533828e-34, -4.493479e-02, -2.248487e-02, -1.911177e-02, 2.257966e-02, -1.003935e-03, 7.425061e-03, 1.523996e-03, 9.672518e-03, 3.138248e-02, 3.581597e-03, -2.934492e-02, -3.499309e-02 }, { -3.746859e-34, 2.894770e-03, 7.016519e-03, -1.901326e-34, -2.743631e-02, -1.032116e-02, -1.855076e-03, 1.025760e-02, 3.652365e-04, 4.059950e-03, -2.981331e-03, -6.725010e-03, -1.281783e-03, -9.333285e-03, -2.091982e-02, -2.427213e-02 }, { -1.272949e-34, -5.645377e-03, 3.426967e-03, 3.572299e-34, -3.733891e-02, -1.949106e-02, -1.568803e-02, 1.566192e-02, 2.619634e-03, 1.779406e-02, -3.526798e-03, 1.935203e-02, 2.341138e-02, -1.615241e-03, -2.957154e-02, -2.831864e-02 }, { 3.052129e-34, 1.130126e-02, 2.395753e-02, -4.072151e-35, -7.473846e-03, -6.516379e-03, -3.226331e-02, 1.074193e-02, 2.381921e-02, -2.504491e-03, 7.450684e-03, -2.301004e-02, 4.086976e-02, 4.631902e-02, 3.616058e-02, 1.023968e-02 }, { -1.369432e-34, -4.453006e-02, -3.511427e-04, 2.544053e-35, -2.155324e-02, 1.424901e-02, 2.249577e-02, -6.108561e-03, 7.098887e-03, 7.517757e-03, -2.131592e-02, 6.292253e-03, 2.331638e-02, 5.211200e-04, -3.794761e-02, 7.623227e-03 }, { -2.814569e-34, -1.821977e-02, -2.451055e-02, -2.785334e-34, 2.463913e-02, 1.587133e-02, 2.315892e-02, -2.405046e-02, 3.731873e-02, 6.203801e-03, -2.123191e-02, -2.177433e-02, 1.990004e-02, -4.014538e-02, -1.287130e-02, 6.903455e-02 }, { -1.636269e-34, -2.291558e-02, -2.559632e-02, -3.684671e-34, -7.911672e-03, 8.211890e-05, 9.498453e-03, -1.209577e-02, 2.590793e-02, 1.098364e-02, -1.570914e-02, 1.731186e-03, 4.485783e-02, -1.167039e-02, -1.122277e-02, 4.223955e-02 }, { -4.887549e-35, -5.907188e-03, -4.752744e-03, 1.883839e-34, -2.884830e-02, -1.187238e-02, -1.966528e-03, 1.543498e-02, -8.281169e-03, -3.083323e-03, 5.675455e-03, -6.223982e-03, -3.366337e-03, -5.124503e-03, -1.750517e-02, -2.616888e-02 }, { 5.303928e-34, -2.959281e-02, 6.751284e-03, 1.415175e-34, -1.125193e-02, 7.565996e-03, 1.261844e-02, -5.058249e-03, 5.931555e-03, -4.849524e-04, -2.004969e-02, 1.105080e-03, 1.631873e-02, 1.028336e-02, -2.576081e-02, 5.878715e-03 }, { -3.596869e-34, -1.290954e-02, 6.602411e-04, -1.242919e-34, -2.886692e-02, -2.051219e-02, -2.778181e-02, 3.192678e-02, -6.159477e-03, 9.240381e-03, 6.445176e-03, 1.492523e-02, 3.060168e-02, 2.004172e-03, -2.975740e-02, -3.050031e-02 }, { 1.503402e-34, -1.059272e-02, -5.563182e-04, -4.949760e-34, -2.517992e-02, -7.655786e-03, -5.882718e-03, 1.532702e-02, -1.275625e-02, -1.934343e-03, 3.518127e-03, -8.436163e-03, -1.629185e-02, -1.136839e-03, -1.454445e-02, -2.532194e-02 }, { 2.801734e-34, -8.563846e-03, -5.505467e-03, 4.123227e-34, -3.529923e-02, -1.840726e-02, -2.037918e-02, 2.100365e-02, -9.281393e-03, 2.127480e-03, 7.580461e-03, 1.064986e-02, 3.083462e-02, 8.946086e-04, -2.390493e-02, -2.615524e-02 }, { 2.043549e-35, -7.239708e-03, -2.009311e-02, -2.394902e-34, 1.720871e-03, -3.730267e-03, -2.397040e-03, -2.264647e-02, 2.957675e-02, -2.517503e-03, -1.006000e-02, -4.713124e-03, 5.309990e-02, -5.148228e-03, -2.748218e-03, 5.145844e-02 }, { 4.221666e-34, 1.163191e-02, 3.164275e-03, -3.484086e-34, 4.591069e-03, -1.699306e-02, -3.209857e-02, 3.686049e-03, 1.549309e-02, -2.968988e-02, 1.360383e-02, -3.300889e-03, 5.631467e-02, 7.683740e-02, 4.030766e-02, 4.236399e-02 }, { 3.162198e-34, -3.462840e-02, 2.421345e-03, -5.425101e-34, -8.114976e-03, 9.213782e-03, 1.888749e-02, -3.256034e-03, 7.311934e-03, 3.230519e-03, -2.036228e-02, 5.087178e-03, 1.905166e-02, 7.629340e-03, -3.201385e-02, 7.832278e-03 }, { -4.150679e-35, -5.643297e-03, -4.197431e-03, -4.506551e-34, -2.423198e-02, -6.372401e-03, 3.992487e-03, 8.040069e-03, -9.673111e-03, -6.776773e-04, 1.396133e-03, -9.165148e-03, -1.411813e-02, -5.801746e-03, -9.494415e-03, -2.005829e-02 }, { 3.373239e-35, -6.170091e-03, -7.355227e-03, -3.192790e-34, -4.900852e-02, -2.098420e-02, -1.614722e-02, 2.071261e-02, -1.555658e-02, -1.013452e-02, 8.245929e-03, 4.411769e-03, 3.655794e-02, 7.624972e-03, -2.300793e-02, -2.945408e-02 }, { -5.198070e-34, -5.358659e-03, -6.450862e-03, 3.131645e-34, -2.871032e-02, -1.294793e-02, -1.165215e-03, 1.552888e-02, -6.670282e-03, -2.587860e-03, 6.821082e-03, -4.292673e-03, 1.580179e-03, -5.225930e-03, -1.660729e-02, -2.408987e-02 }, { -3.087485e-34, -1.268959e-02, -7.162645e-03, -1.593354e-34, -3.813311e-02, -1.805177e-02, -1.717999e-02, 2.605087e-02, -1.188399e-02, 3.690622e-03, 4.588314e-03, 1.493837e-02, 2.965183e-02, -2.947001e-03, -2.863442e-02, -2.891991e-02 }, { -7.122325e-35, -1.603704e-02, 3.947366e-03, -4.989288e-34, 1.966852e-02, -1.387600e-02, -3.683487e-02, 4.336512e-02, 3.852421e-02, 4.712825e-02, 1.788829e-02, 8.092802e-03, 4.554772e-02, 3.000969e-02, 6.479714e-03, 2.015213e-04 }, { -2.484993e-34, -3.860895e-02, -6.669743e-03, 2.853915e-34, -1.435379e-02, 1.434200e-02, 2.793454e-02, 5.840836e-03, 1.195159e-02, 2.236794e-02, -1.257401e-02, -1.290257e-03, 3.392131e-02, -7.225699e-03, -3.560646e-02, 1.441494e-02 }, { -4.550192e-34, -1.551581e-02, -3.618958e-02, 1.320293e-34, 1.842522e-02, 1.392353e-02, 3.462225e-02, -1.184105e-02, 5.476103e-02, 4.734487e-02, -1.799106e-02, -2.939278e-02, 6.050353e-03, -7.951465e-02, -1.320611e-02, 4.862881e-02 }, { 1.891303e-35, -2.862656e-02, -3.082116e-02, -2.071528e-34, -1.331231e-02, 7.938128e-03, 2.973000e-02, 3.408354e-03, 3.442338e-02, 3.712121e-02, -1.789335e-02, -1.291131e-02, 4.226807e-02, -3.211526e-02, -1.382076e-02, 3.838119e-02 }, { -5.500601e-34, 5.283818e-04, -3.317662e-03, 7.633830e-35, -2.134845e-02, -9.250536e-03, 4.258888e-03, 1.151218e-02, -5.468226e-03, -6.892218e-03, -9.232557e-03, -2.065678e-03, -2.204133e-03, -8.120085e-03, -1.500081e-02, -1.958986e-02 }, { 3.177409e-35, -2.511426e-02, 6.481824e-03, -7.960744e-35, -1.699822e-02, 7.909429e-03, 1.394560e-02, 2.332142e-03, 6.294100e-03, 1.022654e-02, -7.738909e-03, -3.136767e-03, 2.271635e-02, 1.760658e-03, -1.967427e-02, 8.380231e-03 }, { -5.108894e-34, -6.333937e-03, 4.086705e-03, -1.184553e-34, -4.461812e-02, -8.642337e-03, -4.069695e-03, 1.013018e-02, -2.086380e-02, -1.141150e-02, -3.051713e-03, 1.091061e-02, 3.246527e-02, 1.429891e-02, -8.679846e-03, -1.719170e-02 }, { -7.787255e-35, -3.745326e-03, -2.294259e-03, -2.872120e-34, -1.949664e-02, -5.724705e-03, 1.017811e-02, 4.786782e-03, -9.218981e-03, 2.142464e-03, -7.430238e-03, 8.318923e-04, -1.023200e-02, -4.974251e-03, -6.790107e-03, -1.387592e-02 }, { -1.664805e-34, -3.534276e-03, -5.550212e-03, -5.597879e-34, -3.764482e-02, -8.507039e-03, -2.246608e-03, 1.078532e-02, -1.340249e-02, -1.149083e-02, -5.478324e-03, 1.069361e-02, 3.134207e-02, 7.359542e-03, -1.082772e-02, -1.389472e-02 }, { 5.454631e-34, -1.540782e-02, -2.910500e-02, -5.181398e-35, -5.443532e-04, -1.000575e-03, 2.163262e-02, -1.026690e-02, 4.089858e-02, 3.449717e-02, -1.439249e-02, -1.238393e-02, 4.569746e-02, -3.011984e-02, -2.307232e-03, 3.537254e-02 }, { 4.018752e-34, 1.092557e-02, -1.584262e-02, 1.673921e-34, -3.071905e-02, -2.281738e-02, -3.415349e-02, 2.632698e-02, -8.585000e-03, 2.394998e-03, 3.319624e-02, 1.332476e-02, 3.811245e-02, 2.795194e-02, 2.453629e-02, -8.829925e-03 }, { -5.296598e-34, -2.847132e-02, 3.430430e-04, -8.399773e-35, -1.996906e-02, 1.007395e-02, 1.623126e-02, 3.262888e-03, 8.190279e-03, 1.394638e-02, -8.601563e-03, -2.480093e-03, 2.314693e-02, -2.944883e-03, -2.364004e-02, 9.635910e-03 }, { -8.664399e-35, -4.644543e-03, -1.774971e-03, -4.886139e-34, -1.250005e-02, -4.733908e-03, 7.128276e-03, 5.105161e-03, -2.891534e-03, 3.240189e-03, -7.368131e-03, 8.975116e-04, -1.191431e-02, -4.270445e-03, -6.676335e-03, -9.430495e-03 }, { 2.741591e-34, -2.453261e-03, -1.257816e-02, 4.929921e-34, -4.317286e-02, -1.499408e-02, -4.066264e-03, 1.770579e-02, -1.008237e-02, -1.284790e-02, -2.368399e-03, 1.216635e-02, 3.516413e-02, 6.118099e-03, -1.404375e-02, -1.755067e-02 }, { -2.089556e-34, 1.272144e-03, -3.775026e-03, -3.251552e-34, -2.077144e-02, -9.713282e-03, 1.776391e-03, 1.280017e-02, -4.292655e-03, -9.224602e-03, -8.441314e-03, -1.524040e-03, 1.359876e-03, -8.039740e-03, -1.593193e-02, -1.844869e-02 }, { -1.456887e-34, -6.702831e-03, -7.750831e-03, -1.296941e-34, -4.170791e-02, -7.905711e-03, 1.979186e-03, 1.559191e-02, -1.613644e-02, -1.213867e-02, -8.200103e-03, 1.293144e-02, 3.165745e-02, 4.847264e-03, -1.610995e-02, -1.453626e-02 }, { -3.073033e-34, -7.500269e-03, 1.729198e-02, -7.635284e-35, -2.293785e-02, 3.280023e-03, -2.765361e-02, 3.393380e-02, -2.704653e-03, -5.752538e-03, 2.315160e-02, -1.848210e-02, 3.182025e-02, 3.013351e-02, 9.276276e-03, -1.636558e-03 }, { 2.767634e-34, -3.690350e-02, -1.631210e-02, -3.924970e-34, -2.802746e-03, 8.502258e-03, 1.550761e-02, 1.582111e-02, 3.115715e-02, 3.551564e-02, -1.819835e-02, -6.228007e-03, 3.912206e-02, -2.033126e-02, -3.681277e-02, 5.121517e-03 }, { 4.847405e-34, -4.145521e-02, -2.463192e-02, -1.497098e-34, 3.383384e-02, 2.417448e-02, 2.909482e-02, -1.079646e-02, 5.436742e-02, 4.490773e-02, -3.058328e-02, -4.722181e-02, 1.120432e-02, -6.664643e-02, -1.676440e-02, 5.642243e-02 }, { -5.548338e-34, -3.614135e-02, -2.103708e-02, 1.316899e-34, -3.637419e-03, 7.209357e-03, 2.004317e-02, 6.816947e-03, 3.710734e-02, 3.980279e-02, -1.958489e-02, -2.336073e-02, 4.169348e-02, -3.284159e-02, -1.658386e-02, 3.335637e-02 }, { 3.575693e-35, -7.175739e-03, -3.359078e-03, 2.177982e-34, -1.598196e-02, -1.090841e-02, 8.216513e-03, 5.665999e-03, -7.940704e-03, 2.993269e-03, -8.628685e-03, 6.699833e-04, 2.175348e-04, 3.844476e-03, -8.220600e-03, -1.725447e-02 }, { -2.733565e-34, -2.515502e-02, -4.901306e-03, -3.525503e-35, -3.031134e-03, 2.906688e-03, 1.420938e-02, 8.708109e-03, 2.369871e-02, 2.434027e-02, -1.181937e-02, -6.110950e-03, 2.532783e-02, -1.099041e-02, -2.585772e-02, -7.897493e-04 }, { -5.722093e-34, -4.296445e-03, -1.571599e-02, -3.275229e-34, -3.760418e-02, -2.029319e-02, 6.821949e-03, 1.181380e-02, -1.447234e-02, -7.674200e-04, 5.378602e-03, 1.442484e-02, 3.317242e-02, 4.129097e-03, 1.857639e-03, -1.060735e-02 }, { -8.143409e-35, -1.411096e-02, 2.376672e-04, -1.205584e-21, -1.058001e-02, -4.332048e-03, 2.343469e-03, 9.149403e-03, -1.595651e-03, 5.002879e-03, -7.046088e-03, -2.750000e-03, -9.689780e-03, 3.951934e-03, -5.893037e-03, -1.025110e-02 }, { -4.275699e-34, -3.871097e-03, -1.427638e-02, 5.650390e-34, -3.316639e-02, -1.889156e-02, 4.251342e-03, 1.078790e-02, -1.385325e-02, -1.786803e-03, 1.398376e-03, 1.260336e-02, 2.951998e-02, 4.668305e-03, -3.069753e-03, -1.573799e-02 }, { 1.422726e-34, -2.405208e-02, -1.814439e-02, -4.731806e-34, 5.999628e-03, 8.882707e-03, 1.408666e-02, -4.486029e-03, 4.110337e-02, 3.886104e-02, -1.299526e-02, -2.884971e-02, 4.137759e-02, -3.539369e-02, -1.092833e-02, 3.550920e-02 }, { -3.787166e-34, 9.878284e-03, 3.812490e-02, 2.754920e-34, -1.302134e-02, 4.391370e-03, -6.743954e-03, 2.294246e-02, -2.172261e-02, -1.275768e-02, 2.445725e-02, -1.978857e-02, 1.786771e-02, 2.982810e-02, -1.267209e-02, -8.118997e-03 }, { -5.547746e-34, -2.756043e-02, -7.662836e-03, -5.910336e-34, -1.604345e-03, 4.383425e-03, 1.442630e-02, 8.779807e-03, 2.659235e-02, 2.475381e-02, -1.251241e-02, -6.686908e-03, 2.792416e-02, -1.283362e-02, -2.800063e-02, 1.348727e-03 }, { 9.505699e-35, -1.199047e-02, -9.729308e-04, -3.431305e-34, -1.035391e-02, -5.022866e-03, -3.044596e-03, 7.853309e-03, -6.758007e-03, 7.714265e-03, -8.798662e-03, -3.678099e-03, -1.027953e-02, 6.556002e-03, -5.934779e-03, -1.482242e-02 }, { 3.786001e-34, -4.943988e-03, -1.455568e-02, -3.057095e-34, -3.816340e-02, -2.250420e-02, -4.854301e-03, 1.590285e-02, -1.952972e-02, -3.089265e-03, -1.961958e-03, 1.617049e-02, 2.967615e-02, 8.271436e-03, -1.255459e-02, -2.999209e-02 }, { -3.671673e-34, -4.643726e-03, -4.187540e-03, -3.054427e-34, -1.747705e-02, -1.247823e-02, 8.687969e-03, 5.400266e-03, -8.858803e-03, 2.740316e-03, -7.131027e-03, -4.264287e-05, 4.403973e-03, 4.174713e-03, -8.153617e-03, -1.743012e-02 }, { -8.190610e-35, -6.977838e-03, -1.734307e-02, 3.046180e-34, -3.571656e-02, -1.915897e-02, 7.526284e-03, 1.549720e-02, -1.614694e-02, -2.629451e-03, -1.278737e-03, 1.495900e-02, 3.070926e-02, 2.850694e-03, -7.302630e-03, -1.717504e-02 }, { 4.158609e-34, -1.108031e-03, 6.860960e-03, 5.295186e-34, -3.409642e-02, -1.411872e-02, 5.857646e-03, 1.620790e-02, -1.939180e-02, -7.364627e-03, 3.506174e-02, -3.549980e-02, 3.415121e-02, 1.129826e-02, 3.868922e-02, 1.333412e-02 }, { 8.298333e-35, -2.787540e-02, -1.956124e-02, -2.379222e-34, -3.302191e-03, 1.179950e-02, 1.613528e-02, 1.208024e-02, 3.735651e-02, 1.670317e-02, -1.111285e-02, -1.022116e-02, 2.923235e-02, -1.942530e-02, -3.538090e-02, 1.050832e-02 }, { -1.321021e-34, -5.074946e-02, -2.668647e-02, 3.455860e-34, 2.451219e-02, 1.527362e-02, 3.314238e-03, -2.235363e-02, 4.863812e-02, 5.102828e-02, -1.375012e-02, -5.172603e-02, 9.672621e-03, -6.011834e-02, -1.946869e-03, 5.509083e-02 }, { -9.335037e-35, -3.574938e-02, -2.376818e-02, 1.041149e-35, 2.330361e-03, 6.370975e-03, -1.126084e-04, -5.077210e-04, 4.125723e-02, 3.341983e-02, -1.594501e-02, -2.468568e-02, 4.104453e-02, -3.624148e-02, -6.795367e-03, 2.986644e-02 }, { -5.204104e-34, -6.311457e-03, -1.926145e-03, 9.509809e-35, -1.049338e-02, -1.552542e-02, -8.385394e-03, 9.229853e-03, -1.705945e-02, 6.530651e-03, -6.510535e-03, 9.060511e-05, -9.645102e-03, 5.030125e-03, -1.009674e-02, -2.695054e-02 }, { 4.322862e-35, -1.932590e-02, -1.302229e-02, -2.267265e-34, -7.485051e-03, 5.692918e-03, 1.269625e-02, 9.457223e-03, 2.637954e-02, 1.272127e-02, -7.691883e-03, -7.075604e-03, 1.732948e-02, -1.054546e-02, -2.675892e-02, 5.161583e-03 }, { 1.380429e-34, -2.744565e-03, -4.668713e-03, -3.964030e-34, -2.390412e-02, -1.815598e-02, -2.891205e-02, 1.605275e-02, -2.911526e-02, -5.544068e-03, -1.725492e-03, 1.704362e-02, 2.226129e-02, 3.395271e-03, -1.553092e-02, -3.333369e-02 }, { -3.161747e-34, -9.055460e-03, 1.757819e-04, -3.248935e-34, -1.151931e-02, -9.433061e-03, -7.846093e-03, 6.359143e-03, -1.470994e-02, 8.530800e-03, -7.800838e-03, -5.902044e-03, -9.093563e-03, 1.226598e-02, -4.801448e-03, -2.274017e-02 }, { 1.273177e-34, -1.465185e-03, -6.066038e-03, 3.102622e-34, -2.295648e-02, -1.620423e-02, -1.903462e-02, 1.143563e-02, -2.212094e-02, -2.938945e-03, -5.634930e-03, 1.834798e-02, 1.717178e-02, 3.558924e-03, -1.283510e-02, -3.313131e-02 }, { 1.088052e-34, -2.951777e-02, -1.743267e-02, -4.405620e-34, 5.587441e-03, 2.568423e-03, -9.397715e-03, -1.603783e-02, 4.066094e-02, 3.886329e-02, -1.167746e-02, -3.415523e-02, 4.042505e-02, -3.942184e-02, 3.848598e-03, 3.373845e-02 }, { -2.309703e-34, 4.117534e-03, 2.249232e-02, -1.340605e-35, -9.268325e-03, -1.352361e-02, -4.042093e-02, 1.980803e-02, -8.939954e-03, 1.179272e-02, 1.688569e-02, -5.210336e-02, 3.436605e-02, 7.427948e-03, 1.910934e-02, 1.405061e-02 }, { 5.003219e-34, -2.030721e-02, -1.454583e-02, -6.839761e-35, -5.038925e-03, 7.141610e-03, 1.285365e-02, 9.571141e-03, 2.785983e-02, 1.417918e-02, -7.459472e-03, -7.075982e-03, 1.840932e-02, -1.226373e-02, -2.972343e-02, 5.657525e-03 }, { 8.698159e-35, -4.317882e-03, 1.789146e-03, 4.163202e-34, -8.434740e-03, -1.421532e-02, -5.590001e-03, 6.220016e-03, -1.294495e-02, 9.679300e-03, -3.712859e-03, -1.004762e-02, -1.311994e-02, 1.695097e-02, -3.555794e-03, -2.303830e-02 }, { 4.339840e-35, -2.938458e-03, -5.582067e-03, -2.235844e-34, -2.408828e-02, -2.443425e-02, -2.012977e-02, 1.258971e-02, -2.442282e-02, -1.128181e-03, -3.919477e-03, 1.390516e-02, 1.328311e-02, 1.186783e-02, -1.585509e-02, -4.048343e-02 }, { 5.748618e-34, -4.597567e-03, -2.770824e-03, 2.305192e-34, -9.893716e-03, -1.660807e-02, -8.486154e-03, 1.037506e-02, -1.559279e-02, 4.958156e-03, -5.106682e-03, 2.205158e-03, -7.935380e-03, 3.825550e-03, -1.092752e-02, -2.638466e-02 }, { -2.804639e-34, -3.191493e-03, -8.455968e-03, 3.714086e-34, -2.419937e-02, -1.647781e-02, -1.715667e-02, 1.562267e-02, -2.293206e-02, -4.088214e-03, -8.749821e-03, 2.089007e-02, 1.876782e-02, 1.946846e-03, -1.737792e-02, -3.505659e-02 }, { -3.772488e-34, -2.212890e-02, 9.601076e-03, -5.053587e-34, -1.191241e-02, -1.163225e-02, -5.687680e-02, 2.214815e-02, -3.293690e-02, -1.711635e-02, 2.708514e-02, -9.625612e-03, 1.786827e-02, 7.636694e-03, -3.286664e-03, 1.122793e-03 }, { 5.536887e-34, -2.065537e-02, -9.564210e-03, 3.592905e-34, 1.030918e-02, 1.294695e-02, 8.977080e-03, 6.439379e-03, 1.963110e-02, -2.163324e-03, 2.510341e-03, -1.194287e-02, 1.511308e-02, -1.036073e-02, -3.846554e-02, 9.372056e-03 }, { -8.027872e-35, -4.437203e-02, -1.766798e-02, -2.057337e-34, 2.788247e-02, 1.626254e-02, 7.897014e-03, -1.294909e-02, 4.655706e-02, 3.453032e-02, -6.864376e-03, -4.092118e-02, -5.152656e-03, -4.033715e-02, -1.209041e-02, 5.143141e-02 }, { 2.518399e-34, -3.464103e-02, -1.933658e-02, 4.480239e-34, 1.068478e-02, 3.506194e-03, 6.253531e-03, -2.656202e-03, 4.181555e-02, 1.828549e-02, -3.591985e-03, -2.240490e-02, 1.636487e-02, -1.667171e-02, -1.454229e-02, 2.214776e-02 }, { -1.446638e-34, -4.153933e-03, 8.773394e-03, -2.121921e-34, -5.727674e-03, -1.789856e-02, -3.350897e-03, 4.040136e-03, -1.649844e-02, 5.763028e-03, -2.896150e-03, -5.469865e-03, -1.365694e-02, 1.845878e-02, -6.489421e-03, -2.719904e-02 }, { -1.233433e-34, -1.547886e-02, -2.208823e-03, 5.084998e-34, 1.979927e-03, 7.960976e-03, 7.559965e-03, 3.849728e-03, 1.814300e-02, -6.045132e-03, 1.279491e-03, -8.871857e-03, 8.678629e-03, -6.257207e-03, -3.040514e-02, 6.857317e-03 }, { 3.809624e-34, -2.374533e-03, 2.661310e-03, 1.246376e-34, -1.960497e-02, -2.515438e-02, -1.751781e-02, 1.317589e-02, -2.301292e-02, -2.636479e-03, 5.504093e-04, -1.208859e-03, 8.092500e-03, 2.239495e-02, -1.245742e-02, -3.447839e-02 }, { -5.330588e-34, 3.373926e-03, 6.738187e-03, -4.714526e-34, -6.691651e-03, -1.869701e-02, -3.718782e-03, 7.234140e-03, -1.412057e-02, 7.885480e-03, 1.040648e-03, -1.295503e-02, -1.688901e-02, 2.352397e-02, -5.413324e-03, -2.456609e-02 }, { 1.839710e-34, -3.132457e-03, 1.850877e-03, -3.166812e-34, -1.447823e-02, -2.062359e-02, -1.316209e-02, 8.692736e-03, -1.968951e-02, -5.659285e-04, 1.782652e-03, 2.805419e-03, 4.861544e-03, 1.964295e-02, -9.068823e-03, -2.991181e-02 }, { 4.198584e-34, -4.433513e-02, -1.830377e-02, -1.579286e-34, 1.859471e-02, -5.179348e-04, -7.642087e-03, -1.369123e-02, 3.667082e-02, 2.998274e-02, 2.665186e-04, -2.926620e-02, 1.462917e-02, -1.965320e-02, -7.906684e-03, 3.121765e-02 }, { 4.717407e-34, -5.575063e-02, 6.830510e-03, -4.574463e-34, 2.265568e-02, -1.978036e-02, -2.829453e-02, 1.714990e-02, -1.664622e-03, 1.642947e-02, 1.155742e-03, -3.602903e-02, 1.615814e-02, -3.862598e-03, 2.970479e-02, 1.854582e-02 }, { -4.425725e-34, -1.534528e-02, -2.464897e-03, 1.589251e-34, 2.718463e-03, 9.107272e-03, 6.412216e-03, 4.511017e-03, 1.861916e-02, -6.213872e-03, 6.232279e-04, -7.551006e-03, 1.151284e-02, -7.731450e-03, -3.005039e-02, 7.163492e-03 }, { -2.710510e-34, 8.906438e-04, 4.268002e-03, -5.200103e-34, -4.528618e-03, -1.411542e-02, 1.760628e-03, 7.332094e-03, -1.342029e-02, 5.982696e-03, 1.858468e-03, -8.556318e-03, -1.824614e-02, 2.113479e-02, -2.593883e-03, -2.055962e-02 }, { -5.009373e-34, -6.846542e-03, 2.455546e-03, -4.757924e-34, -1.209110e-02, -2.439689e-02, -9.596428e-03, 1.237401e-02, -2.089066e-02, 5.459185e-04, 5.673295e-03, 1.142396e-03, -2.960880e-03, 2.229276e-02, -8.663298e-03, -3.362450e-02 }, { 5.542022e-34, -4.984486e-03, 7.692595e-03, 5.202683e-34, -5.159690e-03, -1.716760e-02, -4.485899e-03, 3.834273e-03, -1.567425e-02, 3.968609e-03, -2.323384e-03, -2.974749e-03, -1.105584e-02, 1.650408e-02, -6.324813e-03, -2.611764e-02 }, { 5.655067e-34, -2.731971e-03, 8.144856e-04, -3.182555e-34, -1.541021e-02, -2.031041e-02, -1.065633e-02, 1.206916e-02, -1.825681e-02, -2.701297e-03, 8.457067e-06, 3.871976e-03, 4.883216e-03, 1.849708e-02, -1.156603e-02, -3.178534e-02 }, { 1.257597e-34, -7.237616e-03, 1.653555e-02, 5.405834e-34, -5.926495e-03, -1.565397e-02, -2.815475e-02, 3.263984e-02, -1.230030e-02, -2.378746e-02, 3.391373e-03, -1.701087e-02, 1.805415e-02, 2.222504e-02, -1.763128e-03, -1.481180e-02 }, { -1.060902e-34, -1.649507e-02, -5.463691e-04, 3.500384e-34, 8.897098e-03, 2.392629e-03, -3.497426e-03, 7.791756e-03, 1.611955e-02, -1.451705e-02, -1.121926e-03, -5.887069e-03, 1.060404e-02, -1.206367e-02, -2.825240e-02, 4.505418e-03 }, { 4.419818e-34, -3.409956e-02, -1.793637e-02, -1.781536e-34, -5.263711e-04, 2.791933e-02, 9.088431e-03, -3.771699e-03, 2.996553e-02, 2.025921e-02, 6.168031e-03, -2.804657e-02, -1.738083e-02, -3.936021e-02, -2.310990e-02, 2.973470e-02 }, { 2.673657e-34, -2.337774e-02, -8.988080e-03, -1.614825e-34, 2.375511e-03, -3.511381e-04, 5.755878e-04, 6.645599e-03, 2.689251e-02, 4.731576e-03, 8.119796e-03, -1.981726e-02, -1.961613e-03, -7.864999e-03, -1.959970e-02, 8.103495e-03 }, { -5.128365e-34, -5.747683e-03, 8.111049e-03, 4.503980e-34, 2.168854e-04, -1.583046e-02, 3.467292e-04, 7.721260e-03, -1.731594e-02, 3.056517e-03, -4.536024e-03, -5.223881e-03, -1.618360e-02, 1.589294e-02, -4.213219e-03, -2.297337e-02 }, { 1.611337e-34, -1.115489e-02, 1.579831e-03, 5.330575e-35, 4.051739e-03, 4.451616e-03, -1.656799e-03, 6.670031e-03, 8.825231e-03, -1.492392e-02, -3.833930e-03, -3.914616e-03, 6.516974e-03, -8.895888e-03, -2.313799e-02, 3.394018e-03 }, { 3.971848e-35, -7.617390e-03, 8.657327e-04, -1.306237e-34, -8.060354e-04, -1.804025e-02, -8.961345e-04, 2.090491e-02, -1.593170e-02, 5.352322e-03, 1.538262e-02, -8.016164e-03, -1.425833e-02, 1.901405e-02, -5.063220e-03, -2.193087e-02 }, { -4.051543e-35, -7.583249e-03, 7.516176e-03, 4.929217e-34, -1.547743e-03, -9.234029e-03, 4.146694e-03, 1.248075e-02, -1.545361e-02, 1.471780e-03, -1.984905e-03, -6.766660e-03, -1.803128e-02, 1.867702e-02, -2.552644e-03, -1.862879e-02 }, { -1.786341e-34, -6.370173e-03, 4.454877e-03, -1.193112e-34, -1.273730e-04, -1.814187e-02, -2.410562e-03, 1.372928e-02, -1.967815e-02, 5.845166e-03, 7.500342e-03, -2.826966e-03, -1.327751e-02, 1.844944e-02, -5.519454e-03, -2.370486e-02 }, { -5.040624e-34, -2.764929e-02, -7.271361e-03, 4.598774e-34, 2.829918e-03, 3.465562e-03, 2.657950e-03, 2.356850e-03, 2.588461e-02, 9.800538e-03, 1.146056e-02, -2.247344e-02, -1.475415e-02, -5.570346e-03, -1.428751e-02, 1.434545e-02 }, { 1.896751e-34, -2.162822e-02, 8.129911e-03, 3.339490e-34, 4.253084e-02, -3.191402e-03, -1.397075e-02, 1.871832e-02, -7.663830e-03, -1.016657e-02, 1.105216e-02, -2.261273e-02, -2.552180e-02, 1.323057e-02, 1.099909e-02, 1.751668e-02 }, { 4.152454e-34, -1.168412e-02, 5.469156e-04, 2.555423e-34, 4.290077e-03, 5.013430e-03, -3.111670e-03, 4.777645e-03, 9.488874e-03, -1.319817e-02, -2.952524e-03, -5.660602e-03, 8.056328e-03, -9.426010e-03, -2.199610e-02, 3.909710e-03 }, { 5.738968e-34, -9.384465e-03, 1.014604e-02, -3.610584e-34, -3.366620e-03, -6.034572e-03, -1.345663e-03, 9.791619e-03, -1.883367e-02, -1.815888e-04, -5.814283e-03, -5.561291e-03, -1.367557e-02, 1.499108e-02, -3.939937e-04, -1.848966e-02 }, { -4.201240e-35, -1.220320e-02, 9.028837e-03, 1.961389e-35, 1.958385e-03, -2.231717e-02, -1.164934e-02, 1.529241e-02, -2.709228e-02, 2.438301e-03, 7.011443e-03, -3.518979e-03, -1.870251e-02, 1.925796e-02, -4.937210e-03, -3.050686e-02 }, { -5.063501e-34, -4.585257e-03, 7.927634e-03, 1.533087e-34, 1.609646e-03, -1.648507e-02, -1.476134e-03, 6.196583e-03, -1.694750e-02, 1.726910e-03, -4.600371e-03, -4.215606e-03, -1.510748e-02, 1.532242e-02, -3.851054e-03, -2.245775e-02 }, { 2.185912e-34, -5.747769e-03, 4.164842e-03, -4.742110e-34, 9.982421e-04, -1.773839e-02, -1.662205e-03, 1.711282e-02, -1.997681e-02, 4.219568e-03, 7.201590e-03, -2.823973e-03, -1.311388e-02, 1.687188e-02, -6.668072e-03, -2.499759e-02 }, { -1.819263e-34, -1.933241e-02, -8.214465e-03, 4.922626e-34, -1.129537e-02, -2.182663e-02, -1.448387e-02, 2.729562e-02, -9.016720e-03, 1.276328e-02, 3.061504e-02, -3.030272e-02, -1.228980e-02, 1.927543e-03, 2.201602e-03, -1.120252e-02 }, { 1.347934e-35, -1.032583e-02, -2.624684e-03, -3.013499e-35, -5.805915e-03, -8.989892e-04, -6.848770e-03, -4.095561e-03, 1.714334e-02, -8.383816e-03, 1.765383e-03, -1.201052e-02, 7.214065e-03, -7.232829e-03, -9.106135e-03, 1.973198e-03 }, { -2.556998e-34, -2.565879e-02, -1.707732e-02, -3.823295e-34, -1.262485e-02, 3.032740e-02, 1.176667e-02, -7.924629e-03, 2.981584e-02, 7.797815e-03, 1.647995e-03, -2.184470e-02, -1.041710e-02, -3.423801e-02, -2.230906e-02, 2.237122e-02 }, { 6.185488e-35, -2.705677e-02, -1.015521e-02, 1.250160e-34, -8.248826e-03, -1.096237e-04, -6.069052e-03, 1.329738e-03, 2.750310e-02, -1.263594e-03, 8.530538e-03, -1.111843e-02, -4.309205e-04, -1.237052e-02, -1.357046e-02, -1.683670e-03 }, { 5.512867e-34, -1.213063e-02, 1.827437e-02, -1.863009e-34, 2.687694e-03, -8.895682e-03, -2.870881e-03, 6.595175e-03, -2.374112e-02, 1.851508e-03, -4.808786e-03, -4.845533e-04, -1.561148e-02, 1.489912e-02, -7.258136e-05, -2.582583e-02 }, { 4.931573e-34, -5.590141e-03, 1.930471e-03, 3.695878e-35, -8.794117e-03, -5.282928e-03, -5.098505e-03, -1.871279e-03, 1.152762e-02, -1.097876e-02, -1.064895e-03, -7.243084e-03, 2.027352e-03, -4.416625e-03, -6.445093e-03, 1.042723e-03 }, { -3.283353e-34, -2.978002e-02, 1.177429e-02, 3.401433e-34, 8.513118e-03, -1.877363e-02, -2.088034e-02, 1.806981e-02, -2.870808e-02, -8.688930e-03, 8.776642e-03, 2.732908e-03, -2.388213e-02, 1.077820e-02, 2.867629e-03, -1.494847e-02 }, { 4.688833e-34, -1.209178e-02, 1.695678e-02, 3.604945e-34, 4.205187e-04, -6.109567e-03, -6.918973e-03, 8.200116e-03, -2.292224e-02, -6.358973e-03, -1.093845e-02, -6.495697e-03, -1.315319e-02, 9.457091e-03, 1.165427e-03, -1.985748e-02 }, { -2.088996e-34, -2.114807e-02, 1.226443e-02, -3.338244e-34, 6.127493e-03, -1.654555e-02, -1.538593e-02, 1.196062e-02, -2.814233e-02, -2.672677e-03, 5.304979e-03, 5.325105e-03, -1.937627e-02, 1.256179e-02, 7.978309e-04, -2.176385e-02 }, { 5.884313e-34, -3.456360e-02, -8.453332e-03, 5.324719e-34, -1.812242e-02, 1.011100e-03, -1.092533e-02, -1.744511e-03, 2.278251e-02, 4.220522e-03, 1.392457e-02, -1.781559e-02, -1.006447e-02, -1.694296e-02, -1.259810e-02, 1.609369e-03 }, { -4.538751e-34, -2.836438e-02, 6.325542e-03, 1.703467e-34, -2.841503e-02, -3.147161e-02, -4.687403e-02, 3.122103e-02, -1.941894e-03, -1.262511e-02, 1.186975e-02, -6.387130e-03, -1.343101e-02, -2.098056e-02, -2.184573e-04, 6.077257e-04 }, { 3.918048e-34, -6.273781e-03, 5.695400e-04, 1.431943e-34, -6.112085e-03, -3.374885e-03, -3.335381e-03, -2.269505e-03, 1.241256e-02, -9.336561e-03, -3.768386e-04, -7.607427e-03, 3.976965e-03, -4.245376e-03, -8.458210e-03, 1.321639e-03 }, { 8.999282e-35, -4.260661e-03, 1.584469e-02, -5.396633e-34, -7.359365e-04, -5.848509e-03, -9.458092e-03, 3.625641e-03, -2.289992e-02, -2.150279e-03, -8.450495e-03, -3.331755e-03, -9.052799e-03, 9.473876e-03, 1.812745e-03, -2.130452e-02 }, { 3.926236e-34, -1.461060e-02, 1.520973e-02, 2.831737e-34, 4.842955e-03, -2.061946e-02, -1.780332e-02, 9.877373e-03, -3.531658e-02, 4.709743e-04, 4.854608e-03, 6.318274e-03, -1.825266e-02, 1.884220e-02, -1.276763e-03, -3.363267e-02 }, { 3.937572e-34, -1.232551e-02, 1.664825e-02, 4.664998e-34, 4.404520e-03, -9.253590e-03, -2.734213e-03, 6.123481e-03, -2.333349e-02, 2.127649e-03, -2.590970e-03, 1.513144e-03, -1.514773e-02, 1.388536e-02, -2.173344e-04, -2.590485e-02 }, { -1.574983e-34, -2.040746e-02, 1.086311e-02, 3.452476e-34, 7.999387e-03, -1.785535e-02, -1.643815e-02, 1.364979e-02, -2.760532e-02, -3.540133e-03, 4.841331e-03, 6.109892e-03, -1.936613e-02, 1.192583e-02, -1.022417e-03, -2.285742e-02 }, { 1.723060e-34, -4.593282e-02, -2.335799e-03, -4.992255e-34, 5.072943e-03, -6.369859e-03, -1.712408e-02, 2.105564e-02, -2.096164e-03, -7.071971e-03, 2.108123e-02, 1.106798e-02, -1.376921e-02, -5.442768e-03, 1.024543e-02, 1.913419e-02 }, { -2.757510e-35, -5.295731e-03, -8.242056e-03, 1.387694e-34, -2.159224e-03, 1.176530e-02, 5.830030e-03, -1.309753e-02, 2.569406e-02, 1.364654e-02, -8.550757e-04, -1.166574e-02, 2.571329e-02, -8.063114e-03, -1.778889e-02, 4.143503e-03 }, { 2.100323e-34, -4.786368e-02, -2.232875e-02, 3.239787e-34, -4.622148e-03, 3.795199e-02, 1.221612e-02, -2.093111e-02, 3.150469e-02, 1.291639e-02, -4.250449e-05, -1.010481e-04, 6.138761e-03, -3.529838e-02, -2.156508e-02, 2.921009e-02 }, { -5.023410e-34, -2.858027e-02, -1.100759e-02, 1.141698e-34, 7.219147e-04, 7.092364e-03, 2.943355e-04, -1.285948e-02, 2.994002e-02, 8.434089e-03, 9.976048e-03, -5.558338e-03, 1.193500e-02, -5.634190e-03, -1.219460e-02, 6.217301e-03 }, { -5.746365e-34, -2.149066e-03, 1.885140e-02, -1.620146e-34, 5.165939e-03, -7.682373e-03, -9.772025e-03, -1.398408e-03, -2.437012e-02, -9.325631e-04, -3.263330e-03, 5.448390e-03, -7.500960e-03, 1.731657e-02, 5.490148e-03, -2.342703e-02 }, { -2.456243e-34, -2.074094e-03, -4.817770e-03, 2.882521e-34, -6.810247e-03, 7.398963e-03, 4.144905e-03, -9.297471e-03, 2.073778e-02, 1.173449e-02, -1.514378e-03, -9.302081e-03, 1.822177e-02, -6.779927e-03, -1.125459e-02, 1.964712e-03 }, { -2.923951e-34, -5.944168e-03, 1.976390e-02, -1.417481e-34, 8.101423e-03, -1.317717e-02, -2.292406e-02, 8.097869e-03, -3.527815e-02, -1.364210e-02, -8.848917e-04, 7.126099e-03, -1.590392e-02, 1.802335e-02, 7.652736e-03, -2.694248e-02 }, { -2.414900e-34, 2.791655e-04, 1.593468e-02, 2.672354e-34, 6.488672e-05, -5.829846e-03, -9.545310e-03, -2.080410e-03, -2.286495e-02, -9.750105e-05, -3.965377e-03, 1.892133e-03, -5.594814e-03, 1.230226e-02, 5.965217e-03, -1.925585e-02 }, { -6.280942e-35, -5.704030e-03, 1.980252e-02, -7.830799e-35, 6.981471e-03, -1.340996e-02, -1.635872e-02, 5.184322e-03, -2.997929e-02, -5.433834e-03, 2.052860e-03, 8.378176e-03, -1.111395e-02, 2.133404e-02, 6.449732e-03, -2.657117e-02 }, { 5.783235e-35, -3.886986e-02, -7.533278e-03, -2.357996e-34, -5.127937e-03, 9.783599e-03, 1.455281e-03, -1.398033e-02, 2.065414e-02, 8.364078e-03, 1.331457e-02, 5.018146e-05, 3.455175e-03, -4.318546e-03, -1.202025e-02, 5.015040e-03 }, { 4.610331e-34, -1.121977e-02, 9.479143e-03, 4.799270e-34, -1.885615e-02, -2.069797e-02, -3.087632e-02, 1.498716e-02, -2.812232e-02, -1.661199e-02, 2.526042e-02, 4.696761e-03, -3.163818e-02, 1.892366e-03, 1.810047e-03, -1.122301e-03 }, { -1.451092e-34, -2.790409e-03, -5.527195e-03, -2.476107e-34, -5.488639e-03, 8.294105e-03, 4.122950e-03, -1.020704e-02, 2.316220e-02, 1.149786e-02, -1.355488e-03, -1.006578e-02, 2.057604e-02, -6.731418e-03, -1.231783e-02, 2.411389e-03 }, { 5.200536e-34, 2.492794e-03, 1.374693e-02, 2.876070e-34, -2.317218e-04, -6.430915e-03, -8.938270e-03, -4.671052e-03, -1.807240e-02, 4.236136e-03, -1.226571e-03, 4.207204e-03, -2.741536e-03, 1.324608e-02, 2.164149e-03, -1.728320e-02 }, { -2.922033e-34, -5.521138e-03, 2.074339e-02, -3.120545e-34, 5.407377e-03, -2.097862e-02, -1.826561e-02, 4.988351e-03, -3.070501e-02, 4.689011e-03, 7.400457e-03, 1.217497e-02, -8.523985e-03, 2.941596e-02, 5.431769e-04, -3.322452e-02 }, { -1.084439e-34, -2.499737e-03, 1.844036e-02, -1.154973e-34, 6.515408e-03, -8.298215e-03, -8.700372e-03, -6.917310e-04, -2.320282e-02, -1.578903e-03, -1.976798e-03, 5.951047e-03, -8.036242e-03, 1.788795e-02, 5.750200e-03, -2.285243e-02 }, { 2.531860e-34, -4.147214e-03, 1.822911e-02, 1.724710e-35, 8.010489e-03, -1.472059e-02, -1.741732e-02, 6.016419e-03, -2.935645e-02, -5.220168e-03, 1.704041e-03, 7.728311e-03, -1.102631e-02, 2.103248e-02, 4.138849e-03, -2.767586e-02 }, { -4.962468e-34, -3.362670e-02, 1.098870e-02, -4.147454e-34, 1.041915e-02, -1.088067e-04, -3.984183e-02, 1.132023e-02, -7.014486e-03, -3.979159e-02, -1.247302e-02, 9.566342e-03, -2.238600e-02, -7.969348e-03, 2.211821e-02, 1.271447e-02 }, { 3.949556e-34, -7.216150e-03, -8.434636e-03, 4.843889e-34, -4.780559e-03, 1.546629e-02, 4.617097e-03, -1.009577e-02, 4.016035e-02, 1.061169e-02, -6.747123e-03, -1.475997e-02, 3.313495e-02, -8.410229e-03, -2.334878e-02, 6.823175e-03 }, { 1.247994e-34, -5.494563e-02, -2.093597e-02, 2.407371e-35, 1.353843e-02, 3.757378e-02, 1.908222e-02, -2.148632e-02, 4.325332e-02, 1.099354e-02, -1.199610e-02, 5.809779e-03, 1.770281e-02, -2.479446e-02, -3.246292e-02, 3.751925e-02 }, { -1.346941e-34, -3.162543e-02, -1.097144e-02, -1.244869e-34, 6.709972e-03, 1.324807e-02, 6.362086e-03, -1.394955e-02, 4.693154e-02, 2.797246e-03, -4.087443e-03, -2.776786e-03, 2.256303e-02, -7.989995e-03, -1.764366e-02, 1.200064e-02 }, { 5.716847e-34, 1.857987e-03, 1.614803e-02, 2.614448e-34, 6.160374e-03, -8.392001e-03, -1.387957e-02, -7.579396e-03, -2.002232e-02, 7.883246e-03, 2.917468e-03, 9.930979e-03, -3.108409e-03, 1.972685e-02, -1.221631e-03, -2.100773e-02 }, { 3.381149e-34, -3.175567e-03, -5.066582e-03, 4.164103e-34, -6.161872e-03, 1.147461e-02, 3.709069e-03, -7.201922e-03, 3.205641e-02, 1.134189e-02, -5.497379e-03, -1.042716e-02, 2.529694e-02, -7.323576e-03, -1.837373e-02, 2.763110e-03 }, { -1.994474e-34, -6.465759e-03, 1.536767e-02, 2.814247e-34, 1.656626e-03, -2.167832e-02, -2.147603e-02, 3.375454e-03, -2.592724e-02, 8.164002e-03, 1.352843e-02, 1.390118e-02, -4.972211e-03, 1.940997e-02, -7.106035e-03, -2.876305e-02 }, { -1.845960e-34, 4.215427e-03, 1.166098e-02, 1.169487e-34, 3.588123e-03, -7.610084e-03, -1.170022e-02, -7.073677e-03, -1.472604e-02, 6.960962e-03, 3.951961e-03, 7.696833e-03, -1.524549e-03, 1.206661e-02, -1.838203e-03, -1.542866e-02 }, { 2.178951e-34, -2.585109e-03, 1.517991e-02, -1.893031e-34, 4.709766e-03, -1.771122e-02, -1.711275e-02, 5.144068e-04, -2.251830e-02, 8.934936e-03, 1.126380e-02, 1.372948e-02, -3.713430e-03, 2.220404e-02, -4.896512e-03, -2.613974e-02 }, { 2.828654e-34, -4.421393e-02, -9.608583e-03, -3.628215e-34, 1.043650e-02, 1.141111e-02, 4.951947e-03, -1.761902e-02, 4.212875e-02, 6.384090e-03, 2.823624e-04, 8.166912e-03, 1.362957e-02, -2.403080e-03, -1.801122e-02, 1.189447e-02 }, { -6.946290e-35, -2.473187e-02, 7.508621e-03, 1.713449e-34, 3.144911e-03, -6.699083e-03, -4.068706e-03, 5.962758e-03, -6.232758e-03, -1.866705e-02, 8.215284e-03, 2.848700e-02, -1.824489e-02, 3.808534e-03, 2.479599e-03, 7.793059e-03 }, { 2.356129e-34, -3.394794e-03, -6.227190e-03, -2.221302e-34, -4.549976e-03, 1.220740e-02, 4.972603e-03, -7.780356e-03, 3.148466e-02, 1.208617e-02, -4.410243e-03, -1.146954e-02, 2.612756e-02, -7.322757e-03, -1.858426e-02, 3.445371e-03 }, { 3.124221e-34, 1.131393e-03, 9.549955e-03, 4.930489e-34, 3.547943e-03, -5.262476e-03, -1.072616e-02, -8.719325e-03, -1.373742e-02, 7.841870e-03, 2.366684e-03, 7.664783e-03, 4.026849e-05, 9.893773e-03, -1.612488e-03, -1.201828e-02 }, { -2.479639e-34, -1.585767e-03, 1.671634e-02, 1.604072e-34, 7.648402e-03, -1.984661e-02, -1.549783e-02, 4.366098e-04, -2.082303e-02, 1.099676e-02, 1.304791e-02, 1.600683e-02, -2.799259e-03, 3.152300e-02, -6.770721e-03, -2.914241e-02 }, { -7.573536e-35, 5.547963e-04, 1.581209e-02, -3.523083e-34, 6.577575e-03, -7.883038e-03, -1.319752e-02, -7.462882e-03, -2.037739e-02, 7.875700e-03, 3.077778e-03, 9.714065e-03, -3.005625e-03, 1.917963e-02, -5.297901e-04, -2.100617e-02 }, { 1.975189e-34, -1.827218e-03, 1.341265e-02, 2.397903e-34, 4.077855e-03, -1.901594e-02, -1.685701e-02, 1.988122e-03, -1.973811e-02, 8.177775e-03, 1.088909e-02, 1.332422e-02, -2.942741e-03, 2.160659e-02, -7.873652e-03, -2.680814e-02 }, { 2.088096e-34, 